{
  "version": 2,
  "kind": "mlp",
  "featureNames": [
    "rank_balance_0",
    "rank_balance_1",
    "rank_balance_2",
    "rank_balance_3",
    "rank_balance_4",
    "rank_balance_5",
    "rank_balance_6",
    "rank_balance_7",
    "rank_balance_8",
    "rank_balance_9",
    "rank_balance_10",
    "rank_balance_11",
    "material_value_diff",
    "movable_piece_diff",
    "scout_diff",
    "miner_diff",
    "bomb_diff",
    "high_rank_diff",
    "revealed_ratio_diff",
    "hidden_high_rank_diff",
    "advancement_diff",
    "frontline_diff",
    "center_control_diff",
    "flag_guard_diff",
    "flag_pressure_diff",
    "turn_advantage",
    "game_phase"
  ],
  "layers": [
    {
      "inputSize": 27,
      "outputSize": 64,
      "weights": [
        -0.1802479326725006,
        -0.13903623819351196,
        0.19982430338859558,
        0.062107499688863754,
        0.1017019972205162,
        -0.10550820827484131,
        -0.06956656277179718,
        -0.021145086735486984,
        -0.04707127809524536,
        -0.13253729045391083,
        0.038663819432258606,
        0.033192746341228485,
        -0.011808634735643864,
        0.03621785715222359,
        -0.06666243821382523,
        0.03863191604614258,
        0.08664591610431671,
        -0.10804091393947601,
        -0.16732650995254517,
        0.10667165368795395,
        0.02915770933032036,
        -0.07903634756803513,
        0.2282390147447586,
        -0.07212220132350922,
        0.18525776267051697,
        0.0996498316526413,
        -0.15312038362026215,
        0.12411804497241974,
        -0.16080713272094727,
        -0.11519398540258408,
        -0.020627733319997787,
        -0.15096525847911835,
        0.17958025634288788,
        -0.05387304723262787,
        0.06750952452421188,
        -0.16071127355098724,
        0.11111432313919067,
        -0.08214453607797623,
        -0.1551196277141571,
        0.016708482056856155,
        0.08509237319231033,
        0.15797007083892822,
        -0.1060897707939148,
        -0.10343404114246368,
        0.043706394731998444,
        0.030309442430734634,
        0.06717143207788467,
        0.12271928042173386,
        -0.06023310124874115,
        0.06774209439754486,
        0.12758733332157135,
        -0.10126706212759018,
        0.1312185376882553,
        0.08730986714363098,
        0.1697501689195633,
        -0.12209047377109528,
        -0.08500595390796661,
        -0.06499442458152771,
        0.03259166702628136,
        0.1254415363073349,
        -0.09198964387178421,
        0.10323280841112137,
        -0.07828652113676071,
        0.11358797550201416,
        0.01257373858243227,
        -0.15884047746658325,
        -0.09172043949365616,
        -0.12851928174495697,
        0.10547417402267456,
        -0.13839615881443024,
        -0.0062729069031775,
        0.03613036870956421,
        -0.08240336924791336,
        0.061515145003795624,
        -0.20491328835487366,
        -0.12010715156793594,
        -0.13447925448417664,
        -0.04414376616477966,
        -0.018255343660712242,
        0.03172009065747261,
        -0.027056308463215828,
        0.09046682715415955,
        0.19066229462623596,
        0.06885361671447754,
        -0.054376378655433655,
        -0.19891425967216492,
        0.06437160819768906,
        -0.0986013114452362,
        0.08488452434539795,
        0.14178723096847534,
        0.0652884840965271,
        0.15727317333221436,
        0.1661352664232254,
        0.03651173412799835,
        -0.1397169828414917,
        0.1717466115951538,
        -0.06987404078245163,
        -0.10755570977926254,
        0.16407030820846558,
        0.1346113085746765,
        0.04581990838050842,
        0.03096689097583294,
        -0.17353366315364838,
        -0.058016337454319,
        0.17142605781555176,
        0.0018902185838669538,
        0.014850850217044353,
        -0.03526834025979042,
        -0.0671226978302002,
        0.13159681856632233,
        0.0031343181617558002,
        0.13681718707084656,
        -0.05612963065505028,
        0.07322466373443604,
        0.06488054990768433,
        0.019781939685344696,
        0.1317722499370575,
        0.12040445953607559,
        0.15883459150791168,
        0.13928087055683136,
        -0.06037168577313423,
        -0.17093923687934875,
        0.026449255645275116,
        0.009935366921126842,
        -0.05886457860469818,
        -0.024800818413496017,
        -0.014418383128941059,
        0.13576146960258484,
        0.07910006493330002,
        -0.08305826038122177,
        -0.12386033684015274,
        -0.06186941638588905,
        -0.1279575377702713,
        0.16448691487312317,
        0.09402000159025192,
        0.1737767606973648,
        -0.004671607632189989,
        0.04902441054582596,
        0.06863079220056534,
        -0.1603071540594101,
        0.03255432844161987,
        0.009731638245284557,
        -0.10598282516002655,
        -0.1574413925409317,
        0.1642683744430542,
        0.17334410548210144,
        0.09273863583803177,
        0.20493292808532715,
        -0.06310591846704483,
        -0.023027049377560616,
        0.07476107031106949,
        -0.02825307846069336,
        -0.04538675770163536,
        -0.1338380128145218,
        0.04759083688259125,
        -0.12598061561584473,
        0.023572338744997978,
        0.22284363210201263,
        -0.04868396744132042,
        -0.018356388434767723,
        0.12044544517993927,
        -0.054074134677648544,
        -0.016526993364095688,
        0.16601388156414032,
        -0.069326251745224,
        -0.1475965678691864,
        -0.08461533486843109,
        -0.042448945343494415,
        -0.07503120601177216,
        -0.09348095953464508,
        0.06732174009084702,
        0.02966277301311493,
        -0.03874215483665466,
        -0.13825562596321106,
        -0.04727989062666893,
        -0.07112623751163483,
        -0.05305366963148117,
        -0.18352945148944855,
        0.05271903797984123,
        -0.147853285074234,
        -0.12733282148838043,
        -0.15172521770000458,
        0.06404171884059906,
        -0.09827445447444916,
        -0.03956902399659157,
        0.1649414747953415,
        0.15466314554214478,
        0.1137876957654953,
        -0.17447581887245178,
        -0.13800492882728577,
        -0.08858238905668259,
        0.1662793606519699,
        0.005645934492349625,
        -0.11975330859422684,
        0.008723527193069458,
        -0.13865944743156433,
        -0.033082280308008194,
        -0.06517869234085083,
        0.168855220079422,
        0.0847753956913948,
        -0.014646507799625397,
        0.04182709753513336,
        -0.049417827278375626,
        0.08291099965572357,
        0.06208416447043419,
        0.07059229910373688,
        -0.0786014050245285,
        0.18602676689624786,
        -0.020140115171670914,
        -0.0964726060628891,
        0.13804790377616882,
        0.20111413300037384,
        0.20536351203918457,
        0.11384788900613785,
        -0.06344639509916306,
        0.1002994105219841,
        0.1651124507188797,
        -0.18749825656414032,
        -0.03113945759832859,
        -0.11493463814258575,
        0.012086398899555206,
        0.07762116193771362,
        -0.053186822682619095,
        -0.017128758132457733,
        0.08799967914819717,
        -0.03697439283132553,
        -0.17851729691028595,
        0.12792624533176422,
        -0.10391324013471603,
        -0.025564733892679214,
        0.010855402797460556,
        0.0047430978156626225,
        -0.20709256827831268,
        0.08435133099555969,
        -0.10822415351867676,
        -0.09959916025400162,
        0.061764903366565704,
        -0.11659859865903854,
        -0.133501335978508,
        -0.07257425040006638,
        -0.12749697268009186,
        -0.07009325921535492,
        -0.056856419891119,
        0.05001261830329895,
        -0.1699300855398178,
        -0.1065351739525795,
        -0.00807728711515665,
        0.05114942044019699,
        0.11535444110631943,
        -0.12077188491821289,
        0.06583834439516068,
        0.09870440512895584,
        0.10598990321159363,
        -0.15600676834583282,
        -0.06002860888838768,
        -0.15137040615081787,
        -0.11245747655630112,
        0.1171405017375946,
        -0.03962164372205734,
        0.09514588862657547,
        -0.11693902313709259,
        0.052581239491701126,
        -0.10910366475582123,
        0.08224621415138245,
        -0.06688357889652252,
        -0.0018787980079650879,
        -0.15269829332828522,
        0.05438902601599693,
        0.18507103621959686,
        0.09962431341409683,
        -0.10267902165651321,
        0.01775415800511837,
        -0.031106723472476006,
        -0.14872944355010986,
        0.12857386469841003,
        -0.00876455008983612,
        0.02386847324669361,
        -0.08476638048887253,
        -0.08011927455663681,
        0.035938363522291183,
        0.051686737686395645,
        0.03689347207546234,
        -0.1059918999671936,
        0.17646180093288422,
        -0.03833436593413353,
        -0.11165204644203186,
        -0.0962831974029541,
        0.19658970832824707,
        -0.022858526557683945,
        -0.02959938533604145,
        -0.06555815786123276,
        -0.06520555913448334,
        -0.2027793526649475,
        -0.16489744186401367,
        0.06314902752637863,
        0.15780285000801086,
        0.1729472428560257,
        -0.1389368772506714,
        0.09079619497060776,
        -0.1118381917476654,
        0.10151496529579163,
        0.16187864542007446,
        0.15826040506362915,
        0.15055468678474426,
        0.12935006618499756,
        -0.006214997731149197,
        0.08899491280317307,
        -0.04653029888868332,
        0.1012086570262909,
        -0.051119957119226456,
        0.0036839928943663836,
        -0.16022250056266785,
        -0.06361252814531326,
        -0.08379369974136353,
        -0.06899090856313705,
        -0.10345540940761566,
        -0.16760021448135376,
        -0.005216911435127258,
        0.14407280087471008,
        0.21749350428581238,
        0.1263972818851471,
        -0.04470406845211983,
        -0.18705545365810394,
        0.07746093720197678,
        0.10783149302005768,
        -0.16642595827579498,
        0.050337668508291245,
        0.14226457476615906,
        0.004201748874038458,
        -0.1322689652442932,
        0.14948594570159912,
        0.07471771538257599,
        0.13660062849521637,
        -0.11601857095956802,
        0.10575902462005615,
        -0.11996006965637207,
        0.1700349748134613,
        -0.10337204486131668,
        0.09729135036468506,
        0.01808968558907509,
        0.062497399747371674,
        -0.01957077533006668,
        0.06656306982040405,
        -0.07587379962205887,
        -0.19678136706352234,
        -0.08801855146884918,
        0.14486241340637207,
        -0.05564284324645996,
        0.05404897406697273,
        -0.0678890272974968,
        0.127668097615242,
        0.11517851054668427,
        0.059559911489486694,
        -0.11671794205904007,
        -0.1702858805656433,
        0.00810012873262167,
        -0.120273657143116,
        0.16041481494903564,
        -0.18331663310527802,
        0.08431480079889297,
        0.19830435514450073,
        0.09541583061218262,
        0.06432145833969116,
        -0.19692060351371765,
        0.16773362457752228,
        -0.05126360431313515,
        -0.19285596907138824,
        0.18867884576320648,
        -0.08296824246644974,
        -0.025039080530405045,
        0.1703956425189972,
        -0.15242938697338104,
        -0.14570830762386322,
        0.0180427934974432,
        -0.02861340530216694,
        0.03903641924262047,
        -0.14573021233081818,
        0.0012580850161612034,
        -0.0855935588479042,
        -0.11335933208465576,
        -0.17351080477237701,
        0.0825951024889946,
        0.041916828602552414,
        -0.16255052387714386,
        0.1510906219482422,
        0.07596355676651001,
        0.019902998581528664,
        -0.10369399935007095,
        0.04736548289656639,
        0.20312729477882385,
        0.12910397350788116,
        -0.15360110998153687,
        0.17837414145469666,
        -0.004527901764959097,
        0.11025642603635788,
        0.1443541795015335,
        0.1771768182516098,
        -0.13650354743003845,
        0.1519056260585785,
        -0.12011513859033585,
        0.04850711300969124,
        -0.11848873645067215,
        0.004194511100649834,
        0.0014672079123556614,
        -0.024681324139237404,
        -0.030402235686779022,
        0.03002590872347355,
        0.18077105283737183,
        0.12391339242458344,
        0.08507300913333893,
        0.06678382307291031,
        0.13377569615840912,
        -0.01869245246052742,
        0.026116402819752693,
        0.039355918765068054,
        -0.18969038128852844,
        -0.167411670088768,
        0.011310730129480362,
        -0.08404494822025299,
        -0.012595591135323048,
        -0.03206038475036621,
        0.017573894932866096,
        0.13153241574764252,
        -0.08734336495399475,
        0.14823757112026215,
        0.16988185048103333,
        -0.16501644253730774,
        -0.19093409180641174,
        -0.17071664333343506,
        -0.15989111363887787,
        -0.07921025902032852,
        -0.02325778268277645,
        -0.046802110970020294,
        -0.11270580440759659,
        -0.05240381509065628,
        -0.07875028252601624,
        0.21177421510219574,
        -0.05936436727643013,
        -0.12219855189323425,
        0.08894497156143188,
        -0.02171221189200878,
        0.14514942467212677,
        0.14086586236953735,
        0.18594057857990265,
        -0.12783387303352356,
        0.13334068655967712,
        0.17024648189544678,
        -0.10417017340660095,
        0.186027392745018,
        0.13656865060329437,
        0.025090521201491356,
        0.09640806913375854,
        -0.08290855586528778,
        -0.15046580135822296,
        0.08895252645015717,
        0.07118480652570724,
        -0.07333825528621674,
        0.09796701371669769,
        -0.15388301014900208,
        0.16562621295452118,
        0.1995275318622589,
        0.0430324450135231,
        -0.10761190205812454,
        0.06917574256658554,
        0.02462860941886902,
        0.03883177787065506,
        0.05478319898247719,
        0.15956425666809082,
        -0.084482342004776,
        -0.06709115207195282,
        0.03552655503153801,
        0.009368072263896465,
        0.14675049483776093,
        -0.11044466495513916,
        0.006127478089183569,
        0.0190043393522501,
        -0.04484960064291954,
        0.10791315883398056,
        0.013803301379084587,
        -0.160187765955925,
        -0.039704762399196625,
        -0.1305016279220581,
        0.0035830677952617407,
        -0.07786189019680023,
        -0.19131764769554138,
        -0.042391449213027954,
        -0.0184326134622097,
        -0.07185463607311249,
        0.18497951328754425,
        -0.05700024962425232,
        0.1481625884771347,
        0.057062286883592606,
        -0.15006454288959503,
        0.05545782670378685,
        0.14962796866893768,
        -0.12379949539899826,
        -0.10466177016496658,
        0.2060113549232483,
        0.1645260453224182,
        -0.10055883973836899,
        0.12396618723869324,
        -0.03962850943207741,
        -0.17210739850997925,
        0.008863719180226326,
        0.08543021231889725,
        -0.05132665857672691,
        0.04589664936065674,
        -0.14729206264019012,
        0.17920787632465363,
        0.18013010919094086,
        0.16376635432243347,
        0.03716195747256279,
        0.07058025151491165,
        -0.139245867729187,
        -0.060123566538095474,
        -0.008266691118478775,
        -0.11793293803930283,
        -0.11898329108953476,
        0.13933804631233215,
        0.14683547616004944,
        -0.16826558113098145,
        0.05259604752063751,
        0.0764620378613472,
        0.2045394331216812,
        0.12507539987564087,
        0.19008730351924896,
        -0.053032342344522476,
        0.14489439129829407,
        0.1457001119852066,
        -0.16800130903720856,
        -0.15868277847766876,
        0.06281329691410065,
        0.1110507994890213,
        -0.11250760406255722,
        0.03936661407351494,
        0.04241766035556793,
        0.06348904222249985,
        -0.04884113743901253,
        0.11183773726224899,
        0.13585877418518066,
        -0.1335321068763733,
        0.0015515965642407537,
        0.0024569632951170206,
        0.043332602828741074,
        0.1934913992881775,
        0.057538047432899475,
        -0.037989940494298935,
        0.17328721284866333,
        -0.07377029210329056,
        -0.0500686839222908,
        0.03028806671500206,
        -0.12197279185056686,
        0.02509152889251709,
        -0.12962126731872559,
        0.0217107106000185,
        -2.763909287750721e-05,
        0.051217470318078995,
        -0.15371015667915344,
        -0.1667322963476181,
        0.09875427931547165,
        0.14884763956069946,
        -0.1589302122592926,
        0.11014406383037567,
        -0.134014293551445,
        0.05779619514942169,
        0.17221909761428833,
        0.14318108558654785,
        -0.14070692658424377,
        0.12868830561637878,
        0.0987754836678505,
        0.02300846390426159,
        0.1690698117017746,
        -0.07899709790945053,
        -0.04741060733795166,
        -0.10790679603815079,
        0.031429219990968704,
        0.04056531563401222,
        -0.0028935889713466167,
        -0.13546451926231384,
        -0.09011299908161163,
        0.06571011245250702,
        -0.17048786580562592,
        -0.006667240057140589,
        -0.031448859721422195,
        -0.08356223255395889,
        0.05266781151294708,
        0.0013023142237216234,
        0.15297383069992065,
        -0.03058915212750435,
        -0.1682201623916626,
        0.12334148585796356,
        -0.024655666202306747,
        -0.04923940822482109,
        -0.12577927112579346,
        0.045107923448085785,
        -0.1987239271402359,
        0.06030850484967232,
        0.08420440554618835,
        -0.14539483189582825,
        -0.11559788137674332,
        -0.12308326363563538,
        0.17078261077404022,
        0.15341785550117493,
        0.011119081638753414,
        0.20287473499774933,
        -0.05309082195162773,
        -0.17446006834506989,
        0.07646438479423523,
        0.0778004601597786,
        0.17772237956523895,
        0.01118981558829546,
        0.1413417011499405,
        0.14144675433635712,
        0.1457284688949585,
        -0.20850685238838196,
        0.17554304003715515,
        -0.12222062051296234,
        0.1875208467245102,
        0.045577723532915115,
        -0.16566692292690277,
        0.06113404035568237,
        -0.03917234390974045,
        -0.16180595755577087,
        -0.0739508792757988,
        0.034082140773534775,
        0.1284204125404358,
        -0.06593121588230133,
        0.10255082696676254,
        0.014343003742396832,
        0.01824040897190571,
        0.03472568094730377,
        -0.15150322020053864,
        -0.17769889533519745,
        -0.07063715904951096,
        -0.18593192100524902,
        -0.09392919391393661,
        0.023093458265066147,
        -0.14448416233062744,
        -0.07669204473495483,
        -0.056056443601846695,
        -0.031108256429433823,
        -0.08436557650566101,
        -0.0068407743237912655,
        -0.06845686584711075,
        0.04172591120004654,
        -0.045062340795993805,
        -0.09681291878223419,
        -0.06856656819581985,
        -0.0022181118838489056,
        -0.10779370367527008,
        0.00496774772182107,
        -0.0034295273944735527,
        0.051977939903736115,
        0.03481157869100571,
        0.1284354329109192,
        -0.013200394809246063,
        -0.1328217089176178,
        0.0894116461277008,
        -0.15196913480758667,
        -0.03890760615468025,
        -0.07573333382606506,
        -0.08332539349794388,
        -0.08130111545324326,
        0.18700385093688965,
        0.09771326929330826,
        0.058694761246442795,
        0.15781481564044952,
        -0.18091842532157898,
        0.04747170954942703,
        0.10578756779432297,
        0.08735823631286621,
        -0.16739995777606964,
        0.015728838741779327,
        -0.11260277032852173,
        -0.015594628639519215,
        -0.04015836864709854,
        -0.14843299984931946,
        -0.1932137906551361,
        -0.11477165669202805,
        0.06470869481563568,
        0.07937625050544739,
        -0.18377980589866638,
        -0.08049286156892776,
        0.013272374868392944,
        -0.16570445895195007,
        0.0852399617433548,
        0.16048306226730347,
        0.021121669560670853,
        -0.15251748263835907,
        0.03524172306060791,
        0.08170142024755478,
        0.1385650336742401,
        -0.0972072184085846,
        -0.19556407630443573,
        0.07735779136419296,
        0.030375024303793907,
        -0.08037359267473221,
        -0.12227460741996765,
        -0.11389864236116409,
        0.10209143161773682,
        -0.036699190735816956,
        0.13195861876010895,
        0.1717895120382309,
        0.007307681255042553,
        0.04876428470015526,
        -0.026067111641168594,
        0.15021800994873047,
        -0.16887636482715607,
        0.08837033808231354,
        -0.02198784425854683,
        0.07442174106836319,
        -0.001059805741533637,
        -0.04916561394929886,
        -0.017396166920661926,
        0.1111816018819809,
        -0.1283816546201706,
        -0.11387708783149719,
        -0.05606825277209282,
        -0.06642727553844452,
        0.06616340577602386,
        0.1486869901418686,
        -0.009158318862318993,
        0.16684992611408234,
        -0.06598811596632004,
        -0.0729253888130188,
        -0.07106625288724899,
        -0.08722544461488724,
        -0.12512509524822235,
        -0.16725343465805054,
        -0.17056353390216827,
        0.06420522183179855,
        0.10829035192728043,
        0.19102418422698975,
        0.14098003506660461,
        -0.021314000710844994,
        0.020684538409113884,
        -0.12375573813915253,
        0.0842132717370987,
        -0.18256649374961853,
        0.06931625306606293,
        0.02488408051431179,
        0.04562201350927353,
        0.06052767112851143,
        -0.09742896258831024,
        0.17548580467700958,
        0.08143259584903717,
        0.13248711824417114,
        0.0024965819902718067,
        0.11513598263263702,
        0.14851051568984985,
        0.07037772983312607,
        0.10637295246124268,
        -0.04868624731898308,
        0.0743199810385704,
        0.039778437465429306,
        0.10751990228891373,
        0.18744511902332306,
        0.0310027115046978,
        -0.06666553765535355,
        -0.01719907484948635,
        0.0762706771492958,
        0.04736875742673874,
        -0.03410029411315918,
        0.1576986312866211,
        0.10553152859210968,
        -0.1274760216474533,
        -0.002270940225571394,
        -0.01845303550362587,
        -0.10704469680786133,
        0.03891727328300476,
        -0.054315220564603806,
        -0.09740501642227173,
        -0.061860520392656326,
        -0.07895788550376892,
        0.20152877271175385,
        0.0702374130487442,
        0.17649796605110168,
        0.06456964462995529,
        0.07027591019868851,
        0.0884966105222702,
        0.06814448535442352,
        -0.1408563107252121,
        -0.10236269235610962,
        -0.046626292169094086,
        0.016991671174764633,
        0.06360147893428802,
        0.08553504198789597,
        0.12928077578544617,
        0.02950862981379032,
        -0.08092205971479416,
        -0.15272487699985504,
        -0.13058272004127502,
        -0.1142532229423523,
        0.0349995493888855,
        0.09127010405063629,
        0.15592943131923676,
        -0.06973249465227127,
        -0.024077609181404114,
        -0.04571719467639923,
        -0.013407537713646889,
        0.06676958501338959,
        -0.02730904147028923,
        0.002442518714815378,
        0.04191374033689499,
        0.05412764102220535,
        -0.1004108116030693,
        -0.1287255734205246,
        -0.008832763880491257,
        -0.025987349450588226,
        -0.09332121908664703,
        0.08082142472267151,
        -0.012151860632002354,
        -0.0179834496229887,
        -0.10402648150920868,
        -0.0020669822115451097,
        -0.15300191938877106,
        0.05931495130062103,
        0.009425201453268528,
        0.10665490478277206,
        0.010952434502542019,
        0.036624230444431305,
        0.06459072232246399,
        0.15918336808681488,
        -0.08130238205194473,
        0.12490382790565491,
        0.036200281232595444,
        -0.11622045934200287,
        0.06091030314564705,
        -0.0915333554148674,
        -0.054670266807079315,
        -0.10812308639287949,
        -0.11429676413536072,
        0.19582585990428925,
        -0.1575506627559662,
        0.14990484714508057,
        -0.16800232231616974,
        -0.014718391932547092,
        0.011478079482913017,
        0.15028168261051178,
        -0.07956068217754364,
        0.06264548003673553,
        0.0071504442021250725,
        0.102128766477108,
        -0.005736126564443111,
        0.06563851237297058,
        -0.10677339136600494,
        -0.12894487380981445,
        0.15059621632099152,
        -0.14805494248867035,
        -0.04657060652971268,
        -0.034148961305618286,
        0.1782773733139038,
        -0.03433724120259285,
        -0.15433602035045624,
        -0.04245290905237198,
        0.07699010521173477,
        0.07051848620176315,
        0.17459121346473694,
        -0.0555209219455719,
        0.052471574395895004,
        -0.1935681849718094,
        0.024348612874746323,
        0.08264175802469254,
        0.11571012437343597,
        -0.11035802215337753,
        -0.05632783845067024,
        0.05862685292959213,
        -0.1345221996307373,
        -0.13047833740711212,
        -0.17073024809360504,
        0.03174782544374466,
        0.12018322944641113,
        0.04449247941374779,
        0.0009020428988151252,
        0.08660206198692322,
        -0.1152033731341362,
        0.039781637489795685,
        -0.031501322984695435,
        -0.08322200924158096,
        0.16819748282432556,
        -0.14315643906593323,
        0.02557201497256756,
        -0.15142394602298737,
        -0.004788577556610107,
        -0.0918244943022728,
        0.08063343167304993,
        -0.07712242007255554,
        0.13398362696170807,
        -0.11548858135938644,
        0.11340942978858948,
        -0.1356421560049057,
        0.10307247936725616,
        -0.07119421660900116,
        -0.00014929292956367135,
        -0.015304846689105034,
        0.1206149160861969,
        0.06689012795686722,
        -0.1694820672273636,
        0.007736025378108025,
        -0.12604807317256927,
        0.12302781641483307,
        0.015923913568258286,
        -0.05946702882647514,
        -0.09051015973091125,
        0.07512307912111282,
        -0.11495784670114517,
        0.11108886450529099,
        0.09504128247499466,
        0.11155585944652557,
        0.040481340140104294,
        -0.18848438560962677,
        0.15609800815582275,
        -0.0658285841345787,
        -0.08982043713331223,
        -0.026397110894322395,
        0.1024986281991005,
        0.14163649082183838,
        0.044627733528614044,
        0.09182742238044739,
        -0.19502180814743042,
        0.011636607348918915,
        -0.18362073600292206,
        0.08855344355106354,
        -0.12618811428546906,
        -0.053290657699108124,
        0.143260195851326,
        0.17425769567489624,
        -0.11592745035886765,
        -0.08755990117788315,
        0.03675283119082451,
        0.08830775320529938,
        -0.021589256823062897,
        -0.04891776666045189,
        -0.13977289199829102,
        0.09507061541080475,
        0.1822100728750229,
        -0.06849291175603867,
        0.0966053381562233,
        0.07615876942873001,
        0.17195136845111847,
        0.021150225773453712,
        0.02334221452474594,
        0.19584524631500244,
        0.12584173679351807,
        0.199146568775177,
        -0.05514994263648987,
        0.06221461668610573,
        0.14370858669281006,
        -0.14165064692497253,
        0.0610538087785244,
        -0.03255622461438179,
        0.1398414969444275,
        -0.07887618988752365,
        0.003339851973578334,
        0.11404045671224594,
        -0.15475605428218842,
        -0.1509380042552948,
        -0.08602458238601685,
        0.13265104591846466,
        0.1383684277534485,
        -0.14245009422302246,
        0.04825617000460625,
        -0.10811855643987656,
        -0.06576154381036758,
        0.17144423723220825,
        0.07543797791004181,
        -0.03613794967532158,
        0.07072324305772781,
        0.05097449943423271,
        0.09943437576293945,
        -0.06059979647397995,
        -0.1044267788529396,
        0.12741325795650482,
        0.010103628039360046,
        0.08918065577745438,
        -0.08531104773283005,
        0.11476914584636688,
        0.14775784313678741,
        0.1317513883113861,
        0.06146955117583275,
        0.1782689392566681,
        -2.6384586817584932e-05,
        0.06354580074548721,
        0.19280019402503967,
        0.19787092506885529,
        -0.07366177439689636,
        0.18198995292186737,
        0.058600157499313354,
        -0.011593520641326904,
        0.1619095355272293,
        -0.07818076014518738,
        0.13316160440444946,
        0.1726677566766739,
        -0.11589223891496658,
        -0.07313252240419388,
        -0.17572148144245148,
        0.017742116004228592,
        -0.1693861335515976,
        -0.0590219609439373,
        0.05842643976211548,
        0.12159835547208786,
        0.11647529900074005,
        0.09710157662630081,
        0.10162719339132309,
        -0.10972755402326584,
        -0.13666099309921265,
        0.01563919335603714,
        0.17235270142555237,
        0.00941397249698639,
        0.00503348046913743,
        -0.12079227715730667,
        -0.08301927894353867,
        -0.1392512321472168,
        0.1633625328540802,
        -0.04107839986681938,
        -0.16018128395080566,
        0.01451839692890644,
        0.03645443916320801,
        -0.01798122376203537,
        0.05286172404885292,
        0.11979582905769348,
        -0.14146870374679565,
        -0.1339883953332901,
        0.04232054948806763,
        -0.1733652502298355,
        -0.16657325625419617,
        0.16991521418094635,
        -0.028462059795856476,
        -0.08720267564058304,
        -0.07731229811906815,
        -0.12758927047252655,
        0.15996281802654266,
        -0.027663767337799072,
        -0.09978992491960526,
        -0.15579427778720856,
        0.112289197742939,
        -0.003407249227166176,
        -0.006253212224692106,
        -0.038206107914447784,
        -0.08467353880405426,
        0.042177047580480576,
        0.1367652416229248,
        -0.09757435321807861,
        0.005323153454810381,
        -0.12379299104213715,
        -0.08476560562849045,
        0.15137265622615814,
        0.020473865792155266,
        0.2272977977991104,
        -0.020231381058692932,
        -0.05034567788243294,
        -0.11158450692892075,
        0.17657877504825592,
        -0.1479906141757965,
        0.09199967980384827,
        0.05757264792919159,
        0.046613648533821106,
        0.13182544708251953,
        -0.04000537469983101,
        0.13765256106853485,
        -0.14772562682628632,
        -0.07494144886732101,
        0.13960009813308716,
        0.07718594372272491,
        -0.012786542996764183,
        -0.03073103539645672,
        -0.10709653794765472,
        0.12675979733467102,
        -0.016299167647957802,
        0.006331037264317274,
        0.04228097200393677,
        0.166318878531456,
        -0.09378441423177719,
        -0.0837092325091362,
        0.14846833050251007,
        0.15117798745632172,
        -0.08005008846521378,
        -0.1364586353302002,
        0.040469780564308167,
        0.11065673828125,
        0.045967839658260345,
        0.14991214871406555,
        -0.16188153624534607,
        0.10858682543039322,
        -0.14091433584690094,
        0.10117281973361969,
        0.12683944404125214,
        0.054748017340898514,
        0.16398052871227264,
        -0.12375860661268234,
        -0.19334366917610168,
        -0.19185088574886322,
        0.10955602675676346,
        0.059164777398109436,
        -0.15010219812393188,
        0.10473691672086716,
        0.16878262162208557,
        -0.1851184368133545,
        0.11851617693901062,
        0.021403884515166283,
        0.03393477573990822,
        0.15716618299484253,
        0.1353674829006195,
        0.06611011177301407,
        0.10292395204305649,
        0.07332782447338104,
        0.025060053914785385,
        -0.169164776802063,
        0.02398795820772648,
        -0.14665555953979492,
        0.040426578372716904,
        0.04599330574274063,
        0.0027168658562004566,
        -0.12566320598125458,
        -0.11178693175315857,
        0.13911569118499756,
        0.10550804436206818,
        0.10518663376569748,
        -0.050820499658584595,
        -0.039184678345918655,
        -0.05940578132867813,
        0.1226070374250412,
        -0.10189958661794662,
        0.1277412325143814,
        0.12993474304676056,
        -0.17007166147232056,
        -0.003657635534182191,
        -0.06234467774629593,
        -0.10729837417602539,
        0.09730058163404465,
        -0.014028246514499187,
        0.191374272108078,
        -0.10292276740074158,
        0.08727321773767471,
        -0.1643114984035492,
        -0.08306683599948883,
        0.0050775352865457535,
        0.16525906324386597,
        0.07871444523334503,
        -0.1663558930158615,
        0.008704607374966145,
        -0.12259262800216675,
        0.019126057624816895,
        -0.16153709590435028,
        -0.08031740039587021,
        0.11547905206680298,
        -0.18746992945671082,
        -0.19087757170200348,
        0.027003426104784012,
        0.039588235318660736,
        -0.05171116068959236,
        0.17183545231819153,
        -0.13842730224132538,
        -0.12418750673532486,
        -0.12508845329284668,
        -0.05372897908091545,
        -0.0920477882027626,
        0.10494786500930786,
        -0.06617644429206848,
        0.0586419515311718,
        -0.08475401997566223,
        0.15611307322978973,
        0.15939927101135254,
        -0.16152147948741913,
        -0.04261855036020279,
        -0.14519502222537994,
        0.09285001456737518,
        -0.14790648221969604,
        -0.08559462428092957,
        0.18399691581726074,
        -0.18349961936473846,
        0.15560036897659302,
        0.02360270731151104,
        0.1733563393354416,
        -0.08178113400936127,
        0.1372355967760086,
        0.030060317367315292,
        0.02214651368558407,
        0.1260850876569748,
        -0.1619325876235962,
        -0.16297665238380432,
        0.18849073350429535,
        -0.09229250997304916,
        -0.11403033882379532,
        -0.0019978738855570555,
        -0.028175238519906998,
        -0.030062932521104813,
        -0.1046316921710968,
        0.06943914294242859,
        -0.18285469710826874,
        0.023954426869750023,
        0.09906458854675293,
        0.06150092929601669,
        0.034155361354351044,
        0.03988458961248398,
        -0.046248726546764374,
        -0.049705032259225845,
        -0.07943405956029892,
        -0.10668700933456421,
        -0.0862223356962204,
        0.20078293979167938,
        -0.0247352235019207,
        0.07578156888484955,
        0.11985205113887787,
        0.0006369948969222605,
        -0.10891933739185333,
        -0.10781184583902359,
        -0.0632152184844017,
        0.04941340535879135,
        -0.14392444491386414,
        0.019709235057234764,
        0.0886363759636879,
        0.2121611386537552,
        0.059865325689315796,
        0.04212545230984688,
        0.13174857199192047,
        0.1055149957537651,
        0.056460004299879074,
        -0.04662817716598511,
        -0.17858123779296875,
        -0.05025829002261162,
        -0.04735798388719559,
        0.004974640905857086,
        -0.008773796260356903,
        0.07682853192090988,
        0.10466012358665466,
        -0.09279579669237137,
        -0.1934475153684616,
        -0.10649148374795914,
        -0.10072986036539078,
        0.12212726473808289,
        -0.13891083002090454,
        -0.012349373660981655,
        -0.06320657581090927,
        -0.12490402162075043,
        0.10623699426651001,
        -0.09792859852313995,
        -0.05275950953364372,
        -0.15035633742809296,
        -0.0746079832315445,
        0.02444041334092617,
        -0.012033815495669842,
        -0.07190804183483124,
        0.042350996285676956,
        -0.040480803698301315,
        -0.11677053570747375,
        -0.11927954107522964,
        -0.02998601831495762,
        -0.166655495762825,
        0.1691291183233261,
        -0.10219753533601761,
        -0.08150780200958252,
        0.03938363865017891,
        0.06066957116127014,
        -0.0051178885623812675,
        0.14165633916854858,
        -0.1028054729104042,
        0.05889252945780754,
        0.010346501134335995,
        -0.16289806365966797,
        -0.05104159191250801,
        0.05434116721153259,
        0.019056817516684532,
        0.15675660967826843,
        0.16975349187850952,
        -0.09102201461791992,
        -0.029253780841827393,
        -0.03635706752538681,
        -0.12945608794689178,
        -0.0519590824842453,
        -0.14431621134281158,
        0.063593290746212,
        0.14493592083454132,
        -0.008205507881939411,
        -0.14972051978111267,
        -0.1643676459789276,
        -0.08238492906093597,
        0.0651690661907196,
        0.008202026598155499,
        0.015643619000911713,
        0.1733330488204956,
        0.07506813108921051,
        0.030368300154805183,
        -0.04853953793644905,
        0.09980463981628418,
        0.06235910952091217,
        -0.16709038615226746,
        -0.13747671246528625,
        0.002438805066049099,
        0.08906787633895874,
        0.07666346430778503,
        -0.1553989201784134,
        -0.2047722041606903,
        -0.062122877687215805,
        -0.02784271165728569,
        0.044176291674375534,
        -0.052924513816833496,
        0.1611514538526535,
        0.003123373491689563,
        0.15132805705070496,
        -0.15802858769893646,
        0.06871166825294495,
        0.0070549678057432175,
        -0.10258633643388748,
        0.10469841957092285,
        -0.18696710467338562,
        0.13291193544864655,
        0.004301188513636589,
        0.005889688618481159,
        0.07927604764699936,
        0.006257997360080481,
        0.09328651428222656,
        0.11123057454824448,
        -0.1462133824825287,
        0.10471946746110916,
        -0.0357118621468544,
        -0.028323838487267494,
        0.019820034503936768,
        0.10877728462219238,
        -0.11891096085309982,
        -0.1839706301689148,
        0.11552060395479202,
        -0.09640444070100784,
        0.06195881962776184,
        -0.0407484695315361,
        0.062363121658563614,
        0.1348271518945694,
        -0.07406018674373627,
        -0.08445151895284653,
        0.10919124633073807,
        0.017899824306368828,
        -0.030414652079343796,
        -0.1696387082338333,
        0.1857699602842331,
        0.008118841797113419,
        -0.023246293887495995,
        -0.07001422345638275,
        -0.028586354106664658,
        0.08150326460599899,
        0.010983935557305813,
        0.1607397496700287,
        0.012273591011762619,
        -0.021052667871117592,
        0.09107505530118942,
        0.013328353874385357,
        0.004520543850958347,
        0.07924400269985199,
        0.20678414404392242,
        0.050888791680336,
        0.1404363214969635,
        0.12471403181552887,
        0.04193931818008423,
        0.0762217566370964,
        0.04885700345039368,
        0.044065918773412704,
        0.1708298772573471,
        0.1898258477449417,
        0.07369094341993332,
        -0.020495997741818428,
        0.17325086891651154,
        -0.12649835646152496,
        0.1576710045337677,
        0.11257003247737885,
        0.13155098259449005,
        -0.005477407015860081,
        -0.15682871639728546,
        0.1535438895225525,
        -0.08690867573022842,
        0.07254678010940552,
        0.11859659105539322,
        -0.1973595768213272,
        0.0293759573251009,
        -0.022544974461197853,
        0.15204289555549622,
        -0.07003375887870789,
        0.1158546432852745,
        0.12233980000019073,
        0.10617659986019135,
        0.17115116119384766,
        0.038327187299728394,
        -0.18603989481925964,
        0.16059046983718872,
        0.027517350390553474,
        0.018030626699328423,
        -0.1743236482143402,
        -0.05386825278401375,
        -0.0937855914235115,
        0.21134379506111145,
        0.15109561383724213,
        0.15584616363048553,
        0.14078079164028168,
        -0.11011311411857605,
        -0.0942586362361908,
        -0.06124838441610336,
        -0.08254487812519073,
        0.1734057515859604,
        0.07146113365888596,
        0.13679662346839905,
        0.008017291314899921,
        -0.1294935792684555,
        -0.04148402810096741,
        0.18929168581962585,
        0.1205182820558548,
        0.0662711039185524,
        -0.05645044147968292,
        -0.16544069349765778,
        -0.11293799430131912,
        0.11333343386650085,
        -0.1013747900724411,
        0.08239465206861496,
        0.037465158849954605,
        -0.08336370438337326,
        0.12790805101394653,
        -0.06297636032104492,
        -0.027740832418203354,
        -0.08753488957881927,
        -0.19448554515838623,
        0.022249272093176842,
        0.046081434935331345,
        -0.08389963954687119,
        0.10382827371358871,
        -0.16682595014572144,
        -0.2096126526594162,
        -0.12528297305107117,
        -0.04736947640776634,
        -0.038919877260923386,
        -0.0816560834646225,
        0.07242591679096222,
        -0.22535179555416107,
        0.02323654480278492,
        -0.004631538409739733,
        0.0508313924074173,
        0.2014869600534439,
        0.10829964280128479,
        -0.09647688269615173,
        -0.18008066713809967,
        -0.056721702218055725,
        -0.11344379931688309,
        0.059596918523311615,
        0.011596083641052246,
        0.15729930996894836,
        0.05405561253428459,
        -0.0461607351899147,
        -0.006959333084523678,
        0.03575485944747925,
        -0.034022849053144455,
        0.16537635028362274,
        -0.16125090420246124,
        0.10051874816417694,
        -0.14630651473999023,
        -0.17454972863197327,
        -0.02237335406243801,
        0.0763707086443901,
        0.0946798175573349,
        0.03395862504839897,
        -0.06969256699085236,
        -0.015102645382285118,
        -0.08658207207918167,
        -0.01726984605193138,
        -0.014481445774435997,
        0.16950561106204987,
        0.14473234117031097,
        -0.15582233667373657,
        0.013000118546187878,
        -0.11025184392929077,
        -0.027606628835201263,
        -0.15944992005825043,
        0.031169649213552475,
        -0.14323367178440094,
        0.1629660427570343,
        0.1569443643093109,
        -0.11905012279748917,
        -0.1754450798034668,
        0.0396118201315403,
        -0.08074596524238586,
        0.04616507142782211,
        -0.13634878396987915,
        0.07059762626886368,
        -0.14780662953853607,
        -0.10248631238937378,
        -0.13204385340213776,
        0.08789761364459991,
        -0.038822513073682785,
        -0.1726103127002716,
        -0.09800145775079727,
        -0.0890609622001648,
        -0.16577410697937012,
        0.015548543073236942,
        0.08040212094783783,
        -0.059732891619205475,
        -0.08677549660205841,
        -0.015868008136749268,
        -0.16123566031455994,
        -0.10661202669143677,
        -0.0038309514056891203,
        0.14873157441616058,
        -0.0741923451423645,
        0.08289941400289536,
        -0.08490926027297974,
        -0.06032326817512512,
        -0.17137528955936432,
        0.14442814886569977,
        0.19330152869224548,
        -0.027236584573984146,
        0.11583340913057327,
        0.17526760697364807,
        0.07794730365276337,
        0.05701695755124092,
        -0.1983223855495453,
        -0.2349121868610382,
        -0.15064336359500885,
        0.05391644686460495,
        -0.16646385192871094,
        -0.1406601369380951,
        -0.10290638357400894,
        -0.16458623111248016,
        -0.02416270039975643,
        0.02016483061015606,
        -0.13032042980194092,
        0.12094247341156006,
        -0.0661972388625145,
        -0.05489179119467735,
        0.12387031316757202,
        0.14787574112415314,
        -0.03513354808092117,
        -0.14756299555301666,
        -0.10617152601480484,
        0.037297457456588745,
        0.0954602062702179,
        0.09638111293315887,
        -0.10918781906366348,
        -0.18883703649044037,
        -0.14881592988967896,
        -0.08003706485033035,
        -0.04254262149333954,
        -0.10137159377336502,
        -0.20895566046237946,
        0.016536904498934746,
        -0.15870624780654907,
        -0.14778609573841095,
        -0.16958306729793549,
        -0.042638543993234634,
        0.16195610165596008,
        0.09766651690006256,
        -0.011208458803594112,
        0.055684007704257965,
        0.08440189063549042,
        -0.008814757689833641,
        -0.15857569873332977,
        -0.09705810993909836,
        -0.12129151076078415,
        0.00874599814414978,
        -0.16586309671401978,
        -0.025481216609477997,
        -0.07839912176132202,
        0.19831222295761108,
        0.1498032957315445,
        0.13510507345199585,
        0.015209865756332874,
        -0.07909121364355087,
        0.06527499109506607,
        -0.09335309267044067,
        -0.06941061466932297,
        0.013050691224634647,
        -0.04075746238231659,
        -0.17433007061481476,
        0.07650437951087952,
        0.14470769464969635,
        -0.09716891497373581,
        0.03995649516582489,
        0.0007949862047098577,
        0.002679868834093213,
        0.02525872364640236,
        0.17548422515392303,
        0.014784354716539383,
        -0.12215276807546616,
        -0.04618370905518532,
        0.10774930566549301,
        0.07202910631895065,
        0.012410035356879234,
        -0.016418352723121643,
        -0.0867985412478447,
        -0.05457231029868126,
        -0.10719393193721771,
        0.054594721645116806,
        0.06076504662632942,
        0.1295800507068634,
        -0.02607462741434574,
        0.05575105547904968,
        0.13891290128231049,
        0.13796520233154297,
        0.028037147596478462,
        0.0653642863035202,
        0.00998934917151928,
        -0.15234924852848053,
        -0.0018702067900449038,
        -0.03067031502723694,
        0.151373490691185,
        0.1647651344537735,
        0.021274957805871964,
        0.16488339006900787,
        -0.0879044309258461,
        0.16755391657352448,
        0.14321653544902802,
        -0.01743587851524353,
        -0.1666955202817917,
        -0.07114946097135544,
        -0.06075531244277954,
        0.014573762193322182,
        -0.184564471244812,
        0.042845118790864944,
        -0.10307563096284866,
        -0.055320896208286285,
        -0.08102795481681824,
        -0.056798215955495834,
        -0.22222208976745605,
        -0.11601261794567108,
        -0.03546181321144104,
        0.12045331299304962,
        0.16647253930568695,
        -0.14557895064353943,
        0.09371358901262283,
        -0.1174817681312561,
        -0.13771972060203552,
        -0.029419347643852234,
        -0.12018311023712158,
        -0.1814599633216858,
        -0.1863233745098114,
        -0.12089189887046814,
        0.15882843732833862,
        0.0874677449464798,
        -0.08716298639774323,
        -0.14015835523605347,
        -0.1560823619365692,
        -0.1226443350315094,
        -0.06811898201704025,
        0.10459981113672256,
        0.06716365367174149,
        -0.09768018126487732,
        0.12894350290298462,
        -0.10211580991744995,
        -0.17266248166561127,
        0.0003430481883697212,
        -0.12097324430942535,
        0.0023266058415174484,
        0.15456825494766235,
        -0.09978782385587692,
        -0.13429298996925354,
        0.06690892577171326,
        -0.18873293697834015,
        0.17636725306510925,
        -0.10664448887109756,
        0.08735836297273636,
        -0.16725629568099976,
        -0.12095171213150024,
        0.01927456259727478,
        0.07577574998140335,
        0.13893656432628632,
        0.14493384957313538,
        -0.025081122294068336,
        -0.038283511996269226,
        0.01688889041543007,
        -0.04003554582595825,
        -0.009466905146837234,
        -0.1902051717042923,
        -0.17394350469112396,
        0.1248251274228096,
        -0.10776630789041519,
        0.13957872986793518,
        -0.01662689819931984,
        0.0391605943441391,
        0.13766255974769592,
        -0.09489059448242188,
        -0.03131318837404251,
        0.03409602493047714,
        0.08076620101928711,
        -0.19254222512245178,
        0.08156435191631317,
        -0.13645005226135254,
        0.01766585186123848,
        0.11742573976516724,
        -0.029876764863729477,
        0.0052570016123354435,
        -0.01603703200817108,
        0.1376969963312149,
        0.09438879787921906,
        0.02205093950033188,
        -0.12274124473333359,
        -0.10975546389818192,
        0.1664605438709259,
        0.1234663724899292,
        0.11594931036233902,
        -0.16922657191753387,
        0.1424609124660492,
        0.0003536523727234453,
        0.12368346005678177,
        0.12475230544805527,
        0.006457366049289703,
        -0.13535915315151215,
        0.17643167078495026,
        -0.10502368956804276,
        0.12574873864650726,
        -0.19996760785579681,
        -0.05044064298272133,
        -0.17865398526191711,
        -0.06282909214496613,
        0.09192460030317307,
        -0.12242010235786438,
        -0.1572459489107132,
        0.12740911543369293,
        0.10054616630077362,
        0.019042642787098885,
        -0.12593407928943634,
        -0.0382552444934845,
        -0.05254436656832695,
        0.12894126772880554,
        -0.07381375133991241,
        -0.04569341987371445,
        -0.1431160569190979,
        -0.06751769781112671,
        0.11156531423330307,
        0.10618004947900772,
        0.0445355586707592,
        -0.03081408515572548,
        0.19932927191257477,
        0.09099500626325607,
        -0.06878400593996048,
        -0.05826101824641228
      ],
      "bias": [
        -0.03288821876049042,
        0.09578627347946167,
        0.06325237452983856,
        0.12823039293289185,
        -0.0007408536039292812,
        0.1399424821138382,
        -0.08450185507535934,
        -0.08873280137777328,
        -0.06738193333148956,
        -0.1829446703195572,
        -0.11512259393930435,
        -0.17522956430912018,
        0.003985235467553139,
        -0.002065917244181037,
        -0.03956606611609459,
        -0.12356063723564148,
        0.16428141295909882,
        -0.05874299630522728,
        0.0842583179473877,
        0.12752792239189148,
        -0.11701615154743195,
        -0.029208574444055557,
        0.10462207347154617,
        0.18492268025875092,
        -0.01804610900580883,
        0.1440252661705017,
        -0.15149790048599243,
        -0.11807733029127121,
        0.1421421468257904,
        -0.014360438100993633,
        0.18247389793395996,
        0.02119915559887886,
        -0.08670584112405777,
        0.15889982879161835,
        0.15851140022277832,
        0.009681690484285355,
        -0.11975602060556412,
        -0.015282457694411278,
        -0.09590678662061691,
        0.1307515799999237,
        0.013369946740567684,
        0.031820375472307205,
        0.11844120174646378,
        0.039771512150764465,
        -0.12081916630268097,
        0.16132883727550507,
        0.11108437925577164,
        -0.10685426741838455,
        0.14917129278182983,
        0.05046483129262924,
        -0.03641121834516525,
        -0.14185042679309845,
        -0.024494707584381104,
        -0.18064066767692566,
        0.0957719162106514,
        0.14329387247562408,
        -0.05195768550038338,
        0.17077192664146423,
        -0.07512835413217545,
        0.04028264433145523,
        -0.12639117240905762,
        -0.01231700275093317,
        0.07937565445899963,
        0.07490808516740799
      ],
      "activation": "tanh"
    },
    {
      "inputSize": 64,
      "outputSize": 32,
      "weights": [
        0.009914820082485676,
        -0.05026629939675331,
        0.07403598725795746,
        0.07850412279367447,
        0.016951926052570343,
        -0.06154792383313179,
        0.025523899123072624,
        0.014108535833656788,
        0.10160540789365768,
        0.02185778319835663,
        0.01423973310738802,
        0.015627682209014893,
        0.0807725116610527,
        0.00039711498538963497,
        0.10932286828756332,
        0.05866502970457077,
        -0.09815369546413422,
        -0.006827685981988907,
        -0.08865737915039062,
        -0.09673619270324707,
        0.029630426317453384,
        0.01679576002061367,
        -0.017364781349897385,
        0.1135774776339531,
        -0.06003386899828911,
        -0.05414465814828873,
        -0.03226781636476517,
        0.009981606155633926,
        -0.01302199624478817,
        0.10713351517915726,
        -0.0533745251595974,
        -0.055757246911525726,
        0.002378980629146099,
        0.09226145595312119,
        0.036115653812885284,
        0.07094254344701767,
        0.016644688323140144,
        0.09590424597263336,
        0.08193223923444748,
        0.0854276791214943,
        -0.0008269029203802347,
        -0.09923723340034485,
        -0.06847978383302689,
        0.026984309777617455,
        0.09494161605834961,
        -0.05919729545712471,
        0.09813089668750763,
        0.017177559435367584,
        -0.007198933511972427,
        0.014052978716790676,
        -0.018575375899672508,
        0.12222079932689667,
        -0.01213316060602665,
        0.08152760565280914,
        -0.11292917281389236,
        -0.06764884293079376,
        0.002280738204717636,
        0.09171949326992035,
        0.06796639412641525,
        0.02476385049521923,
        -0.12035229802131653,
        0.002607108326628804,
        -0.08769568055868149,
        -0.10872326046228409,
        0.002625946654006839,
        -0.09195809066295624,
        0.12630851566791534,
        -0.06361382454633713,
        0.042902324348688126,
        0.07726901024580002,
        -0.09658412635326385,
        0.05078699067234993,
        -0.003951482940465212,
        0.06139669939875603,
        0.11634880304336548,
        -0.06012171506881714,
        -0.06788221746683121,
        0.09794484823942184,
        0.011477354913949966,
        -0.006301593966782093,
        0.09838128834962845,
        -0.05324514955282211,
        -0.020922774448990822,
        0.08656106889247894,
        0.04350000247359276,
        -0.06988844275474548,
        0.03931165859103203,
        -0.09026820957660675,
        -0.07487191259860992,
        0.08242879062891006,
        -0.021263202652335167,
        -0.07255657017230988,
        0.011398418806493282,
        0.03537414222955704,
        -0.07691550254821777,
        -0.09383665025234222,
        -0.11339277774095535,
        0.03388627991080284,
        -0.0867346003651619,
        0.0063665565103292465,
        -0.020219719037413597,
        -0.07126586139202118,
        -0.046355295926332474,
        -0.09234940260648727,
        -0.08243409544229507,
        -0.007151625119149685,
        -0.098110631108284,
        -0.094719797372818,
        0.08654964715242386,
        0.021709125488996506,
        -0.050154369324445724,
        -0.0034772437065839767,
        0.09997016191482544,
        -0.11326201260089874,
        -0.06979261338710785,
        -0.09558717161417007,
        0.007612715009599924,
        -0.009085615165531635,
        -0.09002158790826797,
        0.09022698551416397,
        -0.08237987756729126,
        0.12438750267028809,
        -0.09412413835525513,
        -0.018405232578516006,
        0.01989559456706047,
        -0.05522679537534714,
        0.11978345364332199,
        -0.08387332409620285,
        0.00719654792919755,
        -0.07929941266775131,
        0.021738111972808838,
        0.10262413322925568,
        0.11251401901245117,
        0.010966836474835873,
        -0.06360418349504471,
        0.13485215604305267,
        -0.002830757759511471,
        0.08747321367263794,
        -0.06071862578392029,
        -0.05127452686429024,
        -0.08996254950761795,
        0.1168491393327713,
        0.022726157680153847,
        -0.09597219526767731,
        0.007346542552113533,
        -0.06019612401723862,
        0.02348717860877514,
        0.04053223505616188,
        -0.05704432725906372,
        0.011129947379231453,
        -0.08518200367689133,
        0.019122514873743057,
        -0.11343109607696533,
        0.017986534163355827,
        0.1126851961016655,
        0.12407591938972473,
        0.04353071004152298,
        0.08755426108837128,
        0.12128196656703949,
        0.04476742073893547,
        0.03331821784377098,
        0.014582827687263489,
        0.11654194444417953,
        0.11165823042392731,
        -0.06605815142393112,
        -0.015396788716316223,
        -0.05656534060835838,
        0.04085591062903404,
        -0.10565194487571716,
        0.048345595598220825,
        -0.04311217740178108,
        0.0300742220133543,
        0.04594200477004051,
        -0.07230721414089203,
        0.05986766517162323,
        0.05209746211767197,
        -0.11357126384973526,
        0.1331619769334793,
        0.11068495362997055,
        0.08268184214830399,
        -0.03061118721961975,
        0.04913724586367607,
        -0.07472244650125504,
        -0.0454910472035408,
        0.0454958938062191,
        0.047862421721220016,
        0.057567644864320755,
        -0.11879105120897293,
        0.10657092928886414,
        -0.05179880931973457,
        0.10318116843700409,
        0.10131955146789551,
        0.0601530484855175,
        0.13696877658367157,
        0.05864493176341057,
        0.06911496818065643,
        -0.04576210305094719,
        0.11183056235313416,
        0.03178997337818146,
        0.0874103233218193,
        -0.0405709333717823,
        0.09365274012088776,
        0.11535105854272842,
        -0.08879657834768295,
        0.1165325790643692,
        -0.08067572861909866,
        -0.08381418883800507,
        -0.11051461845636368,
        0.032435156404972076,
        -0.10039936006069183,
        -0.029860805720090866,
        -0.06382137537002563,
        0.038598258048295975,
        -0.1338525116443634,
        -0.06363819539546967,
        -0.004226276651024818,
        0.018410446122288704,
        -0.05845392495393753,
        0.03332950174808502,
        -0.07331322878599167,
        -0.10813917964696884,
        -0.022777879610657692,
        -0.0679502934217453,
        0.08831555396318436,
        -0.09376263618469238,
        -0.014298220165073872,
        0.05780838802456856,
        -0.10539063811302185,
        0.08960264921188354,
        -0.0673387423157692,
        -0.027327382937073708,
        -0.08048494905233383,
        -0.031229745596647263,
        -0.04390845075249672,
        -0.12029541283845901,
        0.027095552533864975,
        0.006755622569471598,
        0.11198814958333969,
        0.07906622439622879,
        0.1079445481300354,
        0.029185019433498383,
        0.07457750290632248,
        0.12033895403146744,
        0.10773928463459015,
        -0.11409208178520203,
        -0.02301940880715847,
        -0.1278751790523529,
        0.0016420644242316484,
        -0.058005448430776596,
        0.10045357793569565,
        0.02807031199336052,
        0.002062564715743065,
        -0.08733312040567398,
        -0.09778772294521332,
        0.014526622369885445,
        -0.0639944076538086,
        -0.07114976644515991,
        0.07539864629507065,
        -0.05203917250037193,
        -0.051083967089653015,
        0.09915097802877426,
        0.05306566134095192,
        -0.06757159531116486,
        0.02450288087129593,
        0.07478704303503036,
        -0.114411361515522,
        0.018607277423143387,
        0.021469470113515854,
        -0.018907787278294563,
        0.11833728849887848,
        -0.08533835411071777,
        0.07355662435293198,
        -0.06253542006015778,
        -0.10043511539697647,
        0.06826159358024597,
        -0.05882711708545685,
        0.00042292274883948267,
        0.07700654119253159,
        -0.09767994284629822,
        -0.10167655348777771,
        0.03472751006484032,
        0.11096322536468506,
        -0.002059490419924259,
        0.07864197343587875,
        0.04642927646636963,
        0.040024928748607635,
        -0.0791068971157074,
        0.10911276191473007,
        0.06570643186569214,
        0.021053263917565346,
        0.08277137577533722,
        -0.11101178079843521,
        0.03399112820625305,
        -0.04815254360437393,
        -0.019472697749733925,
        0.045066509395837784,
        0.039585523307323456,
        0.024554241448640823,
        -0.08757352083921432,
        -0.06265317648649216,
        -0.005169547628611326,
        -0.011328669264912605,
        -0.0991869643330574,
        0.12360461801290512,
        0.023318488150835037,
        -0.09791981428861618,
        0.05143212154507637,
        0.048916030675172806,
        -0.04361700639128685,
        0.057642675936222076,
        -0.06997749954462051,
        0.04658876359462738,
        0.13235580921173096,
        0.09065340459346771,
        0.05324970558285713,
        -0.02642217092216015,
        0.020323703065514565,
        0.04341507703065872,
        0.03574158251285553,
        -0.023011332377791405,
        0.03166086599230766,
        -0.03778797760605812,
        -0.08340699225664139,
        -0.11890289187431335,
        -0.1051127091050148,
        -0.08174296468496323,
        0.11831491440534592,
        0.03795100003480911,
        -0.12617194652557373,
        -0.06129525974392891,
        0.033199623227119446,
        -0.031102167442440987,
        -0.021585501730442047,
        -0.04513511434197426,
        -0.028866279870271683,
        0.007481494452804327,
        0.004484310746192932,
        0.07341902703046799,
        0.09735392034053802,
        0.102706678211689,
        0.0007829051464796066,
        -0.06656821072101593,
        -0.005677021574229002,
        -0.08720055967569351,
        0.05826488137245178,
        -0.016232870519161224,
        -0.05244245380163193,
        -0.09740627557039261,
        0.05842741206288338,
        0.06532221287488937,
        0.11406654119491577,
        -0.0347251370549202,
        0.029165029525756836,
        0.003732969518750906,
        -0.07299814373254776,
        -0.07413584738969803,
        0.056147292256355286,
        -0.08199205249547958,
        0.09700852632522583,
        0.04082685708999634,
        0.058859653770923615,
        0.08641837537288666,
        0.052979327738285065,
        0.03911437839269638,
        0.07132523506879807,
        -0.062452226877212524,
        -0.07085487991571426,
        -0.024343613535165787,
        0.06269172579050064,
        0.09662508964538574,
        0.09501276165246964,
        -0.03486067056655884,
        -0.033765703439712524,
        -0.08187801390886307,
        0.07015661895275116,
        -0.08557848632335663,
        -0.06530209630727768,
        0.09600793570280075,
        0.03787437826395035,
        -0.0515800416469574,
        -0.08147670328617096,
        -0.08574419468641281,
        0.09625648707151413,
        -0.11584959179162979,
        0.12195999920368195,
        0.1121739000082016,
        -0.0059608169831335545,
        -0.014253486879169941,
        0.09413334727287292,
        0.05095421150326729,
        0.1170177236199379,
        0.11462090164422989,
        -0.09484570473432541,
        0.08017732948064804,
        0.06752320379018784,
        -0.08164548128843307,
        0.07437069714069366,
        -0.06278747320175171,
        -0.07214738428592682,
        -0.003591300221160054,
        -0.019204413518309593,
        -0.04002535343170166,
        -0.06480198353528976,
        0.06755653768777847,
        0.12985381484031677,
        -0.03846989944577217,
        -0.09057489037513733,
        -0.011770442128181458,
        -0.10149913281202316,
        -0.10387673228979111,
        -0.05336584523320198,
        0.08803996443748474,
        -0.09811720997095108,
        -0.024730751290917397,
        -0.06534667313098907,
        -0.10527210682630539,
        -0.03665388375520706,
        -0.00927033182233572,
        -0.015204194001853466,
        0.09546248614788055,
        0.04301745817065239,
        0.06760259717702866,
        0.055733732879161835,
        0.009400688111782074,
        0.08389504253864288,
        -0.07546696066856384,
        0.05449012666940689,
        0.044013381004333496,
        -0.04587741568684578,
        -0.014705833047628403,
        -0.09994529187679291,
        -0.11017017066478729,
        -0.007650409825146198,
        0.03157009184360504,
        -0.02353099174797535,
        0.043901339173316956,
        -0.11466198414564133,
        -0.06357182562351227,
        0.07885544002056122,
        -0.12492548674345016,
        0.0072428942658007145,
        0.08808024972677231,
        0.10221337527036667,
        0.04311537742614746,
        -0.11101967841386795,
        0.016479726880788803,
        -0.049102675169706345,
        -0.03740106523036957,
        0.08122827112674713,
        -0.05523157864809036,
        -0.07658886164426804,
        -0.096263088285923,
        0.08209916204214096,
        0.009844427928328514,
        0.12432603538036346,
        0.012083414942026138,
        -0.10387653112411499,
        0.027854885905981064,
        0.11001072824001312,
        0.07084101438522339,
        0.02353767678141594,
        -0.09582021087408066,
        -0.07702656835317612,
        0.09117697924375534,
        -0.08022941648960114,
        0.035400524735450745,
        -0.031265124678611755,
        0.04261671006679535,
        0.002991762710735202,
        -0.0843692421913147,
        -0.04347716271877289,
        0.11401593685150146,
        0.007812086027115583,
        0.06536315381526947,
        -0.051281075924634933,
        0.08994948863983154,
        -0.02450713701546192,
        -0.0375511534512043,
        0.02581634558737278,
        -0.05426580086350441,
        -0.0421484112739563,
        -0.014223568141460419,
        -0.013306695967912674,
        -0.07518069446086884,
        0.05017777532339096,
        -0.1107802763581276,
        0.0703287199139595,
        0.11985860764980316,
        0.00472857104614377,
        -0.033109474927186966,
        -0.10568663477897644,
        0.07411659508943558,
        0.09534092247486115,
        0.11705511808395386,
        0.016206692904233932,
        0.0424981415271759,
        0.12717205286026,
        0.009859452955424786,
        -0.06363717466592789,
        -0.12372066080570221,
        0.07242855429649353,
        0.043973974883556366,
        0.1183510273694992,
        -0.06047029420733452,
        0.06737637519836426,
        -0.03358566015958786,
        -0.03913851082324982,
        0.07223840057849884,
        -0.11774887889623642,
        0.09195709973573685,
        0.0630781427025795,
        -0.0725051537156105,
        0.07811910659074783,
        -0.01877501979470253,
        -0.0020065673161298037,
        -0.03810875490307808,
        -0.125312939286232,
        -0.017252737656235695,
        0.06003868207335472,
        -0.0008073617937043309,
        -0.07385388016700745,
        0.007524748798459768,
        0.027615876868367195,
        -0.02768472209572792,
        -0.08275200426578522,
        -0.06548567861318588,
        -0.017832964658737183,
        0.039124976843595505,
        0.10727201402187347,
        -0.0045687309466302395,
        0.0618000254034996,
        0.07088326662778854,
        -0.04890698567032814,
        -0.05261799320578575,
        0.07619506120681763,
        0.08405965566635132,
        0.03678909316658974,
        -0.09895005077123642,
        0.059278454631567,
        -0.09388984739780426,
        0.05979374423623085,
        0.009875231422483921,
        0.03947233036160469,
        -0.11215805262327194,
        -0.051954276859760284,
        0.05117764323949814,
        0.10213431715965271,
        -0.032295070588588715,
        0.10413515567779541,
        -0.038536205887794495,
        -0.06850725412368774,
        -0.058466192334890366,
        0.023591795936226845,
        -0.018505902960896492,
        0.05122143030166626,
        -0.08485939353704453,
        -0.02798650413751602,
        -0.1344878077507019,
        0.09649649262428284,
        -0.02397695742547512,
        -0.10638205707073212,
        0.0030205990187823772,
        0.0034677342046052217,
        0.04020510986447334,
        -0.0310242660343647,
        0.08381735533475876,
        -0.050771892070770264,
        -0.04102722182869911,
        -0.041419968008995056,
        0.01411198265850544,
        0.1087539941072464,
        -0.0046560801565647125,
        0.09953054040670395,
        0.09815077483654022,
        -0.07032977789640427,
        -0.013045859523117542,
        -0.04447797313332558,
        0.0647180899977684,
        -0.05691905692219734,
        0.03401515632867813,
        0.004330379888415337,
        -0.08584193140268326,
        -0.08478496223688126,
        -0.1087527945637703,
        -0.08256660401821136,
        0.03802499547600746,
        0.01198786310851574,
        0.10076098889112473,
        -0.09602545201778412,
        -0.0018428441835567355,
        -0.1098800078034401,
        -0.005656942259520292,
        0.042185328900814056,
        -0.11898716539144516,
        0.1255359649658203,
        -0.03964417055249214,
        0.11590863019227982,
        -0.031716279685497284,
        0.0643920972943306,
        0.10868404060602188,
        -0.03839661180973053,
        -0.03232524171471596,
        0.05366888269782066,
        -0.09804772585630417,
        0.0717635229229927,
        -0.08285480737686157,
        0.11561837792396545,
        -0.07248185575008392,
        -0.059558719396591187,
        0.09180981665849686,
        -0.04832182824611664,
        0.11101480573415756,
        0.0784032866358757,
        0.10390551388263702,
        -0.11477483063936234,
        -0.0025497041642665863,
        -0.02522498555481434,
        0.03363265097141266,
        -0.10317980498075485,
        0.035967882722616196,
        0.0010790571104735136,
        -0.0691998302936554,
        -0.11744657158851624,
        0.06440120935440063,
        -0.052537526935338974,
        0.10075264424085617,
        0.02547040767967701,
        0.043040111660957336,
        -0.036594416946172714,
        -0.012555328197777271,
        -0.04971136897802353,
        -0.11142607033252716,
        0.0671854317188263,
        -0.08643736690282822,
        0.08090580999851227,
        -0.04139668494462967,
        0.08152489364147186,
        0.10733935981988907,
        -0.08123625069856644,
        0.10130083560943604,
        0.01769869402050972,
        -0.0826888158917427,
        0.03797301650047302,
        0.06651618331670761,
        0.10722266137599945,
        -0.1229061558842659,
        0.11212470382452011,
        0.10825423896312714,
        0.11031396687030792,
        0.07135727256536484,
        -0.05628025531768799,
        0.10167517513036728,
        0.1282995194196701,
        -0.04607858136296272,
        -0.01813673786818981,
        0.09154554456472397,
        0.09712184220552444,
        0.07558619230985641,
        0.1108536496758461,
        -0.06506611406803131,
        -0.016290361061692238,
        -0.0607602633535862,
        0.05843319743871689,
        0.026084275916218758,
        -0.08962506800889969,
        -0.017824554815888405,
        -0.11391433328390121,
        -0.1085633635520935,
        0.11155533045530319,
        -0.06751049309968948,
        0.05514185503125191,
        -0.018339646980166435,
        -0.033243577927351,
        -0.0017482220428064466,
        0.10363728553056717,
        -0.01364143192768097,
        0.09584937244653702,
        0.06283021718263626,
        0.09228590130805969,
        -0.1173863559961319,
        -0.04256091266870499,
        -0.09817418456077576,
        -0.03543531522154808,
        -0.041153959929943085,
        0.03254985809326172,
        0.10177578777074814,
        0.0509740449488163,
        -0.08778262138366699,
        -0.08585052937269211,
        0.10322218388319016,
        0.01582004316151142,
        0.04045562446117401,
        -0.08270204067230225,
        -0.010399513877928257,
        0.02824200876057148,
        -0.08538775891065598,
        0.07000941038131714,
        0.054510872811079025,
        -0.06476842612028122,
        -0.0503702275454998,
        -0.026128310710191727,
        0.019519342109560966,
        -0.050794173032045364,
        0.11750654131174088,
        -0.13418321311473846,
        -0.08454249054193497,
        -0.06743452697992325,
        0.03112073428928852,
        0.025379888713359833,
        -0.038675032556056976,
        0.10866045951843262,
        -0.11725475639104843,
        0.060159143060445786,
        -0.06617129594087601,
        -0.027382617816329002,
        -0.12130679935216904,
        -0.10479969531297684,
        -0.11173524707555771,
        0.05783092603087425,
        -0.033774975687265396,
        0.06198682636022568,
        -0.06160201132297516,
        -0.05200600251555443,
        0.011751789599657059,
        0.10487792640924454,
        -0.024616677314043045,
        0.07352712750434875,
        0.03339191898703575,
        0.06931571662425995,
        0.0735163763165474,
        0.06603021919727325,
        -0.04104650020599365,
        -0.03888045623898506,
        0.050618741661310196,
        0.062226492911577225,
        -0.014332798309624195,
        0.07483989000320435,
        -0.07979828864336014,
        0.059347573667764664,
        -0.024810953065752983,
        -0.07549627125263214,
        -0.05274752154946327,
        -0.09634091705083847,
        0.023312905803322792,
        -0.08889711648225784,
        -0.04474793002009392,
        -0.005000084172934294,
        -0.06404437124729156,
        0.002238920424133539,
        -0.012144526466727257,
        0.03837393969297409,
        0.09815271943807602,
        -0.0741908997297287,
        0.060591164976358414,
        -0.000968301494140178,
        -0.07045076787471771,
        -0.033100541681051254,
        0.0344218835234642,
        0.028374411165714264,
        -0.007217281963676214,
        -0.04965550824999809,
        0.06501345336437225,
        0.01659310795366764,
        -0.11890766769647598,
        -0.020626598969101906,
        -0.037846196442842484,
        -0.05211125686764717,
        -0.07406840473413467,
        -0.11561758071184158,
        0.1107291504740715,
        -0.10059762001037598,
        0.12098511308431625,
        -0.09552908688783646,
        -0.025845451280474663,
        -0.05025218054652214,
        -0.08069535344839096,
        0.056943610310554504,
        0.06885786354541779,
        -0.08697256445884705,
        -0.06559260189533234,
        0.049454715102910995,
        -0.016707269474864006,
        0.027598252519965172,
        0.0709422379732132,
        -0.04206453263759613,
        -0.06261381506919861,
        0.02936229109764099,
        -0.04469597339630127,
        -0.08881032466888428,
        -0.052064649760723114,
        -0.05134784057736397,
        0.13005656003952026,
        0.016869980841875076,
        0.05648982152342796,
        0.028391366824507713,
        -0.0938616544008255,
        0.0930086299777031,
        -0.014640172943472862,
        -0.031371667981147766,
        0.09215221554040909,
        -0.055698491632938385,
        0.027508653700351715,
        -0.11193724721670151,
        0.06076640635728836,
        0.05678338557481766,
        -0.09234520047903061,
        0.06272977590560913,
        0.018078040331602097,
        -0.08054011315107346,
        0.10294143855571747,
        0.06311831623315811,
        0.05948328971862793,
        -0.054025959223508835,
        -0.057855915278196335,
        -0.06158512830734253,
        0.04720454290509224,
        0.041529376059770584,
        -0.08388969302177429,
        0.11003042757511139,
        0.06723180413246155,
        -0.030630040913820267,
        0.059210244566202164,
        -0.045328084379434586,
        0.04293202608823776,
        0.11597411334514618,
        -0.10224311053752899,
        -0.070844866335392,
        -0.008098815567791462,
        0.015310630202293396,
        -0.10276056081056595,
        -0.07697463780641556,
        -0.009339817799627781,
        -0.03229345753788948,
        0.014234725385904312,
        0.02811518870294094,
        0.029741887003183365,
        0.011947942897677422,
        0.01802186667919159,
        -0.003927899058908224,
        0.031987763941287994,
        0.0967181921005249,
        -0.06526400148868561,
        -0.06886028498411179,
        0.0484226755797863,
        -0.10380976647138596,
        0.08026237785816193,
        0.05562670901417732,
        0.02415982261300087,
        -0.051208432763814926,
        0.010571794584393501,
        -0.11588995158672333,
        -0.11156266182661057,
        0.11276169121265411,
        -0.10145874321460724,
        -0.09742791205644608,
        -0.043984051793813705,
        -0.000632123788818717,
        0.030401552096009254,
        -0.050596561282873154,
        -0.02083185873925686,
        -0.02601596899330616,
        0.10815302282571793,
        0.10865837335586548,
        0.04225385561585426,
        0.00738976476714015,
        0.094972163438797,
        -0.10660771280527115,
        0.04783439263701439,
        -0.06560724228620529,
        0.10806745290756226,
        -0.11651810258626938,
        0.05052727460861206,
        -0.11783298850059509,
        0.06922946125268936,
        0.031201018020510674,
        0.12268530577421188,
        -0.1013057753443718,
        0.09043142199516296,
        -0.0785786435008049,
        -0.06645143032073975,
        0.05464056879281998,
        -0.029099250212311745,
        -0.10154224187135696,
        -0.1110202819108963,
        -0.014579127542674541,
        0.03022024966776371,
        0.11685916781425476,
        0.09476902335882187,
        0.014867028221487999,
        -0.06926042586565018,
        -0.11901936680078506,
        0.11089377850294113,
        -0.07265041023492813,
        -0.022049080580472946,
        -0.09609785676002502,
        -0.08501017093658447,
        0.03828103467822075,
        -0.018100325018167496,
        0.001724336063489318,
        -0.004926507826894522,
        0.003010059939697385,
        -0.02842465601861477,
        -0.00581732951104641,
        0.06751066446304321,
        0.07908060401678085,
        0.10865072906017303,
        -0.09764423966407776,
        -0.09914084523916245,
        -0.004916579462587833,
        -0.008091495372354984,
        0.07093421369791031,
        0.11116739362478256,
        0.02889452874660492,
        -0.09563831239938736,
        0.003029752755537629,
        0.08023163676261902,
        0.0512302964925766,
        -0.09951990097761154,
        0.0009541056351736188,
        -0.12548485398292542,
        -0.04320966452360153,
        0.08591874688863754,
        -0.06587979197502136,
        0.08520660549402237,
        -0.10401873290538788,
        0.10582119971513748,
        0.059374261647462845,
        0.0906151756644249,
        0.025792809203267097,
        0.007692738436162472,
        -0.055197957903146744,
        -0.0649309977889061,
        -0.0934472382068634,
        0.09258273243904114,
        -0.03713666647672653,
        -0.0007599451928399503,
        -0.10202906280755997,
        0.03768241032958031,
        -0.051209062337875366,
        -0.11553764343261719,
        0.022465193644165993,
        -0.12509983777999878,
        -0.017271490767598152,
        -0.10320102423429489,
        0.071815125644207,
        -0.0904151126742363,
        0.023541413247585297,
        0.0667901262640953,
        -0.11789529025554657,
        0.0853380560874939,
        0.09454792737960815,
        -0.07959260046482086,
        -0.00292782299220562,
        0.03024144470691681,
        0.11142649501562119,
        0.09861303865909576,
        -0.10179082304239273,
        -0.10169732570648193,
        -0.11532764136791229,
        -0.057212088257074356,
        -0.038785818964242935,
        -0.0570320226252079,
        0.09524425864219666,
        -0.08134613931179047,
        -0.09728670865297318,
        -0.09320081770420074,
        -0.07206647843122482,
        0.10930663347244263,
        0.027684051543474197,
        -0.025137528777122498,
        -0.04129747301340103,
        -0.10299818217754364,
        -0.0564873144030571,
        0.06495454162359238,
        0.08155365288257599,
        0.09495702385902405,
        0.01305676344782114,
        -0.06148872151970863,
        -0.08926180005073547,
        0.1223088800907135,
        -0.11809506267309189,
        0.040247879922389984,
        -0.0055020153522491455,
        0.12111921608448029,
        0.06580816209316254,
        -0.02953866496682167,
        -0.0923752412199974,
        0.0073405480943620205,
        -0.08476834744215012,
        -0.009188507683575153,
        0.032161831855773926,
        0.05151218920946121,
        -0.026171188801527023,
        -0.08214537799358368,
        -0.11156169325113297,
        -0.12091542780399323,
        0.022380713373422623,
        -0.06617464870214462,
        -0.0023847706615924835,
        -0.0555337630212307,
        -0.09985426068305969,
        0.08139325678348541,
        0.07963459938764572,
        0.10222332924604416,
        0.11274384707212448,
        -0.08050276339054108,
        -0.06112873926758766,
        -0.0944015383720398,
        0.09138710051774979,
        0.06437444686889648,
        0.09790588915348053,
        -0.09257137030363083,
        -0.05144049972295761,
        0.117066890001297,
        -0.09211520850658417,
        -0.08003278076648712,
        0.05971233919262886,
        -0.10161297023296356,
        -0.043142836540937424,
        0.051537130028009415,
        0.09955007582902908,
        -0.013808523304760456,
        -0.1051134392619133,
        0.07349991053342819,
        0.13897602260112762,
        -0.08004386723041534,
        -0.018564138561487198,
        -0.09481391310691833,
        -0.06667604297399521,
        0.03804734721779823,
        0.057460129261016846,
        0.0651412084698677,
        -0.13033528625965118,
        -0.026939556002616882,
        0.05791987478733063,
        -0.004668087232857943,
        -0.02460802160203457,
        -0.06303536891937256,
        0.12097525596618652,
        -0.10614903271198273,
        -0.10211010277271271,
        0.08409883826971054,
        -0.05896489694714546,
        0.07478948682546616,
        -0.06349563598632812,
        -0.028008252382278442,
        -0.06703515350818634,
        0.09808618575334549,
        0.09380696713924408,
        0.00393302459269762,
        -0.008890663273632526,
        -0.03802591934800148,
        -0.06933704763650894,
        -0.052017368376255035,
        0.04020560532808304,
        -0.012820173986256123,
        0.07687439024448395,
        0.016326140612363815,
        0.007417596876621246,
        -0.07422728836536407,
        0.04294555261731148,
        -0.12616875767707825,
        0.035841185599565506,
        0.04090401902794838,
        0.038530584424734116,
        0.09159877896308899,
        0.02101164124906063,
        -0.049861419945955276,
        -0.08021442592144012,
        -0.12624043226242065,
        0.05781566724181175,
        0.06741013377904892,
        -0.10284359008073807,
        0.04256970435380936,
        -0.04244859516620636,
        0.11055760085582733,
        -0.06030729413032532,
        0.1083572581410408,
        0.08093861490488052,
        0.06573671847581863,
        0.07175607979297638,
        0.031070029363036156,
        0.050631724298000336,
        -0.10514276474714279,
        -0.025226591154932976,
        -0.014237048104405403,
        0.05565198138356209,
        -0.05064716935157776,
        0.07187701761722565,
        0.09768573939800262,
        0.04091571271419525,
        0.06008162721991539,
        -0.019582470878958702,
        0.056095194071531296,
        -0.0436534509062767,
        0.121585413813591,
        -0.0159775260835886,
        -0.004019519314169884,
        -0.10549374669790268,
        0.12233343720436096,
        -0.0035500284284353256,
        0.09479904174804688,
        -0.07942502945661545,
        -0.110941082239151,
        -0.023445116356015205,
        -0.10700849443674088,
        0.039115797728300095,
        0.0010115050245076418,
        -0.040525827556848526,
        0.06728049367666245,
        0.07426489144563675,
        -0.11543557792901993,
        -0.09305364638566971,
        0.07113135606050491,
        -0.08791404217481613,
        0.03320136293768883,
        -0.03567379713058472,
        0.01783805526793003,
        -0.06957553327083588,
        0.010007652454078197,
        -0.05233761668205261,
        -0.05770597979426384,
        -0.05527690798044205,
        0.031627800315618515,
        0.07317715883255005,
        -0.013627923093736172,
        0.005177946295589209,
        0.09917183220386505,
        0.11689384281635284,
        -0.01443334762006998,
        -0.11121083796024323,
        0.013949328102171421,
        0.044457823038101196,
        -0.10906295478343964,
        -0.11725831031799316,
        0.012202685698866844,
        0.11475200206041336,
        -0.10300121456384659,
        -0.05787021666765213,
        -0.037909045815467834,
        -0.12809433043003082,
        -0.0721597969532013,
        0.09069430083036423,
        0.09226833283901215,
        -0.10551606118679047,
        -0.005130458157509565,
        -0.09365878999233246,
        0.05290084704756737,
        -0.08198277652263641,
        -0.06367135792970657,
        -0.06261882930994034,
        0.016329146921634674,
        0.0971512421965599,
        -0.0410006158053875,
        0.008136146701872349,
        0.09325440973043442,
        -0.009806090965867043,
        0.006663517560809851,
        0.008451868779957294,
        0.013191073201596737,
        0.06386776268482208,
        0.07245869189500809,
        -0.06099166348576546,
        0.1282307505607605,
        0.08684052526950836,
        -0.017852317541837692,
        0.11311255395412445,
        0.0030330298468470573,
        0.07309135794639587,
        -0.11223684251308441,
        0.12793010473251343,
        0.11500228196382523,
        -0.08683105558156967,
        -0.12284118682146072,
        -0.04398288205265999,
        -0.08409514278173447,
        0.04089505970478058,
        0.05071081221103668,
        -0.02596711553633213,
        0.09867097437381744,
        0.0006869700155220926,
        -0.042530059814453125,
        -0.10893126577138901,
        0.049412451684474945,
        -0.1252523958683014,
        -0.00434856116771698,
        0.022214455530047417,
        -0.06728080660104752,
        0.03146042302250862,
        0.013765685260295868,
        0.09207472950220108,
        0.07159098237752914,
        -0.08519822359085083,
        -0.08921392261981964,
        -0.056936927139759064,
        -0.10630224645137787,
        0.0481753908097744,
        -0.09423743188381195,
        -0.10261712223291397,
        0.03769360110163689,
        0.06602123379707336,
        -0.027668988332152367,
        -0.11990783363580704,
        0.024702435359358788,
        0.04765940457582474,
        0.10539218783378601,
        0.0033094233367592096,
        0.08169493079185486,
        -0.12626859545707703,
        0.10969020426273346,
        -0.07013865560293198,
        -0.08444905281066895,
        0.09391305595636368,
        -0.027858098968863487,
        0.07085812091827393,
        -0.09149736166000366,
        0.08050166070461273,
        0.10607562959194183,
        0.051305655390024185,
        0.10506583005189896,
        -0.08622656017541885,
        -0.02358095906674862,
        0.03900470957159996,
        0.05711916834115982,
        -0.054123278707265854,
        0.07635194063186646,
        -0.045676738023757935,
        -0.07382070273160934,
        0.010299384593963623,
        -0.10177365690469742,
        -0.1169726550579071,
        0.04796116426587105,
        0.04626429080963135,
        0.05471903085708618,
        -0.031416308134794235,
        -0.09047124534845352,
        -0.10565558820962906,
        0.1305345594882965,
        -0.10185039788484573,
        0.04282935708761215,
        0.09423942118883133,
        0.09728923439979553,
        -0.06676096469163895,
        -0.04951848089694977,
        -0.09761204570531845,
        0.08327942341566086,
        -0.11678272485733032,
        -0.12478718161582947,
        -0.07499302923679352,
        0.1035541296005249,
        0.07484839856624603,
        0.08023114502429962,
        0.10344399511814117,
        -0.04795050621032715,
        -0.07647426426410675,
        -0.07288020849227905,
        0.025078093633055687,
        0.04444184526801109,
        0.03513465076684952,
        -0.08085361868143082,
        0.0041000451892614365,
        -0.05615871772170067,
        -0.01941780559718609,
        -0.018516508862376213,
        0.013722405768930912,
        -0.11848445981740952,
        0.10336907207965851,
        -0.05839061737060547,
        0.056654855608940125,
        0.08106287568807602,
        0.05771048367023468,
        0.09070789068937302,
        0.08212104439735413,
        0.09951959550380707,
        0.018031900748610497,
        0.07894226908683777,
        -0.057517506182193756,
        -0.06779806315898895,
        0.0646863654255867,
        0.034974176436662674,
        0.01007032860070467,
        -0.09249681979417801,
        0.027765609323978424,
        0.07657478004693985,
        -0.017108965665102005,
        0.024804584681987762,
        0.05511556193232536,
        -0.11002591997385025,
        -0.03347449749708176,
        -0.04284506291151047,
        -0.059105098247528076,
        0.08325988799333572,
        0.13786692917346954,
        0.021535532549023628,
        0.08030638843774796,
        -0.09904728084802628,
        0.018438000231981277,
        -0.023388322442770004,
        -0.06196296215057373,
        0.024905778467655182,
        0.045329492539167404,
        -0.01715019904077053,
        0.046086546033620834,
        0.05472467094659805,
        0.1204071193933487,
        0.004954477772116661,
        -0.007538995239883661,
        0.0073990109376609325,
        0.0146235516294837,
        -0.0859786719083786,
        -0.016263287514448166,
        -0.09599082916975021,
        -0.09558481723070145,
        -0.10804322361946106,
        0.09889186918735504,
        -0.06834212690591812,
        -0.017817765474319458,
        0.0026180827990174294,
        0.1169300451874733,
        0.05269495025277138,
        -0.07266584783792496,
        0.1257992833852768,
        -0.12738478183746338,
        0.0008245892240665853,
        0.12152809649705887,
        0.09811045229434967,
        -0.03426479920744896,
        -0.08421047776937485,
        0.04743822664022446,
        0.10535531491041183,
        -0.06297530978918076,
        -0.01433157455176115,
        -0.0935039296746254,
        0.05276336893439293,
        0.018944283947348595,
        0.05828022211790085,
        -0.056610167026519775,
        -0.1286337673664093,
        -0.04425086826086044,
        -0.09661298990249634,
        -0.026456696912646294,
        0.04524104297161102,
        -0.10874778032302856,
        -0.008138231933116913,
        -0.10799767822027206,
        -0.07596597820520401,
        -0.10042773187160492,
        -0.046719927340745926,
        -0.06659530103206635,
        0.015448395162820816,
        0.07554231584072113,
        0.10745959728956223,
        0.02704009972512722,
        0.0022288882173597813,
        -0.01793159730732441,
        0.09164409339427948,
        -0.05776453763246536,
        0.09205400943756104,
        -0.11803676187992096,
        -0.09963865578174591,
        0.02979065105319023,
        -0.058274101465940475,
        0.0403275266289711,
        0.10801597684621811,
        0.06217479705810547,
        0.11163190752267838,
        -0.05946435034275055,
        -0.06455961614847183,
        -0.008520836010575294,
        -0.027001604437828064,
        -0.06670140475034714,
        0.0011577021796256304,
        0.11077019572257996,
        -0.07265321165323257,
        0.06981337815523148,
        0.06745992600917816,
        0.06417819857597351,
        0.032366909086704254,
        -0.040210023522377014,
        0.0553886778652668,
        -0.06642236560583115,
        -0.08710622787475586,
        0.12322404235601425,
        0.09967869520187378,
        -0.07452918589115143,
        0.10543528199195862,
        0.017175279557704926,
        0.016787776723504066,
        0.12744660675525665,
        -0.016586709767580032,
        -0.0447247214615345,
        0.07751522958278656,
        -0.03954104706645012,
        -0.021546298637986183,
        -0.04733238369226456,
        0.1280003935098648,
        0.04201866313815117,
        -0.015525946393609047,
        -0.009702684357762337,
        0.005674572661519051,
        -0.08527108281850815,
        0.027813009917736053,
        -0.08905826508998871,
        -0.005007753614336252,
        -0.020306454971432686,
        -0.05079086497426033,
        0.11083650588989258,
        0.03310053423047066,
        0.04647142440080643,
        -0.09439948201179504,
        0.03348573297262192,
        0.03889774531126022,
        0.06745333969593048,
        -0.03187819570302963,
        -0.02328350394964218,
        -0.1153179481625557,
        0.08742038905620575,
        0.07930028438568115,
        0.05323220416903496,
        0.05578286200761795,
        0.06058080121874809,
        0.11668172478675842,
        0.037539638578891754,
        0.050017524510622025,
        0.043981101363897324,
        -0.06393107771873474,
        0.015160370618104935,
        0.03928029164671898,
        -0.10559109598398209,
        -0.025510357692837715,
        -0.06994936615228653,
        -0.07378409057855606,
        0.07930753380060196,
        0.10122363269329071,
        -0.006404896732419729,
        0.028345581144094467,
        -0.02598857879638672,
        0.031355779618024826,
        -0.019503282383084297,
        -0.07503221184015274,
        -0.044774726033210754,
        0.12665855884552002,
        0.015953797847032547,
        -0.0711304172873497,
        0.0209041777998209,
        -0.11384155601263046,
        -0.006337265484035015,
        0.10093566030263901,
        -0.0013339553261175752,
        0.02627548575401306,
        -0.10786405205726624,
        -0.007665608543902636,
        0.0656646341085434,
        -0.08061444759368896,
        -0.052310410887002945,
        0.08403465896844864,
        0.044217050075531006,
        0.04913410171866417,
        -0.12060274928808212,
        0.0734243094921112,
        -0.010507820174098015,
        0.02036123163998127,
        0.1091214045882225,
        -0.11114434152841568,
        0.04948171600699425,
        -0.10422146320343018,
        0.08332991600036621,
        0.03523213043808937,
        0.010202061384916306,
        -0.04983898624777794,
        0.0527912974357605,
        -0.06175858899950981,
        0.009650484658777714,
        0.09235172718763351,
        -0.0806114450097084,
        -0.03133484721183777,
        0.03193899616599083,
        0.02579314075410366,
        0.0028165203984826803,
        0.09410426765680313,
        -0.019582640379667282,
        0.029001127928495407,
        0.06166399270296097,
        -0.03125602379441261,
        0.0675990879535675,
        0.08014657348394394,
        0.053364504128694534,
        -0.024539059028029442,
        0.11230038106441498,
        -0.06538333743810654,
        0.02163039706647396,
        0.02583843097090721,
        0.08288948237895966,
        -0.09157568961381912,
        0.028333324939012527,
        -0.06679635494947433,
        0.05910937860608101,
        0.04518460854887962,
        -0.08522577583789825,
        -0.01703595742583275,
        0.037474725395441055,
        0.05809921398758888,
        0.1119086891412735,
        0.04641001299023628,
        0.031866203993558884,
        0.06850133091211319,
        -0.1242552176117897,
        0.07984519749879837,
        -0.007288292981684208,
        0.08105670660734177,
        0.029137156903743744,
        -0.0029073148034512997,
        0.0718657597899437,
        -0.07643678039312363,
        0.04422181472182274,
        0.06991865485906601,
        -0.05165482312440872,
        0.05547282099723816,
        -0.11834076046943665,
        -0.06248879432678223,
        0.06823858618736267,
        0.05510842055082321,
        -0.11834511160850525,
        0.03799876570701599,
        0.029049407690763474,
        0.11712430417537689,
        -0.1144765093922615,
        -0.02631358802318573,
        -0.056643541902303696,
        -0.06817920506000519,
        -0.028681784868240356,
        -0.11591481417417526,
        0.09483937174081802,
        -0.044118642807006836,
        0.04891468212008476,
        -0.07121090590953827,
        -0.013787645846605301,
        -0.10147595405578613,
        0.11298263818025589,
        0.10865993052721024,
        0.10224786400794983,
        -0.040855731815099716,
        0.07852422446012497,
        -0.11710107326507568,
        0.06991051882505417,
        -0.01773369126021862,
        -0.10716287046670914,
        -0.10639765113592148,
        -0.1303943395614624,
        0.021164745092391968,
        -0.04654514789581299,
        -0.049998052418231964,
        0.12140394002199173,
        -0.03129037842154503,
        0.02450038306415081,
