{
  "version": 2,
  "kind": "mlp",
  "featureNames": [
    "rank_balance_0",
    "rank_balance_1",
    "rank_balance_2",
    "rank_balance_3",
    "rank_balance_4",
    "rank_balance_5",
    "rank_balance_6",
    "rank_balance_7",
    "rank_balance_8",
    "rank_balance_9",
    "rank_balance_10",
    "rank_balance_11",
    "material_value_diff",
    "movable_piece_diff",
    "scout_diff",
    "miner_diff",
    "bomb_diff",
    "high_rank_diff",
    "revealed_ratio_diff",
    "hidden_high_rank_diff",
    "advancement_diff",
    "frontline_diff",
    "center_control_diff",
    "flag_guard_diff",
    "flag_pressure_diff",
    "turn_advantage",
    "game_phase"
  ],
  "layers": [
    {
      "inputSize": 27,
      "outputSize": 64,
      "weights": [
        -0.18022924661636353,
        -0.18172907829284668,
        0.2031233012676239,
        0.06845596432685852,
        0.10883855819702148,
        -0.1030438020825386,
        -0.06347890198230743,
        -0.10161514580249786,
        -0.07509174197912216,
        -0.14915139973163605,
        0.09018073976039886,
        -0.023075362667441368,
        -0.020591802895069122,
        0.030538208782672882,
        -0.06331659853458405,
        0.044985052198171616,
        0.03037000447511673,
        -0.1209728941321373,
        -0.014693896286189556,
        0.12475869804620743,
        -0.5108646154403687,
        -0.05574260279536247,
        0.2606170177459717,
        -0.10257016867399216,
        0.3339974284172058,
        0.09281401336193085,
        -0.15363462269306183,
        0.12409935891628265,
        -0.16060100495815277,
        -0.10987445712089539,
        -0.004932766314595938,
        -0.11087427288293839,
        0.16643311083316803,
        -0.007497628219425678,
        0.12189570814371109,
        -0.16053037345409393,
        0.1724470555782318,
        -0.12183986604213715,
        -0.18559619784355164,
        0.047141656279563904,
        0.10955117642879486,
        0.1632523536682129,
        -0.09038233011960983,
        -0.13391052186489105,
        0.03988415002822876,
        -0.11110272258520126,
        0.04306155815720558,
        0.7122315168380737,
        -0.06300962716341019,
        0.04818025231361389,
        0.15349337458610535,
        -0.2307223230600357,
        0.11876390874385834,
        0.09511954337358475,
        0.1697314828634262,
        -0.15252816677093506,
        -0.08928462862968445,
        -0.08273440599441528,
        0.007806187961250544,
        0.14951983094215393,
        -0.1471061110496521,
        0.0866132453083992,
        -0.12110015749931335,
        0.09873264282941818,
        0.04237305745482445,
        -0.16741801798343658,
        -0.12764418125152588,
        -0.1546894758939743,
        0.1011674776673317,
        -0.1561262458562851,
        -0.014867137186229229,
        0.0005310924025252461,
        0.05445713549852371,
        0.07195999473333359,
        -0.7935565710067749,
        -0.10955429822206497,
        -0.13055801391601562,
        -0.05621667206287384,
        0.07619182020425797,
        0.03068111650645733,
        -0.02260500192642212,
        0.090457484126091,
        0.17263299226760864,
        0.0659356564283371,
        -0.029465116560459137,
        -0.15359820425510406,
        0.07655202597379684,
        -0.06820494681596756,
        0.17190712690353394,
        0.15081429481506348,
        0.07344336807727814,
        0.27203163504600525,
        0.19851984083652496,
        0.09596682339906693,
        -0.11284886300563812,
        0.1688191145658493,
        -0.04495995119214058,
        -0.07512979954481125,
        0.21294747292995453,
        -0.015017355792224407,
        0.05513189733028412,
        0.6367220878601074,
        -0.189973384141922,
        -0.09435266256332397,
        0.19000713527202606,
        -0.16682232916355133,
        0.018526142463088036,
        -0.010199114680290222,
        -0.06711335480213165,
        0.20912624895572662,
        0.007724308874458075,
        0.1639341562986374,
        -0.10654974728822708,
        0.04832647740840912,
        0.07763724774122238,
        0.06093176454305649,
        0.2228505164384842,
        0.09449409693479538,
        0.2742650508880615,
        0.21981559693813324,
        -0.0196128711104393,
        -0.14952954649925232,
        0.031035833060741425,
        0.03706781938672066,
        0.021698983386158943,
        0.1032622903585434,
        -0.16968625783920288,
        0.14993888139724731,
        0.6731132864952087,
        -0.08281519263982773,
        -0.16246983408927917,
        -0.040005650371313095,
        -0.30458250641822815,
        0.14573898911476135,
        0.09610425680875778,
        0.17375807464122772,
        0.01940786838531494,
        0.03764176741242409,
        0.11107786744832993,
        -0.197086900472641,
        0.06946483999490738,
        0.001821740297600627,
        -0.18519602715969086,
        -0.14455975592136383,
        0.13617080450057983,
        0.1498936414718628,
        0.14179778099060059,
        0.20625002682209015,
        -0.06359384208917618,
        -0.03440025821328163,
        0.11720704287290573,
        0.020825263112783432,
        -0.043445389717817307,
        0.035699423402547836,
        0.032901085913181305,
        -0.7177037596702576,
        0.03789854422211647,
        0.22776314616203308,
        -0.10330559313297272,
        0.10771917551755905,
        0.10325557738542557,
        -0.04798396676778793,
        -0.016524657607078552,
        0.1538137048482895,
        -0.07145336270332336,
        -0.1345793455839157,
        -0.061023809015750885,
        0.034364279359579086,
        -0.0893549993634224,
        -0.10508648306131363,
        0.04888264834880829,
        0.05020950734615326,
        -0.04127831384539604,
        -0.11924146115779877,
        -0.018627682700753212,
        -0.05778928101062775,
        -0.05518069863319397,
        -0.17051024734973907,
        0.07170535624027252,
        -0.15934887528419495,
        0.03857804462313652,
        -0.1864076852798462,
        -0.43000346422195435,
        -0.04248441755771637,
        -0.00233656307682395,
        0.1572171151638031,
        0.2942468822002411,
        0.10301706939935684,
        -0.17152662575244904,
        -0.13798624277114868,
        -0.13823089003562927,
        0.1263556033372879,
        0.02462870068848133,
        -0.11185923963785172,
        0.01769796945154667,
        -0.15383335947990417,
        -0.0819687768816948,
        -0.09385041892528534,
        0.18698886036872864,
        0.17013509571552277,
        -0.0530744232237339,
        0.022266291081905365,
        -0.08412306755781174,
        0.04299755021929741,
        0.08105909079313278,
        0.032152194529771805,
        -0.07265925407409668,
        0.30958110094070435,
        -0.026930958032608032,
        -0.6386200785636902,
        0.13529765605926514,
        0.18114037811756134,
        0.1345314234495163,
        0.18340210616588593,
        -0.055686499923467636,
        0.059584151953458786,
        0.16509376466274261,
        -0.25816676020622253,
        -0.04887809976935387,
        -0.14291836321353912,
        0.004918840713799,
        0.05684347823262215,
        -0.1435225009918213,
        0.101962149143219,
        0.07009023427963257,
        -0.060388196259737015,
        -0.1479070484638214,
        0.14076749980449677,
        -0.15561668574810028,
        -0.06466090679168701,
        -0.006889049895107746,
        -0.023258842527866364,
        -0.1941956728696823,
        0.06779173761606216,
        -0.3131822347640991,
        -0.11296400427818298,
        0.6723015904426575,
        -0.14404448866844177,
        -0.19091272354125977,
        -0.033430248498916626,
        -0.3276129364967346,
        -0.06408598273992538,
        -0.052239298820495605,
        0.05000327527523041,
        -0.15814298391342163,
        -0.11151106655597687,
        -0.00993175059556961,
        0.05308585241436958,
        0.10529394447803497,
        -0.13453026115894318,
        -0.013002748601138592,
        0.10586375743150711,
        0.1545950174331665,
        -0.19130559265613556,
        -0.09165997058153152,
        -0.1759389191865921,
        -0.126532644033432,
        0.11212722957134247,
        -0.041472796350717545,
        0.06349452584981918,
        -0.10776814073324203,
        0.1841478794813156,
        -0.10989058017730713,
        -0.4201899468898773,
        -0.07240036129951477,
        -0.01843772828578949,
        -0.18794749677181244,
        0.1417279839515686,
        0.17494340240955353,
        0.08760382980108261,
        -0.10266033560037613,
        0.11080992966890335,
        -0.024044066667556763,
        -0.12882369756698608,
        0.10410148650407791,
        0.05875852331519127,
        0.042861439287662506,
        -0.12418439984321594,
        -0.036520615220069885,
        -0.08688441663980484,
        -0.050511397421360016,
        0.16629745066165924,
        -0.08130060136318207,
        0.19976843893527985,
        -0.031269852072000504,
        -0.09174811840057373,
        0.033139917999506,
        0.18393868207931519,
        0.0034834295511245728,
        -0.11205685138702393,
        -0.07694349437952042,
        -0.006203091703355312,
        -0.2203129231929779,
        -0.09660683572292328,
        0.005318937823176384,
        0.05900287628173828,
        0.1134752631187439,
        -0.1389181911945343,
        0.1436065137386322,
        -0.15903766453266144,
        0.1049419417977333,
        0.16950109601020813,
        0.2713495194911957,
        0.11061246693134308,
        0.06865541636943817,
        0.038928382098674774,
        0.1227780133485794,
        -0.290891170501709,
        0.23726467788219452,
        -0.060777608305215836,
        -0.01794137991964817,
        -0.207411527633667,
        -0.0601641982793808,
        0.05228981748223305,
        -0.08777619153261185,
        0.03590903431177139,
        -0.3047844171524048,
        -0.47847118973731995,
        0.19962185621261597,
        0.2760891318321228,
        0.11247902363538742,
        0.08886811137199402,
        -0.17358975112438202,
        0.041882213205099106,
        0.1078128069639206,
        -0.14318719506263733,
        0.04299749806523323,
        0.17606458067893982,
        -0.019614923745393753,
        -0.10398171097040176,
        0.15223468840122223,
        -0.002597064943984151,
        0.16877320408821106,
        -0.1174728274345398,
        0.09251898527145386,
        -0.1245553195476532,
        0.18416552245616913,
        -0.09687444567680359,
        0.08994623273611069,
        0.0519033819437027,
        0.05787588283419609,
        0.010920255444943905,
        0.24209164083003998,
        -0.08683249354362488,
        -0.8473073840141296,
        -0.0705544725060463,
        0.1407419741153717,
        -0.11723041534423828,
        0.17762385308742523,
        -0.05887724459171295,
        0.10209456086158752,
        0.11515982449054718,
        0.13304705917835236,
        -0.1327984631061554,
        -0.1668335497379303,
        -0.024311570450663567,
        -0.11077720671892166,
        0.16344526410102844,
        -0.27546632289886475,
        0.1363474577665329,
        0.18804608285427094,
        0.16378629207611084,
        0.13075201213359833,
        -0.18786731362342834,
        0.1584504097700119,
        -0.06735329329967499,
        -0.18938523530960083,
        0.2550875246524811,
        -0.004468249157071114,
        0.1692536473274231,
        0.17750689387321472,
        -0.7833539247512817,
        -0.15149642527103424,
        0.05852409079670906,
        -0.09336741268634796,
        0.20003323256969452,
        -0.13762302696704865,
        -0.02550734020769596,
        -0.08558421581983566,
        -0.08464108407497406,
        -0.17178872227668762,
        0.0996749997138977,
        0.0028038392774760723,
        -0.1439485251903534,
        0.1236463338136673,
        0.022316304966807365,
        0.028910154476761818,
        -0.11486729979515076,
        0.07203720510005951,
        0.23553921282291412,
        0.12443322688341141,
        -0.1575034260749817,
        0.18005886673927307,
        0.012563313357532024,
        0.14268696308135986,
        0.15899811685085297,
        0.3625403642654419,
        -0.12780068814754486,
        -0.47574567794799805,
        -0.11167676001787186,
        0.07006450742483139,
        -0.17091022431850433,
        0.17243121564388275,
        -0.005082117859274149,
        -0.029710659757256508,
        -0.03039756417274475,
        0.06646252423524857,
        0.1989629864692688,
        0.15645897388458252,
        0.12848606705665588,
        0.03973057493567467,
        0.20928728580474854,
        -0.004188473802059889,
        0.06476139277219772,
        0.06603628396987915,
        -0.2140929102897644,
        -0.21358667314052582,
        0.06717202812433243,
        -0.036603495478630066,
        0.005632326006889343,
        0.0005056289955973625,
        -0.028632692992687225,
        0.1663668155670166,
        -0.2201409935951233,
        0.12727271020412445,
        0.7226018905639648,
        -0.1720598191022873,
        -0.21228720247745514,
        -0.15839514136314392,
        -0.30025652050971985,
        -0.07910045981407166,
        -0.023262452334165573,
        -0.04679743945598602,
        -0.2382107377052307,
        -0.09578878432512283,
        -0.13922087848186493,
        0.21524815261363983,
        -0.013016954995691776,
        -0.2887689173221588,
        0.16675415635108948,
        -0.14574305713176727,
        0.16009964048862457,
        0.1634703278541565,
        0.1497592031955719,
        -0.23804539442062378,
        0.04434065520763397,
        0.12683320045471191,
        -0.16463492810726166,
        0.14984595775604248,
        0.01917102374136448,
        0.11082857847213745,
        0.12188214808702469,
        -0.6265155673027039,
        -0.15246348083019257,
        0.08834099769592285,
        0.06651351600885391,
        0.045593298971652985,
        0.08801332861185074,
        -0.13299338519573212,
        0.1656075268983841,
        0.253198504447937,
        0.06336520612239838,
        -0.07084114849567413,
        0.08472606539726257,
        -0.01149306632578373,
        0.09065213054418564,
        0.07145428657531738,
        0.2270781397819519,
        -0.06867033243179321,
        -0.09616664797067642,
        0.03397303447127342,
        0.05839839577674866,
        0.18938082456588745,
        -0.0900859534740448,
        0.042882099747657776,
        0.017453256994485855,
        0.014563273638486862,
        -0.008509119972586632,
        -0.010955039411783218,
        0.3602829575538635,
        -0.03452913090586662,
        -0.14473219215869904,
        0.023706717416644096,
        -0.18469835817813873,
        -0.16864986717700958,
        -0.024305736646056175,
        -0.018430277705192566,
        -0.13371875882148743,
        0.15513767302036285,
        -0.0885319858789444,
        0.1512017548084259,
        0.07441091537475586,
        -0.19936446845531464,
        0.03785960376262665,
        0.10593675822019577,
        -0.1092192530632019,
        -0.10060831904411316,
        0.20089873671531677,
        0.11411546915769577,
        -0.15012264251708984,
        0.09412448853254318,
        -0.07116040587425232,
        -0.1771639883518219,
        -0.030586274340748787,
        0.20930320024490356,
        -0.026842592284083366,
        -0.5051876902580261,
        -0.14912313222885132,
        0.19205769896507263,
        0.14365069568157196,
        0.2948360741138458,
        0.037214234471321106,
        0.05201970785856247,
        -0.13922718167304993,
        -0.037555404007434845,
        0.004480273928493261,
        -0.0927610769867897,
        -0.12669901549816132,
        0.16191814839839935,
        0.19946694374084473,
        -0.24694450199604034,
        0.07595526427030563,
        0.10597167164087296,
        0.15655966103076935,
        0.1332765817642212,
        0.22666561603546143,
        -0.026649650186300278,
        0.1576218456029892,
        0.17083485424518585,
        -0.15976276993751526,
        -0.1407748907804489,
        0.2345992624759674,
        0.0986236035823822,
        -0.6306878328323364,
        0.08393768221139908,
        0.07409830391407013,
        0.036924272775650024,
        0.07453197240829468,
        0.10022707283496857,
        0.13291926681995392,
        -0.1335134208202362,
        0.2245672047138214,
        0.0011641796445474029,
        0.13217194378376007,
        0.11464253067970276,
        0.05499562621116638,
        0.03480125218629837,
        0.027728034183382988,
        0.09176745265722275,
        -0.08621840178966522,
        0.0364096462726593,
        0.09283261001110077,
        0.10999339073896408,
        -0.08081331849098206,
        0.02041526325047016,
        0.08881821483373642,
        0.26599693298339844,
        0.01909073255956173,
        -0.010863619856536388,
        0.07413206994533539,
        -0.28201258182525635,
        -0.1570379137992859,
        0.0929921418428421,
        -0.22745858132839203,
        0.16495510935783386,
        0.11197506636381149,
        0.11339461803436279,
        -0.1406882405281067,
        0.14029793441295624,
        0.10736162215471268,
        0.025944558903574944,
        0.20581156015396118,
        -0.10294322669506073,
        -0.02604841999709606,
        -0.053540486842393875,
        0.0431104376912117,
        0.047357141971588135,
        0.007111823186278343,
        -0.1841793805360794,
        -0.06738615036010742,
        0.08698918670415878,
        -0.16186434030532837,
        -0.003726547583937645,
        -0.08017339557409286,
        -0.07018934935331345,
        -0.115992471575737,
        -0.0007631741464138031,
        0.761365532875061,
        -0.0301738940179348,
        -0.1844133585691452,
        0.16784270107746124,
        -0.18076112866401672,
        -0.04197484627366066,
        -0.11674022674560547,
        0.045103251934051514,
        -0.2612137198448181,
        0.054426878690719604,
        0.06370806694030762,
        -0.11460017412900925,
        -0.05438532680273056,
        -0.18395470082759857,
        0.18296389281749725,
        0.08939389884471893,
        0.00627114437520504,
        0.21120774745941162,
        -0.05447488650679588,
        -0.19215641915798187,
        0.060604218393564224,
        0.07191887497901917,
        0.15721672773361206,
        0.009797550737857819,
        0.07790704071521759,
        0.2550698220729828,
        0.1746244728565216,
        -0.7249407172203064,
        0.1849312037229538,
        -0.10632692277431488,
        0.18210390210151672,
        0.15336200594902039,
        -0.14766891300678253,
        0.05743124708533287,
        -0.03916767239570618,
        -0.21202465891838074,
        -0.07042911648750305,
        -0.017222968861460686,
        0.1349881887435913,
        -0.10044150799512863,
        0.10598355531692505,
        0.04328981786966324,
        0.04578066244721413,
        0.10528334975242615,
        -0.2756370007991791,
        -0.2549830973148346,
        -0.10586817562580109,
        -0.202508807182312,
        -0.09040718525648117,
        -0.028210237622261047,
        -0.22177956998348236,
        -0.07874058187007904,
        -0.22089767456054688,
        -0.053439587354660034,
        0.49349847435951233,
        -0.0017657987773418427,
        -0.030605284497141838,
        0.11882873624563217,
        -0.11151032149791718,
        -0.08620815724134445,
        -0.027857011184096336,
        -0.0022178199142217636,
        -0.16150856018066406,
        -0.0030692932195961475,
        -0.03382645174860954,
        0.0620078407227993,
        0.019704753533005714,
        0.13201309740543365,
        -0.003939667250961065,
        -0.14284561574459076,
        0.07670575380325317,
        -0.1865682452917099,
        -0.0749259665608406,
        -0.10666030645370483,
        -0.10385031253099442,
        -0.08932823687791824,
        0.15658080577850342,
        0.061676230281591415,
        0.0301057156175375,
        0.08314891904592514,
        -0.20415623486042023,
        0.2995496690273285,
        0.08605363219976425,
        0.07798568159341812,
        -0.1335884928703308,
        -0.012836718000471592,
        -0.06941128522157669,
        -0.002158673945814371,
        -0.04015369713306427,
        -0.12438492476940155,
        -0.1930907964706421,
        -0.08848784118890762,
        0.1079900860786438,
        0.03178669884800911,
        -0.16273684799671173,
        -0.08308222889900208,
        0.06081495061516762,
        -0.16246195137500763,
        0.07631981372833252,
        0.12857627868652344,
        0.036410070955753326,
        -0.1368257850408554,
        0.03532245755195618,
        0.10795436799526215,
        0.10665808618068695,
        -0.052673645317554474,
        -0.3349166810512543,
        0.07229675352573395,
        0.5328764319419861,
        -0.09139872342348099,
        -0.15455365180969238,
        -0.10257451981306076,
        -0.0002557756379246712,
        -0.03673097491264343,
        0.14952073991298676,
        0.1717708259820938,
        -0.29095259308815,
        0.056468166410923004,
        -0.2127331644296646,
        0.14520089328289032,
        -0.16050681471824646,
        -0.1517488658428192,
        0.15132689476013184,
        -0.12139931321144104,
        0.038621675223112106,
        -0.028090447187423706,
        -0.22764776647090912,
        -0.06627128273248672,
        -0.23896914720535278,
        -0.1061452254652977,
        -0.2427290380001068,
        -0.2766720950603485,
        -0.1418912559747696,
        0.14062850177288055,
        0.09711198508739471,
        -0.16313870251178741,
        -0.08774928003549576,
        -0.04529046267271042,
        0.03206725791096687,
        -0.03289622813463211,
        -0.0635947734117508,
        -0.19456465542316437,
        -0.1705448478460312,
        0.15200452506542206,
        0.1373571902513504,
        0.25732219219207764,
        0.15562988817691803,
        -0.044506482779979706,
        0.15430709719657898,
        -0.17234426736831665,
        0.16666586697101593,
        -0.17879639565944672,
        0.07932360470294952,
        0.018491050228476524,
        0.14392028748989105,
        0.13729126751422882,
        -0.06833287328481674,
        0.2417917102575302,
        0.07503248006105423,
        0.22090613842010498,
        -0.08999960869550705,
        0.08966466039419174,
        0.7058137059211731,
        0.09637428820133209,
        0.1153433695435524,
        -0.036963559687137604,
        -0.01752302423119545,
        0.03066951595246792,
        0.09847386181354523,
        0.18742643296718597,
        -0.06642169505357742,
        -0.14722158014774323,
        -0.09887479245662689,
        0.13560520112514496,
        0.15230600535869598,
        -0.19046175479888916,
        0.29043054580688477,
        -0.01559158693999052,
        -0.09260331094264984,
        -0.039946042001247406,
        -0.07696248590946198,
        -0.19523006677627563,
        -0.054069869220256805,
        -0.1348736584186554,
        -0.1790681630373001,
        -0.12036292999982834,
        -0.21301713585853577,
        0.32484591007232666,
        0.09009990841150284,
        -0.4631553590297699,
        0.006641733460128307,
        0.061630699783563614,
        0.055319879204034805,
        0.19272775948047638,
        -0.10739797353744507,
        -0.12319553643465042,
        -0.046621620655059814,
        0.014437194913625717,
        0.07509755343198776,
        0.07667563110589981,
        0.14473697543144226,
        0.010524317622184753,
        -0.08053074032068253,
        -0.09752953797578812,
        -0.13781289756298065,
        -0.11586916446685791,
        0.025333018973469734,
        0.0901193767786026,
        0.15714174509048462,
        -0.06096735596656799,
        -0.01256981585174799,
        -0.054559819400310516,
        -0.014545912854373455,
        0.05256436765193939,
        -0.1696908324956894,
        -0.00023793693981133401,
        0.5473989844322205,
        0.040373027324676514,
        -0.11180000007152557,
        -0.08227211982011795,
        -0.11037885397672653,
        -0.022447524592280388,
        -0.07243005186319351,
        0.08081208169460297,
        0.026728587225079536,
        -0.0077043031342327595,
        -0.11509784311056137,
        -0.0433259978890419,
        -0.15306125581264496,
        0.05332576856017113,
        -0.08985934406518936,
        0.16362474858760834,
        0.018950844183564186,
        0.045814111828804016,
        0.11655299365520477,
        0.1572684943675995,
        -0.08364914357662201,
        0.13516171276569366,
        0.02510574273765087,
        -0.06423166394233704,
        0.12786249816417694,
        0.06053493544459343,
        -0.04538611322641373,
        -0.6209031939506531,
        -0.11988160759210587,
        0.2298496961593628,
        -0.19711452722549438,
        0.2854772210121155,
        -0.15751710534095764,
        -0.007133138831704855,
        0.01147691160440445,
        0.15012289583683014,
        -0.08901891112327576,
        0.05821700766682625,
        0.005956658162176609,
        0.07761722803115845,
        -0.008069716393947601,
        0.12271957844495773,
        -0.10288279503583908,
        -0.1737310141324997,
        0.25147417187690735,
        -0.1002209261059761,
        -0.04391017556190491,
        -0.04118090867996216,
        0.16879092156887054,
        -0.038751695305109024,
        -0.10650219768285751,
        -0.017042357474565506,
        -0.09146478027105331,
        0.08297686278820038,
        0.7427664399147034,
        -0.08812303096055984,
        0.027776112779974937,
        -0.1767105907201767,
        -0.0982188805937767,
        0.06220387667417526,
        0.10631037503480911,
        -0.11033933609724045,
        -0.06518660485744476,
        0.05236088111996651,
        -0.16816267371177673,
        -0.15828846395015717,
        -0.20610252022743225,
        -0.011017316952347755,
        0.18611471354961395,
        0.05219298601150513,
        -0.02950591966509819,
        0.04900989308953285,
        -0.06889843940734863,
        -0.0005816335324198008,
        -0.05977224186062813,
        -0.08946923166513443,
        0.13451963663101196,
        -0.09684436768293381,
        0.018430305644869804,
        -0.3413420617580414,
        -0.008576739579439163,
        0.5149340033531189,
        0.047629620879888535,
        -0.10632606595754623,
        0.17850041389465332,
        -0.278207927942276,
        0.09637826681137085,
        -0.1324475258588791,
        0.10305379331111908,
        -0.2558501362800598,
        -0.017686456441879272,
        -0.062266893684864044,
        0.23794566094875336,
        0.06979746371507645,
        -0.3727337718009949,
        0.18933136761188507,
        -0.23604129254817963,
        0.26563501358032227,
        -0.2334052175283432,
        -0.0899001955986023,
        -0.20995762944221497,
        0.013673401437699795,
        -0.1324775367975235,
        0.06410782039165497,
        0.06458620727062225,
        -0.0745549276471138,
        -0.14435234665870667,
        -0.3058701455593109,
        0.7877175807952881,
        -0.0503060482442379,
        -0.10907859355211258,
        0.07618878781795502,
        -0.04314729571342468,
        0.06756323575973511,
        0.07304416596889496,
        0.09181807935237885,
        -0.29717299342155457,
        0.012137132696807384,
        -0.2885366976261139,
        -0.016177324578166008,
        -0.08148576319217682,
        -0.16934017837047577,
        0.1637590080499649,
        0.10001926869153976,
        -0.14674237370491028,
        -0.11980002373456955,
        0.06282634288072586,
        -0.02194175124168396,
        -0.09512835741043091,
        -0.04840833693742752,
        -0.24469725787639618,
        0.12113494426012039,
        0.08877754956483841,
        0.06552798300981522,
        0.1193598285317421,
        -0.5224061608314514,
        0.16451013088226318,
        0.07971040904521942,
        0.06109367683529854,
        0.3800186514854431,
        0.11062725633382797,
        0.17794540524482727,
        -0.055140599608421326,
        0.08273500949144363,
        0.14316071569919586,
        -0.12695495784282684,
        0.04833675175905228,
        -0.019400784745812416,
        0.15307538211345673,
        -0.14040607213974,
        -0.002143260557204485,
        0.11300304532051086,
        -0.1319647878408432,
        -0.1327597200870514,
        -0.0765228345990181,
        0.13570357859134674,
        0.1378205567598343,
        -0.12775440514087677,
        0.06640619039535522,
        -0.10402559489011765,
        0.08774878829717636,
        0.18545669317245483,
        -0.4197237491607666,
        -0.029848705977201462,
        0.09544599801301956,
        -0.0019000072497874498,
        0.22856488823890686,
        -0.053181033581495285,
        -0.10367098450660706,
        0.12739457190036774,
        -0.05378812924027443,
        0.07300997525453568,
        -0.1228046715259552,
        0.1082281619310379,
        0.1690678745508194,
        0.09673897922039032,
        0.04146402329206467,
        0.13591761887073517,
        0.024083461612462997,
        -0.0070244185626506805,
        0.11963962018489838,
        0.14558261632919312,
        -0.11169490218162537,
        0.16580985486507416,
        0.021084584295749664,
        -0.08472565561532974,
        0.1002281978726387,
        0.036603983491659164,
        0.14390848577022552,
        -0.3141074478626251,
        -0.11028458178043365,
        -0.040205780416727066,
        -0.18674282729625702,
        0.1311221867799759,
        -0.14295071363449097,
        -0.08282799273729324,
        0.058417096734046936,
        0.1770545393228531,
        0.10844763368368149,
        0.0976443737745285,
        0.06495879590511322,
        -0.11604414135217667,
        -0.16404104232788086,
        -0.03572345897555351,
        0.21070513129234314,
        -0.0026578272227197886,
        -0.006240199785679579,
        -0.08271139860153198,
        -0.09653230756521225,
        -0.15215453505516052,
        0.15533487498760223,
        -0.04051689803600311,
        -0.12209904938936234,
        0.05192068964242935,
        0.1442364752292633,
        0.004261115100234747,
        -0.42950958013534546,
        0.1184033676981926,
        -0.14355777204036713,
        -0.17250727117061615,
        0.08936066180467606,
        -0.12911754846572876,
        -0.16013386845588684,
        0.16989652812480927,
        0.005253396462649107,
        -0.11274894326925278,
        -0.034949891269207,
        -0.15295302867889404,
        0.17911045253276825,
        -0.03302324563264847,
        -0.16805660724639893,
        -0.10951558500528336,
        0.10152523219585419,
        0.007217084523290396,
        0.03623266890645027,
        -0.029740897938609123,
        -0.09239755570888519,
        0.016609525308012962,
        0.17910033464431763,
        -0.05507734790444374,
        0.058244992047548294,
        -0.0036539852153509855,
        -0.11618231981992722,
        -0.27201175689697266,
        0.044030528515577316,
        0.22237281501293182,
        -0.08502931147813797,
        0.019536092877388,
        -0.10664345324039459,
        0.15625451505184174,
        -0.14797192811965942,
        0.20231372117996216,
        0.07070888578891754,
        0.10673720389604568,
        0.13488931953907013,
        -0.0012487508356571198,
        0.24679523706436157,
        -0.2552078366279602,
        -0.01344197429716587,
        0.1607995182275772,
        0.08551479876041412,
        0.01938103511929512,
        0.06760139763355255,
        -0.044005103409290314,
        0.13988691568374634,
        0.04383312910795212,
        0.038495372980833054,
        0.11742030829191208,
        0.37823745608329773,
        -0.10666490346193314,
        -0.6722902655601501,
        0.19961003959178925,
        0.1999562680721283,
        -0.13568586111068726,
        0.0019670105539262295,
        0.03707526996731758,
        0.11400455981492996,
        0.045963168144226074,
        0.13394668698310852,
        -0.15312209725379944,
        0.1245637908577919,
        -0.13399705290794373,
        0.11159896105527878,
        0.12449678778648376,
        -0.009389685466885567,
        0.13917891681194305,
        -0.1158548966050148,
        -0.16656625270843506,
        -0.23768813908100128,
        0.1086263433098793,
        0.06530548632144928,
        -0.14134275913238525,
        0.12071388214826584,
        0.12288913130760193,
        -0.20291286706924438,
        0.2719719111919403,
        0.028987344354391098,
        -0.5478141903877258,
        0.18817855417728424,
        0.1425214558839798,
        0.043052930384874344,
        0.2137340009212494,
        0.05934988707304001,
        0.009584124200046062,
        -0.1691460907459259,
        0.04522153362631798,
        -0.16271409392356873,
        0.0329974927008152,
        0.01705794408917427,
        0.011954668909311295,
        -0.13450051844120026,
        -0.19570766389369965,
        0.16450412571430206,
        0.09912481904029846,
        0.12453146278858185,
        0.013747317716479301,
        -0.054085273295640945,
        -0.08254804462194443,
        0.10651098936796188,
        -0.10930521786212921,
        0.19228719174861908,
        0.16570766270160675,
        0.004513629712164402,
        -0.005318096838891506,
        -0.6666049361228943,
        -0.11217597126960754,
        0.13590921461582184,
        -0.07977866381406784,
        0.3565498888492584,
        -0.09109833091497421,
        0.0648430585861206,
        -0.1642928123474121,
        -0.1207590326666832,
        0.025447286665439606,
        0.14111270010471344,
        0.11556848138570786,
        -0.1890421360731125,
        0.019004808738827705,
        -0.07138076424598694,
        -0.012817156501114368,
        -0.16925297677516937,
        -0.08601754903793335,
        0.052834946662187576,
        -0.19085808098316193,
        -0.1799253523349762,
        0.04737113416194916,
        0.015455907210707664,
        -0.11433082818984985,
        0.13101117312908173,
        -0.2819002568721771,
        -0.12587641179561615,
        0.3749236464500427,
        -0.06297692656517029,
        -0.09479056298732758,
        0.16808024048805237,
        -0.15683896839618683,
        0.05441930517554283,
        -0.0532468818128109,
        0.15609438717365265,
        0.3030237853527069,
        -0.15775805711746216,
        9.176546154776588e-05,
        -0.1873008906841278,
        0.1175796315073967,
        -0.13145843148231506,
        -0.01224539615213871,
        0.2664577066898346,
        -0.21692714095115662,
        0.15351250767707825,
        0.26668182015419006,
        0.24050360918045044,
        -0.04371469467878342,
        0.1409616470336914,
        0.07276038825511932,
        0.26522576808929443,
        0.2075250893831253,
        -0.30605369806289673,
        -0.20089292526245117,
        0.8875570893287659,
        -0.11247487366199493,
        -0.13479584455490112,
        0.013149070553481579,
        -0.17759640514850616,
        -0.01583431288599968,
        -0.07747682929039001,
        0.06942979991436005,
        -0.21085330843925476,
        0.014060288667678833,
        0.079037144780159,
        0.062460631132125854,
        0.04023033007979393,
        0.03418712317943573,
        -0.13952700793743134,
        -0.042607877403497696,
        -0.08740117400884628,
        -0.18747486174106598,
        -0.1611008495092392,
        0.16291554272174835,
        -0.04878498613834381,
        0.06588053703308105,
        0.0998155027627945,
        -0.07425258308649063,
        -0.12760037183761597,
        0.02111055515706539,
        -0.07162367552518845,
        -0.49257543683052063,
        -0.1368405818939209,
        0.04024438187479973,
        0.06057348847389221,
        0.3166617751121521,
        0.05486561357975006,
        0.006750558037310839,
        0.1317298859357834,
        0.17775781452655792,
        0.06656260788440704,
        -0.02188240922987461,
        -0.19877558946609497,
        -0.07379970699548721,
        -0.03309540078043938,
        0.06959155946969986,
        0.017745209857821465,
        0.06642231345176697,
        0.20487356185913086,
        0.011326729319989681,
        -0.15148289501667023,
        -0.07972244918346405,
        -0.09060776233673096,
        0.14684972167015076,
        -0.03478248044848442,
        0.0434892438352108,
        -0.19268596172332764,
        -0.13672946393489838,
        0.646216869354248,
        -0.11060020327568054,
        -0.08198665082454681,
        -0.12706628441810608,
        -0.17474055290222168,
        0.01920855976641178,
        0.027553843334317207,
        -0.0718986988067627,
        -0.014806433580815792,
        -0.058108024299144745,
        -0.1401417851448059,
        -0.1395011991262436,
        -0.006845713127404451,
        -0.28261300921440125,
        0.1780596375465393,
        -0.14566612243652344,
        -0.08901786804199219,
        0.040147118270397186,
        0.07038863003253937,
        -0.07477952539920807,
        0.09074370563030243,
        -0.12042287737131119,
        0.03549414128065109,
        0.020072363317012787,
        -0.20843596756458282,
        0.05672482028603554,
        0.0642503872513771,
        -0.4937547445297241,
        0.13991031050682068,
        0.16041092574596405,
        -0.11237429082393646,
        0.047386541962623596,
        -0.03055567853152752,
        -0.12866902351379395,
        -0.05194973945617676,
        -0.21399077773094177,
        0.063339002430439,
        0.1398783028125763,
        0.042995113879442215,
        -0.13615670800209045,
        -0.21520361304283142,
        0.020926399156451225,
        0.01357835903763771,
        -0.006803866010159254,
        -0.0050796084105968475,
        0.18312762677669525,
        0.05846733972430229,
        0.025338636711239815,
        -0.04877888411283493,
        0.09474685788154602,
        0.0721631571650505,
        -0.2339801788330078,
        -0.31354621052742004,
        -0.024773379787802696,
        0.6415952444076538,
        0.0560917891561985,
        -0.1986313760280609,
        -0.16581571102142334,
        -0.24564696848392487,
        -0.029695622622966766,
        0.016846727579832077,
        -0.052915170788764954,
        0.24686436355113983,
        0.0028244941495358944,
        0.17234332859516144,
        -0.17181219160556793,
        0.09358125180006027,
        0.016177097335457802,
        -0.044404249638319016,
        0.1532563865184784,
        -0.261355459690094,
        0.19500724971294403,
        0.1792909950017929,
        0.05649995803833008,
        0.1052299439907074,
        0.005958732217550278,
        0.1143030896782875,
        0.2862028479576111,
        -0.08752993494272232,
        -0.003817232558503747,
        -0.0609331950545311,
        0.45269763469696045,
        -0.004822971299290657,
        0.07085322588682175,
        -0.09706725180149078,
        -0.27892351150512695,
        0.10818175971508026,
        -0.06717752665281296,
        0.0619494765996933,
        -0.03445710986852646,
        0.06245004013180733,
        0.16139668226242065,
        -0.06868230551481247,
        -0.05584618076682091,
        0.12692025303840637,
        -0.04819895699620247,
        -0.013572640717029572,
        -0.14943049848079681,
        0.14829879999160767,
        0.016895797103643417,
        -0.0025532147847115993,
        -0.05798865854740143,
        -0.028485381975769997,
        0.10807840526103973,
        0.019760500639677048,
        0.17299869656562805,
        0.1684650331735611,
        -0.03666553273797035,
        -0.41181838512420654,
        0.04146752879023552,
        0.02204858511686325,
        0.04547403007745743,
        0.325040727853775,
        0.047140516340732574,
        0.12468423694372177,
        0.12469534575939178,
        -0.45434603095054626,
        0.05139775946736336,
        -0.1794440895318985,
        0.10621818900108337,
        0.1810918003320694,
        -0.12233380228281021,
        0.2578827142715454,
        -0.3162245452404022,
        0.2577553987503052,
        -0.145579993724823,
        -0.2778172791004181,
        -0.16469447314739227,
        -0.042728397995233536,
        -0.030290475115180016,
        -0.3851017355918884,
        -0.2819439470767975,
        -0.3907884657382965,
        0.02819688431918621,
        0.22281527519226074,
        -0.5096395015716553,
        0.04112688824534416,
        -0.01438133791089058,
        0.28834810853004456,
        -0.08638843894004822,
        0.043397217988967896,
        0.04118972271680832,
        0.10615791380405426,
        0.16322290897369385,
        0.030750932171940804,
        -0.17718175053596497,
        0.16012904047966003,
        0.05494346842169762,
        -0.04285385087132454,
        -0.20206406712532043,
        -0.078421950340271,
        -0.12371336668729782,
        0.25301700830459595,
        0.21752005815505981,
        0.13812945783138275,
        0.12498287856578827,
        -0.1176658645272255,
        -0.08541172742843628,
        0.005207966081798077,
        -0.0990990698337555,
        0.29703694581985474,
        0.07440312951803207,
        -0.3582223653793335,
        -0.004528395365923643,
        -0.13938769698143005,
        -0.08744470030069351,
        0.25646600127220154,
        0.11745454370975494,
        0.04793882369995117,
        -0.05644109845161438,
        -0.20262931287288666,
        -0.11126557737588882,
        0.10872906446456909,
        -0.08679196238517761,
        0.06067202240228653,
        0.01871497929096222,
        -0.009864206425845623,
        0.12778982520103455,
        -0.06595516204833984,
        -0.030000658705830574,
        -0.09806758165359497,
        -0.2022993266582489,
        0.020449990406632423,
        0.047725968062877655,
        -0.0884760171175003,
        0.09326471388339996,
        -0.17119644582271576,
        -0.38779228925704956,
        -0.14178577065467834,
        0.5438000559806824,
        -0.043699078261852264,
        -0.12019437551498413,
        0.12120500952005386,
        -0.38918814063072205,
        0.02175518497824669,
        0.005728941410779953,
        0.050822049379348755,
        0.20559930801391602,
        0.10602884739637375,
        -0.12038331478834152,
        -0.19068029522895813,
        -0.10824863612651825,
        -0.12461244314908981,
        0.06979843229055405,
        0.05470318719744682,
        0.15656433999538422,
        -0.01070700865238905,
        -0.04664454236626625,
        -0.04146401211619377,
        0.017402220517396927,
        -0.03627029433846474,
        0.1414337456226349,
        -0.16172215342521667,
        0.12151949107646942,
        -0.3158123195171356,
        -0.16961431503295898,
        0.4956244230270386,
        0.045520443469285965,
        0.072380430996418,
        0.05691436678171158,
        -0.19099287688732147,
        -0.01489007007330656,
        -0.09428125619888306,
        -0.017267510294914246,
        0.12308844923973083,
        0.20528584718704224,
        0.21535155177116394,
        -0.1718178689479828,
        -0.03533617779612541,
        0.022506358101963997,
        -0.061740972101688385,
        -0.053323958069086075,
        0.015675576403737068,
        -0.11103902757167816,
        0.21830779314041138,
        0.2627864480018616,
        -0.03720030188560486,
        -0.13961485028266907,
        0.11024360358715057,
        -0.025370974093675613,
        0.1650128960609436,
        -0.24879176914691925,
        0.07121293991804123,
        0.4329015910625458,
        -0.07761458307504654,
        -0.1298450231552124,
        0.09849374741315842,
        -0.12002130597829819,
        -0.13862557709217072,
        -0.038519494235515594,
        -0.08905161917209625,
        -0.16193023324012756,
        0.02491804212331772,
        0.09482486546039581,
        -0.08411075919866562,
        -0.18073530495166779,
        0.021352743729948997,
        -0.12503555417060852,
        -0.09832604974508286,
        0.012229879386723042,
        0.31104332208633423,
        -0.1285838931798935,
        0.09067557007074356,
        -0.0793079361319542,
        -0.050941597670316696,
        -0.1569216251373291,
        0.09000179171562195,
        0.2500370144844055,
        -0.17919950187206268,
        0.1728653460741043,
        0.7117971777915955,
        0.05084206536412239,
        0.026117676869034767,
        -0.1961575746536255,
        -0.34093037247657776,
        -0.13748382031917572,
        0.08209335058927536,
        -0.16644516587257385,
        -0.23709207773208618,
        -0.12278153747320175,
        -0.19278113543987274,
        0.015730109065771103,
        0.012397442013025284,
        -0.25984230637550354,
        0.2537597715854645,
        -0.09891683608293533,
        -0.10302459448575974,
        0.06724736839532852,
        0.13925208151340485,
        -0.10672786831855774,
        -0.19298335909843445,
        -0.12604670226573944,
        0.009077122434973717,
        0.08684408664703369,
        0.031102798879146576,
        -0.29723939299583435,
        -0.21471799910068512,
        0.4258352220058441,
        -0.09009164571762085,
        -0.08557664602994919,
        -0.04859742894768715,
        -0.39126065373420715,
        0.004888742230832577,
        -0.14702287316322327,
        -0.14776740968227386,
        -0.20155975222587585,
        -0.08961896598339081,
        0.19148029386997223,
        0.12683165073394775,
        0.04776447266340256,
        -0.029230358079075813,
        0.10819849371910095,
        -0.06953981518745422,
        -0.1597522497177124,
        -0.06583521515130997,
        -0.11952806264162064,
        -0.016796205192804337,
        -0.1998799592256546,
        -0.07246359437704086,
        -0.04884186014533043,
        0.20001979172229767,
        0.09721974283456802,
        0.26470234990119934,
        7.752125384286046e-06,
        -0.6537069082260132,
        0.051258351653814316,
        -0.17009960114955902,
        -0.1365654468536377,
        0.01186161208897829,
        -0.03415694460272789,
        -0.19265009462833405,
        0.07649503648281097,
        0.13600346446037292,
        -0.11082659661769867,
        0.03532107174396515,
        -0.0007670036284253001,
        0.03734290599822998,
        -0.012903351336717606,
        0.15011273324489594,
        -0.003982258029282093,
        -0.11995745450258255,
        -0.05870937928557396,
        0.12342933565378189,
        0.053578734397888184,
        -0.005932358093559742,
        -0.030090205371379852,
        -0.09141940623521805,
        -0.038868941366672516,
        -0.12817510962486267,
        0.18417960405349731,
        0.058121927082538605,
        -0.3599764108657837,
        -0.019733639433979988,
        0.06548997759819031,
        0.10698137432336807,
        0.22816528379917145,
        0.025003446266055107,
        0.04306090250611305,
        0.009988181293010712,
        -0.17119598388671875,
        0.010545794852077961,
        -0.023349575698375702,
        0.16550979018211365,
        0.14729535579681396,
        0.020842187106609344,
        0.23575221002101898,
        -0.08256760984659195,
        0.21089719235897064,
        0.05403608828783035,
        -0.019778145477175713,
        -0.16470888257026672,
        -0.058739498257637024,
        -0.048329196870326996,
        0.02188781276345253,
        -0.18688634037971497,
        0.02324412390589714,
        -0.2514607906341553,
        -0.08743839710950851,
        0.4679540991783142,
        -0.045108113437891006,
        -0.2510070204734802,
        -0.06856784969568253,
        -0.18407995998859406,
        0.11105678230524063,
        0.1737225502729416,
        -0.14556026458740234,
        -0.043976739048957825,
        -0.1120971143245697,
        -0.14326739311218262,
        0.020730767399072647,
        -0.0590902604162693,
        -0.26223281025886536,
        -0.12058218568563461,
        -0.2565481662750244,
        0.26314082741737366,
        0.18421398103237152,
        -0.21138842403888702,
        -0.16051766276359558,
        -0.16687923669815063,
        -0.11725965142250061,
        -0.07367588579654694,
        -0.01965271309018135,
        -0.02961781807243824,
        0.057580456137657166,
        0.13221697509288788,
        -0.7218608260154724,
        -0.13974638283252716,
        -0.00832553394138813,
        -0.11483311653137207,
        0.09086091071367264,
        0.11769723147153854,
        -0.12684397399425507,
        -0.13427430391311646,
        0.06537094712257385,
        -0.19471397995948792,
        0.1812397986650467,
        -0.11372900009155273,
        0.12369676679372787,
        -0.1969209462404251,
        -0.16669395565986633,
        0.014705785550177097,
        0.08144047111272812,
        0.10827044397592545,
        0.12440988421440125,
        -0.039591871201992035,
        -0.04709303751587868,
        0.010869872756302357,
        -0.03513909876346588,
        -0.029968345537781715,
        -0.20667745172977448,
        0.018465327098965645,
        0.1253623366355896,
        -0.7999317646026611,
        0.1417703926563263,
        0.0010018892353400588,
        -0.007107463665306568,
        0.2989184558391571,
        -0.07032354176044464,
        -0.04440659284591675,
        0.03409135341644287,
        0.15308746695518494,
        -0.16586531698703766,
        0.14528167247772217,
        -0.12374633550643921,
        0.03949110954999924,
        0.13658209145069122,
        0.0007369117811322212,
        0.05096738040447235,
        -0.072097048163414,
        0.287758469581604,
        0.21147920191287994,
        0.10772830992937088,
        -0.06115669012069702,
        -0.08308526128530502,
        0.23016589879989624,
        0.24055129289627075,
        0.2036709487438202,
        -0.24477443099021912,
        0.11494611948728561,
        0.4791448712348938,
        0.13065105676651,
        0.09638746082782745,
        0.029527006670832634,
        -0.2523854672908783,
        0.12808746099472046,
        -0.08399045467376709,
        0.12573005259037018,
        -0.33321353793144226,
        -0.06668823957443237,
        -0.2730824053287506,
        -0.060031529515981674,
        0.10913348942995071,
        -0.2610081136226654,
        -0.08734074234962463,
        0.004544517956674099,
        0.12316126376390457,
        0.04355883598327637,
        -0.19548657536506653,
        -0.14626795053482056,
        -0.13026759028434753,
        0.11266565322875977,
        -0.1682632714509964,
        -0.11525581032037735,
        -0.25844117999076843,
        0.027402956038713455,
        0.18458518385887146,
        -0.4667383134365082,
        0.0234640184789896,
        -0.00042011987534351647,
        0.20484715700149536,
        0.2343370020389557,
        -0.05212491750717163,
        -0.055106595158576965
      ],
      "bias": [
        -0.04979688674211502,
        0.09801416844129562,
        0.05336254835128784,
        0.11194642633199692,
        0.021841302514076233,
        0.11575201153755188,
        -0.09090327471494675,
        -0.07200391590595245,
        -0.07244332134723663,
        -0.1762663573026657,
        -0.04566405713558197,
        -0.17301207780838013,
        0.021557440981268883,
        -0.0015804264694452286,
        -0.04467002674937248,
        -0.11419800668954849,
        0.1353226751089096,
        -0.05418861284852028,
        0.08288833498954773,
        0.12620414793491364,
        -0.06139892339706421,
        -0.03196857497096062,
        0.0956406220793724,
        0.1608714461326599,
        -0.018028197810053825,
        0.14828670024871826,
        -0.1348058134317398,
        -0.10340715199708939,
        0.1097022145986557,
        -0.02233351580798626,
        0.16640394926071167,
        0.03763185814023018,
        -0.08311204612255096,
        0.08058146387338638,
        0.1633078008890152,
        -0.009508914314210415,
        -0.1137162521481514,
        -0.02778542786836624,
        -0.08541257679462433,
        0.14127813279628754,
        0.01726028136909008,
        0.03056195378303528,
        0.10242656618356705,
        0.03940902277827263,
        -0.10673500597476959,
        0.1564914584159851,
        0.09611944109201431,
        -0.08724619448184967,
        0.1469702571630478,
        0.05512436106801033,
        -0.0024531083181500435,
        -0.1439245492219925,
        -0.022256584838032722,
        -0.166281059384346,
        0.08205245435237885,
        0.14910230040550232,
        -0.09209537506103516,
        0.15959931910037994,
        -0.07287406921386719,
        0.05311381816864014,
        -0.11119404435157776,
        -0.02244001254439354,
        0.054631058126688004,
        0.06322342902421951
      ],
      "activation": "tanh"
    },
    {
      "inputSize": 64,
      "outputSize": 32,
      "weights": [
        0.04235681891441345,
        -0.07952111959457397,
        0.093951016664505,
        0.062211278825998306,
        -0.008910033851861954,
        -0.05138813704252243,
        0.04858005791902542,
        0.026818308979272842,
        0.05505228042602539,
        0.0358409583568573,
        0.01720687560737133,
        0.03363608568906784,
        0.0997728481888771,
        0.023830140009522438,
        0.1505124866962433,
        0.02367309480905533,
        -0.09251320362091064,
        -0.010480123572051525,
        -0.07046134024858475,
        -0.09493914991617203,
        0.03505724295973778,
        -0.02134959027171135,
        -0.015345347113907337,
        0.09746754169464111,
        -0.04944506287574768,
        -0.07923275977373123,
        -0.03229668363928795,
        -0.002659106394276023,
        -0.008720723912119865,
        0.10232429206371307,
        -0.04596125707030296,
        -0.0727185308933258,
        -0.017397457733750343,
        0.08210445195436478,
        0.05161101743578911,
        0.07788952440023422,
        0.016208676621317863,
        0.09992871433496475,
        0.082012839615345,
        0.10827768594026566,
        0.027123553678393364,
        -0.06945555657148361,
        -0.07945393025875092,
        -0.001505445223301649,
        0.11122802644968033,
        -0.07918444275856018,
        0.10815978795289993,
        -1.5093453839654103e-05,
        -0.013476027175784111,
        0.023093320429325104,
        -0.013759631663560867,
        0.13979344069957733,
        -0.08356983959674835,
        0.07897773385047913,
        -0.12143214046955109,
        -0.10765308141708374,
        -0.02277689427137375,
        0.10472195595502853,
        0.07864406704902649,
        0.004883191082626581,
        -0.10458862781524658,
        0.03977111354470253,
        -0.09182078391313553,
        -0.09182727336883545,
        -0.030658641830086708,
        -0.06829936057329178,
        0.10465767979621887,
        -0.05187242478132248,
        0.06032202020287514,
        0.06185268238186836,
        -0.11860188096761703,
        0.04529060050845146,
        0.046473465859889984,
        0.049986403435468674,
        0.11285266280174255,
        -0.070032998919487,
        -0.08279003947973251,
        0.07858772575855255,
        -0.02592344768345356,
        0.02890898659825325,
        0.08960703015327454,
        -0.045479435473680496,
        -0.036494918167591095,
        0.07777124643325806,
        0.03768782317638397,
        -0.03554028272628784,
        0.04045072942972183,
        -0.07788427919149399,
        -0.08213555812835693,
        0.1024932712316513,
        -0.01736794039607048,
        -0.06156948208808899,
        0.006862286478281021,
        0.03958271071314812,
        -0.08361364901065826,
        -0.08520888537168503,
        -0.09726374596357346,
        0.0402224063873291,
        -0.10219042748212814,
        0.0021813837811350822,
        -0.01596757210791111,
        -0.07252196222543716,
        -0.04116074740886688,
        -0.11996825039386749,
        -0.11457590758800507,
        -0.03093091771006584,
        -0.09133906662464142,
        -0.07162635773420334,
        0.07443774491548538,
        0.034320853650569916,
        -0.060702815651893616,
        0.017218975350260735,
        0.09992620348930359,
        -0.12784262001514435,
        -0.07308004796504974,
        -0.11260540783405304,
        0.07674651592969894,
        -0.00046183489030227065,
        -0.08028750121593475,
        0.12472236156463623,
        -0.05950828269124031,
        0.10921691358089447,
        -0.10106711089611053,
        -0.006032794248312712,
        0.0025163558311760426,
        -0.08606192469596863,
        0.11640247702598572,
        -0.0947781652212143,
        0.047815367579460144,
        -0.10920749604701996,
        0.05426550656557083,
        0.08909033238887787,
        0.08244834095239639,
        0.022924255579710007,
        -0.053093552589416504,
        0.15307626128196716,
        -0.04519585520029068,
        0.09630611538887024,
        -0.06340445578098297,
        -0.03978994861245155,
        -0.06592655926942825,
        0.14318110048770905,
        0.0642518550157547,
        -0.13032789528369904,
        0.021132148802280426,
        -0.0662546381354332,
        0.037162233144044876,
        0.04281804338097572,
        -0.05729789286851883,
        -0.023252174258232117,
        -0.06556793302297592,
        0.006048427429050207,
        -0.10311853885650635,
        -0.004356806632131338,
        0.12426391243934631,
        0.10710147768259048,
        0.051726002246141434,
        0.09540606290102005,
        0.13136085867881775,
        0.027020443230867386,
        0.018857592716813087,
        0.0016599026275798678,
        0.1287422776222229,
        0.1206304132938385,
        -0.06020316481590271,
        -0.005372208543121815,
        -0.06004311516880989,
        0.058011118322610855,
        -0.10256323218345642,
        0.07711300253868103,
        -0.05270405486226082,
        -0.007580752018839121,
        0.0603642612695694,
        -0.09351452440023422,
        0.07457343488931656,
        0.04024643823504448,
        -0.12246138602495193,
        0.1404377967119217,
        0.11973687261343002,
        0.09745901077985764,
        -0.10666574537754059,
        0.040639087557792664,
        -0.08010753244161606,
        -0.07422225922346115,
        0.028119802474975586,
        0.06666580587625504,
        0.05708988383412361,
        -0.1369771808385849,
        0.12656600773334503,
        -0.00831457506865263,
        0.09842881560325623,
        0.1322382390499115,
        0.08789487183094025,
        0.10979536175727844,
        0.08496963232755661,
        0.051096249371767044,
        -0.07494658976793289,
        0.12017124146223068,
        0.038783591240644455,
        0.10328089445829391,
        -0.08412357419729233,
        0.10454749315977097,
        0.11754751205444336,
        -0.07274758070707321,
        0.14600664377212524,
        -0.05304812639951706,
        -0.04299921169877052,
        -0.14293381571769714,
        0.0386538989841938,
        -0.10389052331447601,
        -0.01345154084265232,
        -0.055366795510053635,
        0.04018598422408104,
        -0.17623168230056763,
        -0.04864944890141487,
        -0.015551073476672173,
        0.03312600776553154,
        -0.07438765466213226,
        0.03690669313073158,
        -0.0878341943025589,
        -0.10178285092115402,
        -0.02924475073814392,
        -0.05751826614141464,
        0.07169003039598465,
        -0.11857352405786514,
        -0.02327018789947033,
        0.07562268525362015,
        -0.09892181307077408,
        0.0927216038107872,
        -0.06417469680309296,
        -0.026088207960128784,
        -0.055355560034513474,
        -0.015471415594220161,
        -0.012809358537197113,
        -0.13104850053787231,
        -0.012900435365736485,
        0.02390235848724842,
        0.09075215458869934,
        0.08728143572807312,
        0.09303855150938034,
        0.017959928140044212,
        0.09266621619462967,
        0.1324363797903061,
        0.12347165495157242,
        -0.18388177454471588,
        -0.03706881031394005,
        -0.13501198589801788,
        -0.0287497416138649,
        -0.08805492520332336,
        0.11584221571683884,
        0.0329727977514267,
        -0.01104589644819498,
        -0.07651236653327942,
        -0.06045224517583847,
        0.006061813328415155,
        -0.03882259130477905,
        -0.09080428630113602,
        0.10720177739858627,
        -0.04847169294953346,
        -0.038110800087451935,
        0.10294738411903381,
        0.042358290404081345,
        -0.06282950192689896,
        0.007792583201080561,
        0.16382034122943878,
        -0.1294582337141037,
        0.0028256068471819162,
        0.006214214954525232,
        -0.06757454574108124,
        0.08585602045059204,
        -0.14310215413570404,
        0.09992122650146484,
        -0.05266148969531059,
        -0.09741461277008057,
        0.051787521690130234,
        -0.09405303001403809,
        -0.018509864807128906,
        0.13869427144527435,
        -0.10498455166816711,
        -0.07344024628400803,
        0.031704165041446686,
        0.13266612589359283,
        0.02996419370174408,
        0.06440602988004684,
        0.06111547350883484,
        0.07334127277135849,
        -0.0912514254450798,
        0.09844886511564255,
        0.10674101114273071,
        0.050967924296855927,
        0.057093750685453415,
        -0.11846021562814713,
        0.03296821564435959,
        -0.0454469695687294,
        -0.026617512106895447,
        -0.020271074026823044,
        -0.0028735981322824955,
        -0.022082742303609848,
        -0.06898421049118042,
        -0.02550625056028366,
        -0.023241175338625908,
        0.004915278870612383,
        -0.08837640285491943,
        0.14606331288814545,
        0.02810647524893284,
        -0.16603393852710724,
        0.05639304593205452,
        0.02027110382914543,
        0.06565220654010773,
        0.06664586067199707,
        -0.05681544914841652,
        0.0824442058801651,
        0.22060595452785492,
        0.09221047908067703,
        0.03691738098859787,
        -0.01297754980623722,
        0.021041937172412872,
        0.014819266274571419,
        0.038649942725896835,
        -0.015333076007664204,
        0.06633995473384857,
        -0.07861235737800598,
        -0.07002072036266327,
        -0.13123801350593567,
        -0.12764309346675873,
        -0.05987708643078804,
        0.13118986785411835,
        0.044288575649261475,
        -0.21445715427398682,
        -0.05594461411237717,
        0.03548445180058479,
        -0.015447662211954594,
        0.015919243916869164,
        -0.009134502150118351,
        0.03540097177028656,
        -0.03201120346784592,
        0.009489155374467373,
        0.07185164093971252,
        0.11378456652164459,
        0.12784449756145477,
        0.006899472326040268,
        -0.11081644892692566,
        0.000251569552347064,
        -0.10325779765844345,
        0.07084667682647705,
        -0.04775035008788109,
        -0.0703834742307663,
        -0.10369843989610672,
        0.06402087211608887,
        0.054384566843509674,
        0.13458257913589478,
        -0.04364394024014473,
        -0.01110870111733675,
        -0.0196437519043684,
        -0.060662079602479935,
        -0.0564897246658802,
        0.056512098759412766,
        -0.07266215234994888,
        0.09185214340686798,
        0.10523303598165512,
        0.11137887835502625,
        0.12760141491889954,
        0.04388977959752083,
        0.009415746666491032,
        0.08334465324878693,
        -0.0749034658074379,
        -0.06134096905589104,
        -0.06151936948299408,
        0.06810855120420456,
        0.13657213747501373,
        0.08610554784536362,
        -0.015883680433034897,
        -0.15051023662090302,
        -0.09930562227964401,
        0.06406019628047943,
        -0.12660294771194458,
        -0.1324901133775711,
        0.11605765670537949,
        0.04467453062534332,
        -0.07789517194032669,
        -0.07730568945407867,
        -0.04272102937102318,
        0.10021494328975677,
        -0.1118846982717514,
        0.14111292362213135,
        0.07657882571220398,
        -0.006173021625727415,
        -0.013124962337315083,
        0.07958108931779861,
        0.07201063632965088,
        0.11222824454307556,
        0.12334632873535156,
        -0.20320050418376923,
        0.07528134435415268,
        0.0681353360414505,
        -0.06936568766832352,
        0.12094642966985703,
        -0.01751810498535633,
        -0.02914532460272312,
        -0.035061243921518326,
        -0.020434651523828506,
        -0.03508114442229271,
        -0.04591507837176323,
        0.10885252803564072,
        0.13379622995853424,
        -0.08425486832857132,
        -0.07613810151815414,
        -0.026681361719965935,
        -0.09623458236455917,
        -0.139402374625206,
        -0.08413683623075485,
        0.08811286836862564,
        -0.09597916156053543,
        -0.05718784034252167,
        -0.036168888211250305,
        -0.10398314148187637,
        -0.0865173414349556,
        -0.04960734769701958,
        -0.000834522710647434,
        0.13027527928352356,
        0.04694094508886337,
        0.07881037890911102,
        0.05288492888212204,
        0.09578114002943039,
        0.13659422099590302,
        -0.029621601104736328,
        0.04179691895842552,
        0.014913787133991718,
        -0.04360012337565422,
        -0.0208631232380867,
        -0.09634239226579666,
        -0.1589267998933792,
        -0.0003454791149124503,
        0.08825230598449707,
        -0.03387334197759628,
        0.0571880117058754,
        -0.24920311570167542,
        -0.0815713033080101,
        0.07922195643186569,
        -0.153573676943779,
        -0.09823732078075409,
        0.09985990822315216,
        0.10935668647289276,
        0.01043781265616417,
        -0.12465718388557434,
        0.05041750147938728,
        -0.04735148698091507,
        -0.03688296675682068,
        0.02420603111386299,
        -0.03994184732437134,
        -0.12229018658399582,
        -0.0734780803322792,
        0.12024318426847458,
        -0.005261985119432211,
        0.11152876168489456,
        -0.014301842078566551,
        -0.058118678629398346,
        0.014204440638422966,
        0.11326426267623901,
        0.06317197531461716,
        -0.01010000891983509,
        -0.12365338206291199,
        -0.11655603349208832,
        0.13502758741378784,
        -0.10004429519176483,
        0.05633872002363205,
        -0.06788185983896255,
        0.028262395411729813,
        0.002489763777703047,
        -0.03288847580552101,
        -0.06595712155103683,
        0.12175308167934418,
        0.0002334018499823287,
        0.0904695987701416,
        -0.0682097002863884,
        0.11252522468566895,
        -0.03393429517745972,
        -0.02297651395201683,
        0.01478367019444704,
        -0.033104293048381805,
        -0.03118680976331234,
        -0.005637286696583033,
        -0.05050762742757797,
        -0.09712734818458557,
        0.047355085611343384,
        -0.11084474623203278,
        0.07360918819904327,
        0.10430100560188293,
        0.0045004673302173615,
        -0.06324561685323715,
        -0.09554247558116913,
        0.13933618366718292,
        0.06892425566911697,
        0.148222878575325,
        0.0021022402215749025,
        0.06107497960329056,
        0.14699268341064453,
        -0.007146235555410385,
        -0.0959797278046608,
        -0.13828933238983154,
        0.15280936658382416,
        0.06489808112382889,
        0.13238325715065002,
        -0.032911621034145355,
        0.0930742621421814,
        -0.05162615329027176,
        -0.04042833670973778,
        0.08525823801755905,
        -0.14422999322414398,
        0.056751519441604614,
        0.07444389164447784,
        -0.12258968502283096,
        0.13195408880710602,
        -0.023164648562669754,
        0.06353066861629486,
        -0.07484421133995056,
        -0.18099050223827362,
        -0.008479602634906769,
        0.08296412229537964,
        0.032382600009441376,
        -0.09924718737602234,
        0.029650777578353882,
        0.025476563721895218,
        -0.01090409979224205,
        -0.053688667714595795,
        -0.04192963242530823,
        0.002211459679529071,
        -0.018506309017539024,
        0.12996873259544373,
        -0.03119705431163311,
        0.11830232292413712,
        0.07754309475421906,
        -0.05072179436683655,
        -0.11665264517068863,
        0.10126370936632156,
        0.0836479440331459,
        0.05164220184087753,
        -0.10911981761455536,
        0.08605285733938217,
        -0.13137412071228027,
        0.07856225967407227,
        -0.018284738063812256,
        0.045358456671237946,
        -0.14818169176578522,
        -0.06866493076086044,
        0.06286098808050156,
        0.16006480157375336,
        -0.01821627840399742,
        0.10135529935359955,
        -0.049980465322732925,
        -0.06614986807107925,
        -0.06661267578601837,
        0.02717726118862629,
        0.01530484575778246,
        0.03839927911758423,
        -0.16864782571792603,
        0.010927584953606129,
        -0.17768032848834991,
        0.11431524157524109,
        -0.04116029292345047,
        -0.1416134536266327,
        0.010854224674403667,
        0.06688155233860016,
        0.05479051545262337,
        -0.0937197282910347,
        0.05213078111410141,
        -0.07013014703989029,
        -0.07696796953678131,
        -0.04830498993396759,
        0.034062955528497696,
        0.12019582837820053,
        -0.00603837426751852,
        0.13206152617931366,
        0.14147086441516876,
        -0.09587482362985611,
        0.05876187980175018,
        -0.005217209458351135,
        0.03763201832771301,
        -0.025895647704601288,
        0.014415120705962181,
        -0.02655279077589512,
        -0.07361876964569092,
        -0.056571681052446365,
        -0.10173089802265167,
        -0.12139510363340378,
        0.0510583370923996,
        0.0113248061388731,
        0.1168193593621254,
        -0.08394290506839752,
        0.023056872189044952,
        -0.07334012538194656,
        -0.03998482972383499,
        0.05488087236881256,
        -0.12458176910877228,
        0.14148811995983124,
        -0.042850419878959656,
        0.11703111231327057,
        -0.05993242561817169,
        0.06512528657913208,
        0.10083413869142532,
        -0.023515788838267326,
        -0.06223195418715477,
        0.06574700772762299,
        -0.11833560466766357,
        0.08238651603460312,
        -0.0818742886185646,
        0.12351679801940918,
        -0.09850281476974487,
        -0.07234955579042435,
        0.08503346890211105,
        -0.033572807908058167,
        0.1230938658118248,
        0.07873467355966568,
        0.11040671169757843,
        -0.12084799259901047,
        0.014702897518873215,
        0.0024513504467904568,
        0.057026490569114685,
        -0.11066806316375732,
        0.0017187322955578566,
        0.016537120565772057,
        -0.09044527262449265,
        -0.10250069200992584,
        0.043553538620471954,
        -0.05927928164601326,
        0.09276193380355835,
        0.03584054857492447,
        0.05660182237625122,
        -0.10641563683748245,
        -0.01920962892472744,
        -0.05829562246799469,
        -0.15065650641918182,
        0.05377418175339699,
        -0.06587788462638855,
        0.08533662557601929,
        -0.059772685170173645,
        0.10391321778297424,
        0.14366592466831207,
        -0.08296871185302734,
        0.1262444257736206,
        0.06320008635520935,
        -0.09907703846693039,
        0.08004551380872726,
        0.047346267849206924,
        0.07488511502742767,
        -0.10643411427736282,
        0.1374051570892334,
        0.12053123116493225,
        0.0656004548072815,
        0.0848323255777359,
        -0.05759173631668091,
        0.11273495107889175,
        0.14624157547950745,
        -0.021490151062607765,
        0.011887378990650177,
        0.04567839577794075,
        0.11557009816169739,
        0.059719983488321304,
        0.14110490679740906,
        -0.05724911764264107,
        -0.01467673759907484,
        -0.10232100635766983,
        0.0663362592458725,
        0.02098214253783226,
        -0.08058775961399078,
        -0.03963762894272804,
        -0.10568646341562271,
        -0.13315434753894806,
        0.1242947056889534,
        -0.08004441857337952,
        0.06498255580663681,
        -0.039761047810316086,
        -0.04627649113535881,
        -0.0035385647788643837,
        0.1372728794813156,
        -0.0004305826732888818,
        0.09103769063949585,
        0.06289092451334,
        0.08588317036628723,
        -0.09863480925559998,
        -0.018764277920126915,
        -0.07043133676052094,
        -0.0427246056497097,
        -0.08747264742851257,
        0.05055805295705795,
        0.07991859316825867,
        0.06817780435085297,
        -0.11259374767541885,
        -0.0964270681142807,
        0.10820931196212769,
        0.03724993020296097,
        0.05366094410419464,
        -0.15828892588615417,
        -0.028051579371094704,
        0.016085918992757797,
        -0.12023153156042099,
        0.05191582068800926,
        0.07564768195152283,
        -0.05998403578996658,
        -0.062204379588365555,
        -0.0008229831582866609,
        0.054613467305898666,
        -0.05424170941114426,
        0.15455074608325958,
        -0.17456801235675812,
        -0.0519336573779583,
        -0.09712522476911545,
        0.04381094127893448,
        0.050419967621564865,
        -0.061521194875240326,
        0.09200938045978546,
        -0.12413269281387329,
        0.12907569110393524,
        -0.07446388155221939,
        -0.029109707102179527,
        -0.12874765694141388,
        -0.13318711519241333,
        -0.14411842823028564,
        0.00501104025170207,
        0.011158383451402187,
        0.05029181391000748,
        -0.053525812923908234,
        -0.06971334666013718,
        -0.005349030252546072,
        0.10108406841754913,
        0.023538904264569283,
        0.06482983380556107,
        0.04483317956328392,
        0.05895997956395149,
        0.09113148599863052,
        0.07396963983774185,
        -0.026705477386713028,
        -0.0485394261777401,
        0.05615881085395813,
        0.042844779789447784,
        -0.003789633046835661,
        0.1051878035068512,
        -0.06998252868652344,
        0.03822440281510353,
        -0.03774325177073479,
        -0.07289847731590271,
        -0.05976611003279686,
        -0.08788785338401794,
        -0.017734043300151825,
        -0.12712779641151428,
        -0.08431044965982437,
        0.0032040667720139027,
        -0.03085559606552124,
        -0.01040114089846611,
        0.000676955736707896,
        0.021568287163972855,
        0.12845957279205322,
        -0.07597249001264572,
        0.03463074564933777,
        0.0017890380695462227,
        -0.08862748742103577,
        0.0770963802933693,
        0.05525700002908707,
        0.03629591688513756,
        0.0280933678150177,
        -0.011428000405430794,
        0.04166536405682564,
        0.012428400106728077,
        -0.09969542920589447,
        -0.03750784695148468,
        -0.08377746492624283,
        -0.05489455908536911,
        -0.08883531391620636,
        -0.1413457840681076,
        0.14894169569015503,
        -0.10338062793016434,
        0.13488587737083435,
        -0.07734954357147217,
        -0.03795511648058891,
        -0.0566747784614563,
        -0.09686391800642014,
        0.13960830867290497,
        0.05965679883956909,
        -0.09333773702383041,
        -0.08606009930372238,
        0.006915250793099403,
        -0.05146133899688721,
        -0.026470452547073364,
        0.10056496411561966,
        -0.03767498955130577,
        -0.06443702429533005,
        0.013675082474946976,
        -0.0682719424366951,
        -0.09838489443063736,
        -0.007527173031121492,
        -0.06022688001394272,
        0.15143543481826782,
        0.007150422316044569,
        0.09283878654241562,
        0.04593783989548683,
        -0.09683049470186234,
        0.09637392312288284,
        0.008336732164025307,
        -0.04601416736841202,
        0.09957682341337204,
        -0.01862514764070511,
        0.059366777539253235,
        -0.12413953244686127,
        0.04380588233470917,
        0.05235563591122627,
        -0.09892866760492325,
        0.05924692004919052,
        -0.039013367146253586,
        -0.12522532045841217,
        0.0605013370513916,
        0.07918659597635269,
        0.09396755695343018,
        -0.0705377385020256,
        -0.038375113159418106,
        -0.060030411928892136,
        0.07732535898685455,
        0.045501451939344406,
        -0.12833675742149353,
        0.11563339084386826,
        0.04601256921887398,
        0.07643038779497147,
        0.06506785750389099,
        -0.038201071321964264,
        0.08279874920845032,
        0.19194155931472778,
        -0.10975660383701324,
        -0.08387862890958786,
        0.017002427950501442,
        0.015451584942638874,
        -0.14086124300956726,
        -0.07356497645378113,
        -0.011978101916611195,
        -0.08556470274925232,
        0.027411211282014847,
        -0.027305444702506065,
        0.05017991364002228,
        0.05721525475382805,
        0.0018144723726436496,
        -0.02490701526403427,
        0.021626068279147148,
        0.1170913353562355,
        -0.07395485788583755,
        -0.058496009558439255,
        0.04410088434815407,
        -0.12081591039896011,
        0.055429089814424515,
        0.03184375539422035,
        0.06274998933076859,
        -0.0763331800699234,
        0.02668958716094494,
        -0.14071594178676605,
        -0.11748583614826202,
        0.12351205945014954,
        -0.0703405886888504,
        -0.116940937936306,
        -0.05054139718413353,
        -0.014445677399635315,
        0.05123314633965492,
        -0.07660162448883057,
        0.014982396736741066,
        -0.04589919373393059,
        0.10281252861022949,
        0.09641407430171967,
        0.08180829882621765,
        0.008847781457006931,
        0.09913558512926102,
        -0.1322002410888672,
        0.02625223621726036,
        -0.06722447276115417,
        0.10177909582853317,
        -0.10378237068653107,
        0.04659790173172951,
        -0.12017931044101715,
        0.05272072181105614,
        0.02838899753987789,
        0.1741400957107544,
        -0.12224777042865753,
        0.11523488163948059,
        -0.10034651309251785,
        -0.0455438606441021,
        0.06657647341489792,
        -0.016258982941508293,
        -0.12917937338352203,
        -0.1146104484796524,
        0.034334857016801834,
        0.05556340515613556,
        0.1230839192867279,
        0.1203448623418808,
        0.013190173543989658,
        -0.100688137114048,
        -0.10607710480690002,
        0.1258413940668106,
        -0.0994814783334732,
        -0.05698966979980469,
        -0.09139011800289154,
        -0.14469970762729645,
        0.06816982477903366,
        -0.048682279884815216,
        0.033497393131256104,
        -0.012896565720438957,
        -0.012299255467951298,
        -0.015497867949306965,
        0.008704784326255322,
        0.06867032498121262,
        0.039170973002910614,
        0.1181040033698082,
        -0.09428845345973969,
        -0.09361625462770462,
        0.009417127817869186,
        0.018860990181565285,
        0.11002971976995468,
        0.08328268676996231,
        0.04015899822115898,
        -0.099007748067379,
        0.0005584637401625514,
        0.08392063528299332,
        0.054130397737026215,
        -0.12980693578720093,
        0.009174021892249584,
        -0.1387391835451126,
        -0.040794119238853455,
        0.07215350866317749,
        -0.061082623898983,
        0.06845930218696594,
        -0.09925586730241776,
        0.1181945949792862,
        0.06794668734073639,
        0.08102501928806305,
        0.016683470457792282,
        -0.005062530282884836,
        -0.04265664890408516,
        -0.06442733108997345,
        -0.09262609481811523,
        0.10268358141183853,
        -0.046612393110990524,
        0.019593609496951103,
        -0.08869177848100662,
        0.060637395828962326,
        -0.05618802458047867,
        -0.13709725439548492,
        0.027708787471055984,
        -0.13435877859592438,
        -0.0034298524260520935,
        -0.1138392761349678,
        0.07261211425065994,
        -0.08679454028606415,
        0.022526785731315613,
        0.08391344547271729,
        -0.18496224284172058,
        0.07665757834911346,
        0.08983895182609558,
        -0.1083473265171051,
        -0.016794472932815552,
        0.05076221004128456,
        0.10913290828466415,
        0.08518581837415695,
        -0.07820335030555725,
        -0.06413908302783966,
        -0.11073064059019089,
        -0.03925072401762009,
        -0.0672973245382309,
        -0.021884093061089516,
        0.07425351440906525,
        -0.07033712416887283,
        -0.07154567539691925,
        -0.10535158962011337,
        -0.07962556183338165,
        0.09618735313415527,
        0.08503297716379166,
        -0.03103823959827423,
        -0.04137503728270531,
        -0.1183343306183815,
        -0.08542485535144806,
        0.03198099136352539,
        0.04006405547261238,
        0.12736883759498596,
        0.007476333994418383,
        -0.06209200993180275,
        -0.10289198160171509,
        0.11389147490262985,
        -0.11990215629339218,
        0.07897308468818665,
        -0.02009846642613411,
        0.1342833936214447,
        0.05390379950404167,
        -0.010595838539302349,
        -0.09052550047636032,
        0.01889544539153576,
        -0.09187337011098862,
        -0.004951454699039459,
        0.017130762338638306,
        0.06398074328899384,
        0.0037963278591632843,
        -0.06428548693656921,
        -0.12449623644351959,
        -0.13253305852413177,
        0.016751937568187714,
        -0.07709313184022903,
        -0.0018315133638679981,
        -0.08910001814365387,
        -0.12292324751615524,
        0.04316173493862152,
        0.09233910590410233,
        0.13049247860908508,
        0.10336828976869583,
        -0.06506101042032242,
        -0.07239970564842224,
        -0.07428938150405884,
        0.09602999687194824,
        0.04575715214014053,
        0.09899713099002838,
        -0.10688348859548569,
        0.038250282406806946,
        0.127320796251297,
        -0.08969705551862717,
        -0.05106247216463089,
        0.09966030716896057,
        -0.1177700087428093,
        -0.04831192269921303,
        0.07287115603685379,
        0.09101735055446625,
        -0.05798330903053284,
        -0.10047773271799088,
        0.056731998920440674,
        0.17354796826839447,
        -0.1147659569978714,
        -0.0016097428742796183,
        -0.11189229041337967,
        -0.08987659960985184,
        0.050708867609500885,
        0.07202547043561935,
        0.07947272062301636,
        -0.1918123960494995,
        -0.014453388750553131,
        0.06248936057090759,
        0.012674348428845406,
        0.006020029075443745,
        -0.034068621695041656,
        0.17748095095157623,
        -0.14064958691596985,
        -0.0981648862361908,
        0.08018460124731064,
        -0.046055231243371964,
        0.08473825454711914,
        -0.0562165267765522,
        -0.0706191211938858,
        -0.06056295707821846,
        0.07947778701782227,
        0.10594171285629272,
        -0.0249224454164505,
        -0.012284981086850166,
        -0.044970132410526276,
        -0.06784325838088989,
        -0.058994486927986145,
        0.05086024850606918,
        -0.02370390295982361,
        0.0523894727230072,
        -0.00168000312987715,
        0.021134618669748306,
        -0.06621026247739792,
        0.04498174786567688,
        -0.12068680673837662,
        0.036020345985889435,
        0.07702835649251938,
        0.06826227903366089,
        0.12628422677516937,
        0.007896509021520615,
        -0.08385823667049408,
        -0.06355259567499161,
        -0.14588816463947296,
        0.06491808593273163,
        0.047456204891204834,
        -0.10818763077259064,
        0.06681406497955322,
        -0.04224950075149536,
        0.1311487853527069,
        -0.15027345716953278,
        0.10284047573804855,
        0.07127950340509415,
        0.027528416365385056,
        0.03157368302345276,
        0.04426588490605354,
        0.05943583324551582,
        -0.12473711371421814,
        -0.011452325619757175,
        0.024475546553730965,
        0.05330384150147438,
        -0.03935074806213379,
        0.10321871191263199,
        0.07009371370077133,
        0.06075150892138481,
        0.051811251789331436,
        -0.03345193713903427,
        0.07865893840789795,
        -0.03914456441998482,
        0.12289048731327057,
        -0.09168083965778351,
        0.0009297074284404516,
        -0.10245232284069061,
        0.12974750995635986,
        0.026841456070542336,
        0.1252157837152481,
        -0.031281616538763046,
        -0.14481520652770996,
        -0.0159577876329422,
        -0.11275405436754227,
        0.050947852432727814,
        0.028469907119870186,
        -0.0335027240216732,
        0.021637992933392525,
        0.07978998124599457,
        -0.1275925636291504,
        -0.08465936779975891,
        0.05427242070436478,
        -0.10841356217861176,
        0.024809956550598145,
        -0.03147106245160103,
        0.009763128124177456,
        -0.05147485435009003,
        0.010929764248430729,
        -0.08498933911323547,
        -0.07665003091096878,
        -0.03764353692531586,
        0.04441014304757118,
        0.071284219622612,
        -0.008682416751980782,
        -0.0017146909376606345,
        0.1566120982170105,
        0.1567770391702652,
        0.01748104766011238,
        -0.1187065839767456,
        -0.01334723737090826,
        0.0507902055978775,
        -0.11482410877943039,
        -0.10617769509553909,
        -0.017770174890756607,
        0.12175784260034561,
        -0.06946112215518951,
        -0.06469116359949112,
        -0.02296130359172821,
        -0.22794057428836823,
        -0.09399911016225815,
        0.08599302172660828,
        0.06353749334812164,
        -0.16082270443439484,
        0.014425456523895264,
        -0.09305771440267563,
        0.037541404366493225,
        -0.07538782060146332,
        -0.030959805473685265,
        -0.05564427003264427,
        0.022396812215447426,
        0.1297946721315384,
        -0.08218849450349808,
        0.020297415554523468,
        0.07022272795438766,
        -0.039426568895578384,
        0.020656932145357132,
        0.004942719824612141,
        0.030803631991147995,
        -0.018654588609933853,
        0.08170842379331589,
        -0.056418921798467636,
        0.15050995349884033,
        0.14181552827358246,
        0.02104377932846546,
        0.1880311667919159,
        -0.030914386734366417,
        0.0723055899143219,
        -0.11232181638479233,
        0.14903706312179565,
        0.13911832869052887,
        -0.07973547279834747,
        -0.17841848731040955,
        -0.027514811605215073,
        -0.10023199766874313,
        0.06495160609483719,
        0.02297530509531498,
        -0.040057506412267685,
        0.09754502028226852,
        0.00365637568756938,
        -0.060705069452524185,
        -0.08733861148357391,
        0.03821080923080444,
        -0.1750173568725586,
        -0.0296725295484066,
        0.03917965665459633,
        -0.05030261352658272,
        0.03973409906029701,
        0.02129359357059002,
        0.09557738155126572,
        0.13182474672794342,
        -0.04257737845182419,
        -0.040533531457185745,
        -0.07366227358579636,
        -0.1541815549135208,
        0.06905083358287811,
        -0.11723662167787552,
        -0.09983193129301071,
        0.00874144583940506,
        0.05887611582875252,
        0.019997207447886467,
        -0.12197095155715942,
        0.04356365278363228,
        -0.07376714050769806,
        0.08483576774597168,
        -0.004485578276216984,
        0.04424893110990524,
        -0.2008848786354065,
        0.12604036927223206,
        -0.06282459944486618,
        -0.10570546984672546,
        0.09151414036750793,
        0.014656989835202694,
        0.06328564137220383,
        -0.08331763744354248,
        0.05115346983075142,
        0.14836861193180084,
        0.02609664388000965,
        0.10806592553853989,
        -0.06568465381860733,
        -0.043172888457775116,
        0.01740221679210663,
        0.05545196309685707,
        0.015518534928560257,
        0.07530527561903,
        -0.044585566967725754,
        -0.08733797818422318,
        -0.007351806852966547,
        -0.14591778814792633,
        -0.15921998023986816,
        0.08659142255783081,
        0.036948736757040024,
        0.0513516440987587,
        -0.039672818034887314,
        -0.0988617017865181,
        -0.1093803271651268,
        0.16845683753490448,
        -0.10769485682249069,
        0.058384791016578674,
        0.09360361099243164,
        0.11539365351200104,
        -0.06173395738005638,
        -0.03206485137343407,
        -0.11107691377401352,
        0.08591938763856888,
        -0.13720327615737915,
        -0.11745363473892212,
        -0.043119970709085464,
        0.12998536229133606,
        0.06334616988897324,
        0.06267836689949036,
        0.09867797791957855,
        -0.06208095699548721,
        -0.07056528329849243,
        -0.10985280573368073,
        -0.01330497581511736,
        0.0006036940612830222,
        0.04978673532605171,
        -0.06624587625265121,
        0.006177190691232681,
        -0.04887097328901291,
        -0.04117849841713905,
        0.015462636016309261,
        0.008696486242115498,
        -0.12990456819534302,
        0.11327534168958664,
        -0.07585150748491287,
        0.16617441177368164,
        0.09251336753368378,
        0.05802879482507706,
        0.12118729948997498,
        0.12106308341026306,
        0.07898226380348206,
        0.008061888627707958,
        0.10920988768339157,
        -0.07382959872484207,
        -0.12396576255559921,
        0.059137973934412,
        0.021086612716317177,
        0.03658999502658844,
        -0.13239094614982605,
        0.03447646275162697,
        0.07792472839355469,
        -0.025869881734251976,
        0.05271085351705551,
        0.07032012939453125,
        -0.11214470118284225,
        -0.13859854638576508,
        -0.04181356355547905,
        -0.05422164872288704,
        0.09290876239538193,
        0.1754244565963745,
        0.06989963352680206,
        0.1423431932926178,
        -0.1395626664161682,
        0.02036942169070244,
        -0.023406555876135826,
        -0.04594988003373146,
        0.06340163946151733,
        0.05483638122677803,
        -0.07027734816074371,
        0.04495851695537567,
        0.03665410354733467,
        0.11978120356798172,
        -0.023214295506477356,
        -0.041181161999702454,
        0.0033637043088674545,
        0.017412055283784866,
        -0.11361556500196457,
        0.012366382405161858,
        -0.09282726049423218,
        -0.13966406881809235,
        -0.14674696326255798,
        0.11999794840812683,
        -0.0423496812582016,
        -0.019364338368177414,
        0.012285389937460423,
        0.11060097813606262,
        0.13532589375972748,
        -0.009624826721847057,
        0.17851756513118744,
        -0.13896645605564117,
        -0.013752894476056099,
        0.11998973041772842,
        0.098221056163311,
        -0.024600958451628685,
        -0.13627800345420837,
        0.06177663058042526,
        0.15367771685123444,
        -0.0868508592247963,
        0.0048132953234016895,
        -0.22824826836585999,
        0.036005571484565735,
        0.01455703005194664,
        0.025911320000886917,
        -0.1432390660047531,
        -0.11262550204992294,
        -0.03653162345290184,
        -0.12903210520744324,
        -0.024667249992489815,
        0.0837964192032814,
        -0.09669361263513565,
        -0.011151046492159367,
        -0.0772746130824089,
        -0.11067451536655426,
        -0.07661940157413483,
        -0.06110958009958267,
        -0.09059164673089981,
        0.02838204614818096,
        0.0966516062617302,
        0.11110624670982361,
        -0.016469577327370644,
        0.01140339020639658,
        -0.016682570800185204,
        0.10763204842805862,
        -0.04321114346385002,
        0.11785804480314255,
        -0.07139582186937332,
        -0.13229911029338837,
        0.038942575454711914,
        -0.059104230254888535,
        0.041554976254701614,
        0.10558921843767166,
        0.06438765674829483,
        0.08593996614217758,
        -0.05758476257324219,
        -0.07602666318416595,
        0.006487001199275255,
        -0.04923921450972557,
        -0.06235295534133911,
        -0.014424530789256096,
        0.11862286925315857,
        -0.06186499819159508,
        0.07944895327091217,
        0.050279226154088974,
        0.047608450055122375,
        0.022624429315328598,
        -0.035239942371845245,
        0.056968528777360916,
        -0.06664524972438812,
        -0.07781678438186646,
        0.11795298755168915,
        0.12528079748153687,
        -0.04887233301997185,
        0.13120287656784058,
        0.01068330928683281,
        -0.004131721332669258,
        0.13586793839931488,
        -0.02924882434308529,
        -0.030299747362732887,
        0.06044458597898483,
        -0.03956618905067444,
        -0.02087501622736454,
        -0.05216287821531296,
        0.14314645528793335,
        -0.02850552275776863,
        -0.020072145387530327,
        -0.014662317000329494,
        -0.0293591246008873,
        -0.09874216467142105,
        0.048252079635858536,
        -0.08729550987482071,
        -0.022822998464107513,
        -0.002075856551527977,
        -0.011293030343949795,
        0.11386214941740036,
        0.04600093886256218,
        0.02142343297600746,
        -0.06885795295238495,
        0.02218632958829403,
        0.060666393488645554,
        0.07787257432937622,
        -0.03433810546994209,
        -0.03344200551509857,
        -0.1338767558336258,
        0.13628388941287994,
        0.05615413933992386,
        0.037827517837285995,
        0.038386762142181396,
        0.033821411430835724,
        0.09672489762306213,
        -0.004840353969484568,
        0.07291324436664581,
        0.04862656816840172,
        -0.057881612330675125,
        0.004410284571349621,
        0.0313846617937088,
        -0.1230231523513794,
        0.02387569658458233,
        -0.07080047577619553,
        -0.0471528135240078,
        0.0749034583568573,
        0.12212766706943512,
        -0.0026180127169936895,
        0.023570317775011063,
        -0.015631794929504395,
        0.048108913004398346,
        -0.01656714454293251,
        -0.07809450477361679,
        -0.025518830865621567,
        0.1395554393529892,
        -0.003914514556527138,
        -0.06697966903448105,
        0.018872512504458427,
        -0.10780148208141327,
        -0.014469129033386707,
        0.08091963827610016,
        -0.024514533579349518,
        -0.0035190717317163944,
        -0.08720030635595322,
        0.030972132459282875,
        0.042462773621082306,
        -0.05583064630627632,
        -0.0470995232462883,
        0.08896345645189285,
        0.05856044217944145,
        0.018736043944954872,
        -0.133409321308136,
        0.04304354637861252,
        0.060645509511232376,
        0.018925217911601067,
        0.12728646397590637,
        -0.07225307077169418,
        0.08541790395975113,
        -0.10195516049861908,
        0.06295350939035416,
        0.03930453583598137,
        -0.009158769622445107,
        -0.07937601208686829,
        0.06068475916981697,
        -0.06398190557956696,
        -0.02724735252559185,
        0.10886812210083008,
        -0.10565962642431259,
        -0.017144348472356796,
        0.05383218452334404,
        0.012656180188059807,
        -0.012127320282161236,
        0.07987415045499802,
        0.03414184972643852,
        0.01610882580280304,
        0.05937894061207771,
        -0.04135778173804283,
        0.04446595534682274,
        0.06029064208269119,
        0.025695592164993286,
        0.011396830901503563,
        0.10248690098524094,
        -0.0535961277782917,
        -0.006026086863130331,
        0.009553108364343643,
        0.07780652493238449,
        -0.0485997311770916,
        0.021085232496261597,
        -0.054861389100551605,
        0.05421948432922363,
        0.06966571509838104,
        -0.08335276693105698,
        -0.005035789683461189,
        0.033592697232961655,
        0.07495255768299103,
        0.10485868901014328,
        0.05639088526368141,
        0.04904385283589363,
        0.07777667045593262,
        -0.15212902426719666,
        0.06681028008460999,
        -0.004821473266929388,
        0.08229250460863113,
        0.03208545222878456,
        -0.03256811946630478,
        0.0457594133913517,
        -0.10132958739995956,
        0.05310665816068649,
        0.11009977757930756,
        -0.06969418376684189,
        0.07571468502283096,
        -0.12599600851535797,
        -0.040856022387742996,
        0.07608823478221893,
        0.03434579819440842,
        -0.1372523009777069,
        0.02201978862285614,
        0.10170166194438934,
        0.1295446753501892,
        -0.10232602059841156,
        0.007549863774329424,
        -0.01880507729947567,
        -0.08035155385732651,
        -0.03690613806247711,
        -0.10361549258232117,
        0.08009368181228638,
        -0.07092598080635071,
        0.05301428213715553,
        -0.0947655588388443,
        -0.05469704046845436,
        -0.06236109137535095,
        0.08062291890382767,
        0.12385067343711853,
        0.1400836706161499,
        -0.05885111913084984,
        0.04376485198736191,
        -0.1170862466096878,
        0.10870905965566635,
        -0.023472493514418602,
        -0.09987806528806686,
        -0.12324167042970657,
        -0.13855688273906708,
        -0.008860509842634201,
        -0.09979268163442612,
        -0.010547539219260216,
        0.10571642965078354,
        -0.0313841737806797,
        0.01860547438263893,
        -0.011560109443962574,
        0.07617463171482086,
        0.07097531110048294,
        0.08509401977062225,
        0.042144931852817535,
        -0.05508372187614441,
