{
  "version": 2,
  "kind": "mlp",
  "featureNames": [
    "rank_balance_0",
    "rank_balance_1",
    "rank_balance_2",
    "rank_balance_3",
    "rank_balance_4",
    "rank_balance_5",
    "rank_balance_6",
    "rank_balance_7",
    "rank_balance_8",
    "rank_balance_9",
    "rank_balance_10",
    "rank_balance_11",
    "material_value_diff",
    "movable_piece_diff",
    "scout_diff",
    "miner_diff",
    "bomb_diff",
    "high_rank_diff",
    "revealed_ratio_diff",
    "hidden_high_rank_diff",
    "advancement_diff",
    "frontline_diff",
    "center_control_diff",
    "flag_guard_diff",
    "flag_pressure_diff",
    "turn_advantage",
    "game_phase"
  ],
  "layers": [
    {
      "inputSize": 27,
      "outputSize": 96,
      "weights": [
        0.15990309417247772,
        -0.11709780991077423,
        -0.11961051821708679,
        0.1647191047668457,
        -0.10012175142765045,
        0.15689994394779205,
        -0.0024164177011698484,
        0.19210219383239746,
        -0.13897424936294556,
        -0.07589192688465118,
        0.10886750370264053,
        0.11621717363595963,
        0.0518115796148777,
        0.19645820558071136,
        0.1423995941877365,
        -0.07693745940923691,
        -0.027203034609556198,
        0.23662175238132477,
        -0.0777764767408371,
        -0.1480080485343933,
        -0.26952871680259705,
        -0.12809276580810547,
        0.0058797551319003105,
        -0.03367895260453224,
        0.033896636217832565,
        -0.004209605045616627,
        -0.14942407608032227,
        -0.1632656455039978,
        -0.054154593497514725,
        -0.1747613251209259,
        -0.15883378684520721,
        0.22338443994522095,
        0.08255404978990555,
        0.027252748608589172,
        -0.21577943861484528,
        -0.1567140817642212,
        -0.05231979489326477,
        0.06174268200993538,
        -0.24872443079948425,
        -0.08761280030012131,
        -0.11813969910144806,
        -0.005801073275506496,
        -0.10790804773569107,
        -0.09273052215576172,
        -0.15298733115196228,
        -0.08529269695281982,
        -0.06967721879482269,
        0.021979784592986107,
        -0.09711284190416336,
        0.20197637379169464,
        0.01972205750644207,
        0.008449075743556023,
        0.06980583816766739,
        -0.14700467884540558,
        0.133173868060112,
        -0.0362163670361042,
        -0.02738812193274498,
        -0.20305950939655304,
        -0.2116156965494156,
        0.10547293722629547,
        -0.12401693314313889,
        0.0029606460593640804,
        -0.13575497269630432,
        0.08814587444067001,
        -0.1807166337966919,
        -0.10105663537979126,
        -0.05139605700969696,
        0.05166884511709213,
        0.20173826813697815,
        0.13198508322238922,
        -0.22041700780391693,
        0.010524061508476734,
        -0.009018057957291603,
        0.039688590914011,
        -0.03153131157159805,
        0.24340279400348663,
        -0.05130971968173981,
        0.07963859289884567,
        -0.070506252348423,
        0.07179255038499832,
        -0.08870843797922134,
        0.17491944134235382,
        0.03620442748069763,
        0.00023873400641605258,
        -0.168146550655365,
        0.09050682187080383,
        -0.034928612411022186,
        -0.017526157200336456,
        0.2165738195180893,
        0.005671368911862373,
        -0.03343319147825241,
        -0.08132390677928925,
        -0.11487570405006409,
        0.17405687272548676,
        -0.013385800644755363,
        -0.13431690633296967,
        -0.06445640325546265,
        -0.24945233762264252,
        0.07658019661903381,
        0.18482723832130432,
        -0.21172089874744415,
        0.17140620946884155,
        0.18786011636257172,
        0.07671889662742615,
        -0.004826467018574476,
        -0.04238740727305412,
        0.09167984127998352,
        0.08697360008955002,
        -0.03381551057100296,
        -0.02476172149181366,
        -0.009079581126570702,
        -0.03849214315414429,
        -0.06374213099479675,
        0.12682947516441345,
        0.16420361399650574,
        -0.013859402388334274,
        -0.10393597930669785,
        0.03985342010855675,
        0.05050031840801239,
        0.04934443533420563,
        0.05737000331282616,
        -0.18188567459583282,
        -0.10068528354167938,
        0.15756165981292725,
        0.07804574817419052,
        -0.030809937044978142,
        -0.17955726385116577,
        -0.07826103270053864,
        -0.27013376355171204,
        -0.12884770333766937,
        0.007746668066829443,
        0.13012996315956116,
        0.17592288553714752,
        -0.1617194265127182,
        -0.1034172996878624,
        -0.030370259657502174,
        0.20407453179359436,
        0.024611296132206917,
        -0.14040763676166534,
        0.05433814972639084,
        -0.04357539117336273,
        -0.17761188745498657,
        0.06853646785020828,
        -0.08573247492313385,
        -0.05119463801383972,
        -0.27847927808761597,
        0.06335825473070145,
        0.04773589223623276,
        -0.008351275697350502,
        -0.13740913569927216,
        -0.2804967164993286,
        -0.22173196077346802,
        0.07823476940393448,
        0.12322156876325607,
        0.22209332883358002,
        0.1828584522008896,
        0.07129912078380585,
        0.02179832011461258,
        -0.12660306692123413,
        -0.34051162004470825,
        -0.15486013889312744,
        0.08621631562709808,
        -0.09448264539241791,
        -0.040827676653862,
        -0.07829444855451584,
        -0.010648179799318314,
        -0.15963825583457947,
        -0.14101256430149078,
        0.07882141321897507,
        -0.09091038256883621,
        0.16935858130455017,
        -0.06271713227033615,
        -0.14984162151813507,
        0.026900144293904305,
        -0.08334043622016907,
        -0.03425893187522888,
        -0.15074658393859863,
        0.1320859044790268,
        -0.07312316447496414,
        0.13885712623596191,
        0.07322762161493301,
        0.11820805817842484,
        -0.25528836250305176,
        0.07831615209579468,
        -0.12980340421199799,
        0.07437825947999954,
        0.34087619185447693,
        -0.044756464660167694,
        -0.012026157230138779,
        -0.044305793941020966,
        -0.19148039817810059,
        0.11243429780006409,
        -0.17605066299438477,
        0.13660313189029694,
        0.11674497276544571,
        0.24220846593379974,
        -0.014874584041535854,
        -0.15407896041870117,
        0.05223749205470085,
        0.10800198465585709,
        -0.25552016496658325,
        -0.008010447956621647,
        -0.09003456681966782,
        0.003250386565923691,
        -0.07973281294107437,
        -0.14264516532421112,
        -0.04786338284611702,
        -0.11722523719072342,
        0.15508589148521423,
        0.22008007764816284,
        0.025709301233291626,
        0.0008262937190011144,
        -0.06807366013526917,
        -0.3257982134819031,
        -0.17004041373729706,
        0.07602868229150772,
        -0.10565770417451859,
        -0.1506877839565277,
        -0.08500579744577408,
        0.09485272318124771,
        -0.05010099336504936,
        -0.05032219737768173,
        -0.015496768988668919,
        0.1110534518957138,
        -0.06364589184522629,
        -0.4496465027332306,
        0.356781005859375,
        -0.14556348323822021,
        0.15389905869960785,
        -0.015699585899710655,
        -0.054353147745132446,
        0.3383484482765198,
        0.020110011100769043,
        -0.1619887351989746,
        0.20284347236156464,
        0.20814402401447296,
        0.20743407309055328,
        0.23631639778614044,
        0.29308703541755676,
        -0.025872934609651566,
        -0.044065218418836594,
        -0.10585317015647888,
        -0.023807654157280922,
        0.14251704514026642,
        0.15000636875629425,
        -0.17422154545783997,
        -0.264156311750412,
        -0.21756236255168915,
        -0.16284573078155518,
        -0.386724054813385,
        -0.22429603338241577,
        0.2074211835861206,
        -0.011661252938210964,
        -0.33557412028312683,
        -0.17520931363105774,
        -0.150361567735672,
        -0.3582971394062042,
        -0.0761423334479332,
        -0.017526626586914062,
        -0.10989273339509964,
        -0.08603503555059433,
        0.0418609119951725,
        0.09710501879453659,
        -0.07176590710878372,
        -0.26257848739624023,
        -0.15886898338794708,
        -0.15904146432876587,
        0.017743676900863647,
        -0.06952973455190659,
        -0.13857883214950562,
        0.04664669185876846,
        0.02600003220140934,
        0.08411537110805511,
        0.1812577098608017,
        0.12561222910881042,
        -0.21933957934379578,
        0.0813346728682518,
        0.18631035089492798,
        -0.04133894667029381,
        0.007688850164413452,
        0.21016110479831696,
        -0.02310836687684059,
        -0.004736823029816151,
        -0.11040854454040527,
        -0.012729179114103317,
        0.1202569529414177,
        0.09146842360496521,
        0.09847603738307953,
        -0.18566730618476868,
        -0.23461438715457916,
        -0.07058180868625641,
        0.1334754377603531,
        0.056720077991485596,
        -0.08276454359292984,
        0.13405567407608032,
        -0.1530148983001709,
        -0.0835026353597641,
        0.03485029190778732,
        0.05968838930130005,
        0.2498447597026825,
        -0.23466883599758148,
        0.11999332904815674,
        -0.17571914196014404,
        0.10351789742708206,
        0.06871182471513748,
        0.019464945420622826,
        0.3958440124988556,
        -0.3326691687107086,
        0.06346096843481064,
        0.07199743390083313,
        -0.05180264636874199,
        0.05104022100567818,
        -0.1381954699754715,
        0.2696146070957184,
        0.14639465510845184,
        -0.0058668204583227634,
        -0.2236446738243103,
        -0.28910502791404724,
        -0.07024923712015152,
        -0.03381328657269478,
        -0.09047043323516846,
        0.08762044459581375,
        0.10157440602779388,
        -0.005019958596676588,
        0.008682502433657646,
        -0.042090799659490585,
        -0.17753708362579346,
        -0.17061495780944824,
        -0.05305319279432297,
        -0.0642104372382164,
        0.09970594197511673,
        -0.050701554864645004,
        -0.11828821897506714,
        0.16137492656707764,
        0.09212902188301086,
        0.03616397827863693,
        -0.07342372089624405,
        -0.05459748953580856,
        0.06746451556682587,
        -0.11788734793663025,
        -0.22682581841945648,
        -0.0500616617500782,
        -0.06480531394481659,
        -0.12773028016090393,
        0.22142484784126282,
        0.23811443150043488,
        0.09524431824684143,
        -0.011819183826446533,
        -0.33781319856643677,
        -0.04190004989504814,
        0.05702931806445122,
        0.09074199199676514,
        -0.0006885150214657187,
        -0.09653545171022415,
        0.06744494289159775,
        -0.17906053364276886,
        0.14981700479984283,
        -0.13304555416107178,
        -0.0527166984975338,
        -0.07248712331056595,
        0.04039264842867851,
        -0.07352089881896973,
        0.16612829267978668,
        -0.083697110414505,
        0.0929182767868042,
        0.16457444429397583,
        -0.13354165852069855,
        -0.11418621242046356,
        0.10523442178964615,
        0.08673899620771408,
        -0.10165493935346603,
        -0.13147611916065216,
        -0.2781550884246826,
        -0.2082512229681015,
        0.013021184131503105,
        0.16955643892288208,
        0.030427616089582443,
        -0.032678451389074326,
        0.1775418072938919,
        0.05970006808638573,
        -0.11513488739728928,
        -0.03285638615489006,
        0.05651478096842766,
        0.095659039914608,
        -0.08852836489677429,
        0.09439853578805923,
        -0.15280461311340332,
        -0.09152955561876297,
        -0.08887951821088791,
        0.096263088285923,
        0.20763950049877167,
        0.20170675218105316,
        0.11138493567705154,
        0.12341676652431488,
        -0.11508558690547943,
        -0.12497133016586304,
        0.11004143953323364,
        -0.09670806676149368,
        0.016702203080058098,
        0.035322848707437515,
        0.08222591131925583,
        0.1625073105096817,
        -0.21708162128925323,
        -0.09248090535402298,
        0.04963366687297821,
        -0.1134301945567131,
        -0.10877284407615662,
        0.10158148407936096,
        -0.015135503374040127,
        0.20223656296730042,
        0.18520067632198334,
        0.11108330637216568,
        0.08203341066837311,
        -0.009129888378083706,
        0.06450920552015305,
        -0.006810219492763281,
        -0.07702264189720154,
        0.11856954544782639,
        0.2164754867553711,
        -0.04860115423798561,
        -0.0641561970114708,
        -0.12626981735229492,
        -0.11012955754995346,
        0.02702620066702366,
        0.11458145081996918,
        0.24330276250839233,
        0.15300339460372925,
        -0.10579530894756317,
        -0.027786796912550926,
        -0.1812577247619629,
        -0.03291955962777138,
        0.03542308509349823,
        -0.17665532231330872,
        0.10891520977020264,
        -0.16314218938350677,
        -0.11207381635904312,
        -0.14340193569660187,
        0.1965048760175705,
        -0.22585538029670715,
        0.08787692338228226,
        -0.006170184351503849,
        -0.07725492864847183,
        0.1419488936662674,
        -0.10851623862981796,
        0.08962041884660721,
        0.12179136276245117,
        -0.1834145039319992,
        0.08373855799436569,
        -0.054401081055402756,
        0.009380791336297989,
        0.02878970094025135,
        0.1560455709695816,
        0.009254581294953823,
        0.027105633169412613,
        0.21080686151981354,
        0.15249331295490265,
        -0.171507328748703,
        -0.15612167119979858,
        0.02518785558640957,
        -0.13104504346847534,
        0.083976149559021,
        -0.15816523134708405,
        0.09413372725248337,
        0.040456775575876236,
        -0.016948258504271507,
        0.3397785425186157,
        0.2211039960384369,
        0.047482702881097794,
        0.25513896346092224,
        0.25634685158729553,
        -0.032033298164606094,
        0.16064836084842682,
        0.23521479964256287,
        -0.09384831041097641,
        0.1981407105922699,
        -0.007615827023983002,
        -0.0666307657957077,
        0.040668975561857224,
        -0.09524887055158615,
        0.045279406011104584,
        0.19792987406253815,
        0.11506891250610352,
        0.2192915380001068,
        0.16848760843276978,
        -0.15587548911571503,
        -0.11400381475687027,
        -0.11953866481781006,
        -0.07153351604938507,
        -0.10610100626945496,
        -0.229117751121521,
        -0.20354574918746948,
        -0.03539551794528961,
        -0.30993160605430603,
        -0.20212557911872864,
        0.08670863509178162,
        0.13508674502372742,
        -0.10520260035991669,
        -0.11037969589233398,
        0.013925268314778805,
        -0.15673665702342987,
        -0.10063278675079346,
        0.0666034072637558,
        -0.22207672894001007,
        -0.017122916877269745,
        0.1985781192779541,
        0.14092221856117249,
        0.10646428167819977,
        -0.09077376127243042,
        0.02709662728011608,
        0.0027419948019087315,
        -0.1245235949754715,
        0.07974033802747726,
        0.13812343776226044,
        -0.14688867330551147,
        -0.024856045842170715,
        -0.00816202163696289,
        -0.1872817426919937,
        -0.06230241432785988,
        -0.1859344094991684,
        0.11352011561393738,
        -2.5663786800578237e-05,
        -0.07849302142858505,
        0.21394027769565582,
        -0.26810336112976074,
        0.03807146102190018,
        -0.06640198826789856,
        -0.16765035688877106,
        -0.0343824103474617,
        -0.06645961105823517,
        0.25852349400520325,
        0.2285192757844925,
        0.09757095575332642,
        -0.18737271428108215,
        -0.22376617789268494,
        0.10122685134410858,
        0.0055628130212426186,
        -0.02569262869656086,
        0.20796921849250793,
        -0.1472405195236206,
        -0.06375225633382797,
        0.18524755537509918,
        -0.003406425239518285,
        -0.02759552374482155,
        -0.19091369211673737,
        -0.14355890452861786,
        0.04887937754392624,
        -0.17160288989543915,
        -0.06700585037469864,
        0.05816318839788437,
        -0.19362586736679077,
        0.014972716569900513,
        -0.19803684949874878,
        -0.14552192389965057,
        0.03342859819531441,
        0.13506954908370972,
        -0.08371879905462265,
        -0.14980170130729675,
        -0.2244846671819687,
        -0.08053763210773468,
        -0.11220600455999374,
        0.01769113354384899,
        0.059392329305410385,
        -0.15407481789588928,
        0.18335556983947754,
        -0.015083108097314835,
        -0.16769954562187195,
        -0.08959727734327316,
        0.06276440620422363,
        -0.011914949864149094,
        -0.058742914348840714,
        -0.13400430977344513,
        0.1505041867494583,
        -0.07005602866411209,
        0.139060378074646,
        0.030913878232240677,
        0.01848345622420311,
        0.15586934983730316,
        -0.03510588780045509,
        -0.20084325969219208,
        -0.02551800012588501,
        0.13929440081119537,
        -0.1805596798658371,
        -0.0034354052040725946,
        -0.28040358424186707,
        0.0751163437962532,
        0.11077134311199188,
        0.04501079395413399,
        0.1998336762189865,
        0.05137854442000389,
        0.1174817606806755,
        -0.11598679423332214,
        -0.20867444574832916,
        0.0858348160982132,
        0.1788414716720581,
        0.09802824258804321,
        -0.19316531717777252,
        0.16940031945705414,
        -0.05374201759696007,
        -0.09891090542078018,
        -0.21336066722869873,
        -0.08567582815885544,
        0.14548955857753754,
        0.07596468180418015,
        -0.06728195399045944,
        0.009220601990818977,
        0.027249816805124283,
        0.141180157661438,
        -0.20739300549030304,
        -0.039392340928316116,
        -0.19664382934570312,
        0.013165880925953388,
        0.1112426221370697,
        0.21695895493030548,
        0.020921560004353523,
        0.14515861868858337,
        -0.010359381325542927,
        0.07270734012126923,
        0.10068032145500183,
        0.32128793001174927,
        -0.11493907868862152,
        0.15909983217716217,
        0.11657332628965378,
        -0.07036597281694412,
        -0.08125220239162445,
        -0.18088805675506592,
        0.02791403979063034,
        -0.1285911500453949,
        0.06286359578371048,
        0.06602725386619568,
        -0.21968957781791687,
        0.04943424463272095,
        0.021577665582299232,
        0.00489727733656764,
        0.10040822625160217,
        -0.20295417308807373,
        0.18706874549388885,
        0.1419087052345276,
        -0.006444024853408337,
        -0.21854819357395172,
        -0.028429728001356125,
        -0.02530089020729065,
        0.04316378012299538,
        0.16121329367160797,
        0.09848276525735855,
        0.1701849102973938,
        -0.24486693739891052,
        0.0861421599984169,
        0.06183444336056709,
        -0.1602238118648529,
        -0.24097667634487152,
        -0.11157418042421341,
        0.15843144059181213,
        -0.10479322820901871,
        -0.23379038274288177,
        0.0432780459523201,
        0.1329430788755417,
        0.18941935896873474,
        -0.0920463278889656,
        -0.16146361827850342,
        0.17493726313114166,
        0.15938951075077057,
        0.10333668440580368,
        0.018427221104502678,
        0.09012119472026825,
        0.25886476039886475,
        -0.07404182851314545,
        -0.06902951747179031,
        0.10329561680555344,
        -0.2176797091960907,
        -0.14584219455718994,
        0.10176852345466614,
        0.023752465844154358,
        0.22497321665287018,
        -0.08762521296739578,
        -0.016646988689899445,
        0.17612825334072113,
        -0.16194789111614227,
        -0.017345216125249863,
        0.19383126497268677,
        -0.10353484749794006,
        0.178390771150589,
        -0.138222336769104,
        0.041345227509737015,
        -0.08279108256101608,
        -0.15268488228321075,
        -0.18908797204494476,
        0.19131425023078918,
        0.05769813433289528,
        -0.15904007852077484,
        -0.14271707832813263,
        0.292507141828537,
        0.1563624143600464,
        0.05480623617768288,
        -0.17647704482078552,
        -0.18095643818378448,
        -0.132149800658226,
        -0.09463122487068176,
        -0.18187521398067474,
        -0.009449346922338009,
        0.19299522042274475,
        -0.033935222774744034,
        0.007506185211241245,
        -0.07627352327108383,
        0.017160017043352127,
        0.11959045380353928,
        -0.09333537518978119,
        -0.2780511975288391,
        0.09954071789979935,
        -0.015797724947333336,
        -0.12033743411302567,
        0.2378198653459549,
        -0.09347514808177948,
        0.01057937927544117,
        0.17877431213855743,
        -0.20684537291526794,
        0.09449336677789688,
        -0.12993010878562927,
        -0.09858455508947372,
        0.049060992896556854,
        -0.12029355019330978,
        0.19034960865974426,
        -0.061902258545160294,
        0.016441019251942635,
        -0.21474403142929077,
        0.10756482928991318,
        -0.1323070377111435,
        -0.04163390025496483,
        0.007216347381472588,
        0.07593283802270889,
        0.16653738915920258,
        -0.10881306231021881,
        -0.13579681515693665,
        0.0292055681347847,
        0.09107095748186111,
        0.08948227763175964,
        0.1215255931019783,
        -0.02603810839354992,
        0.05419417470693588,
        0.19627445936203003,
        0.05816741660237312,
        0.08993998914957047,
        0.10866338759660721,
        0.17067790031433105,
        -0.15045370161533356,
        -0.10282211750745773,
        -0.1026148870587349,
        -0.004970057401806116,
        0.08653183281421661,
        -0.1161377876996994,
        0.1379941999912262,
        -0.04874313622713089,
        0.10179062187671661,
        0.05075044184923172,
        -0.2009022831916809,
        -0.08940855413675308,
        -0.09500853717327118,
        0.09544384479522705,
        -0.10619525611400604,
        -0.02902897261083126,
        -0.020136751234531403,
        -0.0730195939540863,
        0.08041860908269882,
        -0.24153585731983185,
        -0.17426984012126923,
        -0.19166575372219086,
        -0.05951693654060364,
        -0.0665072500705719,
        -0.04187615588307381,
        -0.07123302668333054,
        0.05427863076329231,
        0.16343268752098083,
        0.0073888772167265415,
        -0.14524707198143005,
        -0.2122717946767807,
        0.0960392877459526,
        -0.0510190986096859,
        0.17670544981956482,
        0.17575249075889587,
        0.12211377173662186,
        0.2194085717201233,
        0.012121493928134441,
        0.051186032593250275,
        -0.12477665394544601,
        0.17193450033664703,
        -0.10524117946624756,
        -0.08636245131492615,
        0.15620894730091095,
        0.17524833977222443,
        0.1278432011604309,
        -0.0040516117587685585,
        -0.1467416137456894,
        -0.06887014210224152,
        0.21798160672187805,
        0.020125173032283783,
        -0.05831276997923851,
        -0.03036406636238098,
        -0.053067099303007126,
        0.11923615634441376,
        0.007047982420772314,
        0.050407182425260544,
        -0.08834758400917053,
        0.08206723630428314,
        0.0723712295293808,
        0.1486537605524063,
        0.19835391640663147,
        0.19255609810352325,
        0.1962151676416397,
        0.016286319121718407,
        -0.028623240068554878,
        -0.14229442179203033,
        0.03518114238977432,
        -0.030692914500832558,
        0.002411511493846774,
        -0.046483319252729416,
        -0.04731892794370651,
        0.1744229644536972,
        0.022190866991877556,
        -0.12000303715467453,
        -0.0419287271797657,
        -0.1416236162185669,
        -0.1409309059381485,
        0.2844734787940979,
        0.03213592618703842,
        0.14112789928913116,
        0.05321919173002243,
        0.024551017209887505,
        0.17815975844860077,
        -0.21422326564788818,
        -0.026806073263287544,
        -0.060766253620386124,
        -0.21530792117118835,
        -0.20399752259254456,
        0.1573585420846939,
        0.08243674784898758,
        0.23402053117752075,
        0.15499743819236755,
        -0.09251543879508972,
        -0.033238403499126434,
        0.12936340272426605,
        0.048036955296993256,
        -0.10891558974981308,
        -0.31406477093696594,
        0.17860272526741028,
        -0.31799256801605225,
        -0.17495855689048767,
        0.3238721489906311,
        -0.22119373083114624,
        -0.3733220398426056,
        0.24366457760334015,
        -0.2835766673088074,
        -0.14690066874027252,
        0.2595222592353821,
        -0.1500472128391266,
        -0.010110895149409771,
        -0.2088385969400406,
        -0.060710273683071136,
        -0.10546444356441498,
        -0.2393864393234253,
        -0.0033362717367708683,
        0.025146877393126488,
        -0.1508946269750595,
        -0.02025965042412281,
        -0.06172728165984154,
        -0.046217020601034164,
        -0.06262272596359253,
        -0.21745391190052032,
        0.053696244955062866,
        -0.13550566136837006,
        -0.1265043020248413,
        -0.12744148075580597,
        0.11895584315061569,
        -0.062425822019577026,
        -0.19331753253936768,
        0.2281191200017929,
        0.11073124408721924,
        -0.005126479081809521,
        -0.1521291881799698,
        -0.1110885739326477,
        -0.06040889769792557,
        0.16485783457756042,
        -0.0957830399274826,
        -0.2134823501110077,
        -0.014619349502027035,
        -0.19053173065185547,
        0.08205431699752808,
        0.03318919986486435,
        0.2695845067501068,
        0.11085078120231628,
        -0.1734190285205841,
        0.042776189744472504,
        -0.03466974198818207,
        0.07560953497886658,
        0.11003896594047546,
        0.0428113117814064,
        -0.10634541511535645,
        0.1523190438747406,
        -0.0015738531947135925,
        -0.11772872507572174,
        0.029604630544781685,
        0.12546712160110474,
        0.18609702587127686,
        0.031002050265669823,
        -0.007950935512781143,
        0.019910048693418503,
        0.11891206353902817,
        -0.197621151804924,
        -0.05517703667283058,
        -0.07358667999505997,
        -0.010958816856145859,
        -0.013960890471935272,
        -0.050157248973846436,
        -0.1383659541606903,
        -0.013009210117161274,
        -0.09041673690080643,
        -0.20356962084770203,
        0.3018569052219391,
        -0.10687446594238281,
        -0.016619540750980377,
        0.01815206930041313,
        0.012621443718671799,
        -0.18213292956352234,
        0.056125398725271225,
        -0.05102608725428581,
        -0.04856149107217789,
        0.038087908178567886,
        -0.11803779751062393,
        -0.1230228915810585,
        -0.032709866762161255,
        -0.07919006794691086,
        -0.16641557216644287,
        -0.04542228952050209,
        0.058867115527391434,
        -0.15683189034461975,
        -0.14864537119865417,
        -0.08323728293180466,
        -0.007993217557668686,
        0.12972107529640198,
        -0.09982586652040482,
        0.16380548477172852,
        0.16562572121620178,
        0.15659211575984955,
        -0.1491899937391281,
        -0.2572934627532959,
        -0.14859294891357422,
        -0.10283950716257095,
        0.10718511790037155,
        -0.0027588093653321266,
        0.08682746440172195,
        -0.1501992642879486,
        0.08269114792346954,
        -0.08903294056653976,
        0.07590974122285843,
        -0.13636647164821625,
        -0.07355403900146484,
        -0.17208969593048096,
        0.018024753779172897,
        0.10871702432632446,
        0.07841986417770386,
        -0.10990935564041138,
        0.007684238720685244,
        -0.058337531983852386,
        -0.22892989218235016,
        0.11943775415420532,
        0.02598532661795616,
        0.11076409369707108,
        -0.01679130271077156,
        -0.04518233239650726,
        0.06778828799724579,
        0.10932352393865585,
        -0.1300487220287323,
        -0.07897036522626877,
        0.18499736487865448,
        -0.028327936306595802,
        -0.15664689242839813,
        -0.07948409020900726,
        0.199044868350029,
        -0.023902375251054764,
        -0.05079304426908493,
        -0.08886811882257462,
        -0.03959241881966591,
        -0.1155104860663414,
        -0.09794077277183533,
        0.07613620907068253,
        0.24237768352031708,
        0.18836480379104614,
        -0.1401197612285614,
        0.11460597068071365,
        -0.10951170325279236,
        0.19255822896957397,
        0.20075969398021698,
        0.14288370311260223,
        0.11230430752038956,
        0.025963880121707916,
        -0.04255850240588188,
        0.05075506865978241,
        -0.11713601648807526,
        0.23934297263622284,
        -0.07013648748397827,
        -0.015298057347536087,
        -0.16749611496925354,
        0.00910160318017006,
        -0.17763330042362213,
        -0.10499731451272964,
        -0.1169329285621643,
        -0.19607193768024445,
        -0.07127170264720917,
        0.06843355298042297,
        0.16547724604606628,
        0.14397524297237396,
        -0.1067180186510086,
        -0.2093024104833603,
        0.019201699644327164,
        0.04106079041957855,
        -0.24164745211601257,
        0.028923572972416878,
        0.14372462034225464,
        0.0011310585541650653,
        -0.08508996665477753,
        0.23307743668556213,
        0.09502098709344864,
        0.08185536414384842,
        -0.18666918575763702,
        0.10342088341712952,
        -0.2186707854270935,
        0.17629456520080566,
        -0.057525355368852615,
        0.1159578189253807,
        0.06047886610031128,
        0.05677657574415207,
        -0.09828703105449677,
        0.08925803005695343,
        -0.10886292904615402,
        -0.24504466354846954,
        -0.19087591767311096,
        0.16048793494701385,
        -0.07785158604383469,
        -0.014914129860699177,
        -0.12987931072711945,
        0.013181176036596298,
        0.023024167865514755,
        0.07371116429567337,
        -0.16714273393154144,
        -0.21597793698310852,
        -0.05088161677122116,
        -0.09383706003427505,
        0.2451540231704712,
        -0.11341454833745956,
        0.09336718916893005,
        0.22409139573574066,
        0.1175682544708252,
        -0.12539103627204895,
        -0.16612623631954193,
        0.1839885264635086,
        -0.032916031777858734,
        -0.2061607539653778,
        0.294819176197052,
        -0.10295605659484863,
        -0.0037970775738358498,
        0.1873193234205246,
        -0.22971375286579132,
        -0.21097365021705627,
        0.05949923396110535,
        -0.06800263375043869,
        -0.14891517162322998,
        -0.13375388085842133,
        -0.08222193270921707,
        -0.12453926354646683,
        0.010245388373732567,
        -0.20085160434246063,
        0.12968258559703827,
        -0.03616591915488243,
        -0.09629308432340622,
        0.12038353830575943,
        0.14056134223937988,
        0.056409284472465515,
        0.010112160816788673,
        -0.0675617977976799,
        0.15801075100898743,
        0.08838848769664764,
        -0.135554701089859,
        0.17566414177417755,
        -0.05938528850674629,
        0.040882352739572525,
        0.18588204681873322,
        0.1711674928665161,
        -0.20105411112308502,
        0.19112636148929596,
        -0.07859006524085999,
        0.03766141086816788,
        -0.09452535212039948,
        -0.014729056507349014,
        0.07218118011951447,
        0.022936396300792694,
        -0.028740929439663887,
        -0.0364968478679657,
        0.2262430340051651,
        0.19273759424686432,
        0.17386353015899658,
        0.06731520593166351,
        0.10902412980794907,
        -0.09154187142848969,
        -0.042151760309934616,
        -0.004432132933288813,
        -0.14088626205921173,
        0.005259946454316378,
        0.009128840640187263,
        -0.08386098593473434,
        -0.003531215013936162,
        -0.08039770275354385,
        0.06714748591184616,
        0.15143609046936035,
        -0.058687642216682434,
        0.15173496305942535,
        0.20292313396930695,
        -0.10476711392402649,
        -0.16437654197216034,
        -0.23044507205486298,
        -0.09445422887802124,
        0.012036205269396305,
        0.003996531944721937,
        -0.010578688234090805,
        -0.060037970542907715,
        -0.034904658794403076,
        0.017334405332803726,
        0.16547267138957977,
        -0.13708145916461945,
        -0.2197306603193283,
        0.00098650180734694,
        -0.04151167720556259,
        0.14282847940921783,
        0.06848303973674774,
        0.3421388864517212,
        -0.13954581320285797,
        0.09661401063203812,
        0.16150321066379547,
        -0.10381194949150085,
        0.17333200573921204,
        0.15467214584350586,
        -0.0700896605849266,
        0.011631871573626995,
        -0.06720619648694992,
        -0.16921307146549225,
        0.1219642385840416,
        0.10383086651563644,
        -0.16296781599521637,
        0.17049920558929443,
        -0.18026472628116608,
        0.13672587275505066,
        0.18280255794525146,
        0.0628037378191948,
        -0.043577127158641815,
        0.17088070511817932,
        0.06467828154563904,
        0.027495160698890686,
        -0.02305845357477665,
        0.07627911120653152,
        -0.13139225542545319,
        -0.09789171069860458,
        0.20195750892162323,
        0.006965743377804756,
        0.13051797449588776,
        -0.10107801109552383,
        0.04026153311133385,
        0.03328036889433861,
        -0.10146963596343994,
        0.07202521711587906,
        -0.010934105142951012,
        -0.1688425987958908,
        -0.058285925537347794,
        -0.036551784723997116,
        -0.08125130832195282,
        0.031131599098443985,
        -0.17374025285243988,
        -0.07442612946033478,
        -0.05344965308904648,
        -0.05942364037036896,
        0.1264508217573166,
        -0.024840986356139183,
        0.1409795880317688,
        0.10221531987190247,
        -0.05668291077017784,
        0.07507973164319992,
        0.14518868923187256,
        -0.11530565470457077,
        -0.1648414134979248,
        0.1928655207157135,
        0.09759532660245895,
        -0.13753515481948853,
        0.11579959839582443,
        0.006699675694108009,
        -0.16570799052715302,
        -0.050243329256772995,
        0.0884651318192482,
        -0.061670783907175064,
        0.0764719545841217,
        -0.1690087467432022,
        0.10915882885456085,
        0.17644383013248444,
        0.09509243816137314,
        -0.03620165213942528,
        0.05156995728611946,
        -0.14760474860668182,
        -0.024060385301709175,
        -0.08307361602783203,
        -0.17590956389904022,
        -0.1774791032075882,
        0.16781596839427948,
        0.16660082340240479,
        -0.05809721350669861,
        0.13708718121051788,
        0.12648864090442657,
        0.2007935643196106,
        -0.05756719410419464,
        0.1913963109254837,
        -0.04990557208657265,
        0.13478104770183563,
        0.16194213926792145,
        -0.1484387367963791,
        -0.18354763090610504,
        0.051641739904880524,
        0.07504241913557053,
        -0.10025374591350555,
        -0.019830884411931038,
        0.03237362205982208,
        -0.029534876346588135,
        -0.13176196813583374,
        0.08859729021787643,
        0.07885143905878067,
        -0.16309159994125366,
        0.03515210747718811,
        -0.028540700674057007,
        0.04184937849640846,
        0.15382173657417297,
        0.09365801513195038,
        0.008105193264782429,
        0.26366618275642395,
        -0.058956556022167206,
        -0.00951861497014761,
        -0.0007482162909582257,
        -0.27872252464294434,
        0.03680574521422386,
        -0.11384101957082748,
        0.01978680118918419,
        0.016723550856113434,
        0.05678529664874077,
        -0.15195858478546143,
        -0.19886082410812378,
        0.06464619189500809,
        0.12442542612552643,
        -0.17738190293312073,
        0.11403065174818039,
        -0.1907830834388733,
        -0.02438265271484852,
        0.28512006998062134,
        0.11029576510190964,
        -0.15492628514766693,
        0.14918430149555206,
        0.11083801835775375,
        0.10578905791044235,
        0.1976456493139267,
        -0.10429870337247849,
        -0.05921868607401848,
        -0.20554593205451965,
        -0.06533821672201157,
        0.009811954572796822,
        -0.05749991908669472,
        0.047643981873989105,
        -0.09278280287981033,
        0.03614339977502823,
        -0.16873694956302643,
        -0.1146918386220932,
        0.0039389366284012794,
        -0.034906018525362015,
        0.06753724813461304,
        0.027187051251530647,
        0.18473181128501892,
        0.06300446391105652,
        -0.1466573029756546,
        0.17970024049282074,
        0.05700964480638504,
        -0.14712876081466675,
        -0.061995163559913635,
        0.08398934453725815,
        -0.1753385066986084,
        0.09374762326478958,
        0.0031370376236736774,
        -0.1443255990743637,
        -0.10218600183725357,
        -0.21760064363479614,
        0.2679247260093689,
        0.25323426723480225,
        0.06884317100048065,
        0.1861669272184372,
        -0.15297061204910278,
        -0.1602640300989151,
        0.052881695330142975,
        0.06817483901977539,
        0.17085939645767212,
        -0.026697224006056786,
        0.15489737689495087,
        0.09569577127695084,
        0.1903025507926941,
        -0.2077603042125702,
        0.1866113394498825,
        -0.14831556379795074,
        0.26974907517433167,
        0.05823669955134392,
        -0.27127015590667725,
        0.1327625960111618,
        -0.010153588838875294,
        -0.19949135184288025,
        -0.062354326248168945,
        -0.08088705688714981,
        0.22018717229366302,
        0.008404193446040154,
        0.23374387621879578,
        0.10795973986387253,
        0.05393088981509209,
        0.07307755947113037,
        -0.06607145816087723,
        -0.3398176431655884,
        -0.04212666675448418,
        -0.16483235359191895,
        -0.08974502235651016,
        0.04161705821752548,
        -0.1421521008014679,
        -0.09755224734544754,
        -0.02730712480843067,
        -0.02922087535262108,
        -0.14075247943401337,
        -0.011599724180996418,
        -0.027777526527643204,
        0.07229693979024887,
        -0.012802937999367714,
        -0.18074488639831543,
        -0.10386832803487778,
        -0.03620646893978119,
        -0.13548913598060608,
        -0.0026629799976944923,
        -0.09823349118232727,
        0.05330691859126091,
        0.09076392650604248,
        0.19699034094810486,
        0.11589951813220978,
        -0.08028306812047958,
        0.12519517540931702,
        -0.11647742986679077,
        -0.20000500977039337,
        -0.0394124910235405,
        -0.05022437125444412,
        -0.07119925320148468,
        0.22994640469551086,
        0.10376690328121185,
        0.03853518143296242,
        0.10993622243404388,
        -0.19652210175991058,
        0.0024339896626770496,
        0.08065315335988998,
        0.20044183731079102,
        -0.27929791808128357,
        0.055370770394802094,
        0.00375196011736989,
        -0.07462889701128006,
        -0.09325345605611801,
        -0.16707687079906464,
        -0.1983688771724701,
        -0.013223481364548206,
        0.09733420610427856,
        0.04649842530488968,
        -0.15479417145252228,
        -0.2303723692893982,
        -0.12322016805410385,
        -0.31010591983795166,
        0.055577609688043594,
        0.3131061792373657,
        0.017953818663954735,
        -0.15922671556472778,
        0.0448746457695961,
        0.016244148835539818,
        0.25068461894989014,
        -0.07997693866491318,
        -0.2385077029466629,
        0.17239437997341156,
        -0.05747145041823387,
        -0.06540626287460327,
        -0.04204205051064491,
        -0.13724544644355774,
        0.024887723848223686,
        0.04202153533697128,
        0.10676639527082443,
        0.18112805485725403,
        0.12267941236495972,
        0.06340724974870682,
        0.062119241803884506,
        0.11593879759311676,
        -0.17434239387512207,
        0.018610291182994843,
        -0.09590104222297668,
        0.07606981694698334,
        0.04036571830511093,
        -0.13773241639137268,
        0.07863146811723709,
        0.08511298149824142,
        -0.15176261961460114,
        -0.12164125591516495,
        0.027714716270565987,
        -0.08754589408636093,
        0.0296687763184309,
        0.16576959192752838,
        -0.043222300708293915,
        0.1747993528842926,
        -0.13128934800624847,
        -0.12731902301311493,
        -0.12102296948432922,
        -0.10711004585027695,
        -0.19111475348472595,
        -0.2026996910572052,
        -0.19864165782928467,
        0.032483380287885666,
        0.07143114507198334,
        0.12444484233856201,
        0.13137763738632202,
        -0.0022850604727864265,
        0.10864753276109695,
        -0.0798012912273407,
        0.08139796555042267,
        -0.1841721385717392,
        0.1255439668893814,
        -0.0980948954820633,
        0.05444198474287987,
        0.07502604275941849,
        -0.0883505716919899,
        0.10669513791799545,
        0.08580393344163895,
        0.16781936585903168,
        0.019693197682499886,
        0.09128822386264801,
        0.13816235959529877,
        0.16757802665233612,
        0.16133816540241241,
        -0.00967926811426878,
        0.12198413163423538,
        0.11474090814590454,
        0.1581234186887741,
        0.21240858733654022,
        0.03753644973039627,
        -0.03002067469060421,
        0.051256194710731506,
        0.0943208783864975,
        0.015139630995690823,
        -0.11720621585845947,
        0.05739886686205864,
        0.07009021192789078,
        -0.16252698004245758,
        -0.05096347630023956,
        0.15601234138011932,
        -0.12575770914554596,
        0.016633233055472374,
        -0.0590776689350605,
        -0.09961599856615067,
        -0.06940801441669464,
        -0.025783218443393707,
        0.1796233355998993,
        0.02364864945411682,
        0.22357216477394104,
        0.07727228850126266,
        0.01729513145983219,
        0.13367269933223724,
        0.07479870319366455,
        -0.09069428592920303,
        -0.06317665427923203,
        -0.016402624547481537,
        -0.004637106321752071,
        0.11532608419656754,
        0.134425088763237,
        0.18763606250286102,
        0.004568185191601515,
        -0.10812278836965561,
        -0.2556542456150055,
        -0.21752020716667175,
        -0.15455283224582672,
        0.02313593588769436,
        0.26329028606414795,
        0.14077453315258026,
        -0.06308500468730927,
        -0.015180249698460102,
        -0.08351219445466995,
        -0.0298090148717165,
        0.08911974728107452,
        0.001718061976134777,
        -0.014836333692073822,
        0.10796232521533966,
        0.15090671181678772,
        -0.10724174976348877,
        -0.06119530275464058,
        0.08641570061445236,
        -0.12071750313043594,
        0.004896695259958506,
        0.1317794919013977,
        -0.02736060321331024,
        -0.0006467516650445759,
        -0.19108834862709045,
        -0.011761119589209557,
        -0.13386401534080505,
        0.006307647563517094,
        0.1021222248673439,
        0.18795250356197357,
        0.036154020577669144,
        0.09099530428647995,
        -0.09860536456108093,
        0.13629961013793945,
        -0.08908842504024506,
        0.11488740891218185,
        0.04622196406126022,
        -0.11982154846191406,
        0.039331864565610886,
        -0.1259446144104004,
        0.032545484602451324,
        -0.2062373161315918,
        -0.19990772008895874,
        0.13134106993675232,
        -0.18261758983135223,
        0.0013259020633995533,
        -0.22760535776615143,
        -0.11851691454648972,
        -0.0446159690618515,
        0.14536356925964355,
        -0.09731684625148773,
        0.0009810003684833646,
        -0.05372469872236252,
        0.109549880027771,
        0.0567113533616066,
        0.15857098996639252,
        -0.07671213895082474,
        -0.07750044018030167,
        0.1793837547302246,
        -0.30580806732177734,
        -0.02021700330078602,
        -0.002127240411937237,
        0.18818475306034088,
        -0.04209331423044205,
        -0.12336158007383347,
        -0.035380177199840546,
        0.10713769495487213,
        0.030050333589315414,
        0.15886370837688446,
        -0.07509452104568481,
        0.14003601670265198,
        -0.25558412075042725,
        0.006562431342899799,
        0.1962718367576599,
        0.09011649340391159,
        -0.1250578910112381,
        -0.02823478728532791,
        0.059959813952445984,
        -0.02889879420399666,
        -0.15545015037059784,
        -0.23735442757606506,
        -0.03215954825282097,
        0.02301112748682499,
        -0.016755642369389534,
        -0.03584130108356476,
        0.02065812051296234,
        0.007769811898469925,
        0.009869773872196674,
        -0.06448797136545181,
        -0.09528625011444092,
        0.019884739071130753,
        -0.2612345218658447,
        0.12771926820278168,
        -0.02057311125099659,
        -0.14832359552383423,
        0.10886730998754501,
        0.2465582638978958,
        -0.17023999989032745,
        0.2223983108997345,
        0.17877709865570068,
        0.0026079537346959114,
        0.010661646723747253,
        0.2058621495962143,
        -0.1933833509683609,
        0.09906934946775436,
        -0.14809942245483398,
        0.22827668488025665,
        -0.0016482291975989938,
        -0.2884196639060974,
        0.0888596847653389,
        -0.04392651095986366,
        0.14510175585746765,
        0.12432492524385452,
        -0.052304707467556,
        -0.04071661829948425,
        0.014982054941356182,
        -0.11525151878595352,
        0.0180516354739666,
        0.09443587064743042,
        0.19656239449977875,
        0.15485332906246185,
        -0.21440044045448303,
        0.24045339226722717,
        0.08380332589149475,
        -0.10005726665258408,
        0.08393041044473648,
        0.24585862457752228,
        0.20722359418869019,
        0.2148103415966034,
        0.21823468804359436,
        -0.18992798030376434,
        0.07889615744352341,
        -0.11099696904420853,
        0.1534658819437027,
        -0.15225420892238617,
        -0.1522505283355713,
        0.052504558116197586,
        0.1619648039340973,
        -0.13355828821659088,
        -0.1037670224905014,
        0.2071029543876648,
        0.05715261772274971,
        -0.046102747321128845,
        -0.060097161680459976,
        -0.14669056236743927,
        0.09875009953975677,
        0.2576717436313629,
        -0.08782646805047989,
        0.05295047163963318,
        0.21906128525733948,
        0.27056005597114563,
        -0.042191408574581146,
        0.07515057176351547,
        0.25009503960609436,
        0.194331556558609,
        0.3391362726688385,
        0.05713912099599838,
        0.09274806082248688,
        0.20350411534309387,
        -0.0579458512365818,
        0.12059272080659866,
        -0.046690843999385834,
        0.03525775671005249,
        -0.14329840242862701,
        0.02375311404466629,
        0.11156777292490005,
        -0.17710140347480774,
        -0.010254429653286934,
        -0.10311704128980637,
        0.0896928459405899,
        0.12903477251529694,
        -0.13279956579208374,
        0.04162167012691498,
        -0.1290534883737564,
        -0.10496066510677338,
        0.22832736372947693,
        0.056839510798454285,
        -0.06744594871997833,
        -0.005527437664568424,
        0.11116165667772293,
        0.010163255967199802,
        -0.11782746762037277,
        -0.12542568147182465,
        0.11569834500551224,
        0.030784543603658676,
        0.053461555391550064,
        -0.12484237551689148,
        0.07053083181381226,
        0.16167378425598145,
        0.09913209825754166,
        0.13291358947753906,
        0.2192518711090088,
        0.01773860491812229,
        0.0819304883480072,
        0.08897092938423157,
        0.1709408164024353,
        -0.07025813311338425,
        0.17335130274295807,
        0.013386121951043606,
        0.02566319890320301,
        0.16179341077804565,
        -0.14311258494853973,
        0.17773503065109253,
        0.152825266122818,
        -0.14580009877681732,
        -0.12245997786521912,
        -0.2656451165676117,
        -0.10386745631694794,
        -0.10693012923002243,
        -0.11172931641340256,
        0.04204225167632103,
        0.18323515355587006,
        0.10096023976802826,
        0.17466437816619873,
        0.01993909850716591,
        -0.199125275015831,
        -0.22391700744628906,
        -0.07025524228811264,
        0.13553215563297272,
        -0.007067209109663963,
        -0.05032047629356384,
        -0.02148820273578167,
        -0.09733607620000839,
        -0.1542050838470459,
        0.1540803164243698,
        -0.08264758437871933,
        -0.1803247034549713,
        0.08701585233211517,
        0.01109000388532877,
        -0.09760494530200958,
        0.10780138522386551,
        0.18134044110774994,
        -0.16750401258468628,
        -0.17268700897693634,
        0.06672155112028122,
        -0.19713953137397766,
        -0.10547108203172684,
        0.19857902824878693,
        -0.024958280846476555,
        -0.028768397867679596,
        -0.08473001420497894,
        -0.08803818374872208,
        0.22873610258102417,
        -0.05564086511731148,
        -0.012190346606075764,
        -0.07805299758911133,
        0.16154131293296814,
        0.00320972572080791,
        -0.1220826804637909,
        -0.04243478924036026,
        -0.11283620446920395,
        0.03423290699720383,
        0.2070039063692093,
        -0.1585371494293213,
        -0.02604810893535614,
        -0.20661120116710663,
        -0.09648100286722183,
        0.13131976127624512,
        -0.043371234089136124,
        0.22046852111816406,
        -0.07906150072813034,
        -0.12358718365430832,
        -0.07086704671382904,
        0.10944633930921555,
        -0.2044750601053238,
        0.053988080471754074,
        0.01256865356117487,
        0.10090437531471252,
        0.10115499049425125,
        -0.10555841028690338,
        0.15387552976608276,
        -0.25832051038742065,
        -0.20033617317676544,
        0.02506568469107151,
        0.10852821171283722,
        0.08800528943538666,
        -0.04898778721690178,
        -0.1124810054898262,
        0.11702101677656174,
        -0.06392226368188858,
        0.004752357956022024,
        0.09012437611818314,
        0.09193582832813263,
        -0.04140550270676613,
        -0.07531553506851196,
        0.16239246726036072,
        0.11252912878990173,
        -0.04612326994538307,
        -0.2235454022884369,
        0.09702268242835999,
        0.13078445196151733,
        0.07565909624099731,
        0.1477624624967575,
        -0.10808185487985611,
        0.15836761891841888,
        -0.10424905270338058,
        0.10005602240562439,
        0.06658311933279037,
        -0.011007040739059448,
        0.13458912074565887,
        -0.13586857914924622,
        -0.18296539783477783,
        -0.06735564023256302,
        0.08672156184911728,
        0.030324183404445648,
        -0.14091643691062927,
        0.04337984696030617,
        0.16464334726333618,
        -0.10180030763149261,
        0.1725275069475174,
        0.012193144299089909,
        0.09158418327569962,
        0.23680640757083893,
        0.14914178848266602,
        0.09727310389280319,
        0.21416346728801727,
        0.1562475860118866,
        0.12177214026451111,
        -0.09914778172969818,
        0.025002174079418182,
        -0.04894966632127762,
        0.13543273508548737,
        0.07119277864694595,
        -0.030397573485970497,
        -0.20575690269470215,
        -0.18544167280197144,
        0.12839168310165405,
        0.07318806648254395,
        0.09755804389715195,
        0.11908607929944992,
        -0.03917252644896507,
        -0.07778551429510117,
        0.1323382705450058,
        -0.0733766183257103,
        0.10066106915473938,
        0.0809844508767128,
        -0.1933816820383072,
        -0.012754478491842747,
        -0.08394260704517365,
        -0.1669919490814209,
        0.05594823136925697,
        -0.010259967297315598,
        0.17618246376514435,
        -0.06746900081634521,
        0.021831750869750977,
        -0.22571565210819244,
        -0.11700598895549774,
        -0.03857502341270447,
        0.2050267904996872,
        0.08414775878190994,
        -0.1936217099428177,
        0.024946605786681175,
        -0.25336572527885437,
        -0.11504898965358734,
        -0.24146313965320587,
        -0.06810487806797028,
        0.2760663628578186,
        -0.1776512712240219,
        -0.1794220209121704,
        0.03505159169435501,
        0.055850204080343246,
        -0.041637588292360306,
        0.14053364098072052,
        -0.10071592777967453,
        -0.09170491248369217,
        -0.14328904449939728,
        -0.05491366982460022,
        -0.0832269936800003,
        0.09816958010196686,
        0.006541370414197445,
        -0.024705439805984497,
        -0.09311850368976593,
        0.14780744910240173,
        0.15578708052635193,
        -0.19985167682170868,
        -0.13561764359474182,
        -0.20889174938201904,
        0.085075244307518,
        -0.1306554228067398,
        -0.007941619493067265,
        0.23325806856155396,
        -0.15131542086601257,
        0.17296771705150604,
        -0.13396446406841278,
        0.16031384468078613,
        -0.07461853325366974,
        0.12639833986759186,
        0.028651490807533264,
        0.04040464758872986,
        0.11905455589294434,
        -0.1213584914803505,
        -0.14247114956378937,
        0.21595898270606995,
        -0.11377479135990143,
        -0.1424877792596817,
        0.0015769196907058358,
        -0.0279705673456192,
        -0.08969788253307343,
        -0.08704323321580887,
        0.10872141271829605,
        -0.1399870216846466,
        0.003294531023129821,
        0.04892731085419655,
        0.04377569630742073,
        0.07076364755630493,
        0.07022656500339508,
        0.07443971931934357,
        0.054588817059993744,
        -0.01397684682160616,
        -0.09390373528003693,
        -0.25517022609710693,
        0.20513904094696045,
        -0.0231076180934906,
        0.06741032004356384,
        0.20532925426959991,
        -0.005089220125228167,
        -0.08222449570894241,
        -0.11589231342077255,
        -0.005406926851719618,
        0.16974076628684998,
        -0.18601669371128082,
        -0.018204132094979286,
        0.03847647085785866,
        0.23118136823177338,
        0.025330785661935806,
        0.12550874054431915,
        0.2088809609413147,
        0.09886807948350906,
        0.08640825003385544,
        -0.09224559366703033,
        -0.13383226096630096,
        0.00882420502603054,
        -0.014132813550531864,
        0.1537710279226303,
        0.11873377859592438,
        0.14584597945213318,
        0.14518029987812042,
        -0.2304639220237732,
        -0.14471156895160675,
        -0.07480181008577347,
        -0.09207864105701447,
        0.07586094737052917,
        -0.14043372869491577,
        0.07066375762224197,
        0.02093060128390789,
        -0.11727603524923325,
        0.21336424350738525,
        0.024764593690633774,
        -0.018494602292776108,
        -0.07688859850168228,
        0.09567483514547348,
        -0.03494127094745636,
        0.1516924500465393,
        0.043690264225006104,
        0.040869418531656265,
        0.03890347108244896,
        -0.16897250711917877,
        -0.053721729665994644,
        0.03570697829127312,
        -0.18700666725635529,
        0.27092495560646057,
        0.03512313961982727,
        -0.019312938675284386,
        0.08998101204633713,
        -0.03853384405374527,
        -0.003140912391245365,
        0.1199110820889473,
        -0.11218243092298508,
        0.07392945885658264,
        -0.04250171780586243,
        -0.14586526155471802,
        -0.10707543045282364,
        0.013674864545464516,
        -0.008783765137195587,
        0.12355894595384598,
        0.145728200674057,
        -0.09723494946956635,
        -0.08909175544977188,
        0.01852460578083992,
        -0.17500388622283936,
        -0.09593551605939865,
        -0.1995452642440796,
        0.08387166261672974,
        0.19549402594566345,
        0.03139100223779678,
        -0.18389447033405304,
        -0.14625267684459686,
        -0.20452557504177094,
        -0.04643569886684418,
        -0.0656634271144867,
        0.009574072435498238,
        0.3455267548561096,
        0.06589486449956894,
        0.03668367862701416,
        -0.038934774696826935,
        0.13210880756378174,
        0.0830739438533783,
        -0.14872640371322632,
        -0.08408396691083908,
        0.03877278417348862,
        0.0814373567700386,
        0.20723003149032593,
        -0.1897171288728714,
        -0.1793084442615509,
        0.036206383258104324,
        -0.0768284946680069,
        0.12613551318645477,
        0.006897078361362219,
        0.15979629755020142,
        0.037329815328121185,
        0.08569947630167007,
        -0.16495807468891144,
        0.10642652213573456,
        0.011853378266096115,
        0.041344597935676575,
        0.24148207902908325,
        -0.14760713279247284,
        0.22942405939102173,
        -0.12986764311790466,
        0.03807302191853523,
        0.10327721387147903,
        0.015974681824445724,
        0.1931842714548111,
        0.09058564156293869,
        -0.2030949592590332,
        0.09602222591638565,
        -0.0009533574339002371,
        -0.10096441209316254,
        -0.03960968926548958,
        0.20559343695640564,
        -0.20154738426208496,
        -0.0781751424074173,
        0.20137467980384827,
        -0.14095301926136017,
        0.019760480150580406,
        -0.06019909679889679,
        6.732743349857628e-05,
        0.2287994772195816,
        -0.09102510660886765,
        -0.09471453726291656,
        0.20354025065898895,
        -0.14941191673278809,
        -0.14424148201942444,
        -0.27846091985702515,
        0.13558296859264374,
        0.07830029726028442,
        -0.03958859294652939,
        -0.07409307360649109,
        -0.03797566145658493,
        0.008184436708688736,
        -0.0036487500183284283,
        0.2383904606103897,
        0.10130340605974197,
        -0.10477282851934433,
        0.23582236468791962,
        0.19797973334789276,
        -0.09429465234279633,
        0.16206879913806915,
        0.27938568592071533,
        0.07498826086521149,
        0.34253010153770447,
        0.2721680700778961,
        0.05519533157348633,
        0.14072255790233612,
        0.08906202018260956,
        0.1024916023015976,
        0.1336689591407776,
        0.08302423357963562,
        0.004645134322345257,
        -0.007103640120476484,
        0.14791716635227203,
        -0.1276259571313858,
        0.30936622619628906,
        0.08109861612319946,
        0.11608198285102844,
        -0.014786233194172382,
        -0.13028186559677124,
        0.166242316365242,
        -0.09932093322277069,
        0.06715346872806549,
        0.20019425451755524,
        -0.21305933594703674,
        -0.023205621168017387,
        -0.09552666544914246,
        0.1468280553817749,
        -0.097897469997406,
        0.050855230540037155,
        0.11966882646083832,
        0.12006949633359909,
        0.2137140929698944,
        0.013970034196972847,
        -0.24041152000427246,
        0.11124549061059952,
        0.05055185779929161,
        0.06701987981796265,
        -0.07782339304685593,
        0.04248636215925217,
        -0.008896399289369583,
        0.16380445659160614,
        0.012343081645667553,
        0.14641502499580383,
        0.14006511867046356,
        -0.11928850412368774,
        -0.056139782071113586,
        -0.09121154993772507,
        -0.09609430283308029,
        0.14597001671791077,
        0.054564569145441055,
        0.17719310522079468,
        -0.0086287260055542,
        -0.22869578003883362,
        -0.07215055078268051,
        0.1489579677581787,
        0.010277120396494865,
        0.04141847416758537,
        -0.07504122704267502,
        -0.19551926851272583,
        -0.12235042452812195,
        -0.006546993274241686,
        -0.1359919011592865,
        0.1103866919875145,
        0.07358787208795547,
        0.0031353007070720196,
        0.15879371762275696,
        -0.019761623814702034,
        0.024092530831694603,
        -0.23783782124519348,
        -0.1602604240179062,
        0.04775399714708328,
        0.055609021335840225,
        -0.06751533597707748,
        0.1360890418291092,
        -0.16899406909942627,
        -0.20043350756168365,
        -0.07127189636230469,
        -0.11774712055921555,
        -0.06354449689388275,
        -0.05601758137345314,
        0.06075688451528549,
        -0.16176415979862213,
        -0.06276702135801315,
        -0.031132178381085396,
        0.038548924028873444,
        0.209339901804924,
        0.12207363545894623,
        -0.1976601779460907,
        -0.2016269713640213,
        -0.01390418317168951,
        -0.03609855845570564,
        0.17885927855968475,
        0.0564778707921505,
        0.23047971725463867,
        0.10777195543050766,
        -0.21139420568943024,
        0.01719156838953495,
        0.031102707609534264,
        -0.023879554122686386,
        0.20589755475521088,
        -0.1674344539642334,
        0.041201893240213394,
        -0.1463606357574463,
        -0.16740289330482483,
        -0.09671080112457275,
        0.058466456830501556,
        0.10228431969881058,
        0.00972195714712143,
        -0.014802168123424053,
        0.03776201978325844,
        -0.15174800157546997,
        -0.071182020008564,
        -0.03026123344898224,
        0.11116411536931992,
        0.16117428243160248,
        -0.2076805979013443,
        -0.05660160258412361,
        -0.11496462672948837,
        -0.13452863693237305,
        -0.23257799446582794,
        0.003088652156293392,
        -0.1854279637336731,
        0.3107374906539917,
        0.13198955357074738,
        -0.11758796870708466,
        -0.18117645382881165,
        0.03790407255291939,
        -0.0327325165271759,
        0.02664034813642502,
        -0.11984474956989288,
        0.09046470373868942,
        -0.1688271313905716,
        -0.13299289345741272,
        -0.08985662460327148,
        0.04933735728263855,
        -0.025374040007591248,
        -0.2514965236186981,
        -0.14682526886463165,
        -0.10482542216777802,
        -0.15756435692310333,
        -0.005212211050093174,
        0.0020150099880993366,
        -0.06663992255926132,
        -0.04924286529421806,
        0.027554957196116447,
        -0.047464556992053986,
        -0.05536371469497681,
        0.04759177565574646,
        0.1542821079492569,
        -0.21361324191093445,
        0.11323103308677673,
        -0.05747593194246292,
        -0.05122769623994827,
        -0.2233952283859253,
        0.1505548059940338,
        0.22038915753364563,
        0.0628117099404335,
        0.10007243603467941,
        0.12918536365032196,
        0.16160902380943298,
        0.06450877338647842,
        -0.21752214431762695,
        -0.19285577535629272,
        -0.060621149837970734,
        0.054587263613939285,
        -0.16092054545879364,
        -0.15577620267868042,
        -0.06027020141482353,
        -0.09028540551662445,
        -0.03349197655916214,
        -0.02374168485403061,
        -0.22240059077739716,
        0.03583378344774246,
        -0.11708328872919083,
        -0.09517277032136917,
        0.09171491116285324,
        0.32599398493766785,
        -0.03302764520049095,
        -0.15042440593242645,
        -0.09654206782579422,
        0.06931857019662857,
        0.10744480788707733,
        -0.06672704219818115,
        -0.19193659722805023,
        -0.12916414439678192,
        -0.4645915627479553,
        -0.3330257534980774,
        0.1365574151277542,
        -0.1641002595424652,
        -0.4116063117980957,
        0.02518143691122532,
        -0.5003963708877563,
        -0.420897513628006,
        -0.16180671751499176,
        -0.21467852592468262,
        0.17487482726573944,
        -0.0119007034227252,
        -0.02439136430621147,
        0.20846085250377655,
        0.08945164084434509,
        -0.09855493903160095,
        -0.19158591330051422,
        -0.18033599853515625,
        -0.31530413031578064,
        0.00486390758305788,
        -0.14491768181324005,
        -0.03498939424753189,
        -0.10911882668733597,
        0.17498208582401276,
        0.19844718277454376,
        0.10775412619113922,
        0.003918201196938753,
        -0.035454198718070984,
        0.09002090245485306,
        -0.1046149954199791,
        -0.09986128658056259,
        -0.024852868169546127,
        0.022860929369926453,
        -0.14835920929908752,
        0.10019535571336746,
        0.14459659159183502,
        -0.06411875039339066,
        0.11994992941617966,
        0.016809917986392975,
        -0.03440659120678902,
        -0.04150760546326637,
        0.06502959132194519,
        -0.02133508212864399,
        -0.15429721772670746,
        -0.08208268135786057,
        0.25265246629714966,
        0.043413277715444565,
        -0.013192519545555115,
        -0.02539793774485588,
        -0.06598038971424103,
        -0.08365211635828018,
        -0.13484694063663483,
        0.025443686172366142,
        0.10849214345216751,
        0.1649491935968399,
        -0.01726817712187767,
        -0.017952945083379745,
        0.21224777400493622,
        0.11463163793087006,
        -0.07069292664527893,
        0.11255284398794174,
        0.030377298593521118,
        -0.18042418360710144,
        -0.025919971987605095,
        -0.13748197257518768,
        0.18865293264389038,
        0.2271328717470169,
        0.06470604985952377,
        0.3086080849170685,
        -0.014424835331737995,
        0.18676012754440308,
        0.23375871777534485,
        -0.14580979943275452,
        -0.12715059518814087,
        -0.03291004151105881,
        -0.051464326679706573,
        0.024335341528058052,
        -0.1759336143732071,
        0.009119040332734585,
        -0.06274334341287613,
        -0.03422973304986954,
        -0.13199372589588165,
        -0.06563907116651535,
        -0.2021949738264084,
        -0.11912213265895844,
        0.01725408062338829,
        0.0498756468296051,
        0.1311858743429184,
        -0.1756902039051056,
        0.07935287058353424,
        -0.13502110540866852,
        -0.22501178085803986,
        -0.050636496394872665,
        -0.07714343070983887,
        -0.11601167172193527,
        -0.0809163972735405,
        -0.08465626835823059,
        0.20943325757980347,
        0.12120780348777771,
        -0.23987333476543427,
        -0.10222004354000092,
        -0.14155693352222443,
        -0.11363963037729263,
        -0.09031744301319122,
        0.17389808595180511,
        0.0912427008152008,
        -0.08705272525548935,
        0.14715604484081268,
        -0.09265759587287903,
        -0.15067940950393677,
        0.047719914466142654,
        -0.13405916094779968,
        0.05968930572271347,
        0.2664714455604553,
        -0.0772542655467987,
        -0.09402071684598923,
        0.13075579702854156,
        -0.14553597569465637,
        0.27511999011039734,
        -0.08223089575767517,
        0.05184983089566231,
        -0.204535573720932,
        -0.2302144318819046,
        -0.021437255665659904,
        0.06153425946831703,
        0.10526138544082642,
        0.3415067791938782,
        -0.020390145480632782,
        -0.04188475012779236,
        0.03181024640798569,
        -0.0885387510061264,
        -0.020508797839283943,
        -0.12868203222751617,
        -0.11897551268339157,
        0.06135343015193939,
        0.01728495955467224,
        0.2691264748573303,
        -0.008105207234621048,
        0.07446787506341934,
        0.350877046585083,
        -0.10566947609186172,
        0.07744927704334259,
        0.10349569469690323,
        0.03868592903017998,
        -0.13371767103672028,
        0.06976008415222168,
        -0.05156957730650902,
        0.015135839581489563,
        0.06441174447536469,
        -0.014052234590053558,
        0.02996397577226162,
        -0.027667952701449394,
        0.18857823312282562,
        0.18551203608512878,
        0.03041207417845726,
        -0.1277814358472824,
        -0.10450122505426407,
        0.20837245881557465,
        0.1499793976545334,
        0.06365661323070526,
        -0.16074860095977783,
        0.21527671813964844,
        -0.07402604818344116,
        0.0708872526884079,
        0.14589829742908478,
        -0.02556922473013401,
        -0.16167034208774567,
        0.18126171827316284,
        -0.15982452034950256,
        0.08295442163944244,
        -0.1729961633682251,
        -0.10829335451126099,
        -0.1675383746623993,
        -0.15686853229999542,
        0.03799943998456001,
        -0.11984588950872421,
        -0.2039746344089508,
        0.1060779020190239,
        0.08904407918453217,
        -0.017085392028093338,
        -0.18964554369449615,
        -0.039432793855667114,
        -0.04963970184326172,
        0.11884906142950058,
        -0.05805027112364769,
        -0.057637304067611694,
        -0.14786235988140106,
        -0.05547246336936951,
        0.14183443784713745,
        0.1323888748884201,
        0.034077100455760956,
        -0.13429681956768036,
        0.20033179223537445,
        0.053640756756067276,
        -0.18191972374916077,
        -0.0592275895178318,
        -0.015309992246329784,
        0.08902368694543839,
        0.05893881991505623,
        0.0318729393184185,
        -0.06045470014214516,
        0.15976066887378693,
        -0.0567159578204155,
        -0.0005062814452685416,
        -0.006397513672709465,
        -0.137430340051651,
        -0.08683091402053833,
        -0.31528231501579285,
        0.0029949303716421127,
        0.02040291205048561,
        -0.04994680732488632,
        -0.146367609500885,
        0.18321840465068817,
        -0.11386703699827194,
        0.056697361171245575,
        0.09347487986087799,
        -0.1797204613685608,
        -0.05439232289791107,
        0.17244143784046173,
        0.16204939782619476,
        -0.12184116989374161,
        0.22988952696323395,
        -0.2405957281589508,
        -0.19022183120250702,
        0.1668691188097,
        -0.06832403689622879,
        0.28055769205093384,
        0.005903807934373617,
        -0.10878554731607437,
        0.1492607295513153,
        0.05589916929602623,
        -0.08847644180059433,
        -0.17244918644428253,
        -0.07795532047748566,
        0.05982879549264908,
        0.12059071660041809,
        -0.011706914752721786,
        0.040512777864933014,
        0.06813926994800568,
        0.055910252034664154,
        -0.09432459622621536,
        0.12637847661972046,
        0.07477454096078873,
        -0.16235214471817017,
        0.10302409529685974,
        0.11724717170000076,
        -0.03758668899536133,
        -0.15450413525104523,
        0.06471807509660721,
        -0.22125035524368286,
        0.06906997412443161,
        0.13154065608978271,
        -0.029593592509627342,
        0.2750472128391266,
        -0.013233136385679245,
        0.04235885292291641,
        -0.13944311439990997,
        -0.11886212974786758,
        -0.0046424162574112415,
        0.049496255815029144,
        -0.037326227873563766,
        0.05132158100605011,
        0.11124516278505325,
        0.10664842277765274,
        0.03088291920721531,
        -0.12003921717405319,
        0.03524019196629524,
        0.03795798495411873,
        0.18350546061992645,
        0.010430306196212769,
        0.05043314769864082,
        0.07080762088298798,
        0.08158671855926514,
        0.03760582208633423,
        0.21919375658035278,
        0.17629331350326538,
        -0.0722765177488327,
        0.04483130946755409,
        -0.16890652477741241,
        -0.11031337827444077,
        0.11342281848192215,
        0.08760514855384827,
        -0.04525350406765938,
        0.1473807692527771,
        -0.1858612447977066,
        -0.1276257187128067,
        -0.07775609195232391,
        -0.0033874106593430042,
        0.15414287149906158,
        0.14607562124729156,
        -0.09490786492824554,
        -0.10066164284944534,
        -0.009422589093446732,
        0.10583700984716415,
        0.0487193800508976,
        0.055971480906009674,
        0.026401935145258904,
        0.15041427314281464,
        0.14913435280323029,
        0.15292426943778992,
        0.031296804547309875,
        -0.1214219331741333,
        -0.02034720778465271,
        0.10471101850271225,
        0.12784279882907867,
        -0.11388805508613586,
        0.16227129101753235,
        0.09859906136989594,
        0.0637241080403328,
        0.01534361019730568,
        -0.061795711517333984,
        0.0889141708612442,
        -0.04494820535182953,
        0.04877510294318199,
        -0.14862263202667236,
        0.0359894335269928,
        -0.0004995143390260637,
        0.13454198837280273,
        0.0916188657283783,
        0.03933706134557724,
        -0.19247566163539886,
        0.010231917724013329,
        -0.1288626492023468,
        -0.17670956254005432,
        0.01201795693486929,
        -0.1269628405570984,
        0.23206816613674164,
        -0.13568629324436188,
        0.042847707867622375,
        0.21890230476856232,
        -0.15769214928150177,
        0.0944337472319603,
        -0.028112219646573067,
        0.1063288077712059,
        0.2921748459339142,
        -0.04336191713809967,
        -0.10333900153636932,
        0.12664146721363068,
        -0.10682906955480576,
        -0.10694705694913864,
        0.0725482776761055,
        -0.0996079295873642,
        0.159064382314682,
        0.11664141714572906,
        0.06331989169120789,
        -0.12447328865528107,
        0.06572061032056808,
        -0.11210166662931442,
        -0.13515841960906982,
        0.12913021445274353,
        -0.016035091131925583,
        -0.1479150354862213,
        -0.05491698160767555,
        0.08981506526470184,
        -0.15370096266269684,
        -0.18188785016536713,
        -0.20816446840763092,
        -0.011284776031970978,
        -0.15373000502586365,
        0.049286358058452606,
        -0.07369056344032288,
        -0.147621750831604,
        -0.07412604242563248,
        -0.08668262511491776,
        -0.04576517641544342,
        0.08355311304330826,
        -0.10021588206291199,
        -0.10953330248594284,
        0.13681982457637787,
        -0.1244862824678421,
        -0.06721239537000656,
        -0.005143103189766407
      ],
      "bias": [
        0.1494869738817215,
        -0.15314114093780518,
        -0.09356743097305298,
        -0.11435899883508682,
        -0.02083948627114296,
        -0.012679222971200943,
        -0.1348770260810852,
        0.13505469262599945,
        -0.10296180099248886,
        0.18477290868759155,
        -0.11976928263902664,
        -0.024788690730929375,
        0.03394028916954994,
        -0.08223453164100647,
        0.16722223162651062,
        -0.1011129766702652,
        -0.010002226568758488,
        -0.11601118743419647,
        0.02299797534942627,
        0.14333124458789825,
        0.1612817496061325,
        -0.0007260414422489703,
        -0.08958730846643448,
        0.17224621772766113,
        0.01201418973505497,
        0.12150421738624573,
        -0.08874587714672089,
        -0.08015761524438858,
        -0.15388698875904083,
        0.16414561867713928,
        0.03686308115720749,
        -0.08458265662193298,
        0.020013907924294472,
        -0.08239542692899704,
        0.015338909812271595,
        0.050076212733983994,
        -0.0935344472527504,
        0.03028595633804798,
        -0.1254165917634964,
        0.06161488965153694,
        -0.17373299598693848,
        0.02009079046547413,
        0.17456726729869843,
        0.1281348168849945,
        0.0642806887626648,
        0.13144835829734802,
        0.17367982864379883,
        0.048328906297683716,
        0.062272459268569946,
        0.03047819249331951,
        0.16779349744319916,
        0.1652892827987671,
        -0.08200912922620773,
        -0.008820381946861744,
        -0.08917836844921112,
        0.07355329394340515,
        -0.17429964244365692,
        0.06524550914764404,
        -0.04024384170770645,
        0.06446737796068192,
        0.044230181723833084,
        -0.08911357074975967,
        0.10295212268829346,
        0.08418355137109756,
        -0.15307718515396118,
        0.1714288890361786,
        0.16701382398605347,
        0.11381246894598007,
        -0.014225923456251621,
        0.06658711284399033,
        -0.09183832257986069,
        -0.06064137443900108,
        0.08926603198051453,
        0.07958066463470459,
        0.06836715340614319,
        -0.1734389364719391,
        0.14914268255233765,
        -0.07267209142446518,
        0.15166744589805603,
        0.14523106813430786,
        0.07292522490024567,
        0.18475133180618286,
        0.12947118282318115,
        0.109952911734581,
        -0.06546512246131897,
        0.17330072820186615,
        0.0503675602376461,
        0.1234372928738594,
        -0.045582517981529236,
        0.13588880002498627,
        0.15552803874015808,
        -0.15073733031749725,
        0.15336719155311584,
        -0.12856507301330566,
        -0.12411469966173172,
        -0.15814100205898285
      ],
      "activation": "tanh"
    },
    {
      "inputSize": 96,
      "outputSize": 48,
      "weights": [
        0.006991874892264605,
        -0.04140736907720566,
        -0.04001158848404884,
        -0.0433163158595562,
        0.0078005073592066765,
        -0.06243985518813133,
        -0.09030460566282272,
        0.051427893340587616,
        0.09271084517240524,
        0.00910879299044609,
        0.030899204313755035,
        -0.1459466814994812,
        -0.03713362291455269,
        -0.05705209821462631,
        -0.05326045677065849,
        0.06734422594308853,
        -0.04581558331847191,
        -0.013466768898069859,
        0.04192178696393967,
        -0.11434433609247208,
        0.06747757643461227,
        -0.017552636563777924,
        -0.06155087426304817,
        -0.02559546008706093,
        -0.08008808642625809,
        -0.10433977842330933,
        -0.10677111148834229,
        0.026815472170710564,
        0.020119119435548782,
        0.11312705278396606,
        0.058442357927560806,
        0.09891346096992493,
        0.09463535994291306,
        0.039529215544462204,
        0.11689546704292297,
        0.09568377584218979,
        -0.11625875532627106,
        -0.03492293506860733,
        -0.0839606299996376,
        -0.00794169306755066,
        -0.04638633504509926,
        0.0771702378988266,
        -0.02037953771650791,
        -0.003752791788429022,
        -0.04391773045063019,
        -0.08046813309192657,
        -0.017404016107320786,
        -0.0128460843116045,
        0.005374837666749954,
        0.086726114153862,
        -0.10010023415088654,
        -0.06401322036981583,
        0.0850418284535408,
        0.03154359757900238,
        -0.07999493926763535,
        0.046474725008010864,
        0.04387554153800011,
        -0.09542796015739441,
        0.04114817827939987,
        0.012235681526362896,
        -0.03031865507364273,
        0.08702164888381958,
        -0.07925008237361908,
        0.11110260337591171,
        -0.09367506951093674,
        -0.10376525670289993,
        0.04981692135334015,
        -0.11252174526453018,
        0.02348516322672367,
        0.08220099657773972,
        -0.033809468150138855,
        -0.04670146107673645,
        -0.009703763760626316,
        0.12537960708141327,
        -0.07730972021818161,
        0.054325755685567856,
        0.04064185917377472,
        0.07360800355672836,
        -0.05273126810789108,
        0.050662603229284286,
        0.058904919773340225,
        -0.017330974340438843,
        0.17346176505088806,
        -0.09890389442443848,
        0.043638136237859726,
        -0.0220390222966671,
        -0.08615434914827347,
        0.041284214705228806,
        0.019641049206256866,
        0.049803026020526886,
        -0.1042749434709549,
        -0.06726796925067902,
        -0.015536285936832428,
        -0.016124378889799118,
        -0.12827764451503754,
        0.117653489112854,
        0.03136757016181946,
        -0.10496307164430618,
        0.04730170965194702,
        0.04277756065130234,
        -0.03208734840154648,
        0.020450467243790627,
        -0.01725633814930916,
        -0.01899256370961666,
        0.021378202363848686,
        0.033063437789678574,
        0.05964162200689316,
        0.05283281207084656,
        -0.02935059741139412,
        0.07821642607450485,
        0.021372724324464798,
        -0.02774081751704216,
        -0.013932812958955765,
        -0.0407487228512764,
        -0.06260619312524796,
        -0.06795162707567215,
        -0.0692223459482193,
        -0.09480460733175278,
        0.12813760340213776,
        -0.016585849225521088,
        -0.05113128200173378,
        0.005268479697406292,
        0.04076793044805527,
        -0.023211203515529633,
        -0.04952388256788254,
        -0.060532763600349426,
        -0.013347637839615345,
        0.019613297656178474,
        -0.05762656778097153,
        0.08334696292877197,
        0.04822981730103493,
        0.06894473731517792,
        0.027822593227028847,
        -0.026163440197706223,
        -0.015786370262503624,
        -0.0566643662750721,
        0.05561518296599388,
        -0.006926481146365404,
        0.00032095101778395474,
        -0.07754908502101898,
        0.017030946910381317,
        0.06200474873185158,
        0.12434057891368866,
        -0.07902694493532181,
        -0.017204953357577324,
        -0.012734735384583473,
        -0.011715736240148544,
        -0.046607811003923416,
        0.04474462941288948,
        -0.047631483525037766,
        0.0960054099559784,
        0.020809262990951538,
        0.043459393084049225,
        0.07779571413993835,
        0.020137863233685493,
        0.05036923289299011,
        0.068140909075737,
        -0.03504519909620285,
        -0.0398101732134819,
        -0.06953014433383942,
        0.10107285529375076,
        0.0912453830242157,
        0.09462084621191025,
        0.028918519616127014,
        -0.028941461816430092,
        -0.0965350940823555,
        0.014614046551287174,
        -0.10715305805206299,
        0.0068133859895169735,
        0.051456186920404434,
        0.09925232082605362,
        -0.03636045381426811,
        -0.08016073703765869,
        -0.11591824144124985,
        0.06890375167131424,
        -0.03879062831401825,
        0.07152123749256134,
        0.11567340791225433,
        -0.06388621777296066,
        0.0028606639243662357,
        0.05200156942009926,
        0.02109091728925705,
        0.16226813197135925,
        0.06743081659078598,
        -0.0337093286216259,
        0.030921056866645813,
        0.0732097253203392,
        -0.06397984176874161,
        0.06270316988229752,
        -0.04878554493188858,
        -0.016828931868076324,
        -0.0072332811541855335,
        0.09163381904363632,
        -0.051002632826566696,
        -0.08826020359992981,
        0.05002813786268234,
        0.1547456979751587,
        -0.15533512830734253,
        -0.07415694743394852,
        -0.015520753338932991,
        -0.11169717460870743,
        -0.281183660030365,
        0.07252509891986847,
        0.1448308825492859,
        -0.05515756458044052,
        -0.036141954362392426,
        -0.08802381157875061,
        -0.06428052484989166,
        -0.04075343906879425,
        0.12358801066875458,
        -0.1104845404624939,
        0.0914863720536232,
        -0.020416349172592163,
        0.08876342326402664,
        0.08101005852222443,
        0.006081485655158758,
        0.06691689789295197,
        -0.083906389772892,
        -0.020037071779370308,
        0.1059333086013794,
        -0.11890102177858353,
        0.006346020847558975,
        -0.12342281639575958,
        -0.24359047412872314,
        0.044486988335847855,
        0.0676162913441658,
        -0.06400652974843979,
        -0.004130164626985788,
        -0.017002759501338005,
        -0.05160090699791908,
        -0.03402640298008919,
        -0.19457809627056122,
        0.05601322278380394,
        0.07295125722885132,
        0.042888496071100235,
        0.03275766968727112,
        -0.09626015275716782,
        -0.07072561979293823,
        -0.05974814295768738,
        0.015773875638842583,
        0.08224428445100784,
        -0.08675049990415573,
        0.0008850701851770282,
        -0.08666728436946869,
        0.05775393545627594,
        0.10079087316989899,
        0.22778473794460297,
        0.08790171146392822,
        -0.1610880196094513,
        0.03736552223563194,
        0.20792493224143982,
        0.31362542510032654,
        0.17740866541862488,
        -0.050668321549892426,
        -0.07590372115373611,
        0.11093384027481079,
        -0.06390563398599625,
        -0.029255079105496407,
        0.10202527791261673,
        0.08927222341299057,
        -0.021604446694254875,
        -0.07891878485679626,
        -0.03608071804046631,
        0.11323525011539459,
        0.00958892609924078,
        0.016887808218598366,
        -0.1283535361289978,
        0.24369025230407715,
        -0.06442491710186005,
        0.0010496508330106735,
        -0.07795216888189316,
        -0.016514074057340622,
        -0.09847410023212433,
        -0.007824469357728958,
        -0.2860196530818939,
        -0.053414344787597656,
        0.11371077597141266,
        -0.14300216734409332,
        0.018927326425909996,
        0.18445923924446106,
        -0.0505395233631134,
        0.002278086729347706,
        -0.15299788117408752,
        -0.008577492088079453,
        0.17016762495040894,
        0.09313777089118958,
        0.017917802557349205,
        -0.06572520732879639,
        0.06863771378993988,
        0.05426422134041786,
        -0.04677310958504677,
        -0.09475070983171463,
        0.022106250748038292,
        0.08097933977842331,
        0.05477866157889366,
        -0.0032657627016305923,
        0.12165424227714539,
        0.02102435752749443,
        -0.042455874383449554,
        -0.027049053460359573,
        -0.05519145727157593,
        0.03864011541008949,
        0.04852337762713432,
        -0.04664812237024307,
        0.08084702491760254,
        -0.03291470557451248,
        0.014762090519070625,
        -0.0627574548125267,
        -0.10707344114780426,
        0.007994539104402065,
        0.011124769225716591,
        0.017365992069244385,
        -0.09419509768486023,
        -0.06060173362493515,
        0.00804259441792965,
        -0.03450245037674904,
        -0.04658854007720947,
        -0.03361068293452263,
        -0.020336247980594635,
        0.05245579034090042,
        0.14213575422763824,
        -0.02176310494542122,
        0.05412965267896652,
        0.07193757593631744,
        -0.07943206280469894,
        -0.04009654372930527,
        0.09406745433807373,
        0.08054995536804199,
        0.017758652567863464,
        -0.09482467919588089,
        0.025268586352467537,
        -0.09309729933738708,
        0.09006999433040619,
        0.01962844468653202,
        0.0005683304625563323,
        -0.07548126578330994,
        0.018275540322065353,
        0.0665355697274208,
        0.025256939232349396,
        -0.04395229369401932,
        0.10624435544013977,
        -0.04067400470376015,
        -0.08813877403736115,
        -0.02792266011238098,
        0.017167070880532265,
        -0.016834015026688576,
        0.053909629583358765,
        -0.09353773295879364,
        -0.06800452619791031,
        -0.09993761777877808,
        0.07113120704889297,
        0.022370338439941406,
        -0.11202815175056458,
        -0.02057652361690998,
        -0.031210191547870636,
        -0.032267238944768906,
        0.008832314051687717,
        0.08964911848306656,
        0.014899967238307,
        -0.0032740654423832893,
        -0.07729384303092957,
        0.05163578316569328,
        0.03638631850481033,
        -0.02848600596189499,
        0.08873163908720016,
        0.11978313326835632,
        -0.04004494473338127,
        -0.06475340574979782,
        -0.027403295040130615,
        0.00978179182857275,
        0.07527873665094376,
        0.014608390629291534,
        0.0308370478451252,
        -0.04271462559700012,
        -0.1360679566860199,
        -0.08877567201852798,
        -0.07966744899749756,
        0.04481802508234978,
        -0.008364393375813961,
        0.07384409755468369,
        -0.10338985919952393,
        -0.004536367487162352,
        -0.12933921813964844,
        0.025880707427859306,
        0.07509402930736542,
        -0.12130433320999146,
        0.08185151219367981,
        -0.0348132848739624,
        0.1176043152809143,
        -0.08420534431934357,
        0.08491664379835129,
        0.047182586044073105,
        -0.09833486378192902,
        -0.12188619375228882,
        0.08800895512104034,
        0.002252030186355114,
        0.029289796948432922,
        -0.03268490359187126,
        0.0743253082036972,
        -0.06086482107639313,
        -0.07368272542953491,
        0.10593453049659729,
        -0.06891836225986481,
        0.11962421238422394,
        0.05032595247030258,
        0.08172118663787842,
        -0.05663660541176796,
        -0.029049405828118324,
        0.0028971009887754917,
        0.06589040905237198,
        -0.08088037371635437,
        0.06612288951873779,
        -0.04540944844484329,
        -0.052203644067049026,
        -0.0915243923664093,
        0.01424693875014782,
        -0.06793363392353058,
        0.11357149481773376,
        -0.012708129361271858,
        0.008917931467294693,
        0.03991825506091118,
        -0.00970938615500927,
        -0.07222200930118561,
        -0.0951421856880188,
        0.0830157920718193,
        -0.05888310447335243,
        0.07672563940286636,
        -0.02776658535003662,
        0.03837159648537636,
        0.06422176957130432,
        -0.04466749727725983,
        0.07079336792230606,
        -0.04850255325436592,
        -0.11608890444040298,
        0.09396068006753922,
        0.06013800948858261,
        0.08140488713979721,
        -0.0587770976126194,
        0.15421979129314423,
        0.06785880029201508,
        0.0813688114285469,
        0.052120085805654526,
        -0.041369564831256866,
        0.15784069895744324,
        0.15002691745758057,
        -0.026664841920137405,
        -0.02730664797127247,
        0.0401562862098217,
        0.10116416215896606,
        0.06621979176998138,
        0.129917174577713,
        0.005199584178626537,
        -0.04328830540180206,
        -0.06830984354019165,
        0.011103719472885132,
        -0.0033946444746106863,
        -0.04036934673786163,
        -0.05877769738435745,
        -0.06611612439155579,
        -0.0375412255525589,
        0.08259467780590057,
        -0.06883420050144196,
        0.004318572580814362,
        0.013375731185078621,
        -0.05932287126779556,
        0.019402535632252693,
        -0.06475614756345749,
        -0.0005345253739506006,
        0.08967423439025879,
        0.01599675789475441,
        0.1281271129846573,
        -0.08342759311199188,
        -0.057803474366664886,
        -0.09422080218791962,
        -0.009930916130542755,
        -0.021367033943533897,
        0.05927275866270065,
        0.09312231838703156,
        0.0868397131562233,
        -0.10976129025220871,
        -0.07700242847204208,
        0.0960397869348526,
        0.013890997506678104,
        0.01764533855021,
        -0.0713081881403923,
        0.012817982584238052,
        0.0003095094580203295,
        -0.03283625468611717,
        0.14136672019958496,
        0.08959273993968964,
        -0.06727362424135208,
        -0.1222730278968811,
        0.009285586886107922,
        -0.014820585958659649,
        -0.0481647290289402,
        0.09891317784786224,
        -0.06288989633321762,
        -0.047011956572532654,
        -0.05445148050785065,
        0.002690412336960435,
        -0.009574024006724358,
        -0.007268920540809631,
        0.05200449749827385,
        -0.0665474459528923,
        -0.008440433070063591,
        -0.11935870349407196,
        -0.03907331824302673,
        -0.09072957187891006,
        -0.06163389980792999,
        -0.053426288068294525,
        0.03236529231071472,
        -0.036247920244932175,
        0.10611901432275772,
        -0.06367664039134979,
        -0.017935751006007195,
        0.006482092197984457,
        0.058772604912519455,
        -0.017360767349600792,
        0.0734999030828476,
        0.026932604610919952,
        0.061388708651065826,
        0.040345750749111176,
        0.011576320044696331,
        -0.028692224994301796,
        0.015557469800114632,
        0.050527192652225494,
        0.023264363408088684,
        0.018355416133999825,
        0.1189258024096489,
        -0.036741141229867935,
        0.013582923449575901,
        -0.028782883659005165,
        -0.07580410689115524,
        -0.04715145379304886,
        -0.08491082489490509,
        0.02920662797987461,
        -0.06024613976478577,
        -0.041051119565963745,
        0.018464671447873116,
        -0.07197155058383942,
        -0.00886667612940073,
        -0.005616477224975824,
        0.008555653505027294,
        0.10445984452962875,
        -0.08959966897964478,
        0.03385300189256668,
        -0.01392969861626625,
        -0.10472463816404343,
        -0.030411310493946075,
        0.04967167600989342,
        0.06892595440149307,
        0.002568958094343543,
        -0.10209178179502487,
        0.06275855749845505,
        -0.0483098141849041,
        -0.10268662869930267,
        -0.0061350190080702305,
        -0.0011958369286730886,
        -0.043031781911849976,
        -0.0993652194738388,
        -0.065198615193367,
        0.06456948071718216,
        -0.004216285422444344,
        0.06900741159915924,
        -0.03616075590252876,
        -0.016989704221487045,
        -0.12228765338659286,
        -0.03200608119368553,
        0.018943190574645996,
        0.08177042007446289,
        -0.0742245763540268,
        -0.06091124564409256,
        0.05307302623987198,
        -0.008578605018556118,
        -0.002701384015381336,
        0.05389590188860893,
        -0.04133934527635574,
        -0.02417471446096897,
        0.05634847655892372,
        -0.03274168446660042,
        -0.08594789355993271,
        -0.02087613008916378,
        -0.10854198783636093,
        0.16954630613327026,
        0.1044214516878128,
        0.09120579063892365,
        0.009994592517614365,
        -0.1419055014848709,
        0.16191215813159943,
        -0.049371860921382904,
        -0.022906934842467308,
        0.09035614132881165,
        -0.023037046194076538,
        0.024023057892918587,
        -0.07185907661914825,
        0.03385573998093605,
        0.019313950091600418,
        -0.040569841861724854,
        0.03322344645857811,
        0.06538575887680054,
        -0.10281332582235336,
        0.018424056470394135,
        0.005346071440726519,
        0.038251083344221115,
        -0.006023653317242861,
        -0.018059156835079193,
        -0.07572513818740845,
        0.030712172389030457,
        0.1510770469903946,
        -0.0747668519616127,
        0.11521902680397034,
        0.059995394200086594,
        -0.0720624327659607,
        0.04260392114520073,
        -0.041611261665821075,
        0.018523309379816055,
        0.0612918958067894,
        -0.10862965881824493,
        -0.08156892657279968,
        -0.010125364176928997,
        0.05027836188673973,
        -0.10050779581069946,
        -0.1183934360742569,
        0.04772624373435974,
        0.06522395461797714,
        0.05174724757671356,
        -0.0747063159942627,
        0.0007911992142908275,
        -0.014836197718977928,
        -0.00968664325773716,
        -0.02573435939848423,
        0.06280042231082916,
        0.045488566160202026,
        -0.09804174304008484,
        -0.0038257227279245853,
        0.03145864978432655,
        -0.07781846821308136,
        0.06860211491584778,
        0.022434895858168602,
        0.08005141466856003,
        -0.10559630393981934,
        -0.021092800423502922,
        -0.0998392328619957,
        -0.15910305082798004,
        0.12815244495868683,
        -0.06333786994218826,
        -0.03443300351500511,
        -0.02267935499548912,
        -0.06346124410629272,
        0.05351756885647774,
        -0.17107652127742767,
        -0.014642675407230854,
        -0.0015970405656844378,
        0.12939687073230743,
        0.12121149152517319,
        -0.015163802541792393,
        0.02456774190068245,
        0.04077647626399994,
        0.003440505126491189,
        0.036071524024009705,
        -0.018223948776721954,
        0.11489861458539963,
        -0.18456631898880005,
        0.0641198381781578,
