{
  "version": 2,
  "kind": "mlp",
  "featureNames": [
    "rank_balance_0",
    "rank_balance_1",
    "rank_balance_2",
    "rank_balance_3",
    "rank_balance_4",
    "rank_balance_5",
    "rank_balance_6",
    "rank_balance_7",
    "rank_balance_8",
    "rank_balance_9",
    "rank_balance_10",
    "rank_balance_11",
    "material_value_diff",
    "movable_piece_diff",
    "scout_diff",
    "miner_diff",
    "bomb_diff",
    "high_rank_diff",
    "revealed_ratio_diff",
    "hidden_high_rank_diff",
    "advancement_diff",
    "frontline_diff",
    "center_control_diff",
    "flag_guard_diff",
    "flag_pressure_diff",
    "turn_advantage",
    "game_phase"
  ],
  "layers": [
    {
      "inputSize": 27,
      "outputSize": 96,
      "weights": [
        -0.02323545143008232,
        0.01502775028347969,
        0.6499829292297363,
        0.3061377704143524,
        -0.4913652539253235,
        -0.22409135103225708,
        -0.1142967939376831,
        1.2409186363220215,
        0.02561892382800579,
        -0.0863984227180481,
        0.4742930233478546,
        -0.24730688333511353,
        0.05628078058362007,
        0.6349616646766663,
        0.9112840890884399,
        0.06528855860233307,
        -0.39028075337409973,
        0.5157732367515564,
        0.9112018942832947,
        0.054163966327905655,
        1.5719114542007446,
        -1.2481944561004639,
        0.31974872946739197,
        0.17065362632274628,
        0.3143807351589203,
        -0.002936304546892643,
        -0.5263887643814087,
        -0.5344008207321167,
        -0.20914587378501892,
        -0.29567083716392517,
        -0.24712713062763214,
        0.7917237877845764,
        0.8693761229515076,
        0.06805579364299774,
        -0.31250423192977905,
        -0.4721370041370392,
        0.1560060977935791,
        -0.008141391910612583,
        -0.25448012351989746,
        -0.27777525782585144,
        0.11740275472402573,
        -0.12726357579231262,
        -0.19642572104930878,
        -0.09890680015087128,
        -0.3177289366722107,
        0.49855896830558777,
        -0.9009717702865601,
        -0.0024330373853445053,
        0.07737793028354645,
        0.4518347978591919,
        0.22037965059280396,
        0.7214387655258179,
        0.009941766038537025,
        0.1931931972503662,
        -0.10092733055353165,
        -0.551760733127594,
        -0.34021705389022827,
        -0.5058630108833313,
        0.21943068504333496,
        0.6599919199943542,
        0.24862132966518402,
        1.0995157957077026,
        1.5650032758712769,
        -0.5108963251113892,
        -0.4699142873287201,
        -1.7316190004348755,
        0.5169274806976318,
        0.49514779448509216,
        -0.11183476448059082,
        -0.17186160385608673,
        -1.8504856824874878,
        0.8182075619697571,
        -0.6957952380180359,
        0.3637927770614624,
        0.24631179869174957,
        1.0930798053741455,
        0.132241889834404,
        0.004827986937016249,
        0.168766051530838,
        0.002477726899087429,
        -0.007666673976927996,
        -0.1569826751947403,
        -0.12229233235120773,
        -1.0608799457550049,
        -0.23249876499176025,
        0.27157896757125854,
        0.3367697596549988,
        1.3363938331604004,
        1.4048322439193726,
        0.44670370221138,
        0.05679185315966606,
        -1.4318578243255615,
        0.40476715564727783,
        0.35331234335899353,
        0.2909908890724182,
        -1.1953072547912598,
        -0.12914815545082092,
        0.2704964876174927,
        -0.10432631522417068,
        -0.49693211913108826,
        0.6021057963371277,
        0.04930850490927696,
        0.7950682044029236,
        -0.778435468673706,
        -0.12488721311092377,
        -0.33241310715675354,
        0.00414830818772316,
        0.8935540914535522,
        0.11807449162006378,
        1.8692975044250488,
        -0.11225513368844986,
        -0.6827742457389832,
        -1.1232993602752686,
        0.16106563806533813,
        0.4561728835105896,
        1.440688967704773,
        -1.2435271739959717,
        0.15882337093353271,
        -0.11931360512971878,
        -2.1095924377441406,
        0.11700434982776642,
        -0.2542770206928253,
        -0.20358723402023315,
        -0.4873361587524414,
        -2.0810091495513916,
        -1.0207115411758423,
        -1.497595191001892,
        -0.9397710561752319,
        1.0291889905929565,
        -1.1088894605636597,
        -1.7279539108276367,
        0.18600831925868988,
        -0.045724280178546906,
        0.005701320245862007,
        -0.030413445085287094,
        0.12569136917591095,
        0.2605116069316864,
        0.8496749997138977,
        -0.5875687003135681,
        0.9884465336799622,
        -0.16059841215610504,
        0.0037557699251919985,
        -0.5439175367355347,
        0.06027641147375107,
        0.48095160722732544,
        -1.380144476890564,
        -0.8392305970191956,
        0.0583898201584816,
        0.3786509335041046,
        0.6881056427955627,
        -0.7273239493370056,
        -1.123344898223877,
        0.0033957213163375854,
        0.6922779083251953,
        0.9562619924545288,
        1.8635941743850708,
        0.8299239277839661,
        -0.2116285264492035,
        -0.22964529693126678,
        -0.6490190625190735,
        -0.006301355082541704,
        0.04996206983923912,
        -0.03994147479534149,
        -0.08099570870399475,
        -0.25003984570503235,
        -0.044042643159627914,
        -0.8161836862564087,
        -1.1232495307922363,
        -0.13314981758594513,
        -0.700144350528717,
        0.7468240857124329,
        -0.1975071132183075,
        -0.2102086991071701,
        -0.42797914147377014,
        -0.7231868505477905,
        -0.7607336640357971,
        -0.3223051428794861,
        0.09825383871793747,
        -0.5275118350982666,
        0.47933754324913025,
        -0.4299842119216919,
        1.1769965887069702,
        -0.6322609782218933,
        1.6926583051681519,
        -0.7703521847724915,
        0.1312965750694275,
        0.7818235158920288,
        -0.0028711131308227777,
        -0.04430387169122696,
        -0.0024043915327638388,
        -0.6731348633766174,
        0.3242086172103882,
        -0.39268144965171814,
        0.15349459648132324,
        0.02319062501192093,
        0.7149083018302917,
        0.4982603192329407,
        -0.7419717907905579,
        -0.29187896847724915,
        0.11386114358901978,
        -0.7090126276016235,
        -0.033031802624464035,
        -0.05594426393508911,
        0.21540285646915436,
        -0.2964871823787689,
        -0.5965071320533752,
        -0.6964361071586609,
        -0.3512202203273773,
        0.4255748987197876,
        -0.7872647643089294,
        -0.7058867812156677,
        -0.6256160140037537,
        0.09189997613430023,
        -0.16780491173267365,
        0.0017287272494286299,
        -0.02690950781106949,
        0.05617330223321915,
        -0.1014561802148819,
        0.30476588010787964,
        0.8915197253227234,
        -0.1755201816558838,
        0.13281938433647156,
        0.29843980073928833,
        0.06098414212465286,
        -0.32393497228622437,
        -0.509086549282074,
        0.16940902173519135,
        -0.2842150032520294,
        0.3692835569381714,
        0.418218731880188,
        0.33535248041152954,
        1.1341437101364136,
        -0.119095578789711,
        -0.49452275037765503,
        0.1955747753381729,
        0.47533321380615234,
        1.0429201126098633,
        0.4482479989528656,
        0.37004223465919495,
        -0.41762587428092957,
        -0.057678718119859695,
        0.0036815886851400137,
        0.07741505652666092,
        0.06570993363857269,
        0.17688708007335663,
        -0.6096078157424927,
        -0.09039686620235443,
        -0.5679447650909424,
        -0.13523735105991364,
        -0.5237641334533691,
        -0.016780609264969826,
        0.32477134466171265,
        0.12522271275520325,
        -0.29130125045776367,
        -0.25808173418045044,
        -0.1115751713514328,
        -0.515371561050415,
        -0.5119175910949707,
        0.15542690455913544,
        -0.19302606582641602,
        0.10536934435367584,
        0.7913899421691895,
        -0.02906506136059761,
        -0.4402425289154053,
        -0.19020891189575195,
        -0.09487378597259521,
        -0.04040502384305,
        0.7286650538444519,
        -0.00424920255318284,
        -0.2686576843261719,
        -0.7257945537567139,
        -0.321796178817749,
        -0.6239563822746277,
        -0.4334091246128082,
        3.2151198387145996,
        0.8607062101364136,
        0.3983462452888489,
        0.2563392221927643,
        -0.4575864374637604,
        -0.6994650959968567,
        1.7074742317199707,
        0.5790039896965027,
        -0.13653144240379333,
        0.5696368217468262,
        -0.7205690741539001,
        -0.4941965937614441,
        0.6933518052101135,
        0.058935921639204025,
        -2.2532858848571777,
        -1.4357688426971436,
        -0.6259520053863525,
        -1.2408385276794434,
        0.6826938390731812,
        0.2006823867559433,
        -0.6717098355293274,
        0.009322321973741055,
        -0.08116971701383591,
        0.02483544312417507,
        0.34652236104011536,
        0.1178203746676445,
        -0.26870667934417725,
        -0.04975411668419838,
        -0.6016014814376831,
        1.019073724746704,
        0.1506171077489853,
        0.3499473035335541,
        0.5226682424545288,
        -0.40406695008277893,
        0.3342554271221161,
        0.27575165033340454,
        0.06282539665699005,
        -0.08038589358329773,
        -0.1725924164056778,
        0.5397695302963257,
        0.43086493015289307,
        -0.36189520359039307,
        -0.29125353693962097,
        -0.7275533080101013,
        -0.11933097243309021,
        -0.19966688752174377,
        0.027808304876089096,
        -0.11629403382539749,
        -0.00554241007193923,
        0.029933972284197807,
        -0.03439773991703987,
        -0.5849488377571106,
        0.3771253526210785,
        -1.522660493850708,
        -0.8735726475715637,
        0.4706107974052429,
        1.042549729347229,
        -0.29555565118789673,
        -0.10488133877515793,
        -0.15983927249908447,
        0.10931424051523209,
        -0.07117776572704315,
        -0.24680186808109283,
        -0.22244708240032196,
        0.621199905872345,
        -1.4700045585632324,
        -0.33329716324806213,
        -0.2059447020292282,
        -0.5406985878944397,
        -1.1090949773788452,
        0.2078293412923813,
        1.1330652236938477,
        1.8994282484054565,
        -0.04312971606850624,
        -0.5914138555526733,
        0.0024387554731220007,
        0.00203167786821723,
        0.08322706818580627,
        0.5980678796768188,
        0.04565200209617615,
        -0.26248204708099365,
        0.2123643308877945,
        2.2264037132263184,
        -0.5604718327522278,
        -0.12723931670188904,
        -0.6018496155738831,
        0.23468127846717834,
        0.24631446599960327,
        0.5553436875343323,
        0.22222992777824402,
        0.6308372616767883,
        0.30591461062431335,
        -0.4628131091594696,
        0.27593937516212463,
        -0.051704972982406616,
        -0.8401914834976196,
        0.1571221947669983,
        0.5262271761894226,
        0.7462663054466248,
        -0.3862045407295227,
        0.16267696022987366,
        0.44065526127815247,
        0.0029435628093779087,
        -0.01761801727116108,
        -0.12867386639118195,
        0.6296347975730896,
        0.4370786249637604,
        1.8648251295089722,
        3.567749261856079,
        0.8459716439247131,
        -0.6588581204414368,
        -1.31197988986969,
        -0.13568949699401855,
        0.06728938966989517,
        1.362978219985962,
        -1.629973292350769,
        1.0800310373306274,
        2.3976311683654785,
        0.6627845168113708,
        2.02059006690979,
        -1.8405579328536987,
        0.5620949268341064,
        0.9383575916290283,
        -1.4548330307006836,
        -0.383088082075119,
        1.509416103363037,
        0.8078075647354126,
        0.3249441981315613,
        0.29069289565086365,
        0.0010479559423401952,
        -0.033509835600852966,
        -0.06090080365538597,
        -0.4019407033920288,
        0.08589985966682434,
        -0.2485569715499878,
        1.0501232147216797,
        1.6754339933395386,
        -0.2764994204044342,
        -0.6232577562332153,
        0.03761814162135124,
        -0.09654663503170013,
        -0.3634386360645294,
        -0.03626539185643196,
        0.3250272572040558,
        0.38095226883888245,
        -0.06383644789457321,
        -0.29737988114356995,
        -0.08537425100803375,
        -0.3404669463634491,
        -0.3464352488517761,
        1.3209741115570068,
        -0.1646038293838501,
        0.37541306018829346,
        -0.8264479637145996,
        -0.1395605057477951,
        0.009915432892739773,
        0.001109690754674375,
        -0.06162044405937195,
        -0.764775812625885,
        0.6378041505813599,
        -0.3404969274997711,
        0.4307575225830078,
        -0.25440359115600586,
        1.268149495124817,
        -0.816904604434967,
        -0.4160948395729065,
        -0.3145475685596466,
        -0.24933530390262604,
        1.4131535291671753,
        -2.310821056365967,
        -0.47308412194252014,
        0.3429136872291565,
        -0.36076077818870544,
        0.625953197479248,
        -2.2568907737731934,
        0.11629453301429749,
        -0.8954348564147949,
        1.3926547765731812,
        -0.457290381193161,
        0.7199607491493225,
        0.5906926393508911,
        0.20129375159740448,
        -0.09127888083457947,
        -0.007005658932030201,
        -0.03771844133734703,
        -0.1797580122947693,
        0.16345155239105225,
        -0.35696572065353394,
        1.1577773094177246,
        -0.054995182901620865,
        0.16612963378429413,
        0.3305049240589142,
        0.28985679149627686,
        -0.08620478957891464,
        0.2444230318069458,
        0.6261628866195679,
        -0.10868299007415771,
        0.3819790184497833,
        0.5006096959114075,
        -0.29291629791259766,
        1.2614519596099854,
        -0.08434248715639114,
        0.01055916864424944,
        -0.22308801114559174,
        -1.2525343894958496,
        0.7186715602874756,
        0.4850398302078247,
        0.8377754092216492,
        -0.03752657771110535,
        -0.3567269742488861,
        0.0030749766156077385,
        -0.0756106823682785,
        0.10308519005775452,
        -0.07595746219158173,
        0.08152947574853897,
        0.29570716619491577,
        -0.975898802280426,
        -0.8822037577629089,
        -1.2886043787002563,
        -0.19036629796028137,
        -0.01676095649600029,
        0.4300922453403473,
        0.3063596785068512,
        -0.06011534109711647,
        -0.05945552885532379,
        -0.5182138085365295,
        0.08698264509439468,
        0.5904331803321838,
        -0.17146286368370056,
        0.25515830516815186,
        0.41151872277259827,
        -0.6257818341255188,
        -0.5754174590110779,
        0.47312381863594055,
        0.38481956720352173,
        -0.2749548852443695,
        -1.1239324808120728,
        -0.0009471900993958116,
        0.07469634711742401,
        -0.39345961809158325,
        -0.1366739124059677,
        0.20430956780910492,
        -0.5204965472221375,
        -0.08377715200185776,
        0.013867026194930077,
        0.523353099822998,
        0.49997127056121826,
        0.10732016712427139,
        0.2177858203649521,
        -0.4867980182170868,
        0.4038052260875702,
        -0.05530228465795517,
        0.06815464049577713,
        0.17816482484340668,
        -0.4001883864402771,
        0.6236969828605652,
        0.2624083161354065,
        -0.2811213731765747,
        -0.4597346782684326,
        0.2037029266357422,
        0.8216851949691772,
        0.3820885121822357,
        0.04630795866250992,
        0.543082594871521,
        -0.0043501537293195724,
        -0.1507740169763565,
        0.1569010317325592,
        1.3723739385604858,
        -0.6279710531234741,
        -1.1313507556915283,
        -1.047265887260437,
        0.548586905002594,
        -1.0140748023986816,
        2.3787646293640137,
        0.1509111374616623,
        -0.6686851978302002,
        -0.43623045086860657,
        0.07365703582763672,
        -0.14033375680446625,
        -0.21999062597751617,
        -0.4656813442707062,
        -1.0246022939682007,
        0.12173749506473541,
        -0.7058413624763489,
        -0.21501076221466064,
        1.1333444118499756,
        -2.25710129737854,
        -0.9390445351600647,
        -0.11853017657995224,
        -0.06662911176681519,
        -0.14589130878448486,
        -0.009829211048781872,
        -0.009598699398338795,
        -0.06733661144971848,
        0.48245668411254883,
        -0.9543930888175964,
        0.14435870945453644,
        0.8407378792762756,
        1.428754448890686,
        0.5035175681114197,
        -0.5710103511810303,
        0.7129354476928711,
        1.1677160263061523,
        0.278239905834198,
        -0.8975499272346497,
        0.7461659908294678,
        0.7625951170921326,
        -1.0756688117980957,
        0.27449095249176025,
        -0.9767764806747437,
        1.2764122486114502,
        -0.3771170377731323,
        0.30207642912864685,
        2.157684087753296,
        0.3817763924598694,
        0.625052809715271,
        -0.08533202856779099,
        -1.0798203945159912,
        0.013334614224731922,
        0.22673429548740387,
        0.037964072078466415,
        -0.35636046528816223,
        0.05602748692035675,
        -0.09617001563310623,
        -0.8109902143478394,
        -0.27739375829696655,
        0.2441607415676117,
        -0.1802898645401001,
        0.4127402603626251,
        0.0027632839046418667,
        -0.016040794551372528,
        -0.16003485023975372,
        -0.17414364218711853,
        -0.4528454542160034,
        -0.15209239721298218,
        -0.23865990340709686,
        -0.17408742010593414,
        0.38160818815231323,
        1.7280478477478027,
        0.09603942930698395,
        1.8075121641159058,
        -0.40664514899253845,
        0.5853294134140015,
        0.20409457385540009,
        0.15438903868198395,
        7.180969987530261e-05,
        0.08023256808519363,
        0.38256406784057617,
        -0.15051402151584625,
        -0.25270405411720276,
        -0.14374206960201263,
        -0.026388904079794884,
        -0.24422778189182281,
        0.5179358124732971,
        0.34615543484687805,
        -0.8846819400787354,
        0.0863313376903534,
        -0.25709590315818787,
        0.2355690747499466,
        0.2645263075828552,
        -0.275179386138916,
        0.01477781031280756,
        0.1780572086572647,
        0.2242557555437088,
        -0.850801408290863,
        0.8083081245422363,
        0.14980141818523407,
        -1.471547245979309,
        0.6052057147026062,
        -0.1079045757651329,
        -0.04464849457144737,
        -0.23017001152038574,
        -0.00043510066461749375,
        0.08348376303911209,
        0.1707668900489807,
        -0.7776520252227783,
        -0.19525225460529327,
        0.13603435456752777,
        -0.020215287804603577,
        -0.6203675270080566,
        -1.2745624780654907,
        0.9297710657119751,
        -0.10958710312843323,
        -1.025355339050293,
        -0.10304512083530426,
        0.5155603289604187,
        0.31193023920059204,
        -0.37613388895988464,
        -0.06573087722063065,
        0.06795810163021088,
        0.5994285941123962,
        -0.7120927572250366,
        0.1286238729953766,
        0.5288547277450562,
        -1.6826841831207275,
        -0.2894974946975708,
        -0.8896260261535645,
        0.24135556817054749,
        0.9877362847328186,
        0.007211113348603249,
        -0.04319091513752937,
        0.8236835598945618,
        -0.4597398340702057,
        -0.39379221200942993,
        1.0786622762680054,
        -0.693895697593689,
        0.0012797422241419554,
        -0.6721215844154358,
        -0.02123492769896984,
        -0.06249338388442993,
        -0.5495365262031555,
        -0.4220429062843323,
        0.3769054710865021,
        0.19012519717216492,
        -0.5456939935684204,
        -0.5188355445861816,
        1.1770039796829224,
        0.34202173352241516,
        -0.2584504187107086,
        -0.5605441331863403,
        -0.7932143211364746,
        0.11495434492826462,
        1.3637137413024902,
        -0.3027113974094391,
        -0.04525443911552429,
        0.113108329474926,
        0.003540884703397751,
        0.04236885905265808,
        -0.35551291704177856,
        -0.1497342884540558,
        1.5448275804519653,
        -1.5190072059631348,
        -1.1718330383300781,
        1.2507270574569702,
        0.10228371620178223,
        -0.28408122062683105,
        1.2491071224212646,
        -0.8010447025299072,
        -0.10441844165325165,
        -0.2011735737323761,
        -0.3450227975845337,
        0.3777005970478058,
        1.2956572771072388,
        -1.5242528915405273,
        -0.33044400811195374,
        0.17275331914424896,
        -0.9873157739639282,
        -1.5484273433685303,
        0.281137079000473,
        1.0401368141174316,
        1.1741453409194946,
        0.05853618308901787,
        -0.06766750663518906,
        0.0002862220862880349,
        -0.03909727931022644,
        0.20517422258853912,
        0.04104889556765556,
        -0.2906859517097473,
        0.8574524521827698,
        0.1859765350818634,
        0.7984168529510498,
        0.3130994141101837,
        0.005542992148548365,
        0.6519106030464172,
        0.37758195400238037,
        -0.13759876787662506,
        0.3454253375530243,
        0.8564759492874146,
        0.7573502659797668,
        -0.30530214309692383,
        0.7257869839668274,
        0.15342070162296295,
        0.4559650123119354,
        -0.2613244652748108,
        -1.132239580154419,
        -0.4089941382408142,
        -0.33850306272506714,
        0.7476558089256287,
        0.06688733398914337,
        -0.5553514361381531,
        -0.000548246898688376,
        -0.048760343343019485,
        0.1419326215982437,
        -0.6453922390937805,
        0.3399243950843811,
        -0.7412923574447632,
        -0.07090412080287933,
        0.06032087281346321,
        -0.7329225540161133,
        -1.2915655374526978,
        -0.5788143277168274,
        -0.13126832246780396,
        -1.0771899223327637,
        -0.6365118622779846,
        -0.5485664010047913,
        -0.6109784841537476,
        0.531714677810669,
        -0.7138328552246094,
        -0.7396305203437805,
        -0.9130768179893494,
        0.4010695219039917,
        0.2816706597805023,
        -0.8213047385215759,
        1.3477294445037842,
        -0.21908798813819885,
        0.2652629613876343,
        1.244563102722168,
        0.0020533001516014338,
        0.09666351228952408,
        -0.12215778976678848,
        -0.1351848691701889,
        0.2765949070453644,
        0.38744527101516724,
        0.1257934272289276,
        0.707854151725769,
        1.3411318063735962,
        -0.2935994863510132,
        -0.9987977147102356,
        0.7238309383392334,
        -1.0454729795455933,
        -0.35123246908187866,
        -0.31038492918014526,
        0.4840697944164276,
        0.48157796263694763,
        0.238735169172287,
        -0.24279582500457764,
        -0.9953482747077942,
        1.0002533197402954,
        0.6186509728431702,
        -1.1142807006835938,
        0.1288258135318756,
        1.4502074718475342,
        0.03256133943796158,
        -0.5318448543548584,
        -0.005636944435536861,
        -0.5680972337722778,
        0.28138065338134766,
        0.1586216390132904,
        0.1797405630350113,
        -0.030378427356481552,
        0.4962969422340393,
        -0.9382718801498413,
        0.004774554166942835,
        -0.5793559551239014,
        -0.5485128164291382,
        -0.14049682021141052,
        -0.8157994747161865,
        1.6774920225143433,
        -0.010063907131552696,
        -0.108833447098732,
        0.23039138317108154,
        0.04043416678905487,
        1.5712779760360718,
        -0.8878822326660156,
        -0.8934548497200012,
        0.3450942933559418,
        -1.2564122676849365,
        1.1387505531311035,
        1.1474088430404663,
        0.03371761366724968,
        -0.2642413079738617,
        -0.0007018190226517618,
        0.0019991686567664146,
        0.018390338867902756,
        0.09009236842393875,
        0.07181089371442795,
        -0.28208863735198975,
        -0.9385038614273071,
        0.6248952150344849,
        0.009079689159989357,
        0.08172613382339478,
        0.7668300271034241,
        -0.6875804662704468,
        -0.9196805357933044,
        0.736712634563446,
        -0.12215082347393036,
        -0.1400098204612732,
        0.28262606263160706,
        -0.32304736971855164,
        0.4836884140968323,
        -0.27024737000465393,
        -0.6744207739830017,
        -0.14695340394973755,
        0.17707286775112152,
        -0.38494881987571716,
        -0.1422765851020813,
        -0.15758174657821655,
        -0.36215999722480774,
        -0.0008810788276605308,
        0.0016854923451319337,
        -0.02662440575659275,
        -0.5210464596748352,
        0.13258220255374908,
        -0.10772918164730072,
        -0.6971213221549988,
        0.08190824091434479,
        -0.03617383912205696,
        0.20256772637367249,
        -0.7335512638092041,
        0.38598015904426575,
        0.1535373330116272,
        0.2910095751285553,
        -0.22510048747062683,
        -0.2645571529865265,
        0.018839329481124878,
        0.19169802963733673,
        0.20050308108329773,
        -0.4904824197292328,
        -0.05771199241280556,
        -0.16194304823875427,
        -0.2584678828716278,
        0.2369096577167511,
        0.7044190764427185,
        0.08014348894357681,
        0.10241106152534485,
        -0.006434387061744928,
        0.029900066554546356,
        0.32936984300613403,
        0.1203608512878418,
        -0.12596744298934937,
        -0.6818019151687622,
        0.4459961950778961,
        0.43360045552253723,
        -0.7029268145561218,
        -0.026508985087275505,
        -0.059638068079948425,
        0.31077688932418823,
        0.20218367874622345,
        -0.03955533355474472,
        0.11863890290260315,
        -0.07354825735092163,
        -0.36579686403274536,
        -0.6306990385055542,
        -0.10498534888029099,
        -0.013056062161922455,
        -0.6414338946342468,
        0.1982269585132599,
        -0.39904484152793884,
        -0.3445015251636505,
        -0.02192605659365654,
        -0.6148011088371277,
        0.37148499488830566,
        0.008425404317677021,
        0.04582833871245384,
        0.1321972906589508,
        -0.9537409543991089,
        0.3496057093143463,
        0.10509102046489716,
        -0.21244823932647705,
        -0.9036621451377869,
        -0.15116587281227112,
        -0.7046941518783569,
        -0.6770039796829224,
        0.6468719244003296,
        -1.0400238037109375,
        -1.1195000410079956,
        -0.7386624813079834,
        -0.398513525724411,
        0.37485602498054504,
        -0.09904073923826218,
        -1.0366142988204956,
        -0.6092627048492432,
        0.2706030011177063,
        -0.5065169930458069,
        1.380418062210083,
        0.863671064376831,
        0.15099763870239258,
        -0.1923626959323883,
        -0.324283629655838,
        -0.0002529621997382492,
        -0.05502588301897049,
        0.004814245272427797,
        0.00396107928827405,
        0.617679238319397,
        -1.414360761642456,
        0.6678391695022583,
        -2.719637155532837,
        0.5585033893585205,
        0.3015429973602295,
        0.32919278740882874,
        -0.7786940932273865,
        0.7031626105308533,
        0.15300807356834412,
        -0.11216747760772705,
        -0.5027845501899719,
        0.538810133934021,
        -1.3227825164794922,
        -0.18357259035110474,
        0.39527514576911926,
        0.8788884878158569,
        -0.5301536917686462,
        -1.5173157453536987,
        -0.5828682780265808,
        0.17606207728385925,
        0.12912097573280334,
        -0.3953455686569214,
        0.00039822765393182635,
        0.09333334863185883,
        0.09493411332368851,
        -0.18282099068164825,
        -0.24333788454532623,
        0.27764081954956055,
        -0.5106221437454224,
        -0.1701594740152359,
        -0.5800167322158813,
        0.28768712282180786,
        -0.04596283286809921,
        -0.9703934192657471,
        0.30583998560905457,
        0.4447195827960968,
        0.036141786724328995,
        -0.4450579583644867,
        -0.04986296966671944,
        -0.029911035671830177,
        0.3951379060745239,
        -0.03171718493103981,
        1.346274733543396,
        -0.2622666656970978,
        -0.20845133066177368,
        0.36055660247802734,
        -0.24414747953414917,
        -0.23398756980895996,
        -0.75206458568573,
        0.0007706003380008042,
        0.08153177052736282,
        -0.14241337776184082,
        5.3441832278622314e-05,
        -1.1971780061721802,
        0.14262215793132782,
        -1.1063125133514404,
        -0.7134546637535095,
        -0.21819928288459778,
        1.0729601383209229,
        0.38060274720191956,
        0.20668163895606995,
        -0.5796236395835876,
        0.16660256683826447,
        -0.008945520035922527,
        -0.5997635722160339,
        -1.261034369468689,
        0.27612072229385376,
        0.5185056328773499,
        0.000732818734832108,
        1.0371266603469849,
        0.19011099636554718,
        -0.515165388584137,
        -0.08829353749752045,
        -0.08675936609506607,
        0.08627033978700638,
        -0.4438762664794922,
        0.004354097414761782,
        0.05392028018832207,
        0.2998136878013611,
        -0.4276757538318634,
        0.8936839699745178,
        -0.9964864253997803,
        -0.5266488790512085,
        -0.5289999842643738,
        -0.5738006234169006,
        0.46635138988494873,
        2.7176029682159424,
        0.2798497974872589,
        0.7881462574005127,
        -1.1528922319412231,
        0.5796657204627991,
        0.18560491502285004,
        0.9105473160743713,
        -1.064967155456543,
        -1.2389332056045532,
        3.688122034072876,
        0.6730151772499084,
        0.6627663373947144,
        0.0104093998670578,
        1.2159981727600098,
        0.9436906576156616,
        0.08299380540847778,
        0.09969209134578705,
        -0.0038871874567121267,
        0.08456527441740036,
        -0.13648845255374908,
        -0.7077876329421997,
        0.20274890959262848,
        -0.4707784950733185,
        0.03914157301187515,
        0.2918132245540619,
        -0.991383969783783,
        0.31931859254837036,
        0.276215136051178,
        -0.040767475962638855,
        -0.49021658301353455,
        -0.7856812477111816,
        -0.23597529530525208,
        -0.3592856526374817,
        -0.08100223541259766,
        -0.5682374835014343,
        -0.5227596759796143,
        -0.0077745551243424416,
        -2.0289156436920166,
        0.9947189688682556,
        1.6827646493911743,
        1.557847261428833,
        -0.10580047219991684,
        0.015542292036116123,
        0.4490874707698822,
        0.004368538502603769,
        0.05756314471364021,
        -0.3579815626144409,
        0.7617263793945312,
        0.12611614167690277,
        0.15946802496910095,
        1.4261144399642944,
        -0.4116617441177368,
        0.8160354495048523,
        -4.2138214111328125,
        -0.020630870014429092,
        -0.23700271546840668,
        2.021620750427246,
        0.17951881885528564,
        -0.5714402198791504,
        -0.0031083121430128813,
        0.04899869114160538,
        0.19976940751075745,
        0.29964250326156616,
        0.7933747172355652,
        -1.8765212297439575,
        1.6984401941299438,
        0.2878684401512146,
        -1.129002571105957,
        -0.5097864866256714,
        0.07455502450466156,
        0.48702168464660645,
        0.003655895357951522,
        0.0023547387681901455,
        0.24763716757297516,
        0.5437902808189392,
        1.881516933441162,
        -0.2509087026119232,
        0.09504851698875427,
        -0.09446831047534943,
        1.0710867643356323,
        -1.5665029287338257,
        -0.8357195854187012,
        -0.4599487781524658,
        -1.0361207723617554,
        0.679767906665802,
        -0.029379887506365776,
        0.35253143310546875,
        1.7547540664672852,
        -0.43671515583992004,
        0.6850557923316956,
        -1.0515910387039185,
        -1.8925753831863403,
        -1.2008919715881348,
        1.1271977424621582,
        0.8540506362915039,
        1.5174134969711304,
        0.08539941161870956,
        0.034290313720703125,
        0.012356933206319809,
        -0.07296109199523926,
        0.14935217797756195,
        0.1915149986743927,
        0.16577041149139404,
        0.8971982002258301,
        -0.404550701379776,
        -0.34450656175613403,
        -0.14947116374969482,
        -1.2076002359390259,
        0.5498977303504944,
        0.5581912398338318,
        -0.14131353795528412,
        -0.4075140357017517,
        -0.3379151225090027,
        0.08089926838874817,
        0.17523318529129028,
        0.8056085705757141,
        -0.6208797097206116,
        0.6722954511642456,
        0.05689817667007446,
        0.3586834669113159,
        1.642367959022522,
        -0.07271339744329453,
        0.2600610554218292,
        -0.6156935095787048,
        -0.4578741192817688,
        -0.004881315398961306,
        -0.1315300017595291,
        0.18800777196884155,
        -0.06542384624481201,
        0.25938424468040466,
        0.5936601758003235,
        0.058218225836753845,
        -0.5861074328422546,
        -1.2462488412857056,
        0.45081213116645813,
        -0.08518052846193314,
        -0.49398598074913025,
        -0.6850466132164001,
        -0.15616275370121002,
        -0.24621111154556274,
        -0.24750684201717377,
        0.16699013113975525,
        0.820978581905365,
        -0.007681190501898527,
        -0.4532715976238251,
        0.8456791043281555,
        -1.0296895503997803,
        -0.0036456971429288387,
        0.4947141110897064,
        -1.277842402458191,
        -0.17612430453300476,
        -0.05829228088259697,
        0.0024203008506447077,
        -0.07229769229888916,
        0.013417135924100876,
        0.0725083127617836,
        -1.6034473180770874,
        -1.2039157152175903,
        -0.08474808931350708,
        0.9561550617218018,
        1.6911351680755615,
        -1.3668959140777588,
        0.39207547903060913,
        0.49172985553741455,
        0.49928224086761475,
        -0.29959943890571594,
        0.24924205243587494,
        -0.5606889724731445,
        -1.4620016813278198,
        -1.2366628646850586,
        -0.43870168924331665,
        0.33705437183380127,
        3.912848472595215,
        -0.791788637638092,
        -0.8728872537612915,
        1.2259323596954346,
        0.6630521416664124,
        -0.08789800852537155,
        0.08102429658174515,
        0.0017797145992517471,
        -0.06672307848930359,
        0.42748382687568665,
        0.7480328679084778,
        -1.241219401359558,
        -0.5934278964996338,
        -1.899904489517212,
        -2.1452829837799072,
        -0.15779705345630646,
        -1.776657223701477,
        -0.9175620675086975,
        0.3422986567020416,
        -0.5221541523933411,
        -2.0255134105682373,
        -1.5592886209487915,
        -2.7289276123046875,
        -1.0582579374313354,
        -0.43899479508399963,
        -2.0720577239990234,
        -0.6700849533081055,
        1.466370701789856,
        -2.049734592437744,
        2.271353006362915,
        2.227487087249756,
        0.18982766568660736,
        -0.08609895408153534,
        -0.5149038434028625,
        0.004039366729557514,
        -0.019941741600632668,
        0.1384124755859375,
        0.02475210465490818,
        0.30815383791923523,
        -0.6338704824447632,
        -1.8467018604278564,
        -0.5563453435897827,
        0.21120604872703552,
        -1.400376558303833,
        0.3115348517894745,
        -0.41672131419181824,
        0.06569328159093857,
        0.15627142786979675,
        -0.4511622488498688,
        -1.0428451299667358,
        0.4004181921482086,
        -0.37199902534484863,
        -0.02249758504331112,
        0.28968122601509094,
        -1.1224647760391235,
        0.014368051663041115,
        1.4128448963165283,
        0.2779957056045532,
        -0.8038084506988525,
        -0.04428006336092949,
        -0.4945940375328064,
        0.0035118889063596725,
        0.058318786323070526,
        -0.20895962417125702,
        -0.023744946345686913,
        0.15912926197052002,
        0.05474219098687172,
        0.9931043386459351,
        0.4583604335784912,
        0.13697271049022675,
        0.22073443233966827,
        -0.23386266827583313,
        0.12813426554203033,
        0.11902572214603424,
        3.322221279144287,
        0.25734686851501465,
        0.5175962448120117,
        -0.019597714766860008,
        0.1830112785100937,
        3.4720277786254883,
        -0.205093652009964,
        -0.846314549446106,
        -0.2269313633441925,
        1.4513177871704102,
        0.4509839713573456,
        -0.18351829051971436,
        0.10264421254396439,
        0.2547574043273926,
        0.008202818222343922,
        -0.03187616914510727,
        0.1447230726480484,
        0.11032698303461075,
        -0.520009458065033,
        0.16088970005512238,
        -0.18672671914100647,
        0.5612954497337341,
        -0.38465315103530884,
        0.5717350840568542,
        -0.3919326364994049,
        0.4098931849002838,
        0.48248791694641113,
        -1.0459107160568237,
        0.3801674544811249,
        -0.15193989872932434,
        -0.6923437714576721,
        -0.055649708956480026,
        -0.8562747240066528,
        0.28360432386398315,
        -0.06012023240327835,
        0.740745484828949,
        0.5107016563415527,
        0.291608989238739,
        -0.021712353453040123,
        -0.21299010515213013,
        0.36003804206848145,
        0.003069295547902584,
        -0.2234814614057541,
        -0.04937620460987091,
        -1.2892827987670898,
        -0.06506194174289703,
        0.2604086101055145,
        -0.48033034801483154,
        0.07766515016555786,
        -0.7626579999923706,
        0.5508581399917603,
        -0.1930934488773346,
        0.10249626636505127,
        0.49213913083076477,
        -0.6902622580528259,
        -0.1507205367088318,
        -0.1640044003725052,
        -0.05842601880431175,
        0.35497206449508667,
        -0.6080562472343445,
        0.19305962324142456,
        1.0291062593460083,
        0.7212031483650208,
        -1.2317311763763428,
        0.26987114548683167,
        1.9216103553771973,
        -0.4274844527244568,
        -0.425312340259552,
        -0.003626343095675111,
        0.04498336464166641,
        -0.1022694781422615,
        0.7072973847389221,
        -0.004173829685896635,
        -0.4696968197822571,
        0.9013653993606567,
        -0.26989027857780457,
        0.37449029088020325,
        0.5694507956504822,
        0.014097104780375957,
        -0.9065455794334412,
        -0.16289757192134857,
        -0.3627440631389618,
        -0.14782148599624634,
        0.10602325946092606,
        -0.274093359708786,
        -0.7058570981025696,
        -0.37966927886009216,
        -0.492674857378006,
        0.2948572039604187,
        -1.3211041688919067,
        -0.5042238831520081,
        -0.5913894772529602,
        -0.9793485403060913,
        0.05910173058509827,
        -0.5609521865844727,
        -0.01908973418176174,
        -0.07291905581951141,
        0.08871588855981827,
        0.5314504504203796,
        0.81547611951828,
        0.3333825469017029,
        -0.5912377238273621,
        1.2258695363998413,
        0.0016363870818167925,
        -0.1393495798110962,
        -0.8373925685882568,
        0.12455367296934128,
        -0.34084466099739075,
        0.35088685154914856,
        0.1304703801870346,
        0.6907436847686768,
        0.6874870657920837,
        0.4762338101863861,
        0.3709358870983124,
        -0.5362907648086548,
        0.09351537376642227,
        0.6154165863990784,
        -0.06610871106386185,
        0.4270142614841461,
        0.6420266628265381,
        -0.2528735101222992,
        0.24367769062519073,
        -0.0034011739771813154,
        -0.032178133726119995,
        -0.08807198703289032,
        1.0181849002838135,
        0.1681399941444397,
        -0.44442230463027954,
        3.429605484008789,
        -1.2015060186386108,
        1.2927250862121582,
        -0.07998380064964294,
        -0.8866024017333984,
        0.3676334619522095,
        0.3674945533275604,
        -1.3156071901321411,
        0.33064019680023193,
        0.9447440505027771,
        0.28784939646720886,
        -0.402868390083313,
        -1.001127004623413,
        0.025816457346081734,
        -1.223573088645935,
        -1.2566421031951904,
        0.4599909484386444,
        -0.43622931838035583,
        -0.6718825101852417,
        -0.08646710216999054,
        -0.37617477774620056,
        -0.009835969656705856,
        0.02030612714588642,
        -0.29164060950279236,
        1.163874626159668,
        0.27029579877853394,
        0.19409529864788055,
        -0.022897906601428986,
        -1.9179506301879883,
        0.44731611013412476,
        4.701673984527588,
        -0.0027023707516491413,
        1.8980425596237183,
        0.1850319653749466,
        -1.2213867902755737,
        1.1387230157852173,
        1.1523449420928955,
        0.2221585214138031,
        -0.003154673147946596,
        -1.2847224473953247,
        0.9176735877990723,
        0.9237350821495056,
        -1.7985916137695312,
        -0.242974653840065,
        -0.5888968110084534,
        -1.0278946161270142,
        -0.12527142465114594,
        0.534946620464325,
        -0.001853028079494834,
        0.00011373983579687774,
        -0.207623690366745,
        0.05995016172528267,
        -0.3723194897174835,
        0.4763112962245941,
        -0.07194104045629501,
        0.4578474462032318,
        0.7496274709701538,
        -0.28558439016342163,
        0.5907748341560364,
        0.6101272106170654,
        0.2475595772266388,
        0.40515974164009094,
        0.29155445098876953,
        0.2705516517162323,
        -0.307638555765152,
        0.616999089717865,
        0.6296405792236328,
        0.971342921257019,
        -5.035453796386719,
        -0.5700189471244812,
        -0.8063629865646362,
        -1.2985332012176514,
        -1.115952491760254,
        0.07410942763090134,
        -0.6054754257202148,
        -0.0042050909250974655,
        0.01926559954881668,
        -0.6115016341209412,
        -0.2708786427974701,
        0.1388676017522812,
        0.2693142592906952,
        -0.9001503586769104,
        -0.40421026945114136,
        0.6459150910377502,
        0.20995724201202393,
        0.04194476827979088,
        -0.5566978454589844,
        0.8697103261947632,
        -0.6680197715759277,
        -0.5148069858551025,
        0.03679928183555603,
        0.14130745828151703,
        0.17985990643501282,
        -0.738211989402771,
        0.16125191748142242,
        1.5538614988327026,
        0.49573567509651184,
        -1.3678423166275024,
        -0.01760459691286087,
        -0.15486079454421997,
        0.2349192202091217,
        0.44073644280433655,
        0.006134184077382088,
        -0.09150412678718567,
        -0.012117836624383926,
        -0.29395925998687744,
        1.2282929420471191,
        0.7532014846801758,
        0.543308675289154,
        0.47058582305908203,
        1.021138072013855,
        -1.395677089691162,
        0.4424976110458374,
        -0.10484061390161514,
        -0.8912591934204102,
        -1.5526158809661865,
        -0.18839552998542786,
        1.0835905075073242,
        1.492737889289856,
        0.6167597770690918,
        -1.3243622779846191,
        -0.1604907065629959,
        1.4972196817398071,
        0.39446648955345154,
        -0.3626479506492615,
        -1.4747129678726196,
        -0.01885226182639599,
        0.1555788666009903,
        0.3808239698410034,
        0.00010552047751843929,
        0.08586250990629196,
        0.12293360382318497,
        -0.005369669757783413,
        -0.3914879262447357,
        0.1805526614189148,
        0.7657751441001892,
        -0.4493623375892639,
        0.5475480556488037,
        -0.7415683269500732,
        -0.06048476696014404,
        -1.2882634401321411,
        -0.2268858551979065,
        0.021906746551394463,
        -0.1342475712299347,
        -0.26360809803009033,
        -0.29657289385795593,
        0.2756447494029999,
        -0.2025941163301468,
        -0.8789328932762146,
        -0.6219527125358582,
        -0.3275434374809265,
        -0.7173894643783569,
        0.04205011948943138,
        -0.1066175252199173,
        -0.09329456090927124,
        0.0701225996017456,
        0.004618417471647263,
        -0.03580738231539726,
        0.2233872413635254,
        -0.20749922096729279,
        -0.0786873996257782,
        -0.3773593604564667,
        -0.4016071856021881,
        -0.45193004608154297,
        0.09589000046253204,
        -0.5013117790222168,
        -1.2014623880386353,
        0.6215257048606873,
        0.326987624168396,
        0.3440442383289337,
        -0.39158904552459717,
        -0.45349428057670593,
        -0.011078756302595139,
        -0.4059423506259918,
        0.19380216300487518,
        -0.251811146736145,
        -0.10845719277858734,
        -1.6590780019760132,
        0.19780202209949493,
        -0.1737895905971527,
        -0.08840193599462509,
        0.03239971026778221,
        0.11189868301153183,
        -0.0033678007312119007,
        -0.022649891674518585,
        0.0954061895608902,
        0.19427111744880676,
        0.721016526222229,
        0.2201758325099945,
        0.17254719138145447,
        -0.22429440915584564,
        0.6831785440444946,
        0.05960911884903908,
        -0.5697535872459412,
        0.4928164482116699,
        1.6360713243484497,
        0.8694522380828857,
        0.7013216018676758,
        0.8310149312019348,
        0.43752217292785645,
        0.10286930203437805,
        0.5519238710403442,
        0.6524978280067444,
        -0.5424075126647949,
        -1.5228756666183472,
        0.6568382382392883,
        0.8079200983047485,
        -0.6921888589859009,
        -0.24467937648296356,
        -0.13594970107078552,
        -0.001605345867574215,
        -0.17862647771835327,
        -0.3234541118144989,
        -0.5313746333122253,
        1.080825924873352,
        0.8927016258239746,
        -0.8139895796775818,
        -0.3336012363433838,
        0.371578574180603,
        0.43100711703300476,
        0.22399309277534485,
        0.7169157862663269,
        0.9966852068901062,
        0.031843140721321106,
        0.34865719079971313,
        0.5422574281692505,
        1.0748473405838013,
        0.8387193083763123,
        -0.21973007917404175,
        1.0373413562774658,
        0.6661048531532288,
        -0.1850813925266266,
        -0.3371683359146118,
        -0.04344680905342102,
        0.2191746085882187,
        -0.1735987514257431,
        0.0185466967523098,
        0.006916163954883814,
        0.09617803990840912,
        0.1772182136774063,
        -0.9734308123588562,
        1.1308413743972778,
        -0.33414602279663086,
        -0.29869362711906433,
        0.8189114928245544,
        -0.31696057319641113,
        0.8441826105117798,
        0.20301516354084015,
        -0.0723675787448883,
        0.8644849061965942,
        -0.34806689620018005,
        0.6636230945587158,
        0.6724898815155029,
        1.1200486421585083,
        -0.15218062698841095,
        -0.35503754019737244,
        0.6013303995132446,
        -0.6452329754829407,
        0.1806500256061554,
        -0.8876743316650391,
        0.9928748607635498,
        -0.9086668491363525,
        0.07625856250524521,
        0.562996506690979,
        -0.0007595091592520475,
        -0.041903745383024216,
        0.23964595794677734,
        0.05794113501906395,
        0.6778464317321777,
        0.6573085784912109,
        0.26528069376945496,
        0.24408841133117676,
        0.28936389088630676,
        -0.6533249020576477,
        -0.016056032851338387,
        -0.5445362329483032,
        -0.47884687781333923,
        0.4055470824241638,
        0.02446540631353855,
        0.5216872096061707,
        0.8351298570632935,
        0.5965719223022461,
        0.6861962080001831,
        -0.24297302961349487,
        -1.5885279178619385,
        -0.8366110324859619,
        -0.4666185677051544,
        -0.7806510329246521,
        0.08571437746286392,
        -0.36176714301109314,
        -0.7110294699668884,
        -0.00011108628677902743,
        -0.31864285469055176,
        0.21171042323112488,
        -0.15962949395179749,
        0.07257843762636185,
        0.5462329387664795,
        -0.6312835216522217,
        -0.36332014203071594,
        0.8496978282928467,
        0.46716001629829407,
        -0.10610052198171616,
        -0.25021082162857056,
        -0.31390243768692017,
        -0.4248025715351105,
        0.11032972484827042,
        0.37316879630088806,
        0.22749550640583038,
        0.430959552526474,
        -0.31273266673088074,
        -0.27255573868751526,
        0.9499223828315735,
        -0.15863297879695892,
        -0.4510694444179535,
        -0.5965002179145813,
        0.10599513351917267,
        -0.22597742080688477,
        -0.18321934342384338,
        0.004307047929614782,
        -0.22221487760543823,
        0.46303433179855347,
        0.47803938388824463,
        -0.4083746075630188,
        -0.4223370850086212,
        -1.0440729856491089,
        -0.478129118680954,
        1.09513258934021,
        -0.36586257815361023,
        0.3072997033596039,
        -0.2480219453573227,
        0.4297754466533661,
        1.0230964422225952,
        0.4806184470653534,
        -0.5292295217514038,
        -0.19647327065467834,
        -0.383834570646286,
        1.1941484212875366,
        0.3122901916503906,
        -0.5395783185958862,
        0.4191801846027374,
        -0.7764613032341003,
        -0.5765908360481262,
        0.33035627007484436,
        0.256233274936676,
        -0.30062541365623474,
        0.0058656069450080395,
        0.04035012051463127,
        -0.19705553352832794,
        -0.26748213171958923,
        -0.09554507583379745,
        0.48043736815452576,
        0.9004305005073547,
        -0.00046351333730854094,
        0.06817034631967545,
        0.7637104988098145,
        0.17985472083091736,
        0.07890461385250092,
        -0.4697429835796356,
        0.5642080307006836,
        0.17139288783073425,
        0.5328900814056396,
        0.04701688885688782,
        0.2828065752983093,
        0.6254308223724365,
        -0.1190277710556984,
        0.7600926160812378,
        0.7405638694763184,
        -0.8532093167304993,
        0.0010212090564891696,
        0.5938380360603333,
        -0.12413527816534042,
        -1.5008485317230225,
        -0.0041047753766179085,
        -0.1319747418165207,
        -0.006992202252149582,
        0.13913655281066895,
        -0.5675910711288452,
        -0.1629062443971634,
        0.8636049628257751,
        -0.3745587468147278,
        -1.3405259847640991,
        0.9233855605125427,
        0.3429349660873413,
        1.1331746578216553,
        1.3773961067199707,
        0.6694618463516235,
        0.4844866693019867,
        -0.29808756709098816,
        -0.7067804336547852,
        -0.11024775356054306,
        0.648669958114624,
        1.4891566038131714,
        -1.7194708585739136,
        -0.8011161088943481,
        -0.2639041841030121,
        -0.817155122756958,
        -0.12359324097633362,
        0.1867368072271347,
        -0.38275769352912903,
        -0.0012754042400047183,
        -0.13290178775787354,
        0.21746784448623657,
        -0.1386559009552002,
        -1.227575659751892,
        0.8762990832328796,
        -1.8183999061584473,
        -0.682659387588501,
        -0.975679874420166,
        -3.53730845451355,
        -0.5256423950195312,
        -0.17671085894107819,
        0.52562415599823,
        -0.9697199463844299,
        -1.2245758771896362,
        -2.5166804790496826,
        -1.4447442293167114,
        0.757051944732666,
        -0.6980671286582947,
        -0.3018384277820587,
        1.5112907886505127,
        -0.5013275146484375,
        0.006997182033956051,
        -0.100430428981781,
        -0.8706196546554565,
        -0.012975997291505337,
        0.5699220299720764,
        0.012671251781284809,
        -0.08151097595691681,
        0.5054532885551453,
        0.04795870557427406,
        0.11431169509887695,
        -1.0107066631317139,
        -1.0628294944763184,
        -0.11084862798452377,
        0.014633694663643837,
        -0.18896985054016113,
        -1.0153595209121704,
        0.11227104812860489,
        0.5358595848083496,
        -3.146827220916748,
        -0.2590794563293457,
        -0.5660774111747742,
        0.3110969662666321,
        -1.3497310876846313,
        -3.2575268745422363,
        -0.6782633066177368,
        1.3827366828918457,
        -0.2602640986442566,
        -0.8780410289764404,
        -0.8812724351882935,
        -1.0208499431610107,
        0.1436275690793991,
        1.1912286281585693,
        -0.004056441131979227,
        0.0911526307463646,
        0.13609547913074493,
        -0.04688829183578491,
        0.20820653438568115,
        0.16735027730464935,
        -0.23836849629878998,
        -0.5481197237968445,
        0.8247132301330566,
        -0.6861180067062378,
        -0.2203797996044159,
        -0.13655808568000793,
        -0.4714914858341217,
        0.7930027842521667,
        -0.24491745233535767,
        -0.009374422021210194,
        0.028358718380331993,
        0.05189843475818634,
        0.9311536550521851,
        -0.32882794737815857,
        0.5861573815345764,
        1.223998785018921,
        0.4120796322822571,
        -0.7783143520355225,
        0.43506136536598206,
        0.1805073618888855,
        0.13523441553115845,
        0.0012545706704258919,
        0.046019431203603745,
        -0.27715596556663513,
        0.6646983027458191,
        0.575101912021637,
        -0.0268109068274498,
        -0.6525315642356873,
        0.3706989884376526,
        0.9312353730201721,
        -1.116098403930664,
        -0.3236510455608368,
        -0.29489970207214355,
        0.6618502736091614,
        -0.3478890061378479,
        -0.2848753333091736,
        0.47018566727638245,
        0.6787661910057068,
        0.14128358662128448,
        -0.46507003903388977,
        -0.36701980233192444,
        0.4743839502334595,
        0.07215690612792969,
        -0.10714054852724075,
        -0.331979900598526,
        0.07122234255075455,
        0.27681440114974976,
        -0.45143553614616394,
        0.00394493667408824,
        0.03197965398430824,
        -0.16047200560569763,
        0.37104496359825134,
        -0.1912398785352707,
        0.6212362051010132,
        -0.10475026071071625,
        0.4571875035762787,
        0.04616967961192131,
        0.11576303839683533,
        0.1357315480709076,
        -0.25676214694976807,
        -0.7054013609886169,
        0.19088532030582428,
        0.02013205550611019,
        0.2449968159198761,
        -0.010504214093089104,
        0.5895826816558838,
        0.05729096010327339,
        -0.43290868401527405,
        0.46091869473457336,
        -0.7587807774543762,
        1.5377265214920044,
        -1.716344952583313,
        0.10603354871273041,
        0.3256976008415222,
        0.21282121539115906,
        0.0020928916055709124,
        0.2268022745847702,
        -0.010548069141805172,
        0.2450028508901596,
        -0.3521804213523865,
        -0.36906301975250244,
        -0.35157689452171326,
        -0.30981093645095825,
        0.40744245052337646,
        0.585482120513916,
        0.3273080885410309,
        0.07749130576848984,
        -0.5079991817474365,
        0.10469697415828705,
        -0.13952063024044037,
        -0.23363469541072845,
        -0.5085147023200989,
        -0.13996975123882294,
        0.2811683714389801,
        0.0507160909473896,
        -0.7696303129196167,
        -0.3135792911052704,
        -0.07612427324056625,
        0.37493282556533813,
        -0.38325291872024536,
        0.11466905474662781,
        1.035984992980957,
        0.009320118464529514,
        -0.0958905965089798,
        -0.052764397114515305,
        0.2760258913040161,
        0.19101113080978394,
        -0.09992624819278717,
        -0.09488704800605774,
        -0.08741677552461624,
        0.2569933235645294,
        0.6500740647315979,
        -0.055161479860544205,
        -0.10187192261219025,
        0.06068569794297218,
        0.6428886651992798,
        0.28017982840538025,
        0.2100830078125,
        0.2675618827342987,
        0.08552297949790955,
        0.8050165176391602,
        -0.01106516644358635,
        1.3390181064605713,
        -0.11641944944858551,
        0.022580713033676147,
        0.9094458818435669,
        -0.0891810804605484,
        0.17280207574367523,
        -0.061276018619537354,
        0.0018406071467325091,
        0.13305075466632843,
        0.12487928569316864,
        0.5602095127105713,
        -0.18146920204162598,
        -0.1314481496810913,
        0.565974235534668,
        0.017669877037405968,
        0.05641717463731766,
        0.15110178291797638,
        0.030748341232538223,
        -0.8203284740447998,
        -0.9417710304260254,
        1.2475707530975342,
        -0.23186853528022766,
        0.07152353227138519,
        -0.3317553699016571,
        0.0710407942533493,
        1.2749297618865967,
        -0.9656957983970642,
        0.42298343777656555,
        0.474854052066803,
        -0.21831351518630981,
        1.0393823385238647,
        -1.1460365056991577,
        0.006631408352404833,
        0.5840246081352234,
        -8.829696889733896e-05,
        -0.015056291595101357,
        -0.041962578892707825,
        -0.07144725322723389,
        0.6267206072807312,
        0.6275380849838257,
        2.2200846672058105,
        -1.3526268005371094,
        0.056607358157634735,
        1.269357442855835,
        -2.0773587226867676,
        0.3400507867336273,
        1.2503079175949097,
        0.5502033829689026,
        0.31094616651535034,
        0.9980151057243347,
        0.6853781342506409,
        0.5301010608673096,
        0.564250648021698,
        -0.7779296636581421,
        -1.5507352352142334,
        0.1765943020582199,
        0.4434167444705963,
        -0.17023861408233643,
        1.743188738822937,
        -0.0007243873551487923,
        -0.5437827706336975,
        -0.0009316947543993592,
        0.06732618063688278,
        0.007235455326735973,
        -0.20548583567142487,
        0.9273129105567932,
        -0.01524333469569683,
        0.2779253423213959,
        1.2559958696365356,
        -0.4982350766658783,
        -0.045698732137680054,
        -0.12766043841838837,
        0.8566351532936096,
        -0.15810778737068176,
        -0.8660150766372681,
        0.5061342716217041,
        0.826225221157074,
        0.974607527256012,
        0.09770441800355911,
        -1.1563286781311035,
        0.41658106446266174,
        0.6622641682624817,
        0.3402886688709259,
        -1.2182422876358032,
        0.37259232997894287,
        0.39808189868927,
        0.12407089024782181,
        -0.27302369475364685,
        0.003950037993490696,
        0.021198386326432228,
        -0.3789120316505432,
        -0.9487934112548828,
        -0.052072592079639435,
        -0.7368252873420715,
        -0.33727189898490906,
        0.40394046902656555,
        1.750717282295227,
        0.11918233335018158,
        -0.044838011264801025,
        -0.38428017497062683,
        0.22259333729743958,
        -0.7775132060050964,
        0.13942015171051025,
        0.04115680977702141,
        -0.15605096518993378,
        -0.7630490660667419,
        -0.794307291507721,
        -0.07648462057113647,
        -0.2535385191440582,
        0.3872566521167755,
        -0.1393202543258667,
        -0.07250639796257019,
        -0.6309401988983154,
        0.04594241827726364,
        -0.08485216647386551,
        -0.002006570575758815,
        0.026465917006134987,
        -0.4622589349746704,
        -1.7718487977981567,
        0.4630642831325531,
        -0.3429856598377228,
        -0.37741589546203613,
        -0.4535900950431824,
        -0.0002714826841838658,
        0.14124824106693268,
        0.20668721199035645,
        -0.11704769730567932,
        -0.7151598930358887,
        -1.4350889921188354,
        -0.7413576245307922,
        -0.1378057450056076,
        0.5360533595085144,
        -0.052734386175870895,
        -1.5698758363723755,
        -0.31395193934440613,
        -0.4603267312049866,
        -0.654446005821228,
        -0.25010183453559875,
        1.1025563478469849,
        1.0824456214904785,
        0.011797060258686543,
        -0.1762487143278122,
        -0.003058654721826315,
        0.004154671914875507,
        0.021099654957652092,
        0.842781662940979,
        -0.41739845275878906,
        0.32419392466545105,
        -0.04514877870678902,
        -1.0432515144348145,
        -0.4108498692512512,
        0.8933857083320618,
        -0.04372715577483177,
        -0.6674202084541321,
        -0.7200953364372253,
        -0.6444873809814453,
        -0.47665050625801086,
        -0.2852875292301178,
        -0.2804419696331024,
        0.39395245909690857,
        -0.5214676260948181,
        -1.0529884099960327,
        -1.0535544157028198,
        -0.12984488904476166,
        0.35605305433273315,
        0.6117286682128906,
        0.12457908689975739,
        0.004169703461229801,
        -0.7801957130432129,
        0.006133916787803173,
        0.006379460915923119,
        0.09026016294956207,
        0.3181321620941162,
        -0.06795890629291534,
        -0.19823262095451355,
        0.4213559627532959,
        -0.25441622734069824,
        -0.6471844911575317,
        -1.124603033065796,
        -0.2938583195209503,
        0.33383163809776306,
        0.18819080293178558,
        -0.5596142411231995,
        -0.29236462712287903,
        -0.40820586681365967,
        -0.1924574077129364,
        -0.2299947291612625,
        -0.30700433254241943,
        -0.006147090811282396,
        1.8573969602584839,
        -0.44175493717193604,
        -0.93968665599823,
        0.03157486394047737,
        0.47333335876464844,
        0.03398391231894493,
        -0.39024776220321655,
        0.0052761803381145,
        -0.024818265810608864,
        -0.3558262884616852,
        -0.8875633478164673,
        -0.6395263671875,
        -0.42228057980537415,
        0.7592225670814514,
        0.7597787380218506,
        1.210899829864502,
        0.41687190532684326,
        0.6216022372245789,
        0.00842299684882164,
        -1.033177375793457,
        1.331969976425171,
        0.3258100748062134,
        0.0037087793461978436,
        -0.94499272108078,
        -0.7021440863609314,
        1.3023614883422852,
        0.19134914875030518,
        0.689334511756897,
        0.10367236286401749,
        -1.0621474981307983,
        -1.5244280099868774,
        0.4684560000896454,
        -0.13018450140953064,
        0.038786400109529495,
        -0.00682242913171649,
        -0.22404219210147858,
        -0.004957442171871662,
        -0.08369508385658264,
        0.17635472118854523,
        -0.39642491936683655,
        0.12079394608736038,
        -0.3472381830215454,
        -0.6554451584815979,
        -0.5024999976158142,
        0.3939562141895294,
        0.07900156080722809,
        -0.07808134704828262,
        0.13916097581386566,
        -0.2763432562351227,
        -0.46406441926956177,
        -0.0921386107802391,
        -0.5436185598373413,
        0.28847599029541016,
        0.47257012128829956,
        0.9836110472679138,
        0.256519615650177,
        -0.34482675790786743,
        -0.38766002655029297,
        -0.1509307473897934,
        -0.01752016693353653,
        0.40601447224617004,
        -0.0041895098984241486,
        -0.07975900173187256,
        -0.13800464570522308,
        -1.0386594533920288,
        -0.10747873038053513,
        1.480612874031067,
        2.3080530166625977,
        -0.9559702277183533,
        1.2450695037841797,
        -0.5703988671302795,
        -0.630355954170227,
        -0.684437096118927,
        0.17293119430541992,
        0.1813788115978241,
        -0.006483735982328653,
        0.6342541575431824,
        -0.1377476155757904,
        1.21857488155365,
        0.2781418263912201,
        -0.6627503037452698,
        0.48135602474212646,
        0.8135852813720703,
        -0.21139851212501526,
        -0.04911312460899353,
        -0.006599801126867533,
        -0.10237906873226166,
        0.1943611204624176,
        0.002389825414866209,
        0.05246832221746445,
        -0.1208476647734642,
        -0.8481685519218445,
        -1.096463680267334,
        -0.06980746239423752,
        -1.0283602476119995,
        1.6285909414291382,
        0.9555739760398865,
        0.19037896394729614,
        0.7922232747077942,
        -0.12039628624916077,
        0.554633617401123,
        -1.088185429573059,
        0.37166517972946167,
        -0.008468185551464558,
        -1.1928963661193848,
        0.03880786523222923,
        -1.1547174453735352,
        0.7935919165611267,
        0.5439448356628418,
        0.16362498700618744,
        -0.0412018708884716,
        -0.670578122138977,
        -0.035164643079042435,
        0.04476986452937126,
        -0.14475497603416443,
        0.00045670437975786626,
        -0.11444000154733658,
        0.09763744473457336,
        -0.5351123809814453,
        -1.0040184259414673,
        -0.0627046525478363,
        0.12062084674835205,
        -1.1874570846557617,
        -0.3732641339302063,
        -1.0370596647262573,
        -0.4389285445213318,
        0.22219012677669525,
        -0.08101000636816025,
        0.3742918074131012,
        -0.49487295746803284,
        -1.3437278270721436,
        -0.7495415806770325,
        -0.20640666782855988,
        0.10030297935009003,
        -0.14158199727535248,
        -1.6815729141235352,
        -0.345007985830307,
        -0.7571166157722473,
        0.9171826243400574,
        1.5610703229904175,
        0.12877435982227325,
        0.042368084192276,
        -0.008056473918259144,
        -0.20950539410114288,
        -0.17969557642936707,
        0.14843900501728058,
        0.18256710469722748,
        -0.022548504173755646,
        -0.22956368327140808,
        0.9428107738494873,
        0.4586132764816284,
        -0.43693074584007263,
        0.12492119520902634,
        -1.2159829139709473,
        0.43074488639831543,
        1.3275054693222046,
        -0.1064404770731926,
        0.12162899225950241,
        0.13951441645622253,
        -0.25856906175613403,
        1.3361300230026245,
        -0.3655056059360504,
        -0.33376821875572205,
        -1.2107484340667725,
        -2.014103651046753,
        0.8520405888557434,
        0.776475727558136,
        -0.004507635720074177,
        1.0482429265975952,
        0.003952366299927235,
        -0.06663434952497482,
        -0.23327456414699554,
        -0.21598276495933533,
        -0.11114577949047089,
        -0.806517481803894,
        -0.8890073299407959,
        0.8552822470664978,
        -0.4637145698070526,
        0.1700621247291565,
        -0.11279696971178055,
        0.12078278511762619,
        0.6285484433174133,
        -0.07594264298677444,
        -0.6335386037826538,
        -0.3294532299041748,
        -0.052146393805742264,
        -0.8115478754043579,
        0.09893905371427536,
        0.031361762434244156,
        2.1239583492279053,
        -0.06716284900903702,
        0.44731366634368896,
        -0.48234033584594727,
        -0.8838492035865784,
        0.022279391065239906,
        0.5872156620025635,
        -0.009635974653065205,
        -0.08172208815813065,
        -0.43703415989875793,
        1.591665267944336,
        0.7617161273956299,
        0.15852050483226776,
        0.34163233637809753,
        -1.1674838066101074,
        1.0992692708969116,
        1.3940213918685913,
        0.6706936359405518,
        0.17652258276939392,
        -0.4480273425579071,
        0.019122473895549774,
        0.5802908539772034,
        1.112917423248291,
        0.4397653341293335,
        -0.01287282444536686,
        -0.3285435736179352,
        0.17951202392578125,
        -1.4042917490005493,
        -0.690324604511261,
        -1.2907110452651978,
        1.8569610118865967,
        2.122384786605835,
        -0.168786883354187,
        -0.016054576262831688,
        0.009943178854882717,
        -0.05467044934630394,
        0.04528795927762985,
        0.22070418298244476,
        0.11165433377027512,
        -0.6356279253959656,
        -1.4245612621307373,
        0.15337921679019928,
        0.7073026299476624,
        -0.14017978310585022,
        -0.5383009314537048,
        1.2321100234985352,
        0.030191922560334206,
        -0.057585034519433975,
        -0.26387155055999756,
        -0.3371576964855194,
        0.2578926086425781,
        -0.4295370876789093,
        0.15556934475898743,
        0.03534013405442238,
        0.6130863428115845,
        0.7336814999580383,
        0.9153199195861816,
        -0.6103803515434265,
        0.18199531733989716,
        -0.036253903061151505,
        -0.3974011540412903,
        0.002002428751438856,
        0.07836674153804779,
        0.3155931830406189,
        -0.27580901980400085,
        1.5689269304275513,
        -0.3312421143054962,
        -0.7042842507362366,
        1.5395294427871704,
        -1.640993356704712,
        -1.8614040613174438,
        1.2763981819152832,
        0.5621200203895569,
        -1.4400280714035034,
        2.4470200538635254,
        -0.28481245040893555,
        -0.25769686698913574,
        1.5526074171066284,
        -0.28576311469078064,
        2.497529983520508,
        0.2845408618450165,
        -0.09528017044067383,
        0.674592912197113,
        -0.13483820855617523,
        -0.0941549688577652,
        -0.349478542804718,
        0.307070791721344,
        -0.7708050012588501,
        -0.0015792251797392964,
        0.04621768370270729,
        -0.6199439764022827,
        -0.24302785098552704,
        -0.20953641831874847,
        0.4722806215286255,
        3.281079053878784,
        0.857447624206543,
        2.228738307952881,
        0.36656320095062256,
        1.6498932838439941,
        -0.4779808223247528,
        -0.3525209128856659,
        0.24088852107524872,
        0.49477076530456543,
        2.475867509841919,
        -0.13404878973960876,
        0.5367462635040283,
        0.4505315124988556,
        0.9747500419616699,
        -2.4213507175445557,
        -2.013004779815674,
        -1.1542189121246338,
        0.21497072279453278,
        1.5580793619155884,
        -0.02183292992413044,
        1.3707811832427979,
        0.0032472589518874884,
        0.05651375278830528,
        0.0017774609150364995,
        -0.2647072672843933,
        0.22636285424232483,
        0.9655981063842773,
        -0.8664497137069702,
        1.2366397380828857,
        -1.3499104976654053,
        1.484293818473816,
        -0.683366060256958,
        1.036295771598816,
        0.45180994272232056,
        -0.6303417682647705,
        0.3037804663181305,
        0.34895268082618713,
        0.02285138890147209,
        0.8178824186325073,
        -0.6930806636810303,
        0.13208971917629242,
        -0.6654897332191467,
        2.4906675815582275,
        0.7280099391937256,
        -0.5285080671310425,
        -0.7832410931587219,
        0.015336343087255955,
        0.4145689606666565,
        -0.0008700170437805355,
        -0.021709008142352104,
        -0.5287861227989197,
        1.2728569507598877,
        -0.17624154686927795,
        0.38738301396369934,
        -1.1517713069915771,
        0.43029093742370605,
        2.252167224884033,
        1.1090974807739258,
        1.718061923980713,
        0.7963993549346924,
        -0.5268173813819885,
        0.637418270111084,
        0.8563397526741028,
        1.099542498588562,
        -0.39530524611473083,
        0.5004024505615234,
        0.7560636401176453,
        1.291178822517395,
        -3.1476967334747314,
        0.9454882144927979,
        0.2688958942890167,
        1.4155547618865967,
        1.4962319135665894,
        -0.025461293756961823,
        -0.6636538505554199,
        0.002187885344028473,
        0.11086498945951462,
        -0.12269176542758942,
        0.062701515853405,
        -1.0946667194366455,
        0.08860497176647186,
        -0.3790390193462372,
        -0.32724642753601074,
        0.4421110451221466,
        -0.7164916396141052,
        0.32831504940986633,
        -0.3905566334724426,
        0.7053552865982056,
        0.4847549498081207,
        -0.48346731066703796,
        -0.3188919723033905,
        -0.9308801889419556,
        0.1844506859779358,
        0.5577431321144104,
        0.221622034907341,
        -0.5217204689979553,
        0.584132730960846,
        -0.18547219038009644,
        0.02359631098806858,
        0.09071994572877884,
        -0.11274872720241547,
        0.09330759197473526,
        0.013971417210996151,
        0.02400052919983864,
        0.039255183190107346,
        0.5563514232635498,
        0.6317614316940308,
        0.06621763110160828,
        0.3762759566307068,
        -2.074411630630493,
        -1.8309308290481567,
        -0.13887551426887512,
        1.297984004020691,
        -0.14884993433952332,
        0.10761934518814087,
        -0.6044037342071533,
        -0.28758344054222107,
        -0.3927718997001648,
        0.7930052280426025,
        0.12748606503009796,
        -0.5440274477005005,
        1.020913004875183,
        0.6437885761260986,
        -1.3487123250961304,
        -1.0710159540176392,
        -0.844069242477417,
        0.918627142906189,
        0.07596620917320251,
        -0.04534820094704628,
        0.003886307356879115,
        0.044299930334091187
      ],
      "bias": [
        0.5521368384361267,
        -0.2113887518644333,
        0.02851168066263199,
        -0.9572398066520691,
        0.007238413207232952,
        -0.025695951655507088,
        0.024511443451046944,
        0.019556453451514244,
        -0.09806554019451141,
        0.26049041748046875,
        0.09246761351823807,
        -0.05672120675444603,
        0.02513963170349598,
        0.02959999442100525,
        0.07486236840486526,
        0.038870491087436676,
        0.04423322528600693,
        0.10008648037910461,
        -0.10781361162662506,
        0.11505329608917236,
        0.0031462060287594795,
        -0.18394723534584045,
        -0.031858980655670166,
        -0.014210890047252178,
        0.03899473696947098,
        -0.01743919402360916,
        0.05331240966916084,
        0.043252360075712204,
        -0.11347646266222,
        0.48603197932243347,
        0.009535038843750954,
        -0.02246692031621933,
        0.009819412603974342,
        -0.20530273020267487,
        0.03851593658328056,
        -0.10444603115320206,
        -0.1050884872674942,
        -0.05479016900062561,
        -0.07064337283372879,
        0.0027547315694391727,
        -0.008797732181847095,
        0.09210065007209778,
        0.10583166033029556,
        0.05860060453414917,
        0.05930444598197937,
        0.026404444128274918,
        -0.058161135762929916,
        0.01889665052294731,
        0.17713458836078644,
        -0.007998153567314148,
        -0.011007515713572502,
        0.01283720601350069,
        -0.013278082013130188,
        -0.030443012714385986,
        -0.038750581443309784,
        -0.016657523810863495,
        -0.0643637552857399,
        0.027277449145913124,
        0.026762323454022408,
        0.13559992611408234,
        -0.08322564512491226,
        0.050380684435367584,
        0.26161834597587585,
        0.11588311195373535,
        -0.0082774069160223,
        0.1717621237039566,
        0.10609512776136398,
        0.0400305800139904,
        -0.06596139073371887,
        -0.013323767110705376,
        -0.020838074386119843,
        -0.1884060949087143,
        0.12232021987438202,
        -0.02935575507581234,
        -0.02984309382736683,
        -0.06344907730817795,
        -0.013482775539159775,
        -0.027984844520688057,
        0.022404424846172333,
        0.05928293243050575,
        0.02083248272538185,
        0.21973145008087158,
        0.11751105636358261,
        -0.059509795159101486,
        0.12270498275756836,
        0.21503694355487823,
        0.09779532253742218,
        0.060981880873441696,
        0.06514187902212143,
        -0.0634898841381073,
        -0.010049808770418167,
        -0.05330575630068779,
        0.058157000690698624,
        -0.08933259546756744,
        0.025471366941928864,
        -0.037491194903850555
      ],
      "activation": "tanh"
    },
    {
      "inputSize": 96,
      "outputSize": 48,
      "weights": [
        0.04168463870882988,
        -0.11300163716077805,
        -0.22551946341991425,
        -0.39622774720191956,
        0.18879695236682892,
        0.06231524795293808,
        -0.016539007425308228,
        0.05655690282583237,
        0.46602341532707214,
        -0.12747013568878174,
        -0.4648841321468353,
        -0.0937095433473587,
        -0.10930677503347397,
        0.12256397306919098,
        -0.4424055218696594,
        0.4468648433685303,
        -0.034166641533374786,
        -0.2093394249677658,
        0.277204304933548,
        -0.1262952834367752,
        0.2068084180355072,
        0.016799429431557655,
        -0.11547806859016418,
        0.4119579792022705,
        0.11416450887918472,
        -0.2604718804359436,
        -0.4151628911495209,
        -0.28194600343704224,
        0.019582806155085564,
        0.3044133186340332,
        -0.08826718479394913,
        -0.20861496031284332,
        0.41825932264328003,
        -0.21447987854480743,
        -0.17565153539180756,
        -0.2122364193201065,
        0.11783865094184875,
        0.10486353188753128,
        -0.570129930973053,
        0.10721288621425629,
        -0.3085055947303772,
        -0.2761784791946411,
        -0.24005383253097534,
        -0.03765157610177994,
        -0.11031781136989594,
        -0.1631285548210144,
        0.37776103615760803,
        0.036417920142412186,
        -0.26225802302360535,
        0.386919230222702,
        -0.3561263978481293,
        -0.3442986309528351,
        0.014250197447836399,
        0.12185155600309372,
        -0.5624690651893616,
        0.31536468863487244,
        0.09411828219890594,
        -0.25529491901397705,
        0.28684625029563904,
        0.09170576184988022,
        0.5009938478469849,
        -0.03356906399130821,
        -0.2845170497894287,
        0.22299784421920776,
        0.08001723140478134,
        -0.5722887516021729,
        -0.06435230374336243,
        -0.13116295635700226,
        0.016325630247592926,
        0.11038102954626083,
        0.17259904742240906,
        -0.14773871004581451,
        -0.14520086348056793,
        0.037564005702733994,
        -0.564498245716095,
        0.5894926190376282,
        -0.04696346074342728,
        -0.26569923758506775,
        0.24792267382144928,
        0.15188950300216675,
        0.13294199109077454,
        -0.19999933242797852,
        0.1912396401166916,
        -0.3359937071800232,
        -0.02719966322183609,
        0.4681416153907776,
        0.1802649050951004,
        0.016091525554656982,
        0.644921064376831,
        0.11143752932548523,
        0.2170219123363495,
        -0.5740637183189392,
        -0.4188447892665863,
        0.46954962611198425,
        0.11830267310142517,
        -0.02252470701932907,
        0.06679094582796097,
        0.16894850134849548,
        0.03410264477133751,
        0.1031312420964241,
        0.059009455144405365,
        -0.11915703117847443,
        -0.03449872508645058,
        0.52538001537323,
        0.593594491481781,
        -0.5261105895042419,
        0.3463660776615143,
        0.12105322629213333,
        0.0529635064303875,
        -0.7165332436561584,
        -0.5836169123649597,
        -0.265804260969162,
        -0.05322913080453873,
        0.06766293197870255,
        -0.4652024209499359,
        -0.040038663893938065,
        -0.008539551869034767,
        0.04793760925531387,
        0.3185560703277588,
        0.5071811079978943,
        -0.005793563090264797,
        -0.2600431740283966,
        0.002165483310818672,
        -0.08712900429964066,
        -0.031085971742868423,
        0.2633015811443329,
        -0.29949668049812317,
        0.040945447981357574,
        -0.10228250175714493,
        -0.36937111616134644,
        -0.11023496091365814,
        0.4290456175804138,
        0.11099065840244293,
        -0.0838303491473198,
        -0.1258818507194519,
        -0.43852269649505615,
        -0.29554930329322815,
        -0.47827520966529846,
        -0.31360045075416565,
        -0.8674267530441284,
        0.24106799066066742,
        0.13890749216079712,
        -0.815434992313385,
        -0.23585368692874908,
        -0.06364761292934418,
        0.3699600398540497,
        -0.5349702835083008,
        -0.19374604523181915,
        -0.20778784155845642,
        -0.4990285336971283,
        -0.0927034318447113,
        0.665464460849762,
        -0.08890192955732346,
        0.2375195324420929,
        -0.11294534802436829,
        -0.14658914506435394,
        0.6798162460327148,
        0.6676545143127441,
        0.21686512231826782,
        0.3326980173587799,
        -0.005580939818173647,
        0.8107091784477234,
        -0.5646609663963318,
        -0.10822159051895142,
        0.18023152649402618,
        0.3410925269126892,
        0.0405416265130043,
        -0.2940867245197296,
        -0.2857135236263275,
        0.19319956004619598,
        0.05717342719435692,
        0.16735364496707916,
        -0.25208601355552673,
        0.6622750163078308,
        -0.0771682858467102,
        -0.45896223187446594,
        -0.18412476778030396,
        0.3102132976055145,
        -0.3282178044319153,
        0.11389392614364624,
        0.3699795603752136,
        0.15201929211616516,
        -0.024913055822253227,
        0.167299285531044,
        -0.38395974040031433,
        -0.13467732071876526,
        -0.15064062178134918,
        0.10397720336914062,
        0.22164449095726013,
        0.09137134999036789,
        -0.26064950227737427,
        -0.05719074234366417,
        0.268869549036026,
        -0.17882360517978668,
        -0.10507883131504059,
        0.29629582166671753,
        0.14111554622650146,
        -0.06242484971880913,
        0.04830877110362053,
        -0.20344731211662292,
        -0.23960068821907043,
        -0.23659540712833405,
        -0.17405565083026886,
        0.25586628913879395,
        -0.3275893032550812,
        0.41257378458976746,
        -0.6726146936416626,
        -0.2288135290145874,
        -0.05531078577041626,
        0.1249266266822815,
        -0.47939392924308777,
        0.35052353143692017,
        -0.2670022249221802,
        0.3556625545024872,
        0.30153971910476685,
        -0.10638106614351273,
        -0.257870078086853,
        0.3138267695903778,
        -0.18765012919902802,
        0.4609128534793854,
        -0.02564793825149536,
        -0.188673198223114,
        -0.22163918614387512,
        0.20847541093826294,
        0.23967409133911133,
        -0.13409525156021118,
        0.09870018810033798,
        -0.10666900873184204,
        -0.13846197724342346,
        -0.244440957903862,
        -0.16025757789611816,
        -0.4848945140838623,
        0.2735438048839569,
        -0.17135992646217346,
        0.06959269940853119,
        -0.1045735627412796,
        -0.28086650371551514,
        0.11294244974851608,
        0.07106100767850876,
        -0.17869342863559723,
        0.36745527386665344,
        0.20090827345848083,
        -0.36648261547088623,
        -0.120456263422966,
        -0.013909080065786839,
        0.39702796936035156,
        0.28528204560279846,
        0.039137352257966995,
        -0.5585546493530273,
        -0.013614457100629807,
        0.4951542913913727,
        0.3632262349128723,
        0.17318987846374512,
        0.22174759209156036,
        -0.10386281460523605,
        0.2528308928012848,
        -0.2916949987411499,
        -0.031390100717544556,
        0.1121630072593689,
        0.4579058885574341,
        -0.1517627090215683,
        -0.4629829227924347,
        -0.0076927123591303825,
        -0.044362086802721024,
        0.12730957567691803,
        0.21360689401626587,
        0.0599464476108551,
        0.22727133333683014,
        0.08905337005853653,
        -0.07117041200399399,
        -0.06854800134897232,
        0.12495926767587662,
        -0.1530941277742386,
        -0.12294912338256836,
        -0.19750791788101196,
        -0.7331218123435974,
        0.04944313317537308,
        -0.16103628277778625,
        -0.24111424386501312,
        0.5674686431884766,
        -0.17255853116512299,
        0.19400453567504883,
        -0.3877033591270447,
        0.20074264705181122,
        0.40507081151008606,
        0.3120928704738617,
        -0.14101840555667877,
        -0.17630238831043243,
        0.15431329607963562,
        0.25540444254875183,
        0.2179228514432907,
        0.017692754045128822,
        -0.10976488888263702,
        0.35206088423728943,
        -0.17289501428604126,
        0.06727858632802963,
        0.21392177045345306,
        -0.23676344752311707,
        -0.1830688714981079,
        -0.039586953818798065,
        -0.8713446855545044,
        0.29196053743362427,
        -0.3541542589664459,
        0.4412401616573334,
        0.11063899099826813,
        -0.3361758589744568,
        0.14614874124526978,
        -0.22428935766220093,
        -0.3846738338470459,
        0.286518931388855,
        0.04363815113902092,
        0.5234220027923584,
        0.02270698733627796,
        -0.23027919232845306,
        0.07673001289367676,
        -0.19416357576847076,
        -0.015551346354186535,
        0.42450833320617676,
        0.2299339473247528,
        0.39541855454444885,
        0.09183071553707123,
        -0.14335404336452484,
        -0.31054624915122986,
        -0.24722762405872345,
        0.1054329052567482,
        0.04870083928108215,
        0.18091431260108948,
        -0.21549008786678314,
        0.3265801668167114,
        -0.06928297877311707,
        -0.2983384132385254,
        -0.5401685237884521,
        -0.18681015074253082,
        0.17924252152442932,
        -0.13844040036201477,
        -0.32847490906715393,
        -0.0745043009519577,
        0.1921365112066269,
        0.09965463727712631,
        -0.13024643063545227,
        0.26564866304397583,
        -0.0033832029439508915,
        -0.2240016907453537,
        -0.13247501850128174,
        -0.0803074836730957,
        0.00929483212530613,
        0.3580474853515625,
        -0.2521962523460388,
        0.05333716422319412,
        -0.04581388458609581,
        0.010467241518199444,
        0.31281599402427673,
        -0.11281565576791763,
        -0.08278119564056396,
        -0.6517354249954224,
        0.2514655292034149,
        0.09996579587459564,
        0.2764168977737427,
        -0.12606966495513916,
        -0.024219907820224762,
        -0.26126596331596375,
        0.32921960949897766,
        0.24561633169651031,
        -0.05489734932780266,
        0.07402291148900986,
        0.24718502163887024,
        -0.29171323776245117,
        -0.2077324390411377,
        0.01006810087710619,
        -0.09317531436681747,
        0.038813456892967224,
        0.3233813941478729,
        -0.2519949972629547,
        -0.5682462453842163,
        -0.36489591002464294,
        -0.12305813282728195,
        -0.2884995639324188,
        0.3844066262245178,
        0.18282543122768402,
        0.13610126078128815,
        -0.2326386421918869,
        -0.0930185541510582,
        -0.024296153336763382,
        -0.2535378634929657,
        0.02546980232000351,
        -0.040359947830438614,
        0.11620184779167175,
        -0.06177464500069618,
        0.03495429828763008,
        -0.043005239218473434,
        0.07350035011768341,
        0.011914542876183987,
        -0.05772038921713829,
        -0.17896519601345062,
        0.033334698528051376,
        0.06414740532636642,
        -0.1323329508304596,
        0.176621675491333,
        -0.06323868036270142,
        -0.008909203112125397,
        0.0018257962074130774,
        0.00246384902857244,
        0.0033003336284309626,
        0.2035471647977829,
        0.1301620900630951,
        -0.06411778181791306,
        0.05534316971898079,
        0.02357165701687336,
        0.012368004769086838,
        0.1481521725654602,
        -0.0262827780097723,
        -0.019315145909786224,
        0.04876454919576645,
        -0.0866268128156662,
        0.11752764135599136,
        -0.06390264630317688,
        -0.06580726057291031,
        0.1014920324087143,
        0.12540872395038605,
        -0.12160277366638184,
        0.007649294100701809,
        -0.0011232158867642283,
        0.004442720208317041,
        -0.07778466492891312,
        0.06050051748752594,
        -0.0432991124689579,
        0.01676820032298565,
        0.05247144028544426,
        0.0653272345662117,
        0.016142738983035088,
        -0.0905274897813797,
        0.018791159614920616,
        -0.04048725962638855,
        -0.004716025665402412,
        0.025064105167984962,
        0.031833089888095856,
        0.1777031570672989,
        -0.02308502607047558,
        -0.08165260404348373,
        0.06035950034856796,
        0.05554528161883354,
        -0.05316271260380745,
        -0.1432540863752365,
        0.009249264374375343,
        0.1975286453962326,
        -0.012213300913572311,
        -0.1373785138130188,
        0.0582701712846756,
        0.11727781593799591,
        0.027654994279146194,
        -0.03150863200426102,
        0.034939657896757126,
        -0.017545191571116447,
        0.077901691198349,
        -0.09090641140937805,
        -0.023710882291197777,
        0.06310337781906128,
        -0.06208657845854759,
        -0.11064092069864273,
        0.008028160780668259,
        0.04286930710077286,
        -0.024570485576987267,
        0.06235893443226814,
        0.013179212808609009,
        0.014245607890188694,
        -0.04447958245873451,
        -0.06082770600914955,
        -0.13568837940692902,
        -0.02407262474298477,
        0.0003163395740557462,
        0.12292665988206863,
        -0.0413973331451416,
        -0.07803551107645035,
        -0.041804470121860504,
        0.014777429401874542,
        0.048701975494623184,
        -0.06501371413469315,
        -0.08479057252407074,
        0.11018290370702744,
        -0.0815858319401741,
        -0.06439033150672913,
        -0.28654712438583374,
        0.3941868841648102,
        0.1444823145866394,
        -0.31139737367630005,
        -0.08912026882171631,
        0.2367047220468521,
        -0.4924953579902649,
        0.08555037528276443,
        0.33193305134773254,
        -0.34398189187049866,
        -0.36778122186660767,
        -0.34005430340766907,
        0.2833937406539917,
        -0.07028652727603912,
        0.30296918749809265,
        -0.36215418577194214,
        0.21384035050868988,
        -0.24385809898376465,
        -0.12224610149860382,
        -0.23282137513160706,
        -0.5167475342750549,
        0.14519065618515015,
        -0.36114078760147095,
        0.21784375607967377,
        -0.19906428456306458,
        0.2518910765647888,
        -0.06066074222326279,
        -0.28970780968666077,
        -0.25218063592910767,
        -0.23359514772891998,
        0.6177117824554443,
        0.03847452253103256,
        -0.36286765336990356,
        -0.3143381178379059,
        0.08298005908727646,
        0.4387180805206299,
        0.2705915570259094,
        0.38878145813941956,
        -0.3190351724624634,
        0.5914210081100464,
        -0.40811342000961304,
        0.03784947469830513,
        0.024766748771071434,
        -0.3000340163707733,
        0.12462063133716583,
        -0.06328853219747543,
        0.025862503796815872,
        0.2917402386665344,
        -0.5211525559425354,
        0.39696362614631653,
        -0.3122158348560333,
        -0.21380558609962463,
        0.2226402908563614,
        -0.49012914299964905,
        -0.20434433221817017,
        0.22572916746139526,
        -0.08971484750509262,
        0.5459649562835693,
        -0.24804125726222992,
        0.26485389471054077,
        -0.1657201200723648,
        -0.3115481734275818,
        0.24970173835754395,
        -0.1663437783718109,
        0.36166369915008545,
        -0.5182411670684814,
        0.38983476161956787,
        0.15392504632472992,
        -0.11657233536243439,
        0.048034265637397766,
        0.14991462230682373,
        -0.15149706602096558,
        0.3343678116798401,
        0.29563525319099426,
        -0.1772170513868332,
        -0.01956862211227417,
        0.010497734881937504,
        -0.1571635901927948,
        0.01510993205010891,
        -0.15453723073005676,
        0.14064469933509827,
        0.007689311169087887,
        -0.01003305334597826,
        -0.0010529437568038702,
        -0.19597183167934418,
        -0.16960252821445465,
        0.11487262696027756,
        -0.18214881420135498,
        -0.08111260086297989,
        -0.09593751281499863,
        -0.5276517271995544,
        0.5400951504707336,
        0.004459916148334742,
        0.17140233516693115,
        -0.008695146068930626,
        0.1270723193883896,
        -0.19806601107120514,
        -0.13841500878334045,
        0.39184537529945374,
        -0.023948807269334793,
        -0.28528767824172974,
        0.11234021931886673,
        0.3281169831752777,
        0.04386656731367111,
        0.3867490291595459,
        -0.7433701753616333,
        -0.06274901330471039,
        0.5713557004928589,
        -0.12165513634681702,
        -0.19056056439876556,
        0.5206809639930725,
        0.22757716476917267,
        -0.2995094656944275,
        0.2546757757663727,
        0.005999190732836723,
        0.09216244518756866,
        0.016923794522881508,
        0.38430115580558777,
        0.14028877019882202,
        0.09777513891458511,
        -0.31033971905708313,
        0.5377019047737122,
        0.27537861466407776,
        -0.4906092882156372,
        -0.42488551139831543,
        -0.07371873408555984,
        0.5350918173789978,
        0.6200420260429382,
        -0.21749067306518555,
        -0.2622230052947998,
        0.3865375816822052,
        0.18084155023097992,
        -0.0011261659674346447,
        0.0071385083720088005,
        -0.11427955329418182,
        0.0262997318059206,
        0.39075857400894165,
        -0.13930703699588776,
        -0.40041428804397583,
        -0.031685080379247665,
        -0.401397705078125,
        0.020351795479655266,
        0.1551072597503662,
        0.1609715074300766,
        -0.1957218050956726,
        -0.29463011026382446,
        0.27110961079597473,
        -0.03315466269850731,
        0.30700668692588806,
        0.27911823987960815,
        0.09731104969978333,
        0.1588423103094101,
        -0.34107208251953125,
        0.22877496480941772,
        -0.08498765528202057,
        -0.46226802468299866,
        0.46778059005737305,
        -0.125154048204422,
        0.21183669567108154,
        0.10078061372041702,
        0.14797671139240265,
        0.43201133608818054,
        0.45195817947387695,
        0.44232773780822754,
        0.08107585459947586,
        -0.3733782172203064,
        -0.10420054197311401,
        -0.08476319909095764,
        -0.19970403611660004,
        -0.3122706711292267,
        -0.09595859050750732,
        0.31978318095207214,
        0.2101246565580368,
        0.47816237807273865,
        -0.33053937554359436,
        -0.30331841111183167,
        0.6860980987548828,
        0.21004743874073029,
        0.16908840835094452,
        0.13062147796154022,
        0.06631501764059067,
        -0.021317364647984505,
        0.23623602092266083,
        -0.2938798666000366,
        0.7495109438896179,
        -0.17677126824855804,
        0.6240547895431519,
        0.04212401807308197,
        -0.03946804627776146,
        -0.2152346670627594,
        0.4170337915420532,
        0.12746469676494598,
        -0.057999785989522934,
        -0.37671226263046265,
        -0.4697359800338745,
        0.34796449542045593,
        -0.12854860723018646,
        -0.22288596630096436,
        -0.14045637845993042,
        0.3022761046886444,
        0.11819718778133392,
        -0.11463286727666855,
        0.24030423164367676,
        0.0459609255194664,
        -0.12516459822654724,
        -0.03685547411441803,
        -0.5034068822860718,
        0.18721811473369598,
        0.1037110760807991,
        0.2446521818637848,
        -0.05828585848212242,
        0.3173801004886627,
        -0.17813575267791748,
        0.19311195611953735,
        0.0475294254720211,
        0.2487855851650238,
        0.2083602249622345,
        -0.4496105909347534,
        -0.4120504856109619,
        -0.03345518559217453,
        -0.37758904695510864,
        0.030061058700084686,
        -0.6080874800682068,
        -0.021075056865811348,
        0.17936977744102478,
        0.37875279784202576,
        0.5665748119354248,
        0.48611027002334595,
        0.016740458086133003,
        0.3387960195541382,
        -0.005522259511053562,
        -0.4671695828437805,
        0.06054849177598953,
        -0.05978440120816231,
        0.23634417355060577,
        -0.019044240936636925,
        0.52586430311203,
        -0.012508520856499672,
        0.3028503358364105,
        -0.2984009087085724,
        0.4157399833202362,
