{
  "version": 2,
  "kind": "mlp",
  "featureNames": [
    "rank_balance_0",
    "rank_balance_1",
    "rank_balance_2",
    "rank_balance_3",
    "rank_balance_4",
    "rank_balance_5",
    "rank_balance_6",
    "rank_balance_7",
    "rank_balance_8",
    "rank_balance_9",
    "rank_balance_10",
    "rank_balance_11",
    "material_value_diff",
    "movable_piece_diff",
    "scout_diff",
    "miner_diff",
    "bomb_diff",
    "high_rank_diff",
    "revealed_ratio_diff",
    "hidden_high_rank_diff",
    "advancement_diff",
    "frontline_diff",
    "center_control_diff",
    "flag_guard_diff",
    "flag_pressure_diff",
    "turn_advantage",
    "game_phase"
  ],
  "layers": [
    {
      "inputSize": 27,
      "outputSize": 96,
      "weights": [
        0.24713973701000214,
        -0.010101478546857834,
        0.931110680103302,
        0.3337593376636505,
        -0.3836685121059418,
        -0.5844733119010925,
        0.06785822659730911,
        1.2300403118133545,
        0.17299088835716248,
        -0.27787527441978455,
        0.7560815215110779,
        -0.05483182519674301,
        0.3358621895313263,
        0.7342082262039185,
        1.191850185394287,
        0.09328809380531311,
        -0.19759519398212433,
        0.6129789352416992,
        1.05723237991333,
        -0.18268637359142303,
        1.161946177482605,
        -1.7977519035339355,
        0.46746212244033813,
        -0.013806832954287529,
        0.013092787936329842,
        0.0018610444385558367,
        -0.7705780267715454,
        -0.2232101708650589,
        -0.09829685091972351,
        0.039116062223911285,
        -0.6611583828926086,
        1.1137511730194092,
        1.133641242980957,
        -0.08532536774873734,
        -0.5582827925682068,
        -1.0120728015899658,
        0.20309710502624512,
        0.048255253583192825,
        -0.467975378036499,
        0.010866516269743443,
        0.17391133308410645,
        0.20726579427719116,
        -0.6105219721794128,
        -0.3126530349254608,
        -0.6517566442489624,
        -0.5228680968284607,
        -0.6892770528793335,
        0.4744229316711426,
        0.15174756944179535,
        0.8394941091537476,
        0.18509356677532196,
        0.9051550030708313,
        0.0038973079062998295,
        0.3182172477245331,
        -0.20604223012924194,
        -0.5473614931106567,
        -0.4138229489326477,
        -0.5578330159187317,
        0.167056605219841,
        0.6982254385948181,
        -0.1333807408809662,
        1.3905231952667236,
        1.7803977727890015,
        -0.6467465162277222,
        -0.3716147541999817,
        -1.5012315511703491,
        0.41884931921958923,
        0.4197845458984375,
        -0.18569691479206085,
        -0.22449959814548492,
        -1.619881272315979,
        0.9328985810279846,
        -0.11870688199996948,
        0.47373631596565247,
        0.5305764079093933,
        0.7646611332893372,
        0.011079076677560806,
        0.1510625034570694,
        0.5860172510147095,
        -0.0017808607080951333,
        0.010492255911231041,
        -0.1321161985397339,
        -0.4390009641647339,
        -0.6084522604942322,
        0.09781033545732498,
        0.09298713505268097,
        0.5208936929702759,
        1.4690309762954712,
        1.2438970804214478,
        0.4697660505771637,
        -0.33307144045829773,
        -1.4143489599227905,
        -0.46705207228660583,
        0.3607518970966339,
        0.48214250802993774,
        -0.7426685690879822,
        0.20100350677967072,
        -0.6010770797729492,
        -0.2962166368961334,
        -0.3316034972667694,
        0.865410327911377,
        -2.3134653568267822,
        0.20325498282909393,
        -1.4058468341827393,
        -0.18781426548957825,
        -1.0563194751739502,
        -0.009710591286420822,
        0.9915035963058472,
        -0.13348080217838287,
        2.0912840366363525,
        0.3044828176498413,
        -0.9737823009490967,
        -1.2599067687988281,
        0.2343081682920456,
        0.7915922999382019,
        1.5749491453170776,
        -1.9127432107925415,
        0.26249513030052185,
        -0.22869139909744263,
        -2.8121304512023926,
        -0.15678182244300842,
        -0.0945858359336853,
        0.21330100297927856,
        -0.7787519693374634,
        -2.7835474014282227,
        -1.5126906633377075,
        -0.21473032236099243,
        -1.1591521501541138,
        0.5180811285972595,
        -2.4402523040771484,
        -1.637876272201538,
        0.09821995347738266,
        -0.5897195339202881,
        -0.011829583905637264,
        -0.04227067902684212,
        -0.06741752475500107,
        0.17326225340366364,
        1.6178858280181885,
        -1.000105619430542,
        1.396936297416687,
        -0.07473124563694,
        -0.583962082862854,
        -0.7887856364250183,
        0.04925429821014404,
        0.594041109085083,
        -1.2208945751190186,
        -0.625892698764801,
        -0.14255592226982117,
        0.5059996843338013,
        1.4564919471740723,
        -1.1395601034164429,
        -0.90949547290802,
        0.10384475439786911,
        -0.15942709147930145,
        1.4021539688110352,
        1.5375868082046509,
        0.4527416229248047,
        -0.275721937417984,
        -0.013946929946541786,
        -1.6210500001907349,
        -0.0036555728875100613,
        0.006254320964217186,
        0.13570182025432587,
        -0.22301816940307617,
        -0.6102371215820312,
        -0.14591045677661896,
        -0.9400258660316467,
        -2.0046298503875732,
        -0.08977647125720978,
        -0.8784791827201843,
        0.9961356520652771,
        -0.23611381649971008,
        -0.287695974111557,
        -0.43652984499931335,
        -0.6370815634727478,
        -1.3402047157287598,
        -0.6824214458465576,
        -0.0038486516568809748,
        -0.5358150005340576,
        0.5836076140403748,
        1.3481918573379517,
        1.535895586013794,
        0.12648479640483856,
        1.4916335344314575,
        -0.22970885038375854,
        -0.02936834841966629,
        0.9247108101844788,
        0.007686036638915539,
        0.002163453958928585,
        0.045656345784664154,
        -0.7983861565589905,
        1.1076266765594482,
        -1.321596384048462,
        0.4491643011569977,
        0.2145034521818161,
        0.7575233578681946,
        0.9585928916931152,
        -0.8692055940628052,
        -0.1290605515241623,
        -0.2657746374607086,
        -0.8151389360427856,
        0.03445417433977127,
        0.2268901765346527,
        0.9990831613540649,
        -1.2255176305770874,
        -0.7026336193084717,
        -0.937049388885498,
        0.2998345196247101,
        0.440608412027359,
        -0.0015757579822093248,
        -1.2508394718170166,
        -1.2838127613067627,
        0.1143309623003006,
        -0.399761438369751,
        7.030443521216512e-05,
        0.0426190048456192,
        0.03297720476984978,
        -0.09165400266647339,
        0.3280811607837677,
        0.9803023338317871,
        -0.4150114059448242,
        0.12416020035743713,
        0.3845730125904083,
        0.07795004546642303,
        -0.588844358921051,
        -0.8595627546310425,
        0.2819174528121948,
        -0.29373475909233093,
        0.33334633708000183,
        0.36262357234954834,
        0.3586677610874176,
        1.2222408056259155,
        -0.12885433435440063,
        -0.7564882636070251,
        -0.10954628884792328,
        0.3581591546535492,
        0.932224452495575,
        0.6537484526634216,
        0.19440586864948273,
        -0.4549039900302887,
        -0.10552962869405746,
        0.004239754751324654,
        0.024382129311561584,
        0.0917937159538269,
        0.0870889201760292,
        -0.6448218822479248,
        -0.08059101551771164,
        -0.6148461699485779,
        0.02750357985496521,
        -0.03688494861125946,
        -0.0395880863070488,
        0.5969069004058838,
        0.14137059450149536,
        -0.32500559091567993,
        -0.0879807397723198,
        -0.017324352636933327,
        -0.3628491759300232,
        -0.5471973419189453,
        0.1648632287979126,
        -0.02303890697658062,
        0.3043341338634491,
        0.3810945153236389,
        0.1249319538474083,
        -0.703879177570343,
        -0.4725709557533264,
        0.11363976448774338,
        0.0006757042137905955,
        0.4342440068721771,
        0.00037859205622226,
        -0.2950228154659271,
        -0.35351982712745667,
        -0.5040597915649414,
        -1.0716384649276733,
        -0.15780572593212128,
        3.29249906539917,
        0.8805718421936035,
        0.24667872488498688,
        0.3382025361061096,
        -0.6862065196037292,
        -0.6221937537193298,
        1.4242229461669922,
        0.9582319855690002,
        0.21450649201869965,
        0.3705616295337677,
        -1.168124794960022,
        -0.2185324877500534,
        1.072221279144287,
        -0.22319762408733368,
        -3.515591621398926,
        -1.8530434370040894,
        -1.222676396369934,
        -2.1599020957946777,
        0.716482400894165,
        0.23722536861896515,
        -0.7742664217948914,
        -0.011184558272361755,
        -0.10766714811325073,
        0.06039298325777054,
        0.40402930974960327,
        0.23534521460533142,
        -0.38383349776268005,
        -0.11333721876144409,
        -0.9392717480659485,
        0.8819524645805359,
        -0.12882305681705475,
        0.44459134340286255,
        0.6070475578308105,
        -0.5883581042289734,
        0.031511444598436356,
        0.23311273753643036,
        -0.08366810530424118,
        0.037450410425662994,
        -0.2877526581287384,
        0.23668600618839264,
        0.45370593667030334,
        -0.47354650497436523,
        -0.38989052176475525,
        -0.38782957196235657,
        -0.2909105122089386,
        -0.30232641100883484,
        -0.06931934505701065,
        0.21243202686309814,
        -0.0003517868462949991,
        0.030080921947956085,
        -0.03418376296758652,
        -0.53522127866745,
        0.3012080192565918,
        -1.3794116973876953,
        -0.7891697287559509,
        0.5970688462257385,
        0.9413995146751404,
        -0.4525727927684784,
        -0.0899350494146347,
        0.29111820459365845,
        0.18277765810489655,
        -0.5130471587181091,
        -0.22547169029712677,
        -0.15079297125339508,
        0.5448275804519653,
        -1.3267557621002197,
        -0.7748231291770935,
        0.12166371941566467,
        -0.4111960530281067,
        -1.6482481956481934,
        -0.7419912815093994,
        1.3319483995437622,
        2.0204548835754395,
        0.01015938725322485,
        -0.3638187348842621,
        -0.0043930793181061745,
        0.02186560444533825,
        0.12220123410224915,
        0.6734278202056885,
        -0.05331749469041824,
        -0.33382710814476013,
        0.396230012178421,
        2.645874261856079,
        -0.49743494391441345,
        0.324703574180603,
        -0.8931770920753479,
        0.29435235261917114,
        0.0894274190068245,
        0.7842417359352112,
        0.30637869238853455,
        0.801730215549469,
        0.20650629699230194,
        -0.5338433980941772,
        0.5052851438522339,
        -0.3049394190311432,
        -0.3880135715007782,
        -0.10130837559700012,
        -0.37152335047721863,
        1.867491364479065,
        -0.6136556267738342,
        0.21140991151332855,
        0.6093235611915588,
        0.004153183661401272,
        0.00572064658626914,
        -0.23938769102096558,
        0.7570915818214417,
        0.19604411721229553,
        1.527979850769043,
        3.9722208976745605,
        1.580303430557251,
        -0.9524971842765808,
        -0.7952865958213806,
        -0.5256617069244385,
        0.0047495486214756966,
        1.6104907989501953,
        -1.2464731931686401,
        0.9853807091712952,
        2.5372636318206787,
        0.42132601141929626,
        1.683285117149353,
        -1.4568392038345337,
        0.2964363992214203,
        2.6914708614349365,
        -1.5215808153152466,
        0.07694275677204132,
        -1.032639980316162,
        0.5215674638748169,
        0.20694828033447266,
        0.9045310020446777,
        -0.0010682452702894807,
        0.014436275698244572,
        -0.20006150007247925,
        -0.41055282950401306,
        0.1200246661901474,
        -0.2633790969848633,
        1.1304682493209839,
        2.1998019218444824,
        -0.6995449066162109,
        -0.4740472137928009,
        0.3453841209411621,
        -0.03374489024281502,
        -0.6626351475715637,
        0.1531352549791336,
        0.21615424752235413,
        0.4870402216911316,
        -0.029470255598425865,
        -0.3120838403701782,
        0.1041262224316597,
        -0.17934569716453552,
        -0.26057156920433044,
        1.4698495864868164,
        0.656728982925415,
        1.0803278684616089,
        -0.2420012205839157,
        -0.014501688070595264,
        -0.043980661779642105,
        -0.004638399928808212,
        -0.021638434380292892,
        -0.20276249945163727,
        1.0805842876434326,
        -0.3765055537223816,
        0.6089792847633362,
        -0.6009683012962341,
        2.107747793197632,
        -0.7475513815879822,
        -0.10775366425514221,
        -0.19236135482788086,
        -0.13377714157104492,
        1.0582363605499268,
        -2.5691933631896973,
        0.15362685918807983,
        0.6333054900169373,
        -0.39669519662857056,
        0.8040351271629333,
        -2.515429973602295,
        0.09706876426935196,
        -2.0866382122039795,
        1.819715142250061,
        -0.3475494384765625,
        0.9566264748573303,
        0.5739963054656982,
        0.07165371626615524,
        0.07581625878810883,
        0.0004508144920691848,
        -0.0031309425830841064,
        -0.17390422523021698,
        0.07447317242622375,
        -0.5621621012687683,
        1.416242241859436,
        -0.22350582480430603,
        0.5464901328086853,
        0.8550856709480286,
        0.16113312542438507,
        -0.2766861915588379,
        0.1345554143190384,
        0.6545141935348511,
        0.36546096205711365,
        0.4152112603187561,
        0.5577946305274963,
        -0.49830862879753113,
        1.5199168920516968,
        0.38977715373039246,
        -0.16052913665771484,
        -0.3305082619190216,
        -1.4082238674163818,
        0.37931033968925476,
        0.17073954641819,
        0.7292612791061401,
        -0.061694417148828506,
        -0.18285414576530457,
        0.002050678711384535,
        -0.06554678082466125,
        -0.0393882617354393,
        -0.054366789758205414,
        0.028412867337465286,
        0.31394755840301514,
        -1.033623456954956,
        -0.6906574368476868,
        -1.2294459342956543,
        0.28048384189605713,
        0.0052521200850605965,
        0.4898923337459564,
        0.3077199161052704,
        -0.32287147641181946,
        -0.15038129687309265,
        -0.40144965052604675,
        0.033854417502880096,
        0.6081759929656982,
        -0.434093713760376,
        0.2959849536418915,
        0.25929105281829834,
        -0.8097588419914246,
        -1.0231564044952393,
        0.07662628591060638,
        0.11877933144569397,
        -0.05535708740353584,
        -1.5221933126449585,
        -0.004000685643404722,
        0.08504468202590942,
        -0.17744973301887512,
        -0.06570255756378174,
        0.3920626938343048,
        -0.8552142977714539,
        0.19515292346477509,
        0.06927353888750076,
        0.6283798813819885,
        0.27359044551849365,
        0.15829263627529144,
        0.3109629452228546,
        -0.5449983477592468,
        0.3523837625980377,
        0.15441851317882538,
        0.13939955830574036,
        0.3659224212169647,
        -0.734981894493103,
        0.5717950463294983,
        0.331277459859848,
        0.6643624901771545,
        -0.7467129826545715,
        -0.1721188724040985,
        0.6474879384040833,
        0.6159044504165649,
        0.175148144364357,
        1.4706004858016968,
        0.007783078122884035,
        -0.15547269582748413,
        0.0934712141752243,
        1.645298719406128,
        -0.39167216420173645,
        -1.1127818822860718,
        -1.0091452598571777,
        -0.006547493394464254,
        -1.0148110389709473,
        2.7506914138793945,
        0.6498902440071106,
        -0.794211745262146,
        -1.3716329336166382,
        0.005374337080866098,
        -0.23371417820453644,
        -0.1797293871641159,
        -0.22966089844703674,
        -1.0062347650527954,
        0.05336017534136772,
        -0.8797236084938049,
        0.1802363097667694,
        1.62100088596344,
        -2.195983648300171,
        -0.6391252279281616,
        0.15321466326713562,
        -0.15788039565086365,
        -0.08019638806581497,
        -0.00721374386921525,
        -0.04581726714968681,
        -0.29108455777168274,
        0.7129513621330261,
        -0.8731144666671753,
        0.3516022562980652,
        0.8777816295623779,
        1.78937566280365,
        0.6468342542648315,
        -0.8335193991661072,
        0.7549653649330139,
        1.3538792133331299,
        0.5433534979820251,
        -0.7393832802772522,
        0.565533459186554,
        1.012589454650879,
        -0.9940288662910461,
        0.48159605264663696,
        -0.8185996413230896,
        1.5306955575942993,
        -0.3848513066768646,
        0.5298669338226318,
        1.4842711687088013,
        -1.520619511604309,
        1.74447762966156,
        -0.19248585402965546,
        -1.2487733364105225,
        0.00023462771787308156,
        0.09163063019514084,
        0.0009463186142966151,
        -0.4179735779762268,
        0.10571451485157013,
        0.0284565482288599,
        -1.2274450063705444,
        -0.3453662693500519,
        0.09521003812551498,
        -0.18550826609134674,
        0.670674741268158,
        0.19652105867862701,
        -0.12946733832359314,
        0.29424694180488586,
        -0.22665469348430634,
        -0.5308381915092468,
        -0.10207317769527435,
        -0.11380079388618469,
        0.28021547198295593,
        0.624277651309967,
        1.8506518602371216,
        0.2293442338705063,
        2.1977286338806152,
        -0.07938700914382935,
        0.3687417805194855,
        0.08569443225860596,
        -0.07753762602806091,
        0.006675343029201031,
        0.016953205689787865,
        0.09900123625993729,
        -0.2171763777732849,
        -0.3549259305000305,
        0.1912991851568222,
        -0.11277098953723907,
        -0.18061146140098572,
        1.188347578048706,
        0.06964088976383209,
        -1.1812970638275146,
        -0.016759606078267097,
        -0.19868594408035278,
        0.1587516963481903,
        0.015033300966024399,
        -0.18499460816383362,
        -0.08788176625967026,
        0.5125810503959656,
        0.14745473861694336,
        -1.106662392616272,
        2.213721990585327,
        0.6926966309547424,
        -1.3499584197998047,
        0.8836925029754639,
        -0.5203920602798462,
        -0.1228601261973381,
        0.00544246518984437,
        0.0022623015101999044,
        -0.02892453223466873,
        0.006630042567849159,
        -1.486099123954773,
        -0.19556362926959991,
        0.2573166787624359,
        0.3257482349872589,
        -1.2326573133468628,
        -1.5016546249389648,
        1.634461760520935,
        0.15100626647472382,
        -1.173008918762207,
        0.19878247380256653,
        0.12451304495334625,
        0.18217043578624725,
        -0.3173848092556,
        -0.0662403479218483,
        0.1893530786037445,
        0.20824913680553436,
        -0.3942095637321472,
        -0.06359777599573135,
        0.6048514246940613,
        -1.274673581123352,
        1.3415814638137817,
        -1.329139232635498,
        0.2582907974720001,
        1.222925066947937,
        -0.0021694463212043047,
        -0.05699813738465309,
        0.42404264211654663,
        -0.450545072555542,
        -0.644851803779602,
        1.644273042678833,
        -0.6458792686462402,
        0.3186868131160736,
        -1.022437334060669,
        0.11466757953166962,
        -0.1218593418598175,
        -0.6067680716514587,
        -0.12278663367033005,
        0.2958345115184784,
        -0.1647866815328598,
        -0.45691943168640137,
        -0.76975417137146,
        1.7424523830413818,
        0.26100578904151917,
        -0.1958947330713272,
        0.21295663714408875,
        -0.7211931943893433,
        -0.2566291093826294,
        1.541551947593689,
        -0.6551007628440857,
        -0.09438008815050125,
        0.4273265600204468,
        0.0007213735370896757,
        0.05619273707270622,
        0.07174587994813919,
        -0.18017610907554626,
        1.6914950609207153,
        -1.5971709489822388,
        -0.8802021145820618,
        0.8506401777267456,
        -0.2768925130367279,
        -0.1487080305814743,
        1.0219327211380005,
        -0.6143940091133118,
        0.03146788477897644,
        -0.1558113396167755,
        0.05927898362278938,
        0.32790032029151917,
        1.442631721496582,
        -1.6024166345596313,
        -0.2848936915397644,
        0.12965364754199982,
        -2.628021717071533,
        -2.153958797454834,
        0.07155679911375046,
        1.0712153911590576,
        1.2957450151443481,
        -0.010347728617489338,
        0.1539006531238556,
        0.005840260069817305,
        -0.030624637380242348,
        -0.08617959916591644,
        0.29313522577285767,
        -0.14310389757156372,
        0.7782049179077148,
        0.1661444902420044,
        0.7294077277183533,
        0.7179460525512695,
        -0.26877617835998535,
        1.1097787618637085,
        0.07542233169078827,
        0.013116944581270218,
        0.43652909994125366,
        0.591198205947876,
        0.9586814641952515,
        -0.15769723057746887,
        0.6465822458267212,
        0.2447778433561325,
        0.7763139605522156,
        -0.23210899531841278,
        -1.4243775606155396,
        -1.0671415328979492,
        0.14034593105316162,
        0.8527873754501343,
        -0.18785038590431213,
        -0.2086029350757599,
        -0.00035200201091356575,
        0.0009118995512835681,
        0.0876927301287651,
        -0.794530987739563,
        0.6583535671234131,
        -1.1290537118911743,
        0.4388631284236908,
        0.8412391543388367,
        -1.018667459487915,
        -2.049076795578003,
        -0.6916837692260742,
        -0.35724520683288574,
        -1.50643789768219,
        -1.0229119062423706,
        -0.6373068690299988,
        -0.4904997944831848,
        0.8499262928962708,
        -1.101622462272644,
        -1.1259417533874512,
        -1.2757689952850342,
        -0.018635625019669533,
        -0.5615106225013733,
        -1.1857470273971558,
        1.0778311491012573,
        -0.5660467147827148,
        0.1150033250451088,
        0.5464650392532349,
        -0.011501726694405079,
        0.10719428956508636,
        0.2672753930091858,
        -0.20646753907203674,
        0.20794060826301575,
        0.18964505195617676,
        0.5670609474182129,
        1.3391954898834229,
        0.995934247970581,
        -0.24945099651813507,
        -1.542984127998352,
        1.0583175420761108,
        -1.3421261310577393,
        0.01634920947253704,
        0.11351241171360016,
        0.5438442826271057,
        0.4126085937023163,
        0.04117687791585922,
        0.12461389601230621,
        -1.3087348937988281,
        -0.042295172810554504,
        0.8933923244476318,
        -1.0475760698318481,
        0.7940234541893005,
        1.298239827156067,
        -0.062345776706933975,
        -0.7117184996604919,
        -0.00038958952063694596,
        -0.5319809317588806,
        0.13610325753688812,
        0.3310739994049072,
        0.6209938526153564,
        -0.4760303497314453,
        0.7628905177116394,
        -1.8384565114974976,
        0.18774405121803284,
        -0.8653711080551147,
        -1.0693587064743042,
        -0.10144443809986115,
        -1.3622500896453857,
        2.358436346054077,
        -0.23069903254508972,
        -0.2498214840888977,
        0.6715831756591797,
        -0.4053160548210144,
        2.2525241374969482,
        -1.5839059352874756,
        -1.6810579299926758,
        1.1690826416015625,
        -1.9739586114883423,
        0.11876073479652405,
        0.8870973587036133,
        0.05617671459913254,
        -0.17845968902111053,
        -0.007265095133334398,
        -0.017266087234020233,
        0.054059840738773346,
        0.32657477259635925,
        0.25421449542045593,
        -0.46466994285583496,
        -0.9431948065757751,
        0.7326799035072327,
        -0.04257849603891373,
        0.1272594928741455,
        1.1832588911056519,
        -0.7330156564712524,
        -1.3141850233078003,
        0.9209555387496948,
        -0.054014574736356735,
        -0.003075521904975176,
        0.4647107720375061,
        -0.505553662776947,
        0.6681970953941345,
        -0.08457926660776138,
        -0.5753920078277588,
        -0.06607425212860107,
        0.6707589626312256,
        -0.27871233224868774,
        -0.45855996012687683,
        -0.041581738740205765,
        -0.128684863448143,
        -0.005160459782928228,
        -0.0076408288441598415,
        -0.062022846192121506,
        -0.9879128336906433,
        0.5352185964584351,
        0.1681097149848938,
        -1.2625032663345337,
        0.3052404224872589,
        -0.5773730278015137,
        0.3391879200935364,
        -0.8270121216773987,
        0.48931005597114563,
        0.02228376641869545,
        -0.20231859385967255,
        -0.296241819858551,
        -0.23303844034671783,
        0.42171773314476013,
        0.4670756757259369,
        -0.292667031288147,
        -0.5880808234214783,
        -0.8197247385978699,
        -1.0970524549484253,
        -1.0602426528930664,
        -0.44847163558006287,
        1.26524019241333,
        0.16464807093143463,
        -0.2846851050853729,
        -0.007952218875288963,
        0.08551052212715149,
        0.25794556736946106,
        0.23876681923866272,
        -0.1436006724834442,
        -0.7175600528717041,
        0.42660871148109436,
        0.47002947330474854,
        -0.8871358633041382,
        -0.02941705472767353,
        -0.18330304324626923,
        0.371319055557251,
        0.22358040511608124,
        -0.045243456959724426,
        0.02298722043633461,
        -0.11880731582641602,
        -0.3831038177013397,
        -0.6664571762084961,
        -0.11057435721158981,
        -0.0633459985256195,
        -0.18961700797080994,
        0.19881434738636017,
        -0.7207844257354736,
        -0.7490496039390564,
        0.17126061022281647,
        -0.5236737728118896,
        0.9349368214607239,
        -0.0014123371802270412,
        0.10220541059970856,
        0.18397192656993866,
        -0.8175310492515564,
        0.31947100162506104,
        -0.20455799996852875,
        0.2643413841724396,
        -1.3726532459259033,
        -0.5380110144615173,
        -0.881978452205658,
        -0.6727781295776367,
        0.3561509847640991,
        -1.0503803491592407,
        -1.1491552591323853,
        -0.7747111916542053,
        -0.6161680817604065,
        0.34472131729125977,
        -0.40840160846710205,
        -1.0664691925048828,
        -0.7536801695823669,
        0.3160966634750366,
        -0.4802892804145813,
        1.6706607341766357,
        1.680080533027649,
        0.2507598400115967,
        -0.13963854312896729,
        -0.15026193857192993,
        0.00853780098259449,
        0.019636351615190506,
        -0.0321822427213192,
        0.003365539014339447,
        1.0831860303878784,
        -1.8661023378372192,
        0.3133760690689087,
        -2.6536102294921875,
        0.3428986072540283,
        0.7207191586494446,
        0.2701222002506256,
        -0.9194715619087219,
        1.0649081468582153,
        0.7649062275886536,
        -0.14734116196632385,
        -0.48315995931625366,
        1.004575252532959,
        -1.774718999862671,
        0.4288620054721832,
        0.4246695041656494,
        1.3156061172485352,
        -0.575775682926178,
        -1.569826364517212,
        -0.4904594421386719,
        0.22041460871696472,
        0.12011902034282684,
        -0.12649303674697876,
        -0.0064294906333088875,
        0.005791645031422377,
        -0.07557868957519531,
        -0.3792129456996918,
        -0.3533715009689331,
        -0.0027260100468993187,
        -0.6648281216621399,
        -0.41622310876846313,
        -0.42420703172683716,
        0.0901053324341774,
        0.25436705350875854,
        -1.282914638519287,
        -0.09490905702114105,
        0.38315147161483765,
        -0.19944104552268982,
        -0.7416817545890808,
        -0.16021761298179626,
        -0.30976852774620056,
        0.33360177278518677,
        -0.15013206005096436,
        1.75544273853302,
        -0.16060440242290497,
        0.5591723918914795,
        0.49675801396369934,
        0.18773537874221802,
        -0.19680345058441162,
        -0.6013354659080505,
        0.0013566194102168083,
        0.09977927803993225,
        -0.01710672117769718,
        0.0054695685394108295,
        -1.2991701364517212,
        0.1961909681558609,
        -1.273025393486023,
        -1.042941689491272,
        0.0637323260307312,
        1.0734736919403076,
        0.44711825251579285,
        0.5142707228660583,
        -0.7163913249969482,
        0.909005880355835,
        0.13114197552204132,
        -0.6636954545974731,
        -1.36302649974823,
        0.3294406831264496,
        1.2603093385696411,
        0.13633489608764648,
        1.4304927587509155,
        0.5124381184577942,
        -1.6125717163085938,
        -0.9178240895271301,
        -0.3317883014678955,
        -0.06693249195814133,
        -0.2182990461587906,
        -0.007193491794168949,
        -0.048417989164590836,
        -0.005314251407980919,
        0.11029384285211563,
        1.0942511558532715,
        -0.9164825081825256,
        -1.0048259496688843,
        -0.17377716302871704,
        -1.312984585762024,
        0.5572483539581299,
        3.8001697063446045,
        0.6910722255706787,
        0.9224643707275391,
        -0.8436183333396912,
        0.30708351731300354,
        0.3308338224887848,
        1.111111044883728,
        -0.9848981499671936,
        -0.9294690489768982,
        5.478647232055664,
        -0.08689401298761368,
        1.1738344430923462,
        0.0016795404953882098,
        1.0714385509490967,
        1.4771984815597534,
        0.20106348395347595,
        -0.9986644387245178,
        -0.003198331920430064,
        0.043044313788414,
        -0.1270454227924347,
        -0.5226443409919739,
        0.10988792032003403,
        -0.5339657068252563,
        0.42936742305755615,
        0.13748733699321747,
        -1.283113956451416,
        0.2948964238166809,
        0.5709713697433472,
        0.010091591626405716,
        -0.5705861449241638,
        -0.39423486590385437,
        -0.23122768104076385,
        -0.37810131907463074,
        -0.17340755462646484,
        -0.6312196254730225,
        -0.13173210620880127,
        0.19705364108085632,
        -2.221193790435791,
        1.1615304946899414,
        1.7791084051132202,
        2.575105905532837,
        -0.25991326570510864,
        0.2379666119813919,
        0.48694908618927,
        -0.0008645799825899303,
        0.0016678533283993602,
        0.10911652445793152,
        0.6139291524887085,
        0.39182162284851074,
        0.3338812589645386,
        0.9828360080718994,
        -0.043429184705019,
        0.8970938324928284,
        -4.356277942657471,
        -0.08692057430744171,
        -0.3513062000274658,
        1.9354732036590576,
        0.0271134115755558,
        -0.08994235098361969,
        0.1408419907093048,
        0.31481409072875977,
        0.374137818813324,
        0.14705216884613037,
        0.6438329815864563,
        -3.1802680492401123,
        1.877132773399353,
        1.6040445566177368,
        -2.534655809402466,
        -0.30617719888687134,
        -0.048279810696840286,
        0.20415133237838745,
        -0.008355606347322464,
        -0.011513750068843365,
        0.10707037895917892,
        0.19658777117729187,
        1.8691059350967407,
        -0.5491639375686646,
        0.20104160904884338,
        -0.33735182881355286,
        1.0154380798339844,
        -2.342804193496704,
        -1.2277432680130005,
        -0.5496704578399658,
        -1.4956597089767456,
        0.7521076798439026,
        -0.2894773781299591,
        -0.10645007342100143,
        1.7428627014160156,
        -0.7346940040588379,
        0.7573955655097961,
        -1.7156052589416504,
        -2.2465131282806396,
        -0.14613370597362518,
        1.6035650968551636,
        1.3096767663955688,
        1.2372184991836548,
        -0.09727775305509567,
        -0.24413029849529266,
        0.015485526993870735,
        -0.03282071277499199,
        0.1558360755443573,
        0.3364346921443939,
        0.2174210399389267,
        1.3080006837844849,
        -0.5080057382583618,
        -0.16212661564350128,
        -0.06020771712064743,
        -1.660781979560852,
        0.294473260641098,
        0.7225708365440369,
        0.1762900948524475,
        -0.05183281749486923,
        -0.319194495677948,
        0.19593417644500732,
        0.22687043249607086,
        1.2165428400039673,
        -0.2648499608039856,
        0.7066928148269653,
        0.5813591480255127,
        0.3389636278152466,
        1.9144954681396484,
        -0.3321148157119751,
        0.1458338350057602,
        -0.45911216735839844,
        -1.0104879140853882,
        -0.0053575122728943825,
        -0.09733130037784576,
        0.047509368509054184,
        -0.12887437641620636,
        0.1283901184797287,
        0.7940130829811096,
        -0.1212705597281456,
        -1.0535253286361694,
        -1.9587360620498657,
        0.7931040525436401,
        0.18397311866283417,
        -0.7998985648155212,
        -1.1884773969650269,
        -0.2356397807598114,
        -0.46629393100738525,
        -0.5699281692504883,
        0.03612813353538513,
        1.020712971687317,
        -0.08742217719554901,
        -0.5412996411323547,
        0.289102703332901,
        -1.2901039123535156,
        1.2009049654006958,
        0.3967899680137634,
        -1.3880624771118164,
        -0.03246401250362396,
        -0.7304024696350098,
        -0.0021711455192416906,
        0.030012551695108414,
        -0.022773578763008118,
        -0.16849395632743835,
        -1.5681953430175781,
        -2.011235475540161,
        0.011926958337426186,
        1.2493504285812378,
        1.3859610557556152,
        -1.617061734199524,
        0.17745868861675262,
        0.3602617084980011,
        0.46343275904655457,
        -0.23195086419582367,
        0.15465852618217468,
        -0.8557988405227661,
        -1.4267497062683105,
        -2.043858289718628,
        -0.37089216709136963,
        0.08425281196832657,
        4.9296979904174805,
        -0.8691186308860779,
        -1.7444332838058472,
        1.788151502609253,
        0.14892901480197906,
        -0.23136799037456512,
        0.8851177096366882,
        0.0010611532488837838,
        -0.057987846434116364,
        0.6776206493377686,
        1.1382755041122437,
        -1.1111172437667847,
        -0.6899560689926147,
        -2.37241530418396,
        -2.238389015197754,
        -0.03052203170955181,
        -1.491585612297058,
        -1.0694448947906494,
        0.12954530119895935,
        -0.6803334951400757,
        -1.8726853132247925,
        -1.31959867477417,
        -2.7707178592681885,
        -0.9286668300628662,
        -0.535592794418335,
        -1.91908597946167,
        -0.987768828868866,
        2.6788690090179443,
        -1.944675326347351,
        0.9891259670257568,
        3.4070844650268555,
        0.2438793182373047,
        0.06969346106052399,
        0.16508787870407104,
        0.015211124904453754,
        0.009687055833637714,
        0.14782118797302246,
        -0.07458201795816422,
        0.49465519189834595,
        -0.5798155665397644,
        -1.723894715309143,
        -0.7040467262268066,
        -0.34958258271217346,
        -2.1583046913146973,
        0.384255051612854,
        -0.3574567139148712,
        -0.038955558091402054,
        0.022617265582084656,
        -0.5227465629577637,
        -1.2303754091262817,
        0.5866634249687195,
        -0.3184405565261841,
        -0.15586727857589722,
        0.32826173305511475,
        -0.8091520667076111,
        0.2505221664905548,
        1.9094442129135132,
        -0.011560825631022453,
        -0.1745205968618393,
        -0.005485534202307463,
        -0.4840356111526489,
        0.001310678431764245,
        0.01496434211730957,
        -0.14772501587867737,
        -0.04844135046005249,
        0.2616894245147705,
        -0.02130223996937275,
        1.0336576700210571,
        1.0402135848999023,
        0.219106063246727,
        0.4357187747955322,
        -0.03833334147930145,
        0.07133307307958603,
        0.012821790762245655,
        3.7287235260009766,
        0.399400532245636,
        0.7696069478988647,
        0.08328995108604431,
        0.1067509800195694,
        3.878204345703125,
        -0.12152719497680664,
        -1.0407546758651733,
        0.04115421324968338,
        1.3398101329803467,
        0.16841399669647217,
        -0.3674491345882416,
        0.04096363112330437,
        0.46751973032951355,
        -0.002803004812449217,
        -0.035568851977586746,
        0.013619428500533104,
        0.0677540972828865,
        -0.44603055715560913,
        0.32327964901924133,
        -0.1653231382369995,
        0.5766565799713135,
        -0.5050843954086304,
        0.4760575294494629,
        -0.5595154762268066,
        0.40028172731399536,
        0.689671516418457,
        -1.0710954666137695,
        0.25505176186561584,
        -0.12235527485609055,
        -0.6181238293647766,
        0.10706517100334167,
        -0.8820616006851196,
        0.23025377094745636,
        0.06600385904312134,
        0.6389697790145874,
        0.4185984432697296,
        0.5359928011894226,
        -0.059643637388944626,
        -0.16723282635211945,
        0.43357816338539124,
        0.004587489180266857,
        -0.19139811396598816,
        0.13279671967029572,
        -1.3676977157592773,
        0.12989398837089539,
        0.18602801859378815,
        -0.6015151739120483,
        0.3760833740234375,
        -1.3596116304397583,
        0.5434257388114929,
        -0.5932542681694031,
        -0.2535398006439209,
        0.8313595652580261,
        -0.8015863299369812,
        -0.009279866702854633,
        -0.2300006002187729,
        0.13651825487613678,
        0.28035423159599304,
        -0.7193803191184998,
        -0.15459130704402924,
        2.1453676223754883,
        1.0511906147003174,
        -1.3550931215286255,
        0.2464248538017273,
        2.486412763595581,
        -0.22137758135795593,
        0.1069130152463913,
        -0.004451948218047619,
        -0.008509386330842972,
        -0.0023608743213117123,
        0.9507757425308228,
        0.22726215422153473,
        -0.46173742413520813,
        0.9145222306251526,
        0.19128358364105225,
        0.7505348920822144,
        1.082573652267456,
        0.17471851408481598,
        -1.9005166292190552,
        -0.656531810760498,
        -0.992475688457489,
        0.003572318470105529,
        0.4571993350982666,
        -0.04219580441713333,
        -0.6977300047874451,
        -1.0093599557876587,
        -0.8646045327186584,
        -0.155575692653656,
        -1.3368492126464844,
        0.4378384053707123,
        0.05869875103235245,
        -1.4885814189910889,
        -0.06621970236301422,
        -0.2777094542980194,
        -0.00944913923740387,
        0.02056029438972473,
        0.2329142689704895,
        0.4627823233604431,
        0.7144968509674072,
        0.20175303518772125,
        -0.730506956577301,
        1.276293158531189,
        -0.03870908170938492,
        -0.1878257542848587,
        -0.7352240681648254,
        0.13771462440490723,
        -0.46402570605278015,
        0.022394387051463127,
        0.2370501458644867,
        0.5375451445579529,
        0.5865077972412109,
        0.3444293737411499,
        0.0424133837223053,
        -0.5063658952713013,
        0.33882108330726624,
        0.5854490995407104,
        -0.3064062297344208,
        0.040266167372465134,
        0.7481889128684998,
        -0.20575807988643646,
        0.33458054065704346,
        -0.00041349304956384003,
        -0.025060072541236877,
        -0.19947277009487152,
        1.1691149473190308,
        -0.3990341126918793,
        -0.6319242715835571,
        3.664874792098999,
        -1.528505563735962,
        1.5007039308547974,
        -0.6642377972602844,
        -1.0360252857208252,
        0.26080891489982605,
        0.1597815454006195,
        -0.855855405330658,
        0.13484998047351837,
        0.47776952385902405,
        -0.2794264853000641,
        -0.590431809425354,
        -0.5417720675468445,
        -0.2616391181945801,
        -2.1104347705841064,
        -1.6045615673065186,
        0.647042453289032,
        0.7325357794761658,
        0.13223496079444885,
        -0.15336738526821136,
        -0.5696588754653931,
        0.003288301872089505,
        0.031475309282541275,
        -0.37762582302093506,
        1.2931983470916748,
        -0.19828075170516968,
        0.4951367974281311,
        0.033205050975084305,
        -1.8758811950683594,
        -0.10376305878162384,
        5.473283767700195,
        0.42771801352500916,
        1.788240671157837,
        0.31751129031181335,
        -0.09321030229330063,
        1.1076003313064575,
        1.0971239805221558,
        -0.24634483456611633,
        0.29818809032440186,
        -0.15645353496074677,
        1.315596103668213,
        0.5217788815498352,
        -1.9178578853607178,
        -1.2939833402633667,
        -1.0883868932724,
        -0.17201805114746094,
        -0.06003991514444351,
        0.11003737896680832,
        0.0010167036671191454,
        0.038943883031606674,
        -0.2483317106962204,
        0.11038389056921005,
        -0.35831594467163086,
        0.6898269057273865,
        -0.3655987083911896,
        0.12656548619270325,
        0.9534636735916138,
        0.3507789969444275,
        0.5560396313667297,
        1.1199511289596558,
        0.2834232747554779,
        0.8944188356399536,
        0.3209259510040283,
        0.37454885244369507,
        -0.2936631441116333,
        0.830306887626648,
        1.1184182167053223,
        1.1882777214050293,
        -5.8472442626953125,
        -0.042835868895053864,
        -0.7912041544914246,
        -0.18388155102729797,
        -1.2726962566375732,
        -0.007742198184132576,
        -0.7671833634376526,
        -0.004779356066137552,
        0.06311724334955215,
        -0.13657714426517487,
        0.20009258389472961,
        0.3375662565231323,
        0.08807681500911713,
        -1.1752389669418335,
        -0.5481492877006531,
        1.0349148511886597,
        -0.1391693651676178,
        0.22923198342323303,
        -0.8920194506645203,
        0.9853839874267578,
        -1.3486816883087158,
        -0.0713106021285057,
        0.07270388305187225,
        0.34000086784362793,
        -0.0012259173672646284,
        -1.4187991619110107,
        0.17753849923610687,
        2.498762607574463,
        0.5579352974891663,
        -0.47601914405822754,
        0.4438154995441437,
        -1.3046433925628662,
        0.17360174655914307,
        0.6620160937309265,
        -0.009583924897015095,
        0.052490271627902985,
        0.2049436718225479,
        -0.4670959413051605,
        1.6741636991500854,
        0.3749290704727173,
        0.32081061601638794,
        1.0018982887268066,
        0.8921071290969849,
        -1.5793304443359375,
        0.2424512505531311,
        0.20177370309829712,
        -1.1734799146652222,
        -1.4433642625808716,
        0.008119231089949608,
        1.0071531534194946,
        1.9378507137298584,
        0.2386702448129654,
        -1.2151106595993042,
        -0.269393652677536,
        0.748145580291748,
        0.27552559971809387,
        -0.2760797142982483,
        -2.3005309104919434,
        -0.545136570930481,
        0.02808563783764839,
        0.3298153579235077,
        -0.014107020571827888,
        0.10729025304317474,
        0.002655445132404566,
        0.1153939887881279,
        -0.5354660153388977,
        -0.041987206786870956,
        1.244208574295044,
        -0.42307913303375244,
        0.6145704388618469,
        -1.4248698949813843,
        0.17062026262283325,
        -1.792008638381958,
        -0.6221798062324524,
        -0.19283165037631989,
        -0.30375346541404724,
        -0.3759725093841553,
        -0.44072699546813965,
        0.05295012146234512,
        -0.41700589656829834,
        -0.9729570150375366,
        -1.5560232400894165,
        0.0364118330180645,
        -0.6411423683166504,
        -0.23810382187366486,
        0.09587245434522629,
        -0.05826514586806297,
        0.5728997588157654,
        0.003561133984476328,
        0.04590686410665512,
        0.14317698776721954,
        -0.26219791173934937,
        -0.01943252794444561,
        -0.6033896803855896,
        -0.29259368777275085,
        -0.5599554181098938,
        -0.2527921795845032,
        -0.21723952889442444,
        -1.246529459953308,
        0.5346803069114685,
        0.30163779854774475,
        0.17936408519744873,
        -0.4872492551803589,
        -0.5523118376731873,
        0.04806885868310928,
        -0.6319404244422913,
        0.029291169717907906,
        -0.3252131938934326,
        -0.28919053077697754,
        -1.4607470035552979,
        1.0686352252960205,
        -0.17804506421089172,
        0.2674998939037323,
        0.1524433195590973,
        -0.1653195321559906,
        0.0029722016770392656,
        -0.03863740339875221,
        0.043956730514764786,
        0.25306376814842224,
        1.2517808675765991,
        0.5012516975402832,
        0.6824741363525391,
        -0.5395573973655701,
        0.8855835199356079,
        1.098934292793274,
        -0.5190840363502502,
        0.9546538591384888,
        1.6076501607894897,
        1.2037267684936523,
        0.7815700769424438,
        1.6253712177276611,
        0.9688062071800232,
        0.3841826915740967,
        0.8868890404701233,
        0.9493144154548645,
        0.10604288429021835,
        -2.208021640777588,
        0.3989386558532715,
        0.6375532150268555,
        -0.8054862022399902,
        -0.15534444153308868,
        0.1028202548623085,
        0.0005995907122269273,
        -0.09751608222723007,
        -0.14054585993289948,
        -0.4906703531742096,
        1.2913717031478882,
        0.9164708256721497,
        -1.1322062015533447,
        -0.2815793752670288,
        -0.44000133872032166,
        0.7291940450668335,
        0.0780273973941803,
        0.7435625195503235,
        0.6938509941101074,
        0.3861449956893921,
        0.46837082505226135,
        0.3510691225528717,
        1.2853931188583374,
        0.8626723885536194,
        0.13493631780147552,
        0.7978641390800476,
        1.0768431425094604,
        -0.05682175233960152,
        -0.2899511456489563,
        -0.7915418744087219,
        -0.5864392518997192,
        -0.0678282305598259,
        0.24907734990119934,
        0.0030730103608220816,
        0.13054712116718292,
        0.04634540155529976,
        -1.2462294101715088,
        1.235941767692566,
        -0.6061726212501526,
        -1.0394197702407837,
        1.4823836088180542,
        -0.7082976698875427,
        0.936346709728241,
        0.15049363672733307,
        -0.4946141541004181,
        1.2015914916992188,
        -0.2901102304458618,
        0.49447357654571533,
        0.5110592842102051,
        1.2251490354537964,
        -0.42457932233810425,
        -0.29706841707229614,
        0.4544045925140381,
        -0.7727305889129639,
        0.2973596453666687,
        0.27436789870262146,
        1.385640025138855,
        -1.0962820053100586,
        -0.03300014138221741,
        0.8548864126205444,
        0.012653280049562454,
        -0.0901653841137886,
        0.24568893015384674,
        0.0017576271202415228,
        0.6869294047355652,
        0.7346179485321045,
        0.5711339712142944,
        0.41148021817207336,
        0.1549089103937149,
        -0.34279942512512207,
        -0.3760153651237488,
        -0.6191282868385315,
        -0.43690600991249084,
        0.4611789584159851,
        0.041591741144657135,
        0.6461745500564575,
        0.8440037965774536,
        0.6738812923431396,
        0.741438627243042,
        -0.5812236666679382,
        -1.0477632284164429,
        -1.1878602504730225,
        -0.47687268257141113,
        -0.9584910869598389,
        -0.092766672372818,
        -0.08532846719026566,
        -0.5218161344528198,
        0.0050441506318748,
        -0.33528292179107666,
        0.003952967934310436,
        -0.20543159544467926,
        -0.02691737562417984,
        0.506001353263855,
        -0.5515602231025696,
        -0.4490414261817932,
        0.7308192253112793,
        0.9119687080383301,
        0.0002192456304328516,
        -0.08664325624704361,
        -0.16014648973941803,
        -0.6212615370750427,
        -0.05500668287277222,
        0.396912157535553,
        0.12776196002960205,
        0.3912259638309479,
        -0.5093866586685181,
        -0.035309404134750366,
        1.281528353691101,
        -0.2064809501171112,
        -1.2701506614685059,
        -0.3951168656349182,
        0.12731337547302246,
        -0.11988537013530731,
        -0.21792340278625488,
        0.0039202445186674595,
        -0.08151515573263168,
        0.24913997948169708,
        0.5440059900283813,
        -0.3781997859477997,
        -0.18824337422847748,
        -1.20702064037323,
        -0.39122048020362854,
        1.0223274230957031,
        -0.33012163639068604,
        0.485563725233078,
        -0.30947157740592957,
        0.2654845118522644,
        1.7137963771820068,
        0.28414538502693176,
        -0.4597739279270172,
        -0.1665528267621994,
        -0.14981363713741302,
        1.8845049142837524,
        0.33521023392677307,
        -0.5042099356651306,
        0.5640705227851868,
        -1.512872338294983,
        -0.4641838073730469,
        0.36762484908103943,
        0.12218712270259857,
        -0.6260507702827454,
        -0.009699848480522633,
        0.009392498061060905,
        -0.18820339441299438,
        -0.39934220910072327,
        0.32346031069755554,
        0.8029454350471497,
        1.1024631261825562,
        0.2866589426994324,
        -0.18585732579231262,
        0.976182222366333,
        0.37530753016471863,
        -0.0010117797646671534,
        -0.3696388006210327,
        0.47665977478027344,
        0.23933397233486176,
        0.9419850707054138,
        0.46582627296447754,
        0.6054065823554993,
        0.537706732749939,
        0.037560585886240005,
        1.3362629413604736,
        0.9913496375083923,
        -1.1513100862503052,
        0.11432816088199615,
        0.6737034320831299,
        -0.042691316455602646,
        -1.1925017833709717,
        -0.0006526483921334147,
        -0.08350321650505066,
        -0.236995667219162,
        0.23585130274295807,
        -0.42349687218666077,
        -0.3179872930049896,
        0.15718817710876465,
        -0.47532182931900024,
        -1.059032678604126,
        1.2944906949996948,
        0.4629438519477844,
        0.9820956587791443,
        1.7141119241714478,
        0.4662555754184723,
        0.262951135635376,
        -0.3465133011341095,
        -0.5624078512191772,
        -0.26545634865760803,
        0.4455040991306305,
        1.6657394170761108,
        -2.2619338035583496,
        -0.5768204927444458,
        0.5531741380691528,
        -1.1546772718429565,
        0.09427186101675034,
        0.37911665439605713,
        -0.3841058611869812,
        -0.008066033013164997,
        -0.20665687322616577,
        0.3321698009967804,
        0.12037954479455948,
        -1.3565526008605957,
        0.8821571469306946,
        -2.1567351818084717,
        -0.2874501943588257,
        -1.3975268602371216,
        -4.39854097366333,
        -0.2859925627708435,
        -0.16100051999092102,
        0.2291325479745865,
        -1.1967822313308716,
        -1.1563154458999634,
        -2.7539830207824707,
        -1.573721170425415,
        0.7630774974822998,
        -0.9258167743682861,
        -0.2016034871339798,
        3.4193689823150635,
        -0.7861834168434143,
        0.14632657170295715,
        -0.9215624928474426,
        -0.4320777356624603,
        0.023328574374318123,
        -0.08769076317548752,
        -0.0029627226758748293,
        -0.062077753245830536,
        0.3522396683692932,
        0.255792498588562,
        0.6039885878562927,
        -1.2538976669311523,
        -0.907663106918335,
        0.1892455369234085,
        -0.1459754854440689,
        0.14926283061504364,
        -1.116642713546753,
        -0.208812415599823,
        0.4038079082965851,
        -3.2336442470550537,
        -0.39722785353660583,
        -0.2002948373556137,
        0.8005213141441345,
        -1.5929219722747803,
        -3.344322919845581,
        -0.945408284664154,
        1.775727391242981,
        0.7185793519020081,
        -0.5337756276130676,
        -1.58745276927948,
        -0.8265933990478516,
        0.09840868413448334,
        1.1238332986831665,
        -0.011197002604603767,
        0.07928276807069778,
        0.18580105900764465,
        0.04615471139550209,
        0.25478699803352356,
        -0.011477985419332981,
        -0.21375063061714172,
        -0.7396934032440186,
        1.1952470541000366,
        -0.5002413392066956,
        -0.5443076491355896,
        -0.2304946780204773,
        -0.38711604475975037,
        0.7610453367233276,
        -0.1886328160762787,
        0.004881891421973705,
        0.07523096352815628,
        -0.12675245106220245,
        0.898705244064331,
        -0.5761208534240723,
        -0.15563243627548218,
        1.6498334407806396,
        0.48454728722572327,
        -0.6700150370597839,
        0.388815313577652,
        0.06376674026250839,
        0.11887756735086441,
        -0.00811681803315878,
        0.06440223753452301,
        -0.07934851199388504,
        0.5645995736122131,
        1.059158205986023,
        -0.13573481142520905,
        -0.7320502400398254,
        0.39312344789505005,
        1.3821879625320435,
        -1.8070685863494873,
        -0.08214788883924484,
        -0.6580726504325867,
        0.9972822666168213,
        -0.023826783522963524,
        -0.06931151449680328,
        0.6493731141090393,
        1.162622332572937,
        0.032095156610012054,
        -0.1408246010541916,
        -0.18184326589107513,
        2.037590503692627,
        -0.4198186993598938,
        -0.27650806307792664,
        -1.1163595914840698,
        0.29310840368270874,
        0.2742729187011719,
        -0.8101475834846497,
        0.007468612398952246,
        0.0333058163523674,
        -0.12426306307315826,
        0.6786120533943176,
        -0.3492390811443329,
        0.5624139308929443,
        -0.42695748805999756,
        1.1427431106567383,
        0.34694579243659973,
        0.13851061463356018,
        0.08237780630588531,
        -0.1474466770887375,
        -0.9923619031906128,
        -0.20513762533664703,
        0.08605246990919113,
        0.3242039680480957,
        -0.16879314184188843,
        0.5307604074478149,
        -0.33851322531700134,
        -0.5311193466186523,
        0.6189351677894592,
        -1.1011412143707275,
        0.7509786486625671,
        -1.442358374595642,
        -0.408664345741272,
        0.27214738726615906,
        -0.3187476098537445,
        0.003954410087317228,
        0.13997700810432434,
        0.12429291754961014,
        0.34877392649650574,
        -0.32397717237472534,
        -0.5113743543624878,
        -0.22424903512001038,
        -0.6231423616409302,
        0.10207759588956833,
        0.7046303153038025,
        0.4417501986026764,
        0.2006370723247528,
        -0.8088563084602356,
        -0.3997270464897156,
        -0.05576508119702339,
        -0.337086945772171,
        -0.48003092408180237,
        -0.2826017439365387,
        -0.22352761030197144,
        0.06990435719490051,
        -1.0795798301696777,
        -0.17384901642799377,
        -0.32394126057624817,
        1.3406027555465698,
        -0.7801536321640015,
        0.1421917825937271,
        1.5889575481414795,
        0.006292950361967087,
        -0.12471999228000641,
        0.12429820001125336,
        0.2631292939186096,
        0.40093737840652466,
        0.19536162912845612,
        -0.10788267105817795,
        -0.2291974276304245,
        0.2634280025959015,
        0.8824470043182373,
        0.019958674907684326,
        -0.022336315363645554,
        -0.21704892814159393,
        1.210960030555725,
        0.4894830286502838,
        0.4114646315574646,
        0.47736456990242004,
        0.3805333971977234,
        1.3728046417236328,
        -0.04623763635754585,
        1.4277936220169067,
        0.001983944559469819,
        -1.122901439666748,
        1.4521880149841309,
        -0.4546993672847748,
        0.07310735434293747,
        0.7563802599906921,
        -0.0038160355761647224,
        0.08495548367500305,
        0.31197696924209595,
        1.0109308958053589,
        -0.10727271437644958,
        -0.048399124294519424,
        0.6954862475395203,
        -0.29048532247543335,
        -0.3562288284301758,
        -0.20884887874126434,
        -0.047446027398109436,
        -1.0151430368423462,
        -0.9789906144142151,
        1.6245778799057007,
        -0.09643779695034027,
        -0.0496862456202507,
        -0.2572769224643707,
        0.15376920998096466,
        1.6519368886947632,
        -1.163389801979065,
        0.5131890177726746,
        0.16169945895671844,
        -0.2878817319869995,
        1.9868128299713135,
        -1.2118654251098633,
        0.0741354301571846,
        0.5400218963623047,
        0.0037883692421019077,
        -0.042552314698696136,
        -0.01039672177284956,
        0.1822577714920044,
        0.25258147716522217,
        0.875469446182251,
        2.245668411254883,
        -1.471046805381775,
        -0.339695543050766,
        1.3817651271820068,
        -2.392995834350586,
        0.2610560357570648,
        1.3384028673171997,
        1.029983639717102,
        0.3186679780483246,
        0.7590497732162476,
        0.3111671805381775,
        0.7781403660774231,
        1.0439835786819458,
        -0.9933738112449646,
        -1.5768089294433594,
        0.4553302824497223,
        0.41635459661483765,
        -0.4847905933856964,
        1.6271781921386719,
        0.016178224235773087,
        -0.8366805911064148,
        0.003966163843870163,
        -0.013715882785618305,
        -0.1984071284532547,
        -0.06743919849395752,
        1.4673715829849243,
        -0.264614462852478,
        0.08024332672357559,
        1.8131682872772217,
        -0.7578982710838318,
        -0.068700410425663,
        -0.028379013761878014,
        0.9635772109031677,
        -0.3866164982318878,
        -1.2662099599838257,
        0.3071023225784302,
        0.9918127059936523,
        1.5146211385726929,
        -0.15185225009918213,
        -1.5564024448394775,
        0.46583953499794006,
        0.6233949065208435,
        0.44768863916397095,
        -2.675971746444702,
        0.1593509316444397,
        0.7517502903938293,
        0.02094276435673237,
        -0.20045964419841766,
        -0.007795751094818115,
        -0.0283187348395586,
        -0.36891642212867737,
        -1.2068926095962524,
        -0.17665821313858032,
        -0.4985160827636719,
        -0.1842162013053894,
        0.6770198941230774,
        1.8531824350357056,
        0.4098541736602783,
        -0.13262927532196045,
        -0.31358638405799866,
        0.05886572226881981,
        -0.6663560271263123,
        0.21817132830619812,
        0.1958642154932022,
        -0.28042784333229065,
        -0.524734616279602,
        -0.6830829977989197,
        -0.17364968359470367,
        0.17352068424224854,
        0.48446446657180786,
        0.011696169152855873,
        0.01403522863984108,
        -0.017657700926065445,
        0.009594463743269444,
        0.0769212618470192,
        -0.0034506020601838827,
        0.0506274476647377,
        -0.1810227334499359,
        -2.2320313453674316,
        0.7786089181900024,
        -0.49845919013023376,
        -0.2559000253677368,
        -0.5909609794616699,
        0.09368973225355148,
        0.2909168601036072,
        0.7118993997573853,
        -0.13590863347053528,
        -0.8553065657615662,
        -2.2678747177124023,
        -0.41229188442230225,
        0.07154794782400131,
        0.8515416383743286,
        -0.20867790281772614,
        -2.4024696350097656,
        0.08382778614759445,
        -0.7172777652740479,
        -1.2902888059616089,
        0.6418510675430298,
        1.964573860168457,
        0.4039989709854126,
        0.22551025450229645,
        0.43895211815834045,
        -0.007483370136469603,
        0.03944799304008484,
        0.033026646822690964,
        1.0475687980651855,
        -0.4177667796611786,
        0.5830715298652649,
        -0.10599328577518463,
        -0.7847816944122314,
        -0.624455451965332,
        1.173869013786316,
        0.21883396804332733,
        -1.0899733304977417,
        -0.3406188488006592,
        -0.9940589070320129,
        -0.4366925060749054,
        -0.07420605421066284,
        -0.2811896800994873,
        0.6526983380317688,
        -0.8711904883384705,
        -0.8899282217025757,
        -1.7269947528839111,
        0.19693982601165771,
        0.4728104770183563,
        0.10260473936796188,
        -0.5530751347541809,
        -0.024061376228928566,
        -1.6292800903320312,
        -0.00835978239774704,
        0.008393464609980583,
        0.09775226563215256,
        0.26188209652900696,
        -0.015372870489954948,
        -0.014365206472575665,
        0.7449880838394165,
        -0.28589877486228943,
        -0.46008947491645813,
        -1.6458594799041748,
        -0.13339273631572723,
        0.34235092997550964,
        -0.009644320234656334,
        -0.35282161831855774,
        -0.2563104033470154,
        -0.28289687633514404,
        -0.1396549940109253,
        -0.04608473554253578,
        -0.10059306025505066,
        0.04855749011039734,
        2.416759729385376,
        -0.576361358165741,
        -0.4001118242740631,
        -0.27028244733810425,
        0.8246214389801025,
        -0.009733639657497406,
        -0.17672209441661835,
        0.0017914136406034231,
        0.012588066048920155,
        -0.24427102506160736,
        -0.9968211054801941,
        -0.15015451610088348,
        -0.4052705764770508,
        0.9420486688613892,
        0.6998778581619263,
        1.1416600942611694,
        -0.18891195952892303,
        0.7491433024406433,
        -0.06779240071773529,
        -1.2902847528457642,
        1.6833770275115967,
        0.4042605459690094,
        0.13090762495994568,
        -0.45512330532073975,
        -0.6847524642944336,
        1.6538206338882446,
        0.16186964511871338,
        1.1938194036483765,
        0.408831387758255,
        -1.4279166460037231,
        -2.446720600128174,
        0.3540816903114319,
        0.05391145870089531,
        -0.3044885993003845,
        -0.008205424062907696,
        -0.11337465792894363,
        0.15713270008563995,
        0.02288859710097313,
        0.17488886415958405,
        -0.4315846562385559,
        0.08017043769359589,
        -0.3542163074016571,
        -0.6493591666221619,
        -0.46564289927482605,
        0.17807963490486145,
        0.2545406222343445,
        -0.18259760737419128,
        0.4946424067020416,
        -0.11199486255645752,
        -0.48636898398399353,
        -0.09322864562273026,
        -0.5783610343933105,
        0.6436715126037598,
        0.321063369512558,
        1.4698482751846313,
        0.2512052357196808,
        0.2696070969104767,
        -0.38740411400794983,
        -0.6814631819725037,
        -0.05009802058339119,
        0.7461228966712952,
        -0.0025073406286537647,
        -0.10150817781686783,
        -0.05807347968220711,
        -1.6032110452651978,
        -0.1895827203989029,
        1.9382573366165161,
        2.8185935020446777,
        -1.2642194032669067,
        1.5048109292984009,
        -0.712317705154419,
        -0.847426176071167,
        -0.37602749466896057,
        0.60394287109375,
        0.18135946989059448,
        0.10890209674835205,
        0.7607308030128479,
        -0.2197730541229248,
        1.6768198013305664,
        0.2779240608215332,
        -0.4287528693675995,
        0.4311447739601135,
        0.48981308937072754,
        -0.751183271408081,
        0.07696015387773514,
        -0.21573452651500702,
        0.03995940089225769,
        0.3652321398258209,
        0.001558550400659442,
        0.009277485311031342,
        -0.17460353672504425,
        -1.1660090684890747,
        -1.1923853158950806,
        0.21128346025943756,
        -1.868177890777588,
        1.7502307891845703,
        1.4153034687042236,
        0.1182454451918602,
        0.5832944512367249,
        0.02807871252298355,
        0.8794993758201599,
        -0.8732908368110657,
        0.326803594827652,
        -0.1048397645354271,
        -1.2888180017471313,
        0.31968924403190613,
        -0.9397597312927246,
        0.8895059823989868,
        0.5960478186607361,
        0.6952406764030457,
        -0.3472630977630615,
        -1.180433750152588,
        0.6243963837623596,
        0.20692217350006104,
        -0.09263716638088226,
        0.0038485771510750055,
        -0.06629252433776855,
        0.06921548396348953,
        -0.573270857334137,
        -1.0167431831359863,
        -0.26492181420326233,
        -0.05432649701833725,
        -1.9445037841796875,
        -0.6390568017959595,
        -1.172257900238037,
        -0.584923267364502,
        0.5172588229179382,
        -0.6351592540740967,
        -0.20166167616844177,
        -0.6248170733451843,
        -1.920130968093872,
        -0.7632665038108826,
        -0.4084806740283966,
        -0.4752071797847748,
        -0.38442835211753845,
        -2.2032992839813232,
        0.008731791749596596,
        -0.13565658032894135,
        1.6090048551559448,
        1.4789307117462158,
        0.08931582421064377,
        -0.20259737968444824,
        0.005135626066476107,
        -0.11067717522382736,
        0.060120340436697006,
        0.19792740046977997,
        -0.21418480575084686,
        -0.14457428455352783,
        0.03462888300418854,
        1.170804738998413,
        0.9176254868507385,
        -0.7218583226203918,
        -0.11073008179664612,
        -1.2928550243377686,
        0.8130890130996704,
        0.9510857462882996,
        0.14613431692123413,
        0.08732385188341141,
        -0.25716736912727356,
        -0.3803046941757202,
        0.959693431854248,
        -0.3811483681201935,
        0.12585234642028809,
        -1.408159613609314,
        -2.4238831996917725,
        0.9385331273078918,
        1.1325912475585938,
        -0.09840050339698792,
        1.1901895999908447,
        0.00467204162850976,
        -0.09180353581905365,
        0.07303395122289658,
        -0.08610951900482178,
        -0.3879791498184204,
        -1.000604271888733,
        -1.2877848148345947,
        0.9784991145133972,
        -0.30082306265830994,
        0.4940219521522522,
        -0.0929042398929596,
        -0.10050949454307556,
        0.4884871542453766,
        -0.1943584382534027,
        -0.3502621650695801,
        -0.4965999722480774,
        -0.3290330171585083,
        -1.0056082010269165,
        -0.019755246117711067,
        -0.1039324477314949,
        2.3787262439727783,
        -0.06680729985237122,
        0.2996079623699188,
        -0.9464373588562012,
        -0.7183201909065247,
        0.10877770930528641,
        0.699126124382019,
        -0.00013946223771199584,
        -0.050552066415548325,
        -0.4830314517021179,
        2.017012357711792,
        0.7305460572242737,
        0.217841237783432,
        0.8211849927902222,
        -1.6619995832443237,
        1.0163512229919434,
        1.1907966136932373,
        1.214035987854004,
        0.006495976354926825,
        -0.2463042438030243,
        -0.8694263696670532,
        0.5386896133422852,
        1.2247995138168335,
        0.4091428220272064,
        0.04672231525182724,
        -1.216451644897461,
        0.5777175426483154,
        -1.3182464838027954,
        -0.550811231136322,
        -3.7164971828460693,
        1.7402223348617554,
        1.9559333324432373,
        0.06912360340356827,
        0.14013250172138214,
        0.0007653881330043077,
        -0.029348161071538925,
        0.16206218302249908,
        0.3492615222930908,
        -0.2670740783214569,
        -0.9469648599624634,
        -1.2316129207611084,
        0.18318763375282288,
        1.1985780000686646,
        -0.8714883923530579,
        -0.8847411274909973,
        2.3452727794647217,
        -0.40104204416275024,
        -0.4988654851913452,
        -0.19182997941970825,
        -0.6109141707420349,
        -0.1210695132613182,
        -0.7412118315696716,
        -0.286126047372818,
        -0.15817296504974365,
        0.26277831196784973,
        1.8810627460479736,
        2.0029726028442383,
        -1.4664169549942017,
        -0.3605937063694,
        -0.02722758986055851,
        0.007080456707626581,
        -0.0016720843268558383,
        0.031231218948960304,
        0.3022177219390869,
        -0.35494357347488403,
        1.562161922454834,
        -0.4395882487297058,
        -1.3131006956100464,
        1.6467751264572144,
        -1.8618381023406982,
        -2.2644379138946533,
        1.5007165670394897,
        0.5366734266281128,
        -2.052239179611206,
        1.8789873123168945,
        -0.3863436281681061,
        -0.619811475276947,
        1.5458424091339111,
        -0.3942452371120453,
        1.9294607639312744,
        0.12424352765083313,
        -0.006904482841491699,
        0.8524235486984253,
        0.9101905822753906,
        -0.4103037714958191,
        0.2760462760925293,
        0.07592669129371643,
        -0.12103594094514847,
        -0.002776211127638817,
        0.06370808929204941,
        -0.38790038228034973,
        -0.20375879108905792,
        -0.11852332204580307,
        0.8343394994735718,
        3.0305023193359375,
        1.657190203666687,
        2.087921619415283,
        0.20151454210281372,
        2.3182830810546875,
        -0.9257024526596069,
        -0.5021485686302185,
        0.600900411605835,
        0.7734503149986267,
        2.9027299880981445,
        -0.043156325817108154,
        0.8985120058059692,
        0.8104773759841919,
        1.187129020690918,
        -2.4779844284057617,
        -2.6741883754730225,
        0.23360364139080048,
        0.3981682360172272,
        0.4937988519668579,
        0.049917057156562805,
        1.121724247932434,
        -0.0012663780944421887,
        -0.047201793640851974,
        -0.026929741725325584,
        -0.19305841624736786,
        0.34955424070358276,
        0.8957652449607849,
        -1.288528561592102,
        1.082181453704834,
        -1.4056758880615234,
        1.6924835443496704,
        -0.9307532906532288,
        1.0548241138458252,
        0.617764949798584,
        -0.46959060430526733,
        0.2544378936290741,
        0.2359118014574051,
        0.1463230848312378,
        0.7485382556915283,
        -0.5321786999702454,
        0.014555437490344048,
        -0.538574755191803,
        3.1597304344177246,
        0.037690192461013794,
        -1.177894949913025,
        -1.3017412424087524,
        0.050214141607284546,
        1.0555287599563599,
        -0.004383586812764406,
        -0.1008106917142868,
        -0.519635796546936,
        1.904970645904541,
        -0.07643858343362808,
        0.5973732471466064,
        -0.6763131618499756,
        0.43185073137283325,
        2.4989657402038574,
        1.130865216255188,
        1.7396140098571777,
        0.8831156492233276,
        -0.7976720333099365,
        0.9649661183357239,
        0.9152559041976929,
        1.4872227907180786,
        -0.2951216399669647,
        0.7102454900741577,
        1.0831964015960693,
        1.1560367345809937,
        -3.9434008598327637,
        0.7852931618690491,
        0.6205833554267883,
        1.1079092025756836,
        1.136920690536499,
        -0.06359073519706726,
        -1.0894482135772705,
        0.00594923784956336,
        0.05979301780462265,
        0.04761340841650963,
        -0.20665927231311798,
        -0.8200626969337463,
        0.12319344282150269,
        -0.35609111189842224,
        -0.593894898891449,
        1.1280525922775269,
        -1.8755595684051514,
        -0.4094155430793762,
        -0.33544906973838806,
        2.554248809814453,
        -0.14595848321914673,
        -0.3487595021724701,
        -0.4328361749649048,
        -0.656384289264679,
        0.21889883279800415,
        -0.07309228181838989,
        0.05180104449391365,
        1.3910895586013794,
        -0.034890227019786835,
        0.6169862151145935,
        -0.10332729667425156,
        1.0350472927093506,
        -0.14287815988063812,
        0.11037662625312805,
        -0.0017657279968261719,
        -0.04682796820998192,
        0.19359812140464783,
        0.9407580494880676,
        0.719822883605957,
        0.45169591903686523,
        0.6425450444221497,
        -2.727860927581787,
        -1.7417166233062744,
        -0.043884553015232086,
        1.8774316310882568,
        -0.3363366723060608,
        0.21277807652950287,
        -0.3975067734718323,
        -0.08149254322052002,
        -0.18448764085769653,
        0.8807957172393799,
        0.512842059135437,
        -0.3371947109699249,
        1.4431400299072266,
        0.510687530040741,
        -1.751333475112915,
        -0.831501305103302,
        -1.2681509256362915,
        -0.0854964479804039,
        0.09024981409311295,
        -0.3848732113838196,
        -0.0022486660163849592,
        -0.011490537784993649
      ],
      "bias": [
        0.8216915726661682,
        -0.2661639153957367,
        0.024855541065335274,
        -1.045505404472351,
        0.032359153032302856,
        0.004744411446154118,
        0.011193928308784962,
        -0.035911981016397476,
        -0.03623592108488083,
        0.29685530066490173,
        0.048830244690179825,
        -0.07079482823610306,
        0.006712340284138918,
        0.0036501402501016855,
        0.021314624696969986,
        0.011807776987552643,
        0.03794143348932266,
        0.08378753811120987,
        -0.09639721363782883,
        0.1434394270181656,
        -0.0072782705537974834,
        -0.04291631281375885,
        -0.0232778862118721,
        -0.008240521885454655,
        0.055255960673093796,
        -0.04812376946210861,
        0.05779751017689705,
        0.01045354176312685,
        -0.09656649082899094,
        0.4764288365840912,
        -0.02558119222521782,
        0.01077413372695446,
        -0.06918536871671677,
        -0.18696558475494385,
        -0.0033444061409682035,
        0.003801807062700391,
        -0.12078319489955902,
        -0.00581895187497139,
        -0.007333158981055021,
        0.027701104059815407,
        0.020068524405360222,
        0.023211585357785225,
        0.09877052903175354,
        -0.028985708951950073,
        0.04234589263796806,
        -0.0004833071434404701,
        -0.012364940717816353,
        -0.007906991057097912,
        0.12881587445735931,
        0.061735399067401886,
        -0.05257893353700638,
        0.02956116385757923,
        -0.022251926362514496,
        -0.02449595369398594,
        -0.0991295874118805,
        -0.05069131776690483,
        -0.11101551353931427,
        -0.02180647850036621,
        0.05680492892861366,
        0.09333772957324982,
        -0.10270611196756363,
        0.06644239276647568,
        0.3143804669380188,
        0.08886608481407166,
        -0.012572292238473892,
        0.08299203962087631,
        0.21286647021770477,
        0.024541879072785378,
        -0.030569838359951973,
        -0.04145923629403114,
        0.01176481693983078,
        -0.13054373860359192,
        0.1436668038368225,
        -0.11001607030630112,
        -0.004396231845021248,
        0.020495695993304253,
        0.0071871159598231316,
        -0.035286352038383484,
        0.05187861621379852,
        0.01547540258616209,
        -0.00027499182033352554,
        0.09981831908226013,
        0.1242828443646431,
        -0.016494721174240112,
        0.06777825206518173,
        0.13167810440063477,
        0.05510241165757179,
        0.03573153540492058,
        0.08292564004659653,
        -0.009085461497306824,
        -0.04277626425027847,
        0.03518802672624588,
        0.07507022470235825,
        -0.04631916061043739,
        0.03979618847370148,
        0.02238084189593792
      ],
      "activation": "tanh"
    },
    {
      "inputSize": 96,
      "outputSize": 48,
      "weights": [
        0.12670902907848358,
        0.12337209284305573,
        -0.2337823212146759,
        -0.3343736231327057,
        0.11383015662431717,
        0.03713085502386093,
        -0.129828080534935,
        -0.060214582830667496,
        0.3058626353740692,
        -0.3104865252971649,
        -0.5258426666259766,
        -0.07704038918018341,
        -0.19496367871761322,
        0.027500908821821213,
        -0.2265906035900116,
        0.6793314218521118,
        -0.21793271601200104,
        -0.13599254190921783,
        0.1605886071920395,
        -0.28782278299331665,
        0.15077315270900726,
        0.03835279867053032,
        -0.0788816288113594,
        0.21092960238456726,
        0.11482062190771103,
        -0.17300952970981598,
        -0.5929676294326782,
        -0.18361186981201172,
        -0.26039913296699524,
        0.30447325110435486,
        -0.20055091381072998,
        0.03418877348303795,
        0.4467581808567047,
        -0.06639328598976135,
        -0.3932133913040161,
        0.0324597992002964,
        0.3152647018432617,
        -0.08411657810211182,
        -0.34102433919906616,
        -0.04588368907570839,
        -0.5332880020141602,
        0.050903040915727615,
        -0.4043501019477844,
        -0.11241872608661652,
        -0.26549026370048523,
        0.23940886557102203,
        0.2688947021961212,
        0.18292000889778137,
        -0.4136962294578552,
        0.4381558895111084,
        -0.46304047107696533,
        -0.375739723443985,
        0.09701143950223923,
        0.31626904010772705,
        -0.4093951880931854,
        0.4386703670024872,
        0.024735337123274803,
        -0.0053606461733579636,
        -0.10340361297130585,
        0.16940967738628387,
        0.4188428223133087,
        0.1004105731844902,
        -0.287576287984848,
        0.050527676939964294,
        0.02236073836684227,
        -0.4957852363586426,
        0.11821312457323074,
        0.3555145561695099,
        0.027742711827158928,
        0.35362064838409424,
        0.05638136714696884,
        -0.03290815278887749,
        -0.20120888948440552,
        0.11076898872852325,
        -0.5140779614448547,
        0.5271077156066895,
        -0.058510180562734604,
        -0.36854955554008484,
        0.23684461414813995,
        0.31820976734161377,
        0.1483616679906845,
        -0.11570167541503906,
        0.20291627943515778,
        -0.3507750630378723,
        0.07340942323207855,
        0.589248776435852,
        0.4633481204509735,
        0.12247148901224136,
        0.38297271728515625,
        0.19073277711868286,
        0.2772868871688843,
        -0.6230183243751526,
        -0.4782925248146057,
        0.4821971356868744,
        -0.04268669709563255,
        -0.15852506458759308,
        -0.14203882217407227,
        0.3981653153896332,
        -0.23124641180038452,
        -0.025671811774373055,
        -0.10412593185901642,
        0.33595335483551025,
        -0.3178897798061371,
        0.41879114508628845,
        0.5732026100158691,
        -0.6302804946899414,
        0.3943443298339844,
        0.42081835865974426,
        0.07938864827156067,
        -0.8552508354187012,
        -0.3624814450740814,
        -0.144980788230896,
        0.11772622168064117,
        0.11715580523014069,
        -0.3932727575302124,
        -0.12632663547992706,
        0.32040533423423767,
        0.43928229808807373,
        0.006148878484964371,
        0.9982241988182068,
        0.3079890310764313,
        -0.22010476887226105,
        0.1488886922597885,
        0.09352019429206848,
        -0.14642691612243652,
        0.05097389966249466,
        -0.416802316904068,
        0.5249964594841003,
        -0.31291529536247253,
        -0.5467726588249207,
        0.0070252628065645695,
        0.1696833074092865,
        0.054556187242269516,
        -0.040550656616687775,
        0.08493760973215103,
        -0.41952401399612427,
        -0.07254009693861008,
        -0.45567837357521057,
        -0.3594207167625427,
        -1.1647071838378906,
        0.5852771401405334,
        0.12502513825893402,
        -0.9773155450820923,
        -0.41293439269065857,
        -0.008384494110941887,
        0.2890872061252594,
        -0.6205952167510986,
        -0.29208076000213623,
        -0.342288613319397,
        -0.6428529620170593,
        0.31146445870399475,
        0.8463819622993469,
        0.0036804419942200184,
        0.0721622183918953,
        0.46222013235092163,
        -0.26995399594306946,
        0.49163463711738586,
        0.5293321013450623,
        0.4368232190608978,
        0.19534827768802643,
        -0.28880149126052856,
        1.1141425371170044,
        -0.3001869320869446,
        0.16543200612068176,
        0.10509383678436279,
        0.2923581600189209,
        0.11028999090194702,
        -0.45151907205581665,
        -0.04930483177304268,
        0.3468180000782013,
        0.5191048979759216,
        -0.12714393436908722,
        -0.5422558188438416,
        0.799144446849823,
        0.28049325942993164,
        -0.448114275932312,
        -0.1920633465051651,
        0.49342963099479675,
        -0.5348570942878723,
        -0.2522937059402466,
        0.23962274193763733,
        0.47882765531539917,
        -0.28998199105262756,
        0.3313366770744324,
        -0.2014007717370987,
        -0.6223349571228027,
        -0.43057897686958313,
        0.24597159028053284,
        0.41059499979019165,
        -0.09730949252843857,
        -0.41358572244644165,
        -0.14187586307525635,
        0.34335294365882874,
        -0.06971261650323868,
        -0.13035762310028076,
        0.4167705178260803,
        -0.036617159843444824,
        -0.12325658649206161,
        0.06361238658428192,
        -0.2050626277923584,
        -0.19766147434711456,
        -0.4805924594402313,
        -0.19564633071422577,
        0.090382419526577,
        -0.23858483135700226,
        0.2339547723531723,
        -0.40998131036758423,
        0.08076006174087524,
        0.05340583622455597,
        0.07887521386146545,
        -0.36907777190208435,
        0.24164724349975586,
        0.08950009196996689,
        0.357646644115448,
        0.2003985047340393,
        -0.2590673863887787,
        -0.4543897807598114,
        0.35657575726509094,
        -0.2392256110906601,
        0.6273649334907532,
        0.3266420066356659,
        0.017380254343152046,
        -0.05730060487985611,
        0.34311556816101074,
        0.21125873923301697,
        -0.24868011474609375,
        0.1482950747013092,
        -0.01913244090974331,
        -0.4071285128593445,
        -0.6682778596878052,
        -0.3045741319656372,
        -0.5803472399711609,
        0.42179566621780396,
        -0.35682111978530884,
        -0.15192557871341705,
        -0.3807700276374817,
        -0.24443505704402924,
        0.46971625089645386,
        0.30704227089881897,
        -0.18958255648612976,
        0.3970854580402374,
        0.26185882091522217,
        -0.313263863325119,
        -0.149949848651886,
        -0.08434877544641495,
        0.33335474133491516,
        0.16355057060718536,
        -0.08745507150888443,
        -0.5048667192459106,
        -0.13691987097263336,
        0.5440824627876282,
        0.5375187397003174,
        0.21035327017307281,
        0.2658795416355133,
        -0.020392250269651413,
        0.5119156837463379,
        -0.38076865673065186,
        0.015904046595096588,
        0.16319212317466736,
        0.46229982376098633,
        -0.24685239791870117,
        -0.4742416739463806,
        0.14270290732383728,
        -0.017686117440462112,
        0.1454171985387802,
        0.3151177763938904,
        -0.16402293741703033,
        -0.1876598596572876,
        -0.2747194170951843,
        0.08176865428686142,
        -0.1728964000940323,
        -0.024942943826317787,
        -0.4456058740615845,
        -0.19712437689304352,
        -0.2971159815788269,
        -0.6218156218528748,
        -0.2394224852323532,
        0.28225019574165344,
        -0.4426306188106537,
        0.6581870317459106,
        -0.5423594117164612,
        0.08854714035987854,
        -0.5770369172096252,
        -0.06610850989818573,
        0.5158156752586365,
        0.44083619117736816,
        -0.04392526298761368,
        -0.04311566427350044,
        0.029320720583200455,
        0.4428097903728485,
        0.3345300257205963,
        -0.08563335239887238,
        -0.2601316571235657,
        0.13626569509506226,
        -0.10957533121109009,
        -0.08322644233703613,
        0.1606324166059494,
        -0.27462977170944214,
        -0.2327570915222168,
        0.2168857306241989,
        -0.5760948657989502,
        0.2242448478937149,
        -0.18516860902309418,
        0.3087262809276581,
        0.029786400496959686,
        -0.355753630399704,
        0.2258576601743698,
        0.05550868436694145,
        -0.44319626688957214,
        0.3584049344062805,
        -0.028975898399949074,
        0.6283716559410095,
        0.051150064915418625,
        -0.17640535533428192,
        0.27736327052116394,
        -0.27430886030197144,
        -0.3665110468864441,
        0.4976405203342438,
        -0.3773896396160126,
        0.465786874294281,
        -0.1782051920890808,
        -0.15427899360656738,
        -0.2854941785335541,
        0.05815940722823143,
        0.028761165216565132,
        -0.12968046963214874,
        0.40078848600387573,
        -0.3636928200721741,
        0.18761946260929108,
        0.06669774651527405,
        -0.4232698380947113,
        -0.5087915062904358,
        -0.08479346334934235,
        0.14838112890720367,
        -0.0969008132815361,
        -0.6087582111358643,
        -0.09997254610061646,
        0.06175094097852707,
        0.0857967808842659,
        -0.38604864478111267,
        -0.13249675929546356,
        0.02889409475028515,
        -0.08002142608165741,
        -0.23748597502708435,
        0.11513224989175797,
        0.05185922607779503,
        0.31395113468170166,
        -0.173224538564682,
        -0.055568877607584,
        -0.029051609337329865,
        0.23632581532001495,
        0.6346360445022583,
        -0.32432684302330017,
        0.07813768833875656,
        -0.5340936779975891,
        0.4451318383216858,
        0.18656642735004425,
        0.20553095638751984,
        0.054560523480176926,
        -0.03456615284085274,
        -0.009620411321520805,
        0.39290037751197815,
        0.4357273578643799,
        -0.07554927468299866,
        0.047227341681718826,
        0.28867319226264954,
        -0.27632784843444824,
        0.08163350820541382,
        0.23405314981937408,
        0.06881347298622131,
        -0.12306749820709229,
        0.2632676661014557,
        -0.5079402327537537,
        -0.3073136508464813,
        -0.10450375825166702,
        -0.19297510385513306,
        -0.4186617434024811,
        0.3812696039676666,
        0.30565401911735535,
        0.2522937059402466,
        -0.08340781927108765,
        -0.11446813493967056,
        0.1084180697798729,
        -0.10462592542171478,
        -0.09639872610569,
        -0.008719670586287975,
        0.42871618270874023,
        -0.03311631828546524,
        -0.3069668114185333,
        0.12916803359985352,
        0.3897498846054077,
        0.15647247433662415,
        0.11412614583969116,
        -0.23796817660331726,
        0.028397779911756516,
        -0.15531104803085327,
        -0.150404155254364,
        -0.26752063632011414,
        -0.07116765528917313,
        0.09759902209043503,
        0.39229971170425415,
        0.21728630363941193,
        -0.15478278696537018,
        0.29318854212760925,
        -0.0892367735505104,
        -0.09031334519386292,
        0.11362798511981964,
        -0.10014410316944122,
        0.13488532602787018,
        -0.02818797528743744,
        0.4725794494152069,
        -0.29416874051094055,
        0.2790181636810303,
        0.19123323261737823,
        0.3337807357311249,
        0.28728801012039185,
        0.06780054420232773,
        0.40881431102752686,
        -0.003632719162851572,
        -0.09201569855213165,
        0.006567538250237703,
        -0.21286442875862122,
        0.42160889506340027,
        -0.5332106947898865,
        -0.08548284322023392,
        -0.12024176120758057,
        0.28343498706817627,
        -0.31374579668045044,
        -0.04869528487324715,
        -0.0011059276293963194,
        -0.4440094828605652,
        -0.02942546270787716,
        -0.041837334632873535,
        0.2064627856016159,
        0.07790663838386536,
        0.36248815059661865,
        -0.01084030419588089,
        -0.29016783833503723,
        -0.1612304449081421,
        0.039416078478097916,
        0.23837217688560486,
        -0.30797627568244934,
        -0.027627313509583473,
        0.1256352663040161,
        0.2411097139120102,
        -0.11575835943222046,
        -0.012552442960441113,
        -0.16613082587718964,
        0.34705159068107605,
        0.09892844408750534,
        -0.17779019474983215,
        -0.45880326628685,
        -0.17635564506053925,
        0.20893016457557678,
        0.14615808427333832,
        0.09692372381687164,
        -0.033104922622442245,
        0.007583987433463335,
        -0.21555498242378235,
        0.1653643548488617,
        0.045373108237981796,
        -0.13123732805252075,
        0.10805272310972214,
        -0.2210487574338913,
        0.5888000130653381,
        -0.04477832093834877,
        0.12016221135854721,
        -0.5228188037872314,
        -0.21325787901878357,
        0.10728149861097336,
        0.1659780591726303,
        -0.08528991788625717,
        0.28565290570259094,
        0.07078015804290771,
        -0.19560757279396057,
        0.12260603904724121,
        -0.11215148121118546,
        -0.08046402782201767,
        -0.10551103204488754,
        0.09584696590900421,
        -0.2212935835123062,
        -0.38352665305137634,
        0.26748132705688477,
        0.03826617822051048,
        -0.12367797642946243,
        -0.29880186915397644,
        0.4816703498363495,
        -0.5462127327919006,
        0.157645583152771,
        0.31230926513671875,
        -0.47751057147979736,
        -0.038325946778059006,
        -0.13513468205928802,
        0.4037420153617859,
        0.03286239504814148,
        0.3759858012199402,
        -0.46254289150238037,
        0.349369078874588,
        -0.5347456336021423,
        -0.10237180441617966,
        0.1421986222267151,
        -0.4907035231590271,
        -0.030488761141896248,
        -0.6498543620109558,
        0.30751606822013855,
        -0.029071856290102005,
        0.20822764933109283,
        0.02771838940680027,
        -0.10477971285581589,
        -0.30646345019340515,
        -0.2646156847476959,
        0.43224936723709106,
        0.25283002853393555,
        -0.13106830418109894,
        -0.25949108600616455,
        0.12681999802589417,
        0.420872300863266,
        0.3138158917427063,
        0.672457754611969,
        -0.1704290807247162,
        0.9555425047874451,
        -0.5497680902481079,
        0.05292240157723427,
        -0.08693324774503708,
        -0.24093666672706604,
        0.28729724884033203,
        -0.28094929456710815,
        0.17122000455856323,
        0.29356858134269714,
        -0.6009722352027893,
        0.6340312361717224,
        -0.14276818931102753,
        -0.07127132266759872,
        0.033759113401174545,
        -0.6356157064437866,
        -0.20838308334350586,
        0.3194462060928345,
        -0.07292750477790833,
        0.7335300445556641,
        -0.22090718150138855,
        0.40391790866851807,
        0.10162666440010071,
        -0.28368690609931946,
        0.2399284541606903,
        -0.2418377846479416,
        0.59837806224823,
        -0.3612763583660126,
        0.5298054814338684,
        0.18267564475536346,
        0.08409668505191803,
        0.03398823365569115,
        -0.0205758735537529,
        0.20376050472259521,
        0.0524449422955513,
        0.22485119104385376,
        -0.14659951627254486,
        0.16786320507526398,
        0.17306874692440033,
        -0.09960070252418518,
        -0.023674355819821358,
        0.0460580475628376,
        -0.2019449919462204,
        0.14060932397842407,
        0.14048908650875092,
        -0.05309126153588295,
        0.19035223126411438,
        -0.23053798079490662,
        0.1849723607301712,
        -0.3144383132457733,
        -0.3320431411266327,
        -0.1102314218878746,
        -0.6424626111984253,
        0.4052385985851288,
        0.10747013986110687,
        0.2709147036075592,
        0.16699497401714325,
        0.04133426398038864,
        -0.3354824483394623,
        -0.5503819584846497,
        0.4010789096355438,
        -0.16559787094593048,
        -0.5131036639213562,
        0.34138211607933044,
        0.39358648657798767,
        0.06837722659111023,
        0.34357741475105286,
        -0.7039204239845276,
        0.24882197380065918,
        0.40827566385269165,
        -0.08246961236000061,
        -0.18505164980888367,
        0.45528465509414673,
        0.7139381766319275,
        -0.23329776525497437,
        0.06550029665231705,
        0.13688042759895325,
        0.21004612743854523,
        -0.20111209154129028,
        0.29445454478263855,
        -0.04796719551086426,
        -0.035915859043598175,
        -0.39414292573928833,
        0.49542778730392456,
        0.2848811745643616,
        -0.24467837810516357,
        -0.4349159002304077,
        -0.25421014428138733,
        0.4685874879360199,
        0.5526283383369446,
        -0.2542558014392853,
        -0.33953696489334106,
        0.3207448422908783,
        0.13509704172611237,
        -0.13296730816364288,
        0.29355037212371826,
        -0.030583487823605537,
        -0.04161076992750168,
        0.42230039834976196,
        -0.3877347409725189,
        -0.3361376225948334,
        0.07409348338842392,
        -0.5846356153488159,
        -0.1534283310174942,
        0.33738189935684204,
        0.06479620188474655,
        -0.25018537044525146,
        -0.24068287014961243,
        0.303984671831131,
        0.1426481008529663,
        0.5486669540405273,
        -0.26811298727989197,
        -0.020692897960543633,
        0.0986453965306282,
        -0.07824737578630447,
        0.38413140177726746,
        -0.2570076882839203,
        -0.47320127487182617,
        0.12002210319042206,
        -0.11602456867694855,
        0.1847100704908371,
        0.09843966364860535,
        0.23408876359462738,
        0.25297650694847107,
        0.5407038331031799,
        0.48993536829948425,
        -0.06810703873634338,
        -0.6037954092025757,
        -0.0047157988883554935,
        0.04700339213013649,
        0.09540697187185287,
        -0.5589408278465271,
        0.16141337156295776,
        0.00450533302500844,
        0.11261970549821854,
        0.49627259373664856,
        -0.44013267755508423,
        -0.044890835881233215,
        0.6597033739089966,
        0.04055262729525566,
        0.5833658576011658,
        0.06173807755112648,
        -0.09032783657312393,
        -0.15716049075126648,
        0.2162848860025406,
        -0.3508588671684265,
        0.7750257849693298,
        -0.16022107005119324,
        0.4463166892528534,
        0.031005267053842545,
        -0.06992249935865402,
        0.05741620808839798,
        0.4688373804092407,
        0.32028892636299133,
        0.07862072438001633,
        -0.7141590118408203,
        -0.274116575717926,
        0.4475894570350647,
        -0.4269663989543915,
        -0.4370429217815399,
        0.06699345260858536,
        0.4426874816417694,
        0.03029320389032364,
        -0.3120982348918915,
        0.6725571155548096,
        0.32884469628334045,
        -0.43122178316116333,
        0.34590834379196167,
        -0.006036068312823772,
        0.14117754995822906,
        0.27814558148384094,
        0.23608307540416718,
        -0.1117219552397728,
        0.3826879858970642,
        -0.06334894895553589,
        -0.18475157022476196,
        -0.08309192210435867,
        0.21663552522659302,
        0.31073805689811707,
        -0.6720161437988281,
        -0.42140331864356995,
        0.034326761960983276,
        -0.3691045045852661,
        -0.008222823031246662,
        -0.7077605724334717,
        0.0633552074432373,
        0.10385168343782425,
        0.5899415016174316,
        0.140863299369812,
        0.7012457847595215,
        0.12090180069208145,
        0.49358370900154114,
        0.232952281832695,
        -0.5090649127960205,
        0.15950147807598114,
        -0.13421815633773804,
        0.49534115195274353,
        0.011268386617302895,
        0.2630326747894287,
        0.1484604924917221,
        0.49045470356941223,
        -0.3398420810699463,
        0.17161577939987183,
        -0.14606201648712158,
        -0.6032939553260803,
        -0.8846178650856018,
        -0.45635583996772766,
        -0.6822574138641357,
        0.24335628747940063,
        -0.3249001204967499,
        -0.1487957388162613,
        0.3572523891925812,
        -0.25302937626838684,
