{
  "version": 2,
  "kind": "mlp",
  "featureNames": [
    "rank_balance_0",
    "rank_balance_1",
    "rank_balance_2",
    "rank_balance_3",
    "rank_balance_4",
    "rank_balance_5",
    "rank_balance_6",
    "rank_balance_7",
    "rank_balance_8",
    "rank_balance_9",
    "rank_balance_10",
    "rank_balance_11",
    "material_value_diff",
    "movable_piece_diff",
    "scout_diff",
    "miner_diff",
    "bomb_diff",
    "high_rank_diff",
    "revealed_ratio_diff",
    "hidden_high_rank_diff",
    "advancement_diff",
    "frontline_diff",
    "center_control_diff",
    "flag_guard_diff",
    "flag_pressure_diff",
    "turn_advantage",
    "game_phase"
  ],
  "layers": [
    {
      "inputSize": 27,
      "outputSize": 96,
      "weights": [
        0.1993301808834076,
        0.06362293660640717,
        1.0628026723861694,
        0.581639289855957,
        -0.35504773259162903,
        -0.41622817516326904,
        0.0861828401684761,
        0.9373812675476074,
        0.6359443664550781,
        -0.36360621452331543,
        0.6395647525787354,
        0.14305785298347473,
        0.30527421832084656,
        0.9532566070556641,
        1.323529839515686,
        0.34155187010765076,
        0.0004745067562907934,
        0.8530217409133911,
        0.5817227959632874,
        0.07238082587718964,
        1.408113718032837,
        -1.969811201095581,
        0.06914795935153961,
        -0.08226597309112549,
        0.11301147937774658,
        -0.008989743888378143,
        -0.7585339546203613,
        -0.07635517418384552,
        -0.0463855005800724,
        0.19143898785114288,
        -0.6888586282730103,
        1.1631524562835693,
        1.190916895866394,
        -0.2057998776435852,
        -0.5211290717124939,
        -1.030352234840393,
        0.1875338852405548,
        0.02553447149693966,
        -0.11967763304710388,
        0.16697989404201508,
        0.23252958059310913,
        0.3593854606151581,
        -0.6382222175598145,
        0.035453349351882935,
        -0.6905544400215149,
        -0.7388868927955627,
        -0.4241071939468384,
        -0.30013665556907654,
        -0.1321963369846344,
        0.8048499226570129,
        0.08034799993038177,
        1.2658120393753052,
        -0.0010733308736234903,
        0.24926558136940002,
        -0.30534401535987854,
        -0.6023263335227966,
        -0.4146292209625244,
        -0.7168477773666382,
        0.13354617357254028,
        0.7354167103767395,
        0.087037593126297,
        1.752245545387268,
        2.3075613975524902,
        -0.5661196112632751,
        -0.34932851791381836,
        -1.5203791856765747,
        0.36689144372940063,
        0.5166609287261963,
        -0.18670783936977386,
        -0.38391852378845215,
        -1.6390289068222046,
        1.2638229131698608,
        -0.024224938824772835,
        0.34571731090545654,
        0.45880457758903503,
        0.02637960948050022,
        -0.28342363238334656,
        0.09568649530410767,
        0.5700588822364807,
        0.003486786037683487,
        0.045304086059331894,
        -0.1257009506225586,
        -0.5538928508758545,
        -0.3088083565235138,
        0.01852208375930786,
        -0.14716865122318268,
        0.5032763481140137,
        1.293664813041687,
        1.5318681001663208,
        0.6524548530578613,
        -0.12126427888870239,
        -1.7203718423843384,
        -0.7926543354988098,
        0.36504119634628296,
        0.5129616856575012,
        -0.4428316056728363,
        0.12157466262578964,
        -0.9264662265777588,
        -0.14292791485786438,
        0.03976314514875412,
        0.371613472700119,
        -2.001836061477661,
        -0.7013587355613708,
        -1.9389762878417969,
        -0.008434821851551533,
        -0.5882207751274109,
        -0.014544040895998478,
        0.8835620880126953,
        -0.11590582877397537,
        1.9438234567642212,
        0.242643341422081,
        -1.0411603450775146,
        -0.638092041015625,
        0.40437233448028564,
        0.7221882939338684,
        1.667764663696289,
        -2.417721748352051,
        0.3113038241863251,
        0.300956666469574,
        -2.6346077919006348,
        -0.10152827203273773,
        0.038370873779058456,
        0.15161973237991333,
        -0.8468123078346252,
        -2.606024742126465,
        -1.5107678174972534,
        0.9975877404212952,
        -1.4094427824020386,
        0.21885676681995392,
        -1.4095680713653564,
        -2.1272969245910645,
        0.05988744646310806,
        -0.1479160636663437,
        -0.0021934532560408115,
        -0.09385208785533905,
        -0.0881495326757431,
        -0.037783507257699966,
        1.3716570138931274,
        -0.7703562378883362,
        1.9986140727996826,
        0.10069863498210907,
        -0.8365951776504517,
        -0.7094444036483765,
        0.19543728232383728,
        0.3007334768772125,
        -0.8651111125946045,
        -0.6885974407196045,
        -0.12991094589233398,
        0.6351507306098938,
        1.2102631330490112,
        -0.9094363451004028,
        -0.9718016386032104,
        0.23394925892353058,
        -0.7245988845825195,
        1.903676152229309,
        0.7004364132881165,
        -0.01269700936973095,
        -0.22882720828056335,
        0.08346690237522125,
        -1.3190511465072632,
        -0.004627011716365814,
        0.05286051705479622,
        0.2326328307390213,
        -0.29224538803100586,
        -0.517697274684906,
        -0.39679980278015137,
        -0.6451156735420227,
        -2.060882806777954,
        0.04204166308045387,
        -0.9981139898300171,
        1.2251263856887817,
        -0.3077794015407562,
        -0.5420997738838196,
        -0.44918641448020935,
        -0.5457038283348083,
        -1.3199131488800049,
        -0.5898815989494324,
        -0.2548958957195282,
        -0.5482261180877686,
        0.5475258827209473,
        2.3420419692993164,
        1.7330474853515625,
        0.18595696985721588,
        1.552866816520691,
        0.01796320453286171,
        0.018229210749268532,
        0.781059980392456,
        0.004390336573123932,
        0.0013605121057480574,
        -0.04499315470457077,
        -0.9280005693435669,
        1.160339593887329,
        -1.3002128601074219,
        -0.07568354159593582,
        0.21346230804920197,
        1.878513216972351,
        1.0302774906158447,
        -0.6305508613586426,
        -0.01716776005923748,
        -0.25163939595222473,
        -0.5261371731758118,
        0.005225497297942638,
        0.41828209161758423,
        1.0519697666168213,
        -1.2041341066360474,
        -0.4136824607849121,
        -0.7122127413749695,
        0.9697907567024231,
        0.6627896428108215,
        0.49068179726600647,
        -1.1562200784683228,
        -1.1505054235458374,
        0.14117813110351562,
        -0.6152257323265076,
        0.0004392836126498878,
        0.01255469024181366,
        0.012625726871192455,
        0.017623845487833023,
        0.6901534795761108,
        1.1373845338821411,
        -0.8025383949279785,
        0.2251325100660324,
        1.0731201171875,
        0.0025064025539904833,
        -0.5812398195266724,
        -1.0954248905181885,
        0.37765011191368103,
        -0.3016948103904724,
        0.36016860604286194,
        0.6951014995574951,
        0.7207196950912476,
        1.3791654109954834,
        -0.13703152537345886,
        -0.7552276253700256,
        -0.7455207705497742,
        0.5765922665596008,
        0.699284017086029,
        1.3122899532318115,
        0.02797922119498253,
        -0.2813957631587982,
        -0.09588154405355453,
        0.0013559794751927257,
        -0.05633055791258812,
        0.03879847005009651,
        0.07864845544099808,
        -0.7799050807952881,
        -0.2733030617237091,
        -0.49900105595588684,
        0.22773833572864532,
        0.3390292823314667,
        -0.21402320265769958,
        0.4680791199207306,
        0.15373273193836212,
        -0.4117185175418854,
        -0.4716476500034332,
        -0.06658908724784851,
        -0.36598917841911316,
        -0.6822805404663086,
        -0.028167210519313812,
        -0.40681779384613037,
        0.17804518342018127,
        0.7222766280174255,
        0.3795164227485657,
        -0.5112617015838623,
        -0.3879030644893646,
        0.20432013273239136,
        0.07273025065660477,
        0.3646768033504486,
        0.0015506551135331392,
        -0.24971868097782135,
        -0.16458377242088318,
        -0.5628577470779419,
        -0.652938723564148,
        -0.2469170093536377,
        3.229785919189453,
        0.6703008413314819,
        -0.22547103464603424,
        0.2980562150478363,
        -0.7552281022071838,
        -0.7885712385177612,
        1.3389123678207397,
        0.8069764971733093,
        0.35790500044822693,
        0.2826146185398102,
        -0.7492958307266235,
        -0.3075730800628662,
        0.920692503452301,
        -0.3981899619102478,
        -3.462873935699463,
        -2.290234088897705,
        -0.9844784736633301,
        -1.5116013288497925,
        0.5680302977561951,
        -0.05506356060504913,
        0.4499266445636749,
        0.0033622642513364553,
        -0.10340971499681473,
        0.0611264742910862,
        0.35366106033325195,
        0.40609726309776306,
        -0.4051753878593445,
        -0.30521902441978455,
        -1.5674729347229004,
        0.9278900027275085,
        -0.15568964183330536,
        0.4613553583621979,
        1.31912100315094,
        -0.7922984957695007,
        0.4442434310913086,
        0.21767567098140717,
        -0.14961585402488708,
        0.20842374861240387,
        -0.30921775102615356,
        0.6491334438323975,
        0.6442753672599792,
        -1.1665033102035522,
        -0.5036165714263916,
        -0.30670663714408875,
        -0.20325347781181335,
        -0.5039016604423523,
        -0.1381593644618988,
        0.3349628448486328,
        -0.005886762868613005,
        0.018076520413160324,
        -0.08199312537908554,
        -0.43934518098831177,
        -0.005445221904665232,
        -1.3651199340820312,
        -0.4899427592754364,
        0.49100053310394287,
        0.5615659356117249,
        -0.5627665519714355,
        -0.26162734627723694,
        0.4490441679954529,
        0.35478049516677856,
        -0.646375298500061,
        -0.2946792244911194,
        -0.31339994072914124,
        0.2378588765859604,
        -1.3124639987945557,
        -0.9079086184501648,
        0.1656695008277893,
        -0.40920838713645935,
        -1.6124038696289062,
        -0.80758136510849,
        1.2702468633651733,
        2.2114105224609375,
        -0.04822282865643501,
        -1.1787151098251343,
        0.00020266068167984486,
        0.039722099900245667,
        0.21721529960632324,
        0.8974549174308777,
        0.2332487553358078,
        -0.3707377016544342,
        0.33520254492759705,
        2.6776092052459717,
        -0.4081733822822571,
        0.3067360818386078,
        -0.929302453994751,
        0.14264048635959625,
        0.22152316570281982,
        0.6778035163879395,
        0.41108906269073486,
        0.9923847913742065,
        0.4927612245082855,
        -0.570382297039032,
        0.39917099475860596,
        -0.3527672588825226,
        -0.9052974581718445,
        0.008880546316504478,
        -0.10935747623443604,
        3.0543370246887207,
        -0.7999712824821472,
        -0.0729597806930542,
        0.9725275039672852,
        0.013903884217143059,
        0.007585955783724785,
        -0.3143908679485321,
        0.6695513725280762,
        0.2520972192287445,
        1.7891292572021484,
        4.1606950759887695,
        1.1313819885253906,
        -0.9256662726402283,
        -0.9176393151283264,
        -0.4442553222179413,
        -0.10331548005342484,
        0.8537867069244385,
        -1.2324354648590088,
        0.867457389831543,
        2.411973237991333,
        0.47707417607307434,
        1.9441893100738525,
        -1.4428014755249023,
        -0.0014165607281029224,
        2.9376204013824463,
        -1.096663236618042,
        0.35919496417045593,
        -1.861188292503357,
        0.052395038306713104,
        0.08135902881622314,
        1.0319942235946655,
        0.006821294315159321,
        0.03650493174791336,
        -0.11554078757762909,
        -0.2745955288410187,
        0.06063462793827057,
        -0.2604905962944031,
        1.3598613739013672,
        2.326615810394287,
        -1.054373860359192,
        -0.336806058883667,
        0.3653908371925354,
        -0.14630457758903503,
        -0.5456778407096863,
        0.46476709842681885,
        0.31193190813064575,
        0.5068597793579102,
        -0.08867525309324265,
        -0.3091416358947754,
        0.4158547818660736,
        -0.17049795389175415,
        0.10622728615999222,
        1.6815694570541382,
        1.4622993469238281,
        0.6685792207717896,
        -0.24097883701324463,
        -0.11835277080535889,
        -0.4254921078681946,
        1.2107058864785358e-05,
        -0.0030767840798944235,
        -0.20753711462020874,
        0.673443078994751,
        -0.6143124103546143,
        0.4235723316669464,
        -0.3659343123435974,
        2.3129425048828125,
        -1.1099839210510254,
        -0.31963425874710083,
        -0.04871388152241707,
        -0.20988424122333527,
        1.2882758378982544,
        -1.6321537494659424,
        0.1427690088748932,
        0.4140510857105255,
        -0.6344869136810303,
        0.6184600591659546,
        -1.5785622596740723,
        0.24226392805576324,
        -2.342247486114502,
        1.9859784841537476,
        -1.0296491384506226,
        0.07420384138822556,
        0.43523409962654114,
        0.009715931490063667,
        -0.11813118308782578,
        -0.011366155929863453,
        -0.013313421979546547,
        -0.25929370522499084,
        -0.1469493806362152,
        -0.6471722722053528,
        1.3199135065078735,
        -0.005371100269258022,
        0.6288009285926819,
        0.8163807988166809,
        -0.08964678645133972,
        -0.2581685483455658,
        0.11319401115179062,
        0.509081244468689,
        0.4603410065174103,
        0.3117276430130005,
        0.46875640749931335,
        -0.5833645462989807,
        1.4235881567001343,
        0.4846302568912506,
        -0.22940753400325775,
        -0.8545120358467102,
        -1.5133939981460571,
        -0.165782168507576,
        0.3295355439186096,
        0.9791721105575562,
        -0.031507670879364014,
        -0.44431009888648987,
        -0.0015420493436977267,
        -0.03892718628048897,
        -0.06149410828948021,
        -0.05664434656500816,
        0.05556930974125862,
        0.44238537549972534,
        -1.0803278684616089,
        -0.8206835389137268,
        -1.2590181827545166,
        0.17256103456020355,
        0.18558445572853088,
        0.25129377841949463,
        0.15380078554153442,
        -0.3324671983718872,
        -0.18599258363246918,
        -0.41476812958717346,
        0.06100383400917053,
        0.7362944483757019,
        -0.4435647130012512,
        0.26905158162117004,
        0.08548881113529205,
        -0.7449925541877747,
        -1.490211844444275,
        -0.5492724180221558,
        0.1421167105436325,
        -0.07814186811447144,
        -1.3664764165878296,
        -0.005671643186360598,
        0.02000010944902897,
        -0.13793572783470154,
        -0.2896948754787445,
        0.660423994064331,
        -0.8299417495727539,
        0.502311110496521,
        0.02460579015314579,
        0.6642349362373352,
        0.14157314598560333,
        0.41515910625457764,
        0.13418112695217133,
        -0.36852535605430603,
        0.14896173775196075,
        0.21586252748966217,
        0.2928750216960907,
        0.6342984437942505,
        -0.709955632686615,
        0.3681480884552002,
        0.49554383754730225,
        0.21431748569011688,
        -0.8432935476303101,
        0.060604844242334366,
        0.3080766201019287,
        0.23465147614479065,
        0.24690857529640198,
        1.8474258184432983,
        0.0013562031090259552,
        -0.14730185270309448,
        0.0628790557384491,
        1.5038801431655884,
        -0.3281722664833069,
        -1.062372088432312,
        -1.0646315813064575,
        0.029841164126992226,
        -1.2647336721420288,
        3.211754560470581,
        0.7583354711532593,
        -1.0879870653152466,
        -1.3279134035110474,
        0.11805248260498047,
        -0.258384644985199,
        -0.14774052798748016,
        -0.1663900464773178,
        -0.9559934735298157,
        0.16598887741565704,
        -0.9331059455871582,
        1.2562110424041748,
        1.8383193016052246,
        -2.0666730403900146,
        -1.0994722843170166,
        0.4036850333213806,
        -0.027302300557494164,
        -0.4136178493499756,
        -0.007102555129677057,
        -0.06499158591032028,
        -0.32438090443611145,
        0.8472043871879578,
        -1.1331486701965332,
        0.5664437413215637,
        1.0780200958251953,
        1.7121367454528809,
        0.7690322399139404,
        -1.0136703252792358,
        1.0016648769378662,
        1.7094552516937256,
        0.1643563210964203,
        -0.3642479479312897,
        0.5436757206916809,
        1.0165741443634033,
        -1.2539923191070557,
        0.6963223814964294,
        -0.4432997703552246,
        1.7070178985595703,
        0.17267680168151855,
        0.628944456577301,
        2.177945613861084,
        -1.415850281715393,
        1.6124686002731323,
        -0.06594769656658173,
        -1.1891530752182007,
        -0.006610879674553871,
        0.060955390334129333,
        -0.006491235923022032,
        -0.37671178579330444,
        0.0922665148973465,
        0.10302361845970154,
        -1.2827751636505127,
        -0.5114133358001709,
        0.22656257450580597,
        0.2797199785709381,
        0.4948605000972748,
        0.0924505665898323,
        -0.011953545734286308,
        0.5509096384048462,
        -0.21264031529426575,
        -0.46586042642593384,
        -0.1152581125497818,
        -0.03906705603003502,
        0.536913275718689,
        0.5002637505531311,
        2.021461248397827,
        0.45849817991256714,
        2.1729660034179688,
        -0.06469029188156128,
        0.08889025449752808,
        0.2672989070415497,
        -0.16021646559238434,
        0.006381562445312738,
        -0.003446822054684162,
        0.07226386666297913,
        -0.20791642367839813,
        -0.5586467385292053,
        0.27025526762008667,
        -0.18081875145435333,
        -0.45179691910743713,
        1.24763822555542,
        -0.6845657229423523,
        -1.3044639825820923,
        -0.08335620164871216,
        -0.014825708232820034,
        0.36961236596107483,
        -0.06051265820860863,
        -0.4333384931087494,
        -0.2919473350048065,
        0.5911175012588501,
        0.35831883549690247,
        -1.1560912132263184,
        2.7485485076904297,
        0.7775996327400208,
        -0.9256739020347595,
        1.289860725402832,
        -0.9424243569374084,
        -0.06262572854757309,
        0.031102774664759636,
        -0.005165261682122946,
        -0.0905076414346695,
        -0.08788739144802094,
        -1.1790109872817993,
        -0.2262156754732132,
        0.08952455222606659,
        0.5455424189567566,
        -1.336220383644104,
        -1.6382683515548706,
        1.313776969909668,
        0.19177871942520142,
        -1.388399600982666,
        0.142535001039505,
        0.15338002145290375,
        0.06127364933490753,
        -0.4319332540035248,
        -0.09705813229084015,
        0.021637804806232452,
        0.23703309893608093,
        -0.4964108169078827,
        -0.024006851017475128,
        0.5516675114631653,
        0.12653207778930664,
        0.9745139479637146,
        -1.8835453987121582,
        0.12187992036342621,
        0.9125649333000183,
        -0.007233357988297939,
        -0.02181357331573963,
        0.4096357226371765,
        -0.5780556201934814,
        -0.7390739321708679,
        1.8052866458892822,
        -0.9956089854240417,
        0.2505643665790558,
        -0.7900983691215515,
        -0.004084836691617966,
        -0.07702283561229706,
        -0.9809942245483398,
        -0.49250948429107666,
        -0.03670722618699074,
        -0.23817375302314758,
        -0.617695689201355,
        -0.8639011383056641,
        1.9030930995941162,
        -0.071489617228508,
        -0.5899314284324646,
        -0.05030813440680504,
        -1.0400108098983765,
        -1.0106889009475708,
        1.0575906038284302,
        -0.8126322627067566,
        -0.017399178817868233,
        0.5165861248970032,
        -0.021351849660277367,
        0.031859397888183594,
        -0.04354499280452728,
        -0.3681483864784241,
        1.6496630907058716,
        -1.5752264261245728,
        -0.4122923016548157,
        0.6798437237739563,
        -0.2681325674057007,
        -0.1005772277712822,
        1.0129485130310059,
        -0.6566715836524963,
        0.3228095471858978,
        -0.10990986227989197,
        -0.03543117269873619,
        0.38626089692115784,
        1.4008063077926636,
        -1.5804721117019653,
        -0.23880448937416077,
        0.2097417414188385,
        -2.3629677295684814,
        -2.257070541381836,
        1.16046941280365,
        0.8426706194877625,
        1.2790690660476685,
        0.026697752997279167,
        0.14178955554962158,
        0.009811683557927608,
        0.023431167006492615,
        -0.19781430065631866,
        0.33033519983291626,
        0.016985632479190826,
        0.8138669729232788,
        -0.15598046779632568,
        0.6615298986434937,
        0.49979761242866516,
        0.04024370387196541,
        0.6676522493362427,
        -0.04893161356449127,
        0.14371360838413239,
        0.5640578269958496,
        0.453554630279541,
        0.8218212723731995,
        0.0024112749379128218,
        0.6825689077377319,
        0.37255537509918213,
        0.4610012471675873,
        -0.6709414720535278,
        -1.6609269380569458,
        -1.7792059183120728,
        0.32935038208961487,
        0.5073870420455933,
        -0.1376299113035202,
        0.2889305055141449,
        -0.0052663045935332775,
        -0.027876682579517365,
        0.24610456824302673,
        -1.0910758972167969,
        0.8016775250434875,
        -1.5060250759124756,
        0.60540372133255,
        0.7812743782997131,
        -1.1034060716629028,
        -2.416954517364502,
        -0.32141491770744324,
        -0.5144559741020203,
        -1.5667229890823364,
        -1.1049184799194336,
        -0.4950256049633026,
        -0.5842502117156982,
        0.9929502010345459,
        -1.4785938262939453,
        -1.2079484462738037,
        -1.0919638872146606,
        -1.0911650657653809,
        -1.0651222467422485,
        -0.042984556406736374,
        0.8298254609107971,
        -0.7994738817214966,
        -0.008640604093670845,
        0.1392025202512741,
        -0.012101915664970875,
        0.10509714484214783,
        0.009786490350961685,
        -0.25033313035964966,
        0.479017972946167,
        0.11084815114736557,
        0.623382031917572,
        1.0192291736602783,
        1.118766188621521,
        -0.7692937850952148,
        -1.415729284286499,
        1.0935022830963135,
        -1.6934335231781006,
        0.00404721312224865,
        -0.17648164927959442,
        0.4880655109882355,
        0.6833993196487427,
        -0.037436265498399734,
        0.1121823638677597,
        -1.2952899932861328,
        -1.035407304763794,
        0.7644644379615784,
        -1.3953598737716675,
        0.3156513273715973,
        1.167441964149475,
        0.13951219618320465,
        -1.03779935836792,
        -0.0031106898095458746,
        -0.45613420009613037,
        0.05459862947463989,
        0.20407353341579437,
        0.347781777381897,
        -0.7180052399635315,
        0.8675381541252136,
        -1.6306073665618896,
        0.5212942361831665,
        -0.9065677523612976,
        -1.7115942239761353,
        0.01060912013053894,
        -1.788662314414978,
        2.2051737308502197,
        -0.33867913484573364,
        -0.4526512324810028,
        0.39826643466949463,
        -0.6473124623298645,
        2.099261522293091,
        -2.3164565563201904,
        -1.3704091310501099,
        0.8426953554153442,
        -2.3796188831329346,
        -0.6459981799125671,
        0.8079684376716614,
        0.14512501657009125,
        0.20646266639232635,
        -0.007424467708915472,
        -0.011053062044084072,
        -0.022967392578721046,
        0.34688031673431396,
        0.2999621629714966,
        -0.4135391116142273,
        -1.252665638923645,
        0.806235671043396,
        -0.27628210186958313,
        0.25686174631118774,
        1.1832609176635742,
        -0.7311665415763855,
        -0.9040096998214722,
        0.8346735835075378,
        -0.12491095811128616,
        -0.020509110763669014,
        0.5101826190948486,
        -0.45428013801574707,
        0.5823033452033997,
        0.05690312758088112,
        -1.0739341974258423,
        -0.5913054347038269,
        0.6036463975906372,
        -0.0353412851691246,
        -0.11325545608997345,
        0.15999045968055725,
        -0.3196749985218048,
        -0.002476179739460349,
        0.015562117099761963,
        0.07255261391401291,
        -1.5475358963012695,
        1.0531307458877563,
        0.5721808671951294,
        -1.2808597087860107,
        -0.3455314338207245,
        -0.7053741812705994,
        0.3016054034233093,
        -1.0537810325622559,
        0.5448427796363831,
        -0.48708459734916687,
        -0.17234520614147186,
        -0.21177734434604645,
        -0.2533354163169861,
        0.9398353099822998,
        0.8708709478378296,
        -0.2626127004623413,
        -0.9544962644577026,
        -1.546338438987732,
        -1.6343083381652832,
        -1.3118208646774292,
        -1.455468773841858,
        1.362716555595398,
        0.013592047616839409,
        -0.45903280377388,
        -0.0013935737079009414,
        0.010106885805726051,
        0.29835227131843567,
        0.18771938979625702,
        -0.37899646162986755,
        -0.6172273755073547,
        0.10005229711532593,
        0.5649188160896301,
        -0.9395854473114014,
        0.1731233447790146,
        -0.11696009337902069,
        0.5898162126541138,
        0.29219168424606323,
        -0.2369440495967865,
        0.07950624823570251,
        -0.1912783831357956,
        -0.6181172728538513,
        -0.5661244988441467,
        -0.30216124653816223,
        0.1396687775850296,
        0.36039426922798157,
        0.17170239984989166,
        -0.7873517274856567,
        -1.3387210369110107,
        0.4682692289352417,
        -0.3584546148777008,
        0.9620885848999023,
        0.00046262540854513645,
        0.13822509348392487,
        0.22261938452720642,
        -0.9340139627456665,
        0.13493406772613525,
        -0.25574183464050293,
        -0.07858366519212723,
        -1.09541654586792,
        -0.9699239134788513,
        -0.9244387149810791,
        -0.7809505462646484,
        0.5047637224197388,
        -1.1991167068481445,
        -1.2848865985870361,
        -0.7856191396713257,
        -0.9338794946670532,
        0.16016462445259094,
        -0.4593413770198822,
        -1.2022004127502441,
        -0.8377951383590698,
        -0.7246487140655518,
        -0.34812912344932556,
        2.6061959266662598,
        1.7977774143218994,
        0.018864434212446213,
        -0.04667063429951668,
        -0.2335246056318283,
        0.0065879058092832565,
        0.02967759780585766,
        0.011705008335411549,
        -0.08707709610462189,
        1.0338239669799805,
        -1.9124606847763062,
        0.479493647813797,
        -2.6500942707061768,
        0.19573381543159485,
        0.8446917533874512,
        0.25842148065567017,
        -0.6853098273277283,
        1.1349775791168213,
        0.7848131060600281,
        -0.09268894791603088,
        -0.46809113025665283,
        0.9553318023681641,
        -1.8210772275924683,
        0.44905728101730347,
        0.5757792592048645,
        1.6709870100021362,
        -0.732930064201355,
        -1.0383614301681519,
        -0.9461818337440491,
        -0.18190637230873108,
        0.056336596608161926,
        -0.046449992805719376,
        -0.006506897043436766,
        0.00014272102271206677,
        0.032417286187410355,
        -0.3457627594470978,
        -0.4482901096343994,
        -0.022936245426535606,
        -0.7649562954902649,
        -0.2729845345020294,
        -0.5789257287979126,
        -0.22862903773784637,
        0.07287777960300446,
        -1.4239816665649414,
        0.11404450237751007,
        0.5584121942520142,
        -0.11299446225166321,
        -0.8852152824401855,
        -0.25535157322883606,
        -0.32958996295928955,
        0.5089235305786133,
        -0.2135120928287506,
        1.389331579208374,
        -0.3079940378665924,
        1.3035166263580322,
        -0.031935811042785645,
        0.23478583991527557,
        -0.09868986159563065,
        -0.6650562882423401,
        0.0002898650709539652,
        0.040831126272678375,
        -0.03848007321357727,
        -0.0007861419580876827,
        -1.2915252447128296,
        0.29507210850715637,
        -1.13955557346344,
        -0.985095202922821,
        0.38521823287010193,
        0.8016481995582581,
        0.6027496457099915,
        0.3487148582935333,
        -0.6311604380607605,
        1.0158425569534302,
        0.12622882425785065,
        -0.511009931564331,
        -1.3553816080093384,
        0.4281384348869324,
        1.366914987564087,
        0.21896009147167206,
        1.0037232637405396,
        0.4984627366065979,
        -1.2423388957977295,
        -1.0047463178634644,
        -0.8426470160484314,
        0.10933493077754974,
        0.05435217171907425,
        -0.007728083059191704,
        -0.0018127718940377235,
        -0.23899005353450775,
        0.06486688554286957,
        1.1669355630874634,
        -0.8830081224441528,
        -1.0068484544754028,
        -0.329581081867218,
        -1.7931568622589111,
        0.38911592960357666,
        3.480625629425049,
        0.9417042136192322,
        1.0463809967041016,
        -0.7751941084861755,
        0.044335536658763885,
        0.18237178027629852,
        1.18379545211792,
        -0.9513702392578125,
        -0.8607676029205322,
        5.554610252380371,
        -0.15948863327503204,
        0.6265237331390381,
        -0.5875752568244934,
        0.7265620827674866,
        1.0785590410232544,
        0.12640918791294098,
        -1.0881246328353882,
        -0.0035519651137292385,
        0.01635286770761013,
        -0.10417211800813675,
        -0.4020553529262543,
        0.2048574984073639,
        -0.5998515486717224,
        0.7879348397254944,
        0.06590180099010468,
        -1.9670476913452148,
        -0.06469497829675674,
        0.6572022438049316,
        0.08207039535045624,
        -0.2570509612560272,
        -0.4021924138069153,
        -0.2335258275270462,
        -0.4172229766845703,
        -0.07809151709079742,
        -0.6971054673194885,
        -0.14001181721687317,
        0.416197806596756,
        -2.8920140266418457,
        1.524380087852478,
        0.871883749961853,
        1.8649958372116089,
        -0.799778163433075,
        0.15338768064975739,
        -0.40923506021499634,
        0.00874484982341528,
        0.0446837842464447,
        0.15781041979789734,
        0.6239911317825317,
        0.5213311314582825,
        0.6220525503158569,
        0.702582597732544,
        0.05842876061797142,
        0.6804671287536621,
        -3.842090129852295,
        0.004197270609438419,
        -0.33238157629966736,
        1.9559260606765747,
        0.3028388023376465,
        -0.013692970387637615,
        0.2941559851169586,
        0.44449397921562195,
        0.6622786521911621,
        0.4226178824901581,
        0.7402291297912598,
        -2.9635226726531982,
        1.9617427587509155,
        1.0524011850357056,
        -2.73341703414917,
        0.009618603624403477,
        -0.02523142285645008,
        -0.06154885143041611,
        -0.00394532922655344,
        -0.04828546568751335,
        0.2274864912033081,
        -0.03959439694881439,
        1.9604915380477905,
        -0.5223747491836548,
        0.01961723156273365,
        -0.3213682770729065,
        1.194543719291687,
        -2.4438552856445312,
        -1.5046117305755615,
        -0.46304962038993835,
        -1.3130306005477905,
        1.1621111631393433,
        -0.16758470237255096,
        -0.15786463022232056,
        1.8342481851577759,
        -0.7079048156738281,
        1.1673964262008667,
        -1.8549998998641968,
        -2.720625400543213,
        -0.06288722902536392,
        1.4586796760559082,
        0.8851175308227539,
        0.7507971525192261,
        -0.13016852736473083,
        -0.3842458426952362,
        0.012659736908972263,
        -0.04674496874213219,
        0.1768413931131363,
        0.38357362151145935,
        0.20416252315044403,
        1.690914511680603,
        -0.8019328117370605,
        0.020786728709936142,
        0.034419652074575424,
        -1.4640886783599854,
        -0.08939896523952484,
        0.8893868327140808,
        0.06444751471281052,
        0.06569763273000717,
        -0.2952554523944855,
        0.2637467384338379,
        0.2136046141386032,
        1.5995028018951416,
        -0.1470681130886078,
        0.42270296812057495,
        0.5693793892860413,
        0.059321075677871704,
        1.763486623764038,
        0.20673240721225739,
        0.5995081067085266,
        -0.23979514837265015,
        -0.8531506657600403,
        -0.003331000218167901,
        -0.04763935133814812,
        0.12577588856220245,
        -0.1628279685974121,
        0.19931811094284058,
        1.216282844543457,
        -0.09552408754825592,
        -1.3649327754974365,
        -1.711104393005371,
        0.6390864849090576,
        0.17153644561767578,
        -0.6156109571456909,
        -1.4006640911102295,
        -0.09012505412101746,
        -0.3825032114982605,
        -0.4711751937866211,
        0.10715588182210922,
        1.4428846836090088,
        0.05788430944085121,
        -0.5700274705886841,
        0.020232364535331726,
        -1.1295568943023682,
        1.234285593032837,
        0.050108641386032104,
        -1.6427130699157715,
        -0.024560924619436264,
        -0.10736911743879318,
        0.0016830220120027661,
        0.03700856491923332,
        0.016577010974287987,
        -0.10840798169374466,
        -1.7837820053100586,
        -1.9518171548843384,
        0.13597409427165985,
        0.6129763722419739,
        0.606983482837677,
        -1.2233238220214844,
        0.3518848717212677,
        0.10960525274276733,
        0.18145634233951569,
        -0.5405675768852234,
        0.12447627633810043,
        -1.2550663948059082,
        -1.6429091691970825,
        -1.9838794469833374,
        -0.6793431639671326,
        -0.006799106486141682,
        4.764488697052002,
        -1.0242469310760498,
        -1.5650514364242554,
        2.8182222843170166,
        -0.08351285010576248,
        -0.2491045892238617,
        1.134425163269043,
        -0.0003842113073915243,
        0.030994674190878868,
        0.5439966320991516,
        0.9603713154792786,
        -1.3898565769195557,
        -0.9076743125915527,
        -3.0126235485076904,
        -2.391859292984009,
        0.6569365859031677,
        -1.0960880517959595,
        -0.9985355734825134,
        0.22389502823352814,
        -0.3373944163322449,
        -1.5335139036178589,
        -1.4058078527450562,
        -2.9130330085754395,
        -1.2074310779571533,
        -0.7535725235939026,
        -1.5798548460006714,
        -0.7108094692230225,
        2.130459785461426,
        -1.7787363529205322,
        1.795014500617981,
        4.158158302307129,
        -0.302259624004364,
        0.2801702320575714,
        0.44237637519836426,
        0.005305097904056311,
        -0.05647444725036621,
        0.1703193634748459,
        -0.16047056019306183,
        0.3616563677787781,
        -0.696336567401886,
        -1.8846123218536377,
        -0.47855493426322937,
        -0.573520302772522,
        -2.397557258605957,
        0.262218177318573,
        -0.45011553168296814,
        0.0933733731508255,
        -0.13059093058109283,
        -0.5301309823989868,
        -1.4737575054168701,
        0.45345163345336914,
        -0.4353291690349579,
        -0.30884552001953125,
        0.25479957461357117,
        -0.3849537968635559,
        0.4325787127017975,
        2.379098892211914,
        0.7151120901107788,
        0.0685233548283577,
        0.13271677494049072,
        -0.29597726464271545,
        0.007489328272640705,
        0.0008250519167631865,
        0.04121488332748413,
        -0.11058929562568665,
        0.47098129987716675,
        0.14070598781108856,
        1.0831581354141235,
        0.7351146936416626,
        0.38303425908088684,
        0.5179586410522461,
        0.1396028697490692,
        0.1999352127313614,
        -0.20947399735450745,
        3.879350423812866,
        0.6114780902862549,
        0.9096178412437439,
        0.2927721440792084,
        0.2685721814632416,
        4.027342319488525,
        -0.06022787466645241,
        -0.7390563488006592,
        0.4621340334415436,
        1.6148247718811035,
        -0.15470387041568756,
        -0.7076535224914551,
        0.14355210959911346,
        0.8488847017288208,
        0.012218576855957508,
        -0.006328392308205366,
        -0.10122980922460556,
        0.025324378162622452,
        -0.5292862057685852,
        0.4715697169303894,
        -0.1735365092754364,
        0.5224127173423767,
        -0.5854597687721252,
        0.718086838722229,
        -0.45411190390586853,
        0.3679696321487427,
        0.7339907884597778,
        -0.8282576203346252,
        0.1628388911485672,
        -0.10066442936658859,
        -0.7012925148010254,
        0.25562676787376404,
        -0.6394045948982239,
        0.31060314178466797,
        -0.19266948103904724,
        0.4282037019729614,
        1.1208223104476929,
        1.0024737119674683,
        0.3594312071800232,
        -0.13780279457569122,
        0.39447644352912903,
        0.004132438916712999,
        -0.18636929988861084,
        0.028360819444060326,
        -1.2463464736938477,
        -0.019420282915234566,
        0.2340790033340454,
        -0.3151281476020813,
        0.3832540512084961,
        -1.5318657159805298,
        0.34291255474090576,
        -0.44062405824661255,
        -0.17271053791046143,
        1.0058183670043945,
        -0.6739174127578735,
        -0.1062965840101242,
        -0.2122536152601242,
        -0.012801931239664555,
        0.32831069827079773,
        -0.5917114019393921,
        0.081820048391819,
        2.4286346435546875,
        0.9348803758621216,
        -2.0600228309631348,
        0.24649526178836823,
        3.2301371097564697,
        -0.2260698676109314,
        -0.06642318516969681,
        0.008141037076711655,
        0.0483376681804657,
        -0.04108753055334091,
        1.120091199874878,
        0.17457689344882965,
        -0.7037391066551208,
        1.216036319732666,
        0.1645054966211319,
        1.1160959005355835,
        1.0263183116912842,
        0.3841409683227539,
        -2.1915252208709717,
        -0.616134762763977,
        -0.8461188673973083,
        -0.00627365056425333,
        0.5361600518226624,
        -0.09454003721475601,
        -0.9393960237503052,
        -0.8629816174507141,
        -0.7210875153541565,
        0.4462374150753021,
        -1.195220947265625,
        0.06555935740470886,
        0.7045197486877441,
        -1.3497120141983032,
        0.04613126069307327,
        -0.6159501075744629,
        -0.002057229168713093,
        -0.0305930245667696,
        0.1359470635652542,
        0.26207032799720764,
        0.6819267272949219,
        0.17510831356048584,
        -0.6518810987472534,
        1.405990719795227,
        0.03001740761101246,
        -0.07957631349563599,
        -1.0300700664520264,
        0.18267904222011566,
        -0.5985332131385803,
        -0.175706148147583,
        0.13223955035209656,
        0.5320046544075012,
        0.5539376735687256,
        0.31762129068374634,
        -0.15569674968719482,
        -0.753352165222168,
        0.06731003522872925,
        0.7131097316741943,
        -0.37023016810417175,
        -0.09519799798727036,
        0.9761471152305603,
        -0.18796144425868988,
        0.7021240592002869,
        -0.0019183645490556955,
        -0.011662742123007774,
        -0.18860983848571777,
        0.9380910992622375,
        -0.3948989510536194,
        -0.7515518069267273,
        3.6273579597473145,
        -1.3888581991195679,
        1.7758657932281494,
        -0.3645515441894531,
        -0.8397904634475708,
        -0.03546172380447388,
        0.30316871404647827,
        -0.29123833775520325,
        0.1862962245941162,
        0.5723209977149963,
        -0.2754223942756653,
        -0.7100593447685242,
        0.022459741681814194,
        -0.2122287005186081,
        -2.2005674839019775,
        -2.2094879150390625,
        0.733027994632721,
        1.154038906097412,
        0.08090116828680038,
        -0.13877753913402557,
        -0.27777212858200073,
        0.010298548266291618,
        -0.02745993435382843,
        -0.6579717993736267,
        1.2688071727752686,
        -0.19047680497169495,
        0.5318692326545715,
        0.3592604100704193,
        -2.1757652759552,
        -0.1569778174161911,
        5.488619804382324,
        0.44215017557144165,
        1.8515957593917847,
        0.445891797542572,
        0.03684036433696747,
        0.8311364054679871,
        1.1158534288406372,
        -0.2384723573923111,
        0.33531686663627625,
        -0.02632378228008747,
        1.4263352155685425,
        -0.14318889379501343,
        -1.787290096282959,
        -0.47329291701316833,
        -2.7643768787384033,
        0.41548970341682434,
        0.012912265956401825,
        -0.038576189428567886,
        -0.008196449838578701,
        0.0056984201073646545,
        -0.15547528862953186,
        -0.08669444918632507,
        -0.14377138018608093,
        0.7220398783683777,
        -0.8700042366981506,
        0.11611699312925339,
        0.907945454120636,
        0.6848127245903015,
        0.3763945698738098,
        1.1499221324920654,
        0.03104599006474018,
        0.9343070387840271,
        0.4046092629432678,
        0.35560423135757446,
        -0.07920045405626297,
        0.8621233105659485,
        1.1579043865203857,
        0.9287698864936829,
        -7.02425479888916,
        -0.11959613114595413,
        -1.8286657333374023,
        0.489963173866272,
        -0.9856340885162354,
        0.058908890932798386,
        -0.6532703638076782,
        -0.0012226877734065056,
        0.03675574064254761,
        -0.03267558664083481,
        0.21940946578979492,
        0.1849566102027893,
        0.08792365342378616,
        -1.742948055267334,
        -0.28754478693008423,
        0.8782808780670166,
        0.02243410237133503,
        0.34867697954177856,
        -1.1042704582214355,
        0.7745395302772522,
        -1.0307804346084595,
        0.015359182842075825,
        -0.09472545981407166,
        0.18738609552383423,
        -0.0012633337173610926,
        -1.1008979082107544,
        0.08687812089920044,
        2.121450424194336,
        1.1671079397201538,
        0.4907301962375641,
        0.402827650308609,
        -1.6706531047821045,
        0.23390215635299683,
        0.7033024430274963,
        -0.0005562544101849198,
        0.07150058448314667,
        0.23062554001808167,
        -0.8165780305862427,
        1.7659516334533691,
        0.4486243724822998,
        -0.43837013840675354,
        1.0299437046051025,
        1.114912509918213,
        -1.0714318752288818,
        0.26221054792404175,
        0.27455830574035645,
        -0.9347244501113892,
        -0.7426729202270508,
        0.05747377499938011,
        0.9456469416618347,
        2.029160737991333,
        0.31250980496406555,
        -0.5146588087081909,
        -0.11875224858522415,
        1.6173535585403442,
        0.49464404582977295,
        -1.0097993612289429,
        -2.4556288719177246,
        -0.577897310256958,
        0.08217450231313705,
        0.8463390469551086,
        0.0017961588455364108,
        0.05630010738968849,
        -0.00561132188886404,
        0.0871141105890274,
        -0.6591067910194397,
        -0.14086216688156128,
        1.2783399820327759,
        -0.36880582571029663,
        0.7272128462791443,
        -1.3749030828475952,
        0.15953417122364044,
        -2.573617458343506,
        -0.6622215509414673,
        -0.4237816333770752,
        -0.3238967955112457,
        -0.4415844976902008,
        -0.5644816160202026,
        -0.04603695869445801,
        -0.6476565599441528,
        -1.1748604774475098,
        -0.9406803250312805,
        -0.6238051056861877,
        -0.7236279845237732,
        -1.1302086114883423,
        0.2903773784637451,
        0.055263176560401917,
        0.19652222096920013,
        -0.007310394663363695,
        0.07093671709299088,
        0.19296306371688843,
        -0.23506154119968414,
        0.005946305114775896,
        -0.5908635258674622,
        -0.2553875148296356,
        -0.6605368256568909,
        -0.6701677441596985,
        -0.20863685011863708,
        -1.5319441556930542,
        0.7227303385734558,
        0.39357098937034607,
        0.09923473000526428,
        -0.4589110016822815,
        -0.6515474915504456,
        0.07335985451936722,
        -0.6194142699241638,
        -0.05066001042723656,
        -0.3346045911312103,
        -0.3623422086238861,
        -1.3865721225738525,
        1.1865954399108887,
        -0.2579970955848694,
        0.24817585945129395,
        0.038792118430137634,
        -0.03900434076786041,
        -0.004485249985009432,
        -0.020004088059067726,
        -0.003321043448522687,
        0.44052350521087646,
        0.8340086340904236,
        0.49730658531188965,
        0.9354619979858398,
        -0.5960060358047485,
        0.9790551066398621,
        0.9985828399658203,
        -0.6479557156562805,
        1.136743426322937,
        1.9014424085617065,
        1.3470332622528076,
        0.7556541562080383,
        1.552762746810913,
        0.5511903762817383,
        0.3804396092891693,
        1.0303317308425903,
        1.0821442604064941,
        0.17565687000751495,
        -2.9701054096221924,
        0.3418893814086914,
        -0.3168657124042511,
        -1.331563115119934,
        0.07257825881242752,
        -0.1117144301533699,
        -0.00467752804979682,
        -0.06447839736938477,
        -0.06476270407438278,
        -0.6724702715873718,
        1.1651419401168823,
        0.958413302898407,
        -1.1176815032958984,
        0.14715048670768738,
        -0.2276546210050583,
        0.7804455757141113,
        0.1823223978281021,
        0.8990623950958252,
        0.7688595056533813,
        0.6090381145477295,
        0.5895048379898071,
        0.5087987780570984,
        1.1591633558273315,
        0.9047121405601501,
        0.3581485450267792,
        1.0345618724822998,
        1.6726959943771362,
        -0.22165484726428986,
        -0.1432054191827774,
        -1.19142484664917,
        -1.0050060749053955,
        -0.09228083491325378,
        0.6877740025520325,
        0.0034983002115041018,
        0.0820770114660263,
        0.02167563885450363,
        -1.1849721670150757,
        1.1739915609359741,
        -0.6292721629142761,
        -1.0300135612487793,
        1.5558968782424927,
        -0.7742201685905457,
        1.255326509475708,
        0.25112494826316833,
        -0.40052199363708496,
        1.2069034576416016,
        0.2024381309747696,
        0.4956094026565552,
        0.5756821036338806,
        1.1631988286972046,
        -0.4480382204055786,
        0.1954876333475113,
        0.5995054244995117,
        -1.3382554054260254,
        -0.3033602237701416,
        0.650014340877533,
        0.8247447609901428,
        -0.4517008066177368,
        -0.23206479847431183,
        0.1392599493265152,
        -0.00044731012894771993,
        -0.053973644971847534,
        0.2584005892276764,
        -0.017785420641303062,
        0.5403958559036255,
        0.948627233505249,
        0.6967357397079468,
        0.23078246414661407,
        0.3130689263343811,
        -0.42574334144592285,
        -0.4412675201892853,
        -0.6764293313026428,
        -0.38097238540649414,
        0.8611590266227722,
        0.05742146074771881,
        0.6276895999908447,
        0.697461724281311,
        0.8880014419555664,
        1.1409633159637451,
        -0.6474226117134094,
        -0.7230879664421082,
        -0.9496056437492371,
        -1.2516120672225952,
        -1.2570016384124756,
        -0.2326623648405075,
        -0.1280815154314041,
        -0.4210001528263092,
        0.003464415669441223,
        -0.3022523820400238,
        -0.00849256943911314,
        -0.08622051030397415,
        -0.1787547916173935,
        0.46990635991096497,
        -0.5609763264656067,
        -0.6402106285095215,
        1.0328835248947144,
        1.080907940864563,
        0.1308484822511673,
        -0.08881576359272003,
        -0.25536778569221497,
        -0.5878472328186035,
        -0.052205853164196014,
        0.39204344153404236,
        -0.02426794357597828,
        0.35533174872398376,
        -0.47615811228752136,
        0.021806709468364716,
        1.3720842599868774,
        -0.3344036936759949,
        -1.4993221759796143,
        -0.2550102174282074,
        0.03944585472345352,
        -0.0842089131474495,
        -0.1254979968070984,
        0.002661671955138445,
        -0.017630986869335175,
        0.07269877940416336,
        0.8937974572181702,
        -0.7086181640625,
        -0.08506223559379578,
        -1.2419637441635132,
        -0.541684091091156,
        0.9453511834144592,
        -0.3997686505317688,
        0.05823710560798645,
        -0.1882125288248062,
        0.5857908725738525,
        1.5544724464416504,
        0.08672408014535904,
        -0.6261624097824097,
        -0.4972390830516815,
        -0.04667744040489197,
        1.7247843742370605,
        0.23896700143814087,
        -0.1541462242603302,
        0.563665509223938,
        -1.8993611335754395,
        -0.2395266741514206,
        0.23631173372268677,
        0.09521851688623428,
        -0.13825523853302002,
        -0.000979362870566547,
        -0.0668669119477272,
        -0.1564725935459137,
        -0.47711554169654846,
        0.3519013822078705,
        0.8506059050559998,
        1.1778517961502075,
        -0.04526103660464287,
        -0.2528126835823059,
        1.1358822584152222,
        0.3188914358615875,
        -0.04632560536265373,
        -0.17750313878059387,
        0.4050483703613281,
        0.2646189332008362,
        0.9247339963912964,
        0.49393361806869507,
        0.6531438827514648,
        0.4659919738769531,
        0.052313026040792465,
        1.6894705295562744,
        0.9485958814620972,
        -1.147789478302002,
        -0.4126061499118805,
        0.1789359748363495,
        -0.05324351787567139,
        -1.0830790996551514,
        -0.0025131909642368555,
        -0.07657357305288315,
        -0.2896420955657959,
        0.4034840762615204,
        -0.42890384793281555,
        -0.23545752465724945,
        -0.23377759754657745,
        -0.5921199917793274,
        -1.4081898927688599,
        1.3242157697677612,
        0.49548032879829407,
        0.9461742639541626,
        2.168255567550659,
        0.6236196160316467,
        0.19496366381645203,
        -0.4783368408679962,
        -0.567531406879425,
        -0.18302449584007263,
        0.6028738617897034,
        1.875046730041504,
        -2.6841399669647217,
        -0.4871971607208252,
        0.36620283126831055,
        -1.3422927856445312,
        0.4262031018733978,
        0.2665921747684479,
        -0.4397111237049103,
        -0.012970664538443089,
        -0.20752471685409546,
        0.3867279887199402,
        0.24610809981822968,
        -1.6370652914047241,
        0.833000898361206,
        -1.6141130924224854,
        0.028241660445928574,
        -1.4751427173614502,
        -3.6636369228363037,
        -0.22949694097042084,
        0.18657754361629486,
        -0.048845283687114716,
        -0.9980598092079163,
        -1.0533795356750488,
        -2.5093436241149902,
        -1.8534936904907227,
        0.7143126130104065,
        -0.7276964783668518,
        -0.13719061017036438,
        4.23996639251709,
        -0.6213125586509705,
        -0.06662583351135254,
        -0.27073466777801514,
        -0.17061486840248108,
        0.07606528699398041,
        0.14772145450115204,
        -0.0070437053218483925,
        -0.0288665983825922,
        0.2783713936805725,
        0.32913678884506226,
        1.048730492591858,
        -1.3727936744689941,
        -0.9762399196624756,
        -0.3029925525188446,
        0.03210670128464699,
        0.486039936542511,
        -1.6961332559585571,
        -0.20627252757549286,
        0.24636486172676086,
        -2.999420404434204,
        -0.49319496750831604,
        -0.1414528787136078,
        1.2449747323989868,
        -1.7116281986236572,
        -3.1100897789001465,
        -1.4598331451416016,
        1.8622428178787231,
        0.3241685926914215,
        -0.12262003868818283,
        -1.11553955078125,
        -1.3373240232467651,
        -0.10230851173400879,
        1.3656110763549805,
        -0.004810451529920101,
        0.033518802374601364,
        0.2441415637731552,
        0.1770951896905899,
        0.25615179538726807,
        -0.10404440015554428,
        0.1784137785434723,
        -0.9771720767021179,
        1.3951977491378784,
        -0.38233304023742676,
        -0.6692869067192078,
        -0.3184300661087036,
        -0.34357383847236633,
        0.9525153636932373,
        -0.11096460372209549,
        0.0902988389134407,
        0.0768706277012825,
        -0.219181627035141,
        1.089799165725708,
        -0.6908115148544312,
        -0.7285216450691223,
        1.52631676197052,
        0.9132837653160095,
        0.3755703866481781,
        0.8177450299263,
        -0.15571676194667816,
        0.41565975546836853,
        0.005659271962940693,
        0.0430808924138546,
        -0.034671150147914886,
        0.490084171295166,
        1.2733955383300781,
        -0.09582782536745071,
        -0.6431734561920166,
        0.5453680157661438,
        1.7035620212554932,
        -1.750427007675171,
        -0.00695247994735837,
        -0.47994568943977356,
        0.9111599326133728,
        0.2489824742078781,
        0.018758421763777733,
        0.9151954650878906,
        1.3768596649169922,
        0.07179785519838333,
        0.1321309357881546,
        -0.08547912538051605,
        1.193344235420227,
        -0.5210750102996826,
        -0.38132449984550476,
        -1.285040259361267,
        -0.16365844011306763,
        0.03932339698076248,
        -0.6328696608543396,
        -0.001822459395043552,
        -0.009420844726264477,
        -0.14813478291034698,
        0.6442594528198242,
        -0.4556244909763336,
        0.7290040850639343,
        -0.4905179738998413,
        1.4700100421905518,
        0.22809180617332458,
        0.2683323621749878,
        0.4005338251590729,
        -0.11519642174243927,
        -0.7628666758537292,
        -0.45367005467414856,
        0.1111995205283165,
        0.4868270754814148,
        -0.27536508440971375,
        0.6973505616188049,
        -0.586819589138031,
        -0.1345280259847641,
        1.0221878290176392,
        -1.4533931016921997,
        0.680615246295929,
        -0.4308928847312927,
        -0.4770675599575043,
        0.14750872552394867,
        -0.6872699856758118,
        -0.000552864745259285,
        0.028318125754594803,
        0.1423448622226715,
        0.3321773111820221,
        -0.33499252796173096,
        -0.5021061301231384,
        -0.08977361768484116,
        -0.5824615955352783,
        0.23818732798099518,
        0.752519428730011,
        0.7163671255111694,
        0.07312975078821182,
        -0.9692211747169495,
        -0.28082290291786194,
        -0.016770724207162857,
        -0.23062016069889069,
        -0.4908108413219452,
        -0.2736060619354248,
        -0.10484928637742996,
        0.12215200066566467,
        -1.484063744544983,
        -0.28369566798210144,
        0.25867176055908203,
        1.4448728561401367,
        -0.9390688538551331,
        0.052411191165447235,
        2.1502087116241455,
        0.010590290650725365,
        -0.12055794894695282,
        0.07320624589920044,
        0.4131414294242859,
        0.5694071054458618,
        0.2193944901227951,
        -0.21716241538524628,
        -0.5446422696113586,
        0.39802688360214233,
        0.9528043866157532,
        0.44609054923057556,
        -0.270504891872406,
        0.1505514234304428,
        0.9966353178024292,
        0.4501343369483948,
        0.5023878216743469,
        0.6457540988922119,
        0.40445899963378906,
        1.1584728956222534,
        0.32644590735435486,
        1.5666041374206543,
        -0.27911773324012756,
        -1.6471973657608032,
        0.931187093257904,
        -0.7335084080696106,
        0.05115228146314621,
        0.5878841280937195,
        -0.0027983253821730614,
        0.015021986328065395,
        0.2982804775238037,
        1.1252139806747437,
        -0.46743884682655334,
        0.018803436309099197,
        0.3832835257053375,
        0.016223900020122528,
        -0.4421926736831665,
        -0.2848930358886719,
        -0.09945515543222427,
        -1.3667114973068237,
        -0.9516823291778564,
        1.5612759590148926,
        -0.13310813903808594,
        -0.2590351104736328,
        -0.6172285079956055,
        0.22070224583148956,
        1.5886187553405762,
        -1.376264214515686,
        0.14271527528762817,
        0.2646331489086151,
        0.46671637892723083,
        2.816760301589966,
        -1.3424932956695557,
        0.039682596921920776,
        0.34216445684432983,
        0.0012172299902886152,
        -0.03530680388212204,
        -0.040805503726005554,
        0.33317846059799194,
        0.285731703042984,
        0.647510826587677,
        1.9496318101882935,
        -1.3762394189834595,
        -0.5154840350151062,
        1.211825966835022,
        -2.264326572418213,
        0.41868242621421814,
        1.428045392036438,
        0.901636004447937,
        0.2737100422382355,
        0.6223480105400085,
        0.34424546360969543,
        0.5501957535743713,
        0.9156217575073242,
        -0.8120595216751099,
        -1.7283049821853638,
        0.8665696978569031,
        -0.4470258951187134,
        0.22481775283813477,
        2.539790153503418,
        -0.0626162737607956,
        -0.7746599912643433,
        0.005421338602900505,
        -0.04789585992693901,
        -0.24568895995616913,
        0.035828422755002975,
        1.4620428085327148,
        -0.39878496527671814,
        -0.04795354604721069,
        1.8086048364639282,
        -0.040356919169425964,
        0.006440203636884689,
        -0.19930817186832428,
        1.1402983665466309,
        -0.41847917437553406,
        -1.3903849124908447,
        0.29609695076942444,
        1.1164641380310059,
        1.5092923641204834,
        -0.2860996425151825,
        -1.6805176734924316,
        0.3853788375854492,
        -0.027736086398363113,
        0.30983540415763855,
        -2.88659405708313,
        0.03763765096664429,
        0.9111788272857666,
        -0.08944574743509293,
        -0.4950375258922577,
        -0.0007273424998857081,
        -0.07378832995891571,
        -0.3452368974685669,
        -1.4044488668441772,
        -0.04008131101727486,
        -0.583160936832428,
        -0.18410120904445648,
        0.8336179852485657,
        1.9956313371658325,
        0.8470199704170227,
        -0.041129134595394135,
        -0.1596495360136032,
        0.03905019536614418,
        -0.04937544837594032,
        0.308695912361145,
        0.3648812770843506,
        -0.1437196582555771,
        -0.6093276143074036,
        -0.06607922911643982,
        -0.027018319815397263,
        0.2296382337808609,
        0.34527528285980225,
        -0.5334982872009277,
        -0.4308955669403076,
        0.42835870385169983,
        0.18095536530017853,
        0.6422114372253418,
        -0.006591516546905041,
        0.06293001025915146,
        -0.12380678206682205,
        -2.28755259513855,
        0.8312259912490845,
        -0.6947317123413086,
        0.22107023000717163,
        -0.9245162010192871,
        0.49926212430000305,
        0.4916662871837616,
        0.8886264562606812,
        -0.37679919600486755,
        -0.631969153881073,
        -2.328150749206543,
        -0.31805717945098877,
        0.22645477950572968,
        0.9039968848228455,
        -0.40524375438690186,
        -2.4627456665039062,
        0.17877036333084106,
        -1.0998971462249756,
        -1.133121132850647,
        2.1526894569396973,
        1.4989969730377197,
        0.26985761523246765,
        0.1783280372619629,
        0.42163199186325073,
        0.000815865583717823,
        0.030514372512698174,
        0.03307022154331207,
        0.891686737537384,
        -0.09115788340568542,
        0.5469794273376465,
        0.38720571994781494,
        -0.8165488839149475,
        -1.0656131505966187,
        1.627133846282959,
        -0.4042653441429138,
        -1.068926215171814,
        -0.24864152073860168,
        -1.1677875518798828,
        -0.4421580731868744,
        0.06511029601097107,
        0.04524887725710869,
        0.6166062355041504,
        -1.0451966524124146,
        -1.31442391872406,
        -0.4573495388031006,
        0.3985949456691742,
        1.0575549602508545,
        0.02681513875722885,
        -0.7535457015037537,
        -0.016261255368590355,
        -0.9278246760368347,
        -0.004716711118817329,
        0.05481714755296707,
        0.11132144927978516,
        0.31903520226478577,
        0.2087683081626892,
        0.030899427831172943,
        0.5609139800071716,
        -0.09535392373800278,
        -0.5159823298454285,
        -1.7206538915634155,
        -0.04758574068546295,
        0.0837106853723526,
        0.09726526588201523,
        -0.19943101704120636,
        -0.23040199279785156,
        -0.18177707493305206,
        0.0846228301525116,
        -0.0007780088926665485,
        0.05249748006463051,
        0.0525110624730587,
        2.479825496673584,
        -0.8387638926506042,
        -0.03763904049992561,
        -0.9530244469642639,
        0.5408462882041931,
        0.04878876358270645,
        -0.11720936745405197,
        -0.004402901977300644,
        0.0039190249517560005,
        -0.30366650223731995,
        -1.1044888496398926,
        -0.04969726502895355,
        -0.3289493918418884,
        1.1139752864837646,
        0.1458900421857834,
        1.414222240447998,
        -0.21533448994159698,
        1.1407146453857422,
        -0.15963494777679443,
        -1.3536103963851929,
        1.9992375373840332,
        0.34751424193382263,
        0.1582220196723938,
        -0.3543112576007843,
        -0.608030378818512,
        1.9698742628097534,
        0.33503586053848267,
        0.6735985279083252,
        0.3902018964290619,
        -1.5073494911193848,
        -3.264394521713257,
        0.16516192257404327,
        0.12688103318214417,
        0.1464003473520279,
        -0.01008558925241232,
        -0.074033722281456,
        0.16266019642353058,
        0.05440562963485718,
        0.2786755859851837,
        -0.6244016289710999,
        0.3687337636947632,
        -0.48912298679351807,
        -0.7336920499801636,
        -0.27030834555625916,
        0.06448407471179962,
        0.14925146102905273,
        -0.15399233996868134,
        0.7330906391143799,
        -0.10020957142114639,
        -0.4443548917770386,
        0.01090796384960413,
        -0.7710974812507629,
        0.8818508982658386,
        0.21248026192188263,
        1.3932312726974487,
        0.2705609202384949,
        0.6245505213737488,
        -0.29286834597587585,
        -1.0368218421936035,
        -0.18311946094036102,
        0.3159286379814148,
        -0.00447001913562417,
        -0.05225620046257973,
        0.005370651837438345,
        -2.181337594985962,
        -0.17544379830360413,
        2.2996907234191895,
        3.2222630977630615,
        -1.6437257528305054,
        1.7780253887176514,
        -0.7166429758071899,
        -1.1226661205291748,
        0.026275403797626495,
        0.5720914602279663,
        0.6003258228302002,
        0.19395014643669128,
        0.8702685236930847,
        -0.2055952250957489,
        2.0388989448547363,
        0.6967945694923401,
        -0.4482358396053314,
        1.4520437717437744,
        1.35771906375885,
        -0.7153867483139038,
        -0.23232798278331757,
        -0.40815794467926025,
        0.02929479256272316,
        0.5048661231994629,
        0.009909803979098797,
        -0.053564999252557755,
        -0.2987556457519531,
        -1.1295948028564453,
        -1.2978665828704834,
        -0.033386703580617905,
        -2.510714530944824,
        1.837527871131897,
        1.6903921365737915,
        -0.4020969867706299,
        0.5872770547866821,
        -0.021384671330451965,
        0.6744407415390015,
        -0.3686768114566803,
        0.15543191134929657,
        -0.4357548654079437,
        -1.3942992687225342,
        0.07487945258617401,
        -0.4350268244743347,
        0.7632836699485779,
        1.038240671157837,
        0.05778072401881218,
        -0.17559842765331268,
        -1.3764195442199707,
        1.0165177583694458,
        0.20331798493862152,
        0.11786514520645142,
        -0.000808447424788028,
        -0.07923857122659683,
        0.15474645793437958,
        -0.5492026805877686,
        -1.1495158672332764,
        -0.378414511680603,
        -0.1446569859981537,
        -2.2972214221954346,
        -0.8967738747596741,
        -0.8786733746528625,
        -0.5587727427482605,
        0.6312128305435181,
        -0.7224228978157043,
        -0.6464588046073914,
        -0.560983419418335,
        -2.2085416316986084,
        -0.8965598344802856,
        -0.5216449499130249,
        -0.9196997284889221,
        -0.3526415228843689,
        -1.6805669069290161,
        -0.21713654696941376,
        0.09224510192871094,
        2.341719150543213,
        1.5249146223068237,
        -0.07113134860992432,
        0.26028549671173096,
        0.008756538853049278,
        -0.04688872769474983,
        0.09200441092252731,
        0.2756177484989166,
        -0.29594123363494873,
        -0.2009444534778595,
        0.06194143369793892,
        0.9285067915916443,
        1.1564791202545166,
        -1.0014029741287231,
        -0.5164027214050293,
        -0.9406973719596863,
        0.8942258358001709,
        1.3226161003112793,
        0.16022974252700806,
        -0.038986362516880035,
        -0.33887678384780884,
        -0.4363865852355957,
        1.331222414970398,
        -0.5039552450180054,
        0.15349440276622772,
        -1.7212557792663574,
        -2.8518526554107666,
        0.14123474061489105,
        1.0027238130569458,
        -0.08323965966701508,
        1.2523528337478638,
        6.635546742472798e-05,
        -0.05281898006796837,
        0.11872368305921555,
        0.07547909766435623,
        -0.3837914764881134,
        -1.0732142925262451,
        -1.4294975996017456,
        1.2274004220962524,
        -0.10865321755409241,
        0.49292129278182983,
        -0.1255393773317337,
        -0.3081013560295105,
        0.47637316584587097,
        -0.08401554822921753,
        -0.2919606566429138,
        -0.41645312309265137,
        -0.3249817192554474,
        -1.0782103538513184,
        0.09037591516971588,
        -0.23637089133262634,
        3.1075937747955322,
        0.22844430804252625,
        0.43923673033714294,
        -1.3472403287887573,
        -1.1416200399398804,
        0.14061951637268066,
        0.40156012773513794,
        -0.011031596921384335,
        -0.02684030868113041,
        -0.481354296207428,
        1.9639607667922974,
        0.8035476803779602,
        0.022436589002609253,
        1.3438974618911743,
        -1.775778889656067,
        0.6788271069526672,
        1.2458200454711914,
        1.5249710083007812,
        0.10950478911399841,
        -0.17331676185131073,
        -0.8227027058601379,
        0.5591622591018677,
        1.340335726737976,
        0.48236212134361267,
        -0.14846159517765045,
        -1.1690493822097778,
        0.8676525354385376,
        -2.646022081375122,
        -0.54265958070755,
        -4.500626564025879,
        1.6567305326461792,
        0.9340693950653076,
        0.2560150623321533,
        0.31686848402023315,
        -0.002871985547244549,
        0.0017366776010021567,
        0.1521732360124588,
        0.4564414322376251,
        -0.31627321243286133,
        -0.9701327085494995,
        -1.180102825164795,
        -0.08356386423110962,
        1.160431981086731,
        -1.235351800918579,
        -0.9239310622215271,
        2.5719847679138184,
        -0.7461221218109131,
        -0.9604101181030273,
        -0.2635371685028076,
        -0.8204719424247742,
        -0.17047403752803802,
        -0.7647783756256104,
        -0.7479633688926697,
        -0.3478548228740692,
        0.26022234559059143,
        2.30714750289917,
        1.2599998712539673,
        -0.4972340166568756,
        -0.9508375525474548,
        -0.03133082762360573,
        0.8571865558624268,
        -0.005450936499983072,
        -0.001545826205983758,
        0.4549526572227478,
        -0.45634379982948303,
        2.069770336151123,
        -0.5761968493461609,
        -2.020901679992676,
        1.1022017002105713,
        -1.658415675163269,
        -1.668986439704895,
        1.799509048461914,
        0.3457888662815094,
        -1.9894804954528809,
        1.547707438468933,
        -0.2285585254430771,
        -0.5872461795806885,
        2.053518295288086,
        -0.5308647751808167,
        1.5980924367904663,
        0.2815658748149872,
        0.16227933764457703,
        1.3715077638626099,
        1.4073851108551025,
        0.22639858722686768,
        -0.2252192348241806,
        0.020681681111454964,
        0.17561475932598114,
        -0.0001950183359440416,
        0.06322332471609116,
        -0.3836294412612915,
        -0.22911150753498077,
        -0.40876007080078125,
        1.088629126548767,
        2.515068292617798,
        1.5641474723815918,
        2.1059582233428955,
        0.0731741189956665,
        2.211351156234741,
        -0.9879758954048157,
        -0.4432281255722046,
        0.058018758893013,
        0.7430278658866882,
        2.5441207885742188,
        -0.3334123492240906,
        1.1527090072631836,
        0.2673376500606537,
        1.102418065071106,
        -2.6941769123077393,
        -2.4616007804870605,
        -0.6085277795791626,
        1.0690836906433105,
        0.007631230633705854,
        0.07448164373636246,
        1.0417251586914062,
        0.012501344084739685,
        -0.011049801483750343,
        0.05324677377939224,
        -0.24291521310806274,
        0.06743358820676804,
        0.9009551405906677,
        -1.1670767068862915,
        0.8530793190002441,
        -1.2664798498153687,
        1.4801527261734009,
        -1.0702259540557861,
        1.287582516670227,
        1.0189428329467773,
        -0.39693310856819153,
        0.32978472113609314,
        0.0946604460477829,
        -0.13553430140018463,
        0.7540304064750671,
        -0.4593520760536194,
        0.1843785047531128,
        -0.7495629191398621,
        3.643132448196411,
        0.5773116946220398,
        -1.2149726152420044,
        -1.084351658821106,
        -0.0416816882789135,
        1.0699379444122314,
        -0.0009246248519048095,
        -0.039516348391771317,
        -0.606783926486969,
        2.458991527557373,
        0.11665157228708267,
        0.7424266934394836,
        -0.6205365657806396,
        0.9078773260116577,
        2.692518711090088,
        1.1583099365234375,
        1.9163354635238647,
        1.045773983001709,
        -0.5314862132072449,
        1.2093738317489624,
        0.9076881408691406,
        2.0323727130889893,
        -0.10174616426229477,
        0.8552085161209106,
        1.3275638818740845,
        1.5068387985229492,
        -3.5467844009399414,
        0.9121144413948059,
        0.29149964451789856,
        0.8673162460327148,
        0.7194113731384277,
        0.061617955565452576,
        -0.6776124835014343,
        0.01353329885751009,
        0.04304381459951401,
        0.017058411613106728,
        -0.2010311633348465,
        -0.6618927121162415,
        0.19233906269073486,
        -0.406211256980896,
        -0.5093485713005066,
        1.247138500213623,
        -2.491473913192749,
        -0.9156156182289124,
        -0.3412926197052002,
        2.6246047019958496,
        0.10671208053827286,
        -0.4055825471878052,
        -0.48747900128364563,
        -0.49838459491729736,
        0.2878485321998596,
        0.1794884353876114,
        -0.3567662835121155,
        1.7664752006530762,
        -0.18872976303100586,
        0.38965660333633423,
        0.6988204121589661,
        2.0335195064544678,
        -0.15775755047798157,
        -0.7460061311721802,
        0.009809983894228935,
        -0.0009151734411716461,
        0.08751574158668518,
        0.8587716221809387,
        0.7003674507141113,
        0.44804859161376953,
        0.7407011389732361,
        -3.3679358959198,
        -1.4746222496032715,
        0.023897938430309296,
        2.2439937591552734,
        -0.24473048746585846,
        0.3837359547615051,
        -0.268409788608551,
        -0.16394458711147308,
        -0.19258418679237366,
        0.8610382080078125,
        0.5090671181678772,
        -0.20816300809383392,
        1.867729663848877,
        0.07890656590461731,
        -2.1349844932556152,
        -1.6920711994171143,
        0.0261073000729084,
        -0.6364527940750122,
        0.2572862207889557,
        0.06263401359319687,
        -0.0012171858688816428,
        -0.036353375762701035
      ],
      "bias": [
        0.806688129901886,
        -0.23232579231262207,
        -0.010003918781876564,
        -0.8920540809631348,
        0.10037823021411896,
        -0.012610872276127338,
        -0.021466216072440147,
        -0.04118979722261429,
        0.03954586759209633,
        0.23917517066001892,
        0.045991942286491394,
        -0.04881369322538376,
        0.0017114182701334357,
        0.0024071307852864265,
        -0.004295676946640015,
        -0.006175778806209564,
        -0.0030485494062304497,
        0.025291958823800087,
        -0.05078117921948433,
        0.15336927771568298,
        0.02596232295036316,
        0.006365731358528137,
        -0.011389658786356449,
        0.045947279781103134,
        0.002301459200680256,
        -0.022856900468468666,
        0.03551140055060387,
        0.01594720408320427,
        -0.13411585986614227,
        0.44907957315444946,
        -0.010132440365850925,
        -0.003698172513395548,
        -0.02985704317688942,
        -0.12999333441257477,
        -0.006867922376841307,
        -0.01126591395586729,
        -0.03687353432178497,
        -0.03290078043937683,
        0.010066155344247818,
        -0.03102964535355568,
        0.04437902569770813,
        0.01098859217017889,
        0.0362088680267334,
        -0.021718207746744156,
        -0.02565581724047661,
        0.054342783987522125,
        0.025082414969801903,
        -0.0619027204811573,
        0.19378770887851715,
        0.008197641000151634,
        0.014665022492408752,
        0.0434037446975708,
        -0.0012087328359484673,
        0.03442925959825516,
        -0.07470159977674484,
        -0.05027924105525017,
        -0.06987538933753967,
        -0.05615363270044327,
        0.0321531742811203,
        0.0131093580275774,
        -0.08790610730648041,
        0.052939996123313904,
        0.2717684507369995,
        0.032844118773937225,
        0.0068871560506522655,
        0.06518290191888809,
        0.2113875150680542,
        -0.0006183081422932446,
        -0.04219256713986397,
        -0.054935257881879807,
        0.0005860787350684404,
        -0.022626612335443497,
        0.11089541763067245,
        -0.08527503907680511,
        -0.012879466637969017,
        0.04338657855987549,
        0.0878075361251831,
        -0.034899819642305374,
        0.06348234415054321,
        -0.034043118357658386,
        -0.013208834454417229,
        0.06717636436223984,
        -0.004144569393247366,
        0.04488513618707657,
        0.1226944699883461,
        0.05776003375649452,
        -0.044640135020017624,
        0.03331219032406807,
        0.03662322461605072,
        -0.00918944738805294,
        -0.04880343750119209,
        -0.0029048072174191475,
        0.06376849114894867,
        -0.024680055677890778,
        0.02832426317036152,
        0.04917724058032036
      ],
      "activation": "tanh"
    },
    {
      "inputSize": 96,
      "outputSize": 48,
      "weights": [
        -0.008672680705785751,
        0.1149735227227211,
        -0.015474490821361542,
        -0.25752732157707214,
        0.1631559282541275,
        0.03049294464290142,
        -0.28054144978523254,
        -0.16475822031497955,
        0.4512988328933716,
        -0.14755840599536896,
        -0.3261505365371704,
        -0.180641308426857,
        -0.3677046597003937,
        0.30242714285850525,
        -0.3203853368759155,
        0.7255898714065552,
        -0.06817715615034103,
        -0.03369228169322014,
        0.24256861209869385,
        -0.28944164514541626,
        0.14524130523204803,
        -0.11264672130346298,
        0.009262408129870892,
        0.045840539038181305,
        0.17125622928142548,
        -0.120013527572155,
        -0.8509364128112793,
        -0.36687803268432617,
        -0.23335911333560944,
        0.31403520703315735,
        -0.15687009692192078,
        0.15234807133674622,
        0.7643818259239197,
        -0.03180943429470062,
        -0.33886581659317017,
        0.32265806198120117,
        0.20512107014656067,
        -0.11208658665418625,
        -0.273521363735199,
        -0.010938183404505253,
        -0.4282820522785187,
        0.18545934557914734,
        -0.3504134714603424,
        0.013731821440160275,
        -0.03234321251511574,
        0.24225285649299622,
        0.22112658619880676,
        0.12448716163635254,
        -0.4649735391139984,
        0.6427046060562134,
        -0.47455406188964844,
        -0.3918268382549286,
        0.0518355667591095,
        0.3424755036830902,
        -0.3733272850513458,
        0.4298792779445648,
        0.022501375526189804,
        -0.045052669942379,
        0.1125076413154602,
        0.3515218496322632,
        0.41574907302856445,
        0.005023989826440811,
        -0.27066269516944885,
        0.25225916504859924,
        -0.029126863926649094,
        -0.39048054814338684,
        0.11276215314865112,
        0.19120316207408905,
        0.059850309044122696,
        0.43512552976608276,
        -0.03281990438699722,
        -0.07534901797771454,
        0.0025899577885866165,
        -0.09283463656902313,
        -0.561511754989624,
        0.29988038539886475,
        0.2087601274251938,
        -0.46024736762046814,
        0.1900288313627243,
        0.3081529438495636,
        0.2363726645708084,
        -0.06674449145793915,
        0.32351014018058777,
        -0.20197468996047974,
        0.325674444437027,
        0.7060436010360718,
        0.45831722021102905,
        0.1594020277261734,
        0.1775997281074524,
        0.24839945137500763,
        0.1686495840549469,
        -0.6042647957801819,
        -0.4949450194835663,
        0.688624918460846,
        -0.13360504806041718,
        0.05961708724498749,
        -0.1391352266073227,
        0.459591805934906,
        -0.2601117491722107,
        -0.19740040600299835,
        -0.006060346029698849,
        0.2719000279903412,
        -0.08967413008213043,
        0.602973461151123,
        0.7046546339988708,
        -0.5873571038246155,
        0.4400973320007324,
        0.818416178226471,
        0.06433454900979996,
        -1.0066744089126587,
        0.11716308444738388,
        -0.14702259004116058,
        -0.13997209072113037,
        -0.009534747339785099,
        -0.23409485816955566,
        -0.26983368396759033,
        0.04267929866909981,
        0.5857772827148438,
        -0.00029515131609514356,
        0.8132180571556091,
        0.4175892770290375,
        -0.30715203285217285,
        -0.14320199191570282,
        0.13288383185863495,
        -0.5133835077285767,
        -0.05103926360607147,
        -0.5475517511367798,
        0.885408341884613,
        -0.0820780023932457,
        -0.4690587520599365,
        -0.027820076793432236,
        0.12725022435188293,
        -0.31557178497314453,
        -0.15074695646762848,
        0.17505958676338196,
        -0.22408263385295868,
        -0.23361945152282715,
        -0.11547780781984329,
        -0.6133396029472351,
        -1.0526832342147827,
        0.34909766912460327,
        0.06686944514513016,
        -0.928016185760498,
        -0.27259331941604614,
        0.023908289149403572,
        0.18230514228343964,
        -0.5745210647583008,
        -0.009111764840781689,
        -0.1092662513256073,
        -0.7299747467041016,
        0.12846775352954865,
        0.9487862586975098,
        -0.06095969304442406,
        -0.06837549060583115,
        0.6511398553848267,
        -0.4224979877471924,
        0.2389405518770218,
        0.4077792763710022,
        0.32642218470573425,
        0.13552138209342957,
        -0.4008636772632599,
        1.2381911277770996,
        -0.377524733543396,
        0.3281978964805603,
        0.05638767406344414,
        0.44875314831733704,
        0.0714126005768776,
        -0.550144612789154,
        -0.14871495962142944,
        0.3877964913845062,
        0.5532441735267639,
        -0.10095848888158798,
        -0.027253804728388786,
        0.6769892573356628,
        -0.04842234402894974,
        -0.27699390053749084,
        -0.4667071998119354,
        0.3084767162799835,
        -0.322040855884552,
        -0.2964814007282257,
        0.5256879925727844,
        0.6113421320915222,
        -0.26897767186164856,
        0.2935085594654083,
        -0.4263039827346802,
        -0.6061145067214966,
        -0.3620891273021698,
        0.5058010816574097,
        0.3605037331581116,
        -0.11488666385412216,
        -0.3411676585674286,
        -0.32737886905670166,
        0.317463755607605,
        -0.07903428375720978,
        -0.10281579941511154,
        0.46784499287605286,
        -0.43867290019989014,
        -0.04629184678196907,
        -0.20447629690170288,
        -0.31794387102127075,
        -0.09175964444875717,
        -0.47931286692619324,
        -0.26138901710510254,
        0.07747330516576767,
        -0.3140755295753479,
        0.2439591884613037,
        -0.2280082106590271,
        0.14804768562316895,
        0.05380359664559364,
        0.11035175621509552,
        -0.36531057953834534,
        0.34525159001350403,
        0.14448058605194092,
        0.3014190196990967,
        -0.021015265956521034,
        -0.3633701503276825,
        -0.4694805145263672,
        0.39984768629074097,
        -0.2977356016635895,
        0.5853567719459534,
        0.17820511758327484,
        0.12624315917491913,
        0.11579380184412003,
        0.12165112048387527,
        0.029628204181790352,
        -0.059411052614450455,
        0.05670030787587166,
        0.2158472239971161,
        -0.245804101228714,
        -0.7036983370780945,
        -0.4387824237346649,
        -0.7455477118492126,
        0.46657389402389526,
        -0.3878147006034851,
        -0.283326119184494,
        -0.09760146588087082,
        -0.04908275231719017,
        0.6342414021492004,
        0.34921619296073914,
        -0.3769143521785736,
        0.35627228021621704,
        0.3229314684867859,
        -0.5465863347053528,
        -0.17336112260818481,
        -0.14280502498149872,
        0.276490718126297,
        0.030420197173953056,
        -0.18795104324817657,
        -0.46512773633003235,
        -0.05126185715198517,
        0.6213363409042358,
        0.46633976697921753,
        0.4764426648616791,
        0.204196497797966,
        0.06860309094190598,
        0.41008424758911133,
        -0.522710382938385,
        0.13464747369289398,
        0.13403065502643585,
        0.49171942472457886,
        -0.37341365218162537,
        -0.13059748709201813,
        0.3992031216621399,
        -0.19151270389556885,
        0.19861619174480438,
        0.20023991167545319,
        -0.30980613827705383,
        -0.17072099447250366,
        -0.43870657682418823,
        0.2410867065191269,
        -0.3475838303565979,
        0.037491146475076675,
        -0.9451064467430115,
        -0.37139010429382324,
        -0.28345155715942383,
        -0.6172704696655273,
        -0.216123566031456,
        0.20027518272399902,
        -0.3377060294151306,
        0.757251501083374,
        -0.5081946849822998,
        0.2841627895832062,
        -0.5418168902397156,
        -0.2589935064315796,
        0.39094850420951843,
        0.5587112903594971,
        -0.20073696970939636,
        0.08261541277170181,
        -0.03745662793517113,
        0.5429688096046448,
        0.12223844975233078,
        -0.23782187700271606,
        -0.23955422639846802,
        0.09792131930589676,
        0.04568784311413765,
        -0.037673141807317734,
        0.11725836247205734,
        -0.2977396845817566,
        -0.6253188252449036,
        0.21490103006362915,
        -0.49504807591438293,
        0.35427066683769226,
        -0.0644596517086029,
        0.32334816455841064,
        -0.16674697399139404,
        -0.37646377086639404,
        0.3744654655456543,
        0.11106032878160477,
        -0.5271270871162415,
        0.3848719894886017,
        -0.11103526502847672,
        0.7030779719352722,
        0.22290891408920288,
        0.2226768434047699,
        0.07582153379917145,
        -0.41392356157302856,
        -0.4158506691455841,
        0.5514987707138062,
        -0.5243104100227356,
        0.557797908782959,
        -0.24613741040229797,
        -0.07668571919202805,
        -0.3128822147846222,
        -0.02187044359743595,
        0.21885183453559875,
        -0.16461457312107086,
        0.28513649106025696,
        -0.355653315782547,
        0.15901876986026764,
        0.08523845672607422,
        -0.5442373156547546,
        -0.4352506101131439,
        0.08616361021995544,
        0.3455619812011719,
        -0.30327415466308594,
        -0.4955037832260132,
        -0.1542135328054428,
        0.03742565959692001,
        0.2041720449924469,
        -0.330628365278244,
        -0.1745520532131195,
        0.087395079433918,
        -0.26387819647789,
        -0.4396074116230011,
        0.11984008550643921,
        0.08015111088752747,
        0.3878117799758911,
        0.024696486070752144,
        -0.05512198805809021,
        0.14437690377235413,
        0.20600654184818268,
        0.708899736404419,
        -0.3172665238380432,
        0.08419682830572128,
        -0.34370288252830505,
        0.3808048665523529,
        0.1391931027173996,
        0.1615724414587021,
        -0.06346264481544495,
        -0.07781563699245453,
        -0.039213456213474274,
        0.08948338776826859,
        0.5629745125770569,
        -0.11114874482154846,
        0.16142190992832184,
        0.35934561491012573,
        -0.10211435705423355,
        0.10538627207279205,
        0.31604382395744324,
        -0.031364548951387405,
        -0.09936509281396866,
        0.1803552657365799,
        -0.6009512543678284,
        -0.34520894289016724,
        -0.15454620122909546,
        -0.05938076227903366,
        -0.29786789417266846,
        0.12902647256851196,
        0.20906655490398407,
        0.20367279648780823,
        -0.13347585499286652,
        -0.08523543924093246,
        0.0037563047371804714,
        -0.06678001582622528,
        0.04032062739133835,
        -0.06361864507198334,
        0.20865552127361298,
        0.04455101117491722,
        -0.22268640995025635,
        0.2546667754650116,
        0.48246175050735474,
        0.22488465905189514,
        0.3865414261817932,
        -0.007624060846865177,
        0.13223804533481598,
        -0.38079872727394104,
        -0.24120846390724182,
        -0.39049214124679565,
        -0.18761923909187317,
        -0.12180527299642563,
        0.1733037829399109,
        0.5297344923019409,
        0.09591090679168701,
        0.3199208378791809,
        -0.2530841529369354,
        -0.09281685948371887,
        -0.4250253140926361,
        -0.13930702209472656,
        0.0634574294090271,
        -0.08872627466917038,
        0.5206818580627441,
        -0.013688969425857067,
        0.22658048570156097,
        0.01543026976287365,
        0.3533783257007599,
        0.34213346242904663,
        -0.051818907260894775,
        0.6857763528823853,
        0.05363990366458893,
        0.11721405386924744,
        -0.17728260159492493,
        -0.2441449910402298,
        0.2136402577161789,
        -0.4665412902832031,
        -0.26015743613243103,
        -0.0482180193066597,
        0.11882579326629639,
        -0.5774668455123901,
        -0.16386348009109497,
        0.08179710805416107,
        -0.5937474966049194,
        -0.07979370653629303,
        0.07363466173410416,
        -0.14683844149112701,
        0.04235268011689186,
        0.3346458077430725,
        0.02209746092557907,
        -0.3640383780002594,
        0.023985613137483597,
        0.04516509175300598,
        0.2950405776500702,
        -0.5274710655212402,
        0.04167502745985985,
        -0.11227929592132568,
        0.3904867172241211,
        0.0621819831430912,
        0.09561820328235626,
        -0.03050047531723976,
        0.6471239328384399,
        0.12497229874134064,
        -0.1150345727801323,
        -0.2666260898113251,
        -0.2340441793203354,
        0.11188721656799316,
        0.2125513106584549,
        -0.07115160673856735,
        -0.0987936407327652,
        0.12002336978912354,
        0.0037780217826366425,
        0.17080922424793243,
        0.1446855366230011,
        -0.3467138111591339,
        0.08247523754835129,
        -0.21569405496120453,
        0.5296939015388489,
        0.04339463636279106,
        -0.08073315024375916,
        -0.6797351241111755,
        -0.46677079796791077,
        0.2109203338623047,
        0.1565820425748825,
        -0.466621458530426,
        0.18893568217754364,
        0.04358966276049614,
        -0.04582878574728966,
        0.08887436240911484,
        -0.032239362597465515,
        -0.24458588659763336,
        0.05510624498128891,
        -0.053911056369543076,
        -0.26565977931022644,
        -0.5334252119064331,
        0.21323151886463165,
        0.04749658703804016,
        0.08736666291952133,
        -0.07286564260721207,
        0.5965779423713684,
        -0.46213361620903015,
        0.48442739248275757,
        0.3075258731842041,
        -0.27855443954467773,
        -0.20844699442386627,
        -0.09337451308965683,
        0.508458137512207,
        0.08668823540210724,
        -0.06559620797634125,
        -0.1363373100757599,
        0.3745137155056,
        -0.4422433078289032,
        -0.13645769655704498,
        0.2823087275028229,
        -0.4626520276069641,
        0.04763006046414375,
        -1.1850509643554688,
        0.010318371467292309,
        0.053492628037929535,
        0.10178084671497345,
        0.06891622394323349,
        -0.1867257058620453,
        -0.32023191452026367,
        -0.1951148360967636,
        0.452190637588501,
        0.32735687494277954,
        -0.1875770390033722,
        -0.2716829776763916,
        0.17968429625034332,
        0.2701317071914673,
        0.32980430126190186,
        0.5223163962364197,
        0.041188959032297134,
        1.1186362504959106,
        -0.6965494751930237,
        0.013368681073188782,
        -0.00826752744615078,
        -0.3385521173477173,
        0.5157005190849304,
        -0.013056737370789051,
        0.06299721449613571,
        0.17995986342430115,
        -0.6277962327003479,
        0.5146036744117737,
        -0.07600502669811249,
        0.00039805303094908595,
        -0.045804426074028015,
        -0.582811713218689,
        -0.10649259388446808,
        0.28382086753845215,
        0.1033233255147934,
        0.8891352415084839,
        -0.2669225037097931,
        0.10423509776592255,
        0.10598630458116531,
        -0.17764879763126373,
        0.41132035851478577,
        -0.15080036222934723,
        0.889380931854248,
        -0.3093847632408142,
        0.5563205480575562,
        0.037479300051927567,
        0.13697828352451324,
        -0.02144818753004074,
        -0.04988696053624153,
        0.374024897813797,
        -0.31790855526924133,
        0.1086384505033493,
        -0.1808803826570511,
        0.16107134521007538,
        0.23925964534282684,
        0.1250438690185547,
        -0.09212420135736465,
        -0.15843863785266876,
        -0.19470587372779846,
        0.20408006012439728,
        0.08135874569416046,
        0.08185332268476486,
        0.34258395433425903,
        -0.23328553140163422,
        0.24881649017333984,
        -0.52955162525177,
        -0.4476606547832489,
        0.2832087278366089,
        -0.47935977578163147,
        0.5543079972267151,
        0.054799702018499374,
        0.33560487627983093,
        0.06300556659698486,
        -0.036499060690402985,
        -0.31982308626174927,
        -0.6511858701705933,
        0.4855462312698364,
        -0.011372385546565056,
        -0.7389860153198242,
        0.7428032159805298,
        0.2607496678829193,
        0.0775919035077095,
        0.34503087401390076,
        -0.5526750683784485,
        0.12508471310138702,
        0.40080130100250244,
        -0.042325496673583984,
        -0.09712374955415726,
        0.5166817307472229,
        0.7356613278388977,
        -0.37589865922927856,
        -0.010511770844459534,
        0.05146363005042076,
        -0.0681595653295517,
        -0.07040876150131226,
        0.0026366093661636114,
        0.029279135167598724,
        -0.4440496265888214,
        -0.3852931559085846,
        0.5533538460731506,
        0.3105357885360718,
        0.08005417883396149,
        -0.31156420707702637,
        -0.3261999487876892,
        0.568993091583252,
        0.8114994168281555,
        -0.20976001024246216,
        -0.3968709111213684,
        0.2642492949962616,
        -0.04082493111491203,
        -0.06149456277489662,
        0.3643297255039215,
        -0.06794308125972748,
        -0.003318552393466234,
        0.47803863883018494,
        -0.15066862106323242,
        -0.38260072469711304,
        0.038581620901823044,
        -0.6410157084465027,
        -0.1673007309436798,
        0.37611865997314453,
        0.251911997795105,
        -0.3349921405315399,
        0.054472245275974274,
        0.0806991383433342,
        0.0977620929479599,
        0.48433342576026917,
        -0.4299640655517578,
        0.11740801483392715,
        -0.02051532454788685,
        -0.13091668486595154,
        0.4049889147281647,
        -0.24347023665905,
        -0.6602187752723694,
        0.20413291454315186,
        -0.12869609892368317,
        0.3829955756664276,
        0.095206119120121,
        0.36558476090431213,
        0.10513494163751602,
        0.7156744003295898,
        0.41194263100624084,
        -0.12365463376045227,
        -0.8195493817329407,
        -0.08181878179311752,
        0.0033872786443680525,
        0.12193693220615387,
        -0.5490351319313049,
        0.21547633409500122,
        -0.17838643491268158,
        0.24001532793045044,
        0.41861745715141296,
        -0.22578100860118866,
        -0.27950429916381836,
        0.5223631262779236,
        0.09660282731056213,
        0.8852606415748596,
        -0.08785954862833023,
        -0.08534359186887741,
        -0.07812043279409409,
        0.5098020434379578,
        -0.5335686802864075,
        0.6347795724868774,
        -0.05972052738070488,
        0.21453826129436493,
        -0.11954781413078308,
        0.17845532298088074,
        -0.0831569954752922,
        0.3357352614402771,
        0.488069623708725,
        0.048529718071222305,
        -0.8727075457572937,
        0.0432322733104229,
        0.5422112941741943,
        -0.5311718583106995,
        -0.7247772812843323,
        0.17848753929138184,
        0.3937884569168091,
        0.09015924483537674,
        -0.23366157710552216,
        0.8118616938591003,
        0.23310792446136475,
        -0.40013283491134644,
        0.3182722330093384,
        -0.2347923219203949,
        -0.05502189323306084,
        0.12550432980060577,
        0.30401623249053955,
        -0.07646390050649643,
        0.28232237696647644,
        -0.04410158097743988,
        -0.3963066339492798,
        0.3393685519695282,
        0.2259511500597,
        0.246653750538826,
        -0.5771917104721069,
        -0.12116178125143051,
        -0.0731060802936554,
        -0.2577534019947052,
        0.020266808569431305,
        -0.48822179436683655,
        0.0380588062107563,
        0.08530726283788681,
        0.5438154935836792,
        0.09410154074430466,
        0.7940691709518433,
        0.06747882068157196,
        0.808441162109375,
        0.43746301531791687,
        -0.39418819546699524,
        0.087430939078331,
        -0.0558578185737133,
        0.4771369397640228,
        0.11431409418582916,
        0.1985274702310562,
        -0.2564617097377777,
        0.6113216280937195,
        -0.21573586761951447,
        0.2987220287322998,
        -0.5396950840950012,
        -0.8179950714111328,
        -0.6725392937660217,
        -0.5554015636444092,
        -0.47647330164909363,
        0.21967096626758575,
        -0.30034199357032776,
        -0.26368847489356995,
        0.4108909070491791,
        -0.6496850848197937,
        -0.11593475937843323,
        -0.2546648383140564,
        -0.09691070020198822,
