{
  "version": 2,
  "kind": "mlp",
  "featureNames": [
    "rank_balance_0",
    "rank_balance_1",
    "rank_balance_2",
    "rank_balance_3",
    "rank_balance_4",
    "rank_balance_5",
    "rank_balance_6",
    "rank_balance_7",
    "rank_balance_8",
    "rank_balance_9",
    "rank_balance_10",
    "rank_balance_11",
    "material_value_diff",
    "movable_piece_diff",
    "scout_diff",
    "miner_diff",
    "bomb_diff",
    "high_rank_diff",
    "revealed_ratio_diff",
    "hidden_high_rank_diff",
    "advancement_diff",
    "frontline_diff",
    "center_control_diff",
    "flag_guard_diff",
    "flag_pressure_diff",
    "turn_advantage",
    "game_phase"
  ],
  "layers": [
    {
      "inputSize": 27,
      "outputSize": 96,
      "weights": [
        -0.19147299230098724,
        -0.3175218403339386,
        0.28190481662750244,
        0.16656959056854248,
        0.15771067142486572,
        -0.0781937837600708,
        0.14374874532222748,
        -0.2762838900089264,
        0.8858961462974548,
        -0.2695748805999756,
        -0.36666861176490784,
        0.02162814699113369,
        0.17259256541728973,
        0.18076737225055695,
        0.21003615856170654,
        0.2548765540122986,
        -0.06207088753581047,
        0.0824955403804779,
        -0.47565892338752747,
        0.3426849842071533,
        -0.22405336797237396,
        0.19970697164535522,
        0.3116232454776764,
        -0.21675312519073486,
        -0.7744947075843811,
        -0.037903957068920135,
        0.09346446394920349,
        -0.07697891443967819,
        0.0019174665212631226,
        -0.47807517647743225,
        -0.030653325840830803,
        0.47063878178596497,
        -0.20130188763141632,
        -0.5386022329330444,
        0.019296418875455856,
        0.1847590059041977,
        0.1152125671505928,
        0.1253453940153122,
        0.4435974061489105,
        -0.21664535999298096,
        -0.2546922564506531,
        -0.5450200438499451,
        -0.08592668920755386,
        0.3964035212993622,
        0.1399865448474884,
        -0.2902882993221283,
        -0.18325336277484894,
        -0.2499404400587082,
        -0.31556907296180725,
        -0.2690575420856476,
        -0.0049246493726968765,
        -0.027944454923272133,
        -0.01000391785055399,
        -0.1610461175441742,
        -0.1543138027191162,
        0.49821028113365173,
        -0.15112735331058502,
        -0.035947833210229874,
        -0.04666408523917198,
        -0.25872543454170227,
        -0.30303826928138733,
        0.5404161214828491,
        0.16658537089824677,
        -0.44739848375320435,
        -0.5685719847679138,
        0.023017730563879013,
        -0.22490207850933075,
        0.1680637151002884,
        -0.10095836967229843,
        -0.14143623411655426,
        0.2251431941986084,
        -0.1188133955001831,
        0.9669837355613708,
        0.6535704135894775,
        -0.6569875478744507,
        -0.78631991147995,
        0.22132758796215057,
        0.5533187389373779,
        0.38501477241516113,
        -0.03202856704592705,
        0.22697944939136505,
        -0.07194455713033676,
        -0.1444660872220993,
        -0.43035510182380676,
        -0.019207986071705818,
        0.1813017874956131,
        -0.005202171392738819,
        0.03332686796784401,
        -0.30042764544487,
        -0.1245003417134285,
        0.011957391165196896,
        0.08099385350942612,
        0.10754115134477615,
        -0.21174539625644684,
        -0.17800666391849518,
        -0.39873620867729187,
        -0.1205986738204956,
        0.03140145167708397,
        0.10554376244544983,
        -0.20932446420192719,
        -0.3130823075771332,
        0.16830873489379883,
        0.14208467304706573,
        0.2297070473432541,
        0.36444395780563354,
        -0.20344877243041992,
        0.09551061689853668,
        -0.14875131845474243,
        -0.07347095012664795,
        0.4940129220485687,
        0.24136634171009064,
        0.2585993707180023,
        -0.1693286895751953,
        0.4873661696910858,
        0.2223639041185379,
        0.1036231517791748,
        -0.44808560609817505,
        -0.2732522487640381,
        0.06702330708503723,
        -0.0874408632516861,
        0.05912504345178604,
        0.2890632748603821,
        0.41319459676742554,
        0.3132976293563843,
        -0.13575510680675507,
        -0.36817455291748047,
        -0.406541109085083,
        -0.41516682505607605,
        0.12160332500934601,
        0.20015574991703033,
        -0.019931048154830933,
        -0.3771068751811981,
        0.0026633422821760178,
        0.06339950114488602,
        0.02732527069747448,
        0.13712383806705475,
        -0.13170595467090607,
        -0.5019207000732422,
        -0.005876806098967791,
        -0.5467708706855774,
        -0.49930712580680847,
        -0.7238244414329529,
        -0.4176366925239563,
        -0.1551533043384552,
        -0.024184642359614372,
        0.10970978438854218,
        -0.4008261263370514,
        -0.8991914391517639,
        -0.9506875872612,
        -0.4934266209602356,
        -0.027604756876826286,
        -0.34134146571159363,
        -0.07788354903459549,
        0.4051917791366577,
        -0.17766129970550537,
        0.15245695412158966,
        0.16229186952114105,
        0.423491507768631,
        -0.041745856404304504,
        0.04923706874251366,
        -0.006928157526999712,
        -0.06968585401773453,
        0.13986138999462128,
        0.1418371945619583,
        0.4768417775630951,
        0.24620279669761658,
        -0.37210017442703247,
        -0.19606785476207733,
        0.10105815529823303,
        0.3919070065021515,
        -0.4320147931575775,
        -0.09540978074073792,
        -0.39947235584259033,
        -0.19025543332099915,
        -0.14327038824558258,
        0.09559108316898346,
        0.3674565553665161,
        0.008900779299438,
        0.14468176662921906,
        -0.3543131947517395,
        -0.1583755761384964,
        0.15521155297756195,
        0.2396380603313446,
        0.08633448928594589,
        -0.4526672959327698,
        0.07088366895914078,
        0.23071347177028656,
        -0.07057712227106094,
        -0.1123661994934082,
        0.18552638590335846,
        0.08712541311979294,
        0.22365590929985046,
        -0.023376114666461945,
        0.5299984216690063,
        -0.26604872941970825,
        -0.20719808340072632,
        0.5980639457702637,
        -0.7365347146987915,
        -0.5795537233352661,
        -0.2646222710609436,
        0.28107142448425293,
        -0.15922649204730988,
        -0.1616358906030655,
        -0.061810899525880814,
        -0.11034692078828812,
        0.12732240557670593,
        -1.035840392112732,
        0.23707759380340576,
        0.00386113696731627,
        0.05437380075454712,
        -0.5040194392204285,
        -0.507746696472168,
        -0.16888487339019775,
        0.46144723892211914,
        -0.006426042411476374,
        0.04863498732447624,
        0.002643899992108345,
        0.2670312821865082,
        0.2880559265613556,
        -0.07892144471406937,
        -0.261433869600296,
        -0.10223928093910217,
        -0.1795010268688202,
        0.10260175913572311,
        0.09897271543741226,
        0.21553997695446014,
        0.18095384538173676,
        -0.1087787002325058,
        -0.09373561292886734,
        -0.033021993935108185,
        0.07375559955835342,
        -0.0132473548874259,
        -0.14379869401454926,
        0.08444659411907196,
        -0.6747812032699585,
        -0.2997233271598816,
        -0.18208640813827515,
        0.4296955168247223,
        -0.3385866582393646,
        0.4300360083580017,
        -0.12031877040863037,
        -0.01785113476216793,
        0.11292549222707748,
        -0.017778411507606506,
        0.368904173374176,
        0.06662613898515701,
        -0.25737833976745605,
        -0.3894693851470947,
        0.15538939833641052,
        0.019191976636648178,
        -0.00897518452256918,
        0.0357389971613884,
        -0.27798402309417725,
        -0.018224453553557396,
        0.29018497467041016,
        -0.027949631214141846,
        -0.16855713725090027,
        -0.2533743977546692,
        -0.08194376528263092,
        -0.023573650047183037,
        0.052964769303798676,
        -1.5250046253204346,
        -0.44908151030540466,
        0.2611388862133026,
        0.8368380069732666,
        0.4801331162452698,
        -0.24256230890750885,
        0.3788517713546753,
        0.022670991718769073,
        0.1577587127685547,
        -0.06642578542232513,
        -0.43682026863098145,
        0.046629033982753754,
        -0.13055095076560974,
        0.27196139097213745,
        -0.1563558280467987,
        -0.05547099560499191,
        -0.03950992971658707,
        0.23621933162212372,
        0.37349018454551697,
        0.16551785171031952,
        0.28207725286483765,
        0.31432172656059265,
        -0.003960412461310625,
        -0.21153996884822845,
        -0.21300898492336273,
        0.03126233071088791,
        0.14678150415420532,
        -0.046642981469631195,
        -0.369191437959671,
        -0.1645136922597885,
        -0.49765193462371826,
        -0.40748339891433716,
        0.004429430700838566,
        0.08804581314325333,
        0.0640963688492775,
        0.0876118615269661,
        -0.055951789021492004,
        -0.1065814197063446,
        -0.0733073353767395,
        0.0015116848517209291,
        0.5470573902130127,
        -0.45595502853393555,
        0.3268747329711914,
        1.0107684135437012,
        0.39248597621917725,
        0.17804066836833954,
        -0.22389237582683563,
        1.2434204816818237,
        0.7320370674133301,
        0.44929200410842896,
        0.09633614122867584,
        0.25960221886634827,
        1.0992494821548462,
        0.3053564131259918,
        -1.2521306276321411,
        -0.1604294329881668,
        0.7831233739852905,
        0.45119035243988037,
        0.3939680755138397,
        -0.0009188616531901062,
        -0.19338326156139374,
        0.03264089301228523,
        -0.20815852284431458,
        -0.07440241426229477,
        0.01306958682835102,
        -0.10440297424793243,
        -0.47741755843162537,
        0.38876813650131226,
        0.33353638648986816,
        0.13286906480789185,
        -0.10655532032251358,
        -0.5579645037651062,
        0.02321901172399521,
        0.4364731013774872,
        1.1958255767822266,
        0.03579530864953995,
        -0.0076371170580387115,
        -0.09554548561573029,
        -0.41933101415634155,
        1.3129569292068481,
        -0.179892897605896,
        0.14743877947330475,
        -0.7436931133270264,
        -0.26707690954208374,
        -0.6943976283073425,
        -0.19956426322460175,
        -0.03246322274208069,
        0.10370256006717682,
        -0.046760980039834976,
        0.08423703908920288,
        -0.12717530131340027,
        -0.12277315557003021,
        0.09093611687421799,
        0.2395830899477005,
        -0.2457120716571808,
        -0.015343477949500084,
        -0.25221431255340576,
        -0.31425583362579346,
        -0.3972139060497284,
        0.00462367944419384,
        0.11632321774959564,
        -0.19893403351306915,
        0.002498942194506526,
        0.01888803020119667,
        -0.1712273508310318,
        -0.00524665554985404,
        0.04403095692396164,
        -0.18565024435520172,
        -0.2625105679035187,
        -0.20517858862876892,
        0.4761495888233185,
        0.21191298961639404,
        0.32277703285217285,
        0.024557335302233696,
        -0.023104213178157806,
        0.06849893182516098,
        9.739054075907916e-05,
        -0.10951447486877441,
        0.12412042170763016,
        0.7016796469688416,
        -0.6597238183021545,
        0.4104800820350647,
        -0.8501121997833252,
        -0.1843934953212738,
        0.4202328324317932,
        0.11446050554513931,
        -0.6993324756622314,
        -0.014701149426400661,
        -0.8570786118507385,
        -0.45561179518699646,
        -0.023261800408363342,
        0.6309963464736938,
        -0.32543957233428955,
        -0.8655333518981934,
        -0.3947407603263855,
        -0.8657441139221191,
        -0.26939094066619873,
        -0.4901036024093628,
        -0.3829899728298187,
        -0.8308797478675842,
        0.5840650796890259,
        0.03578932210803032,
        -0.03181915357708931,
        0.038768500089645386,
        -0.061680182814598083,
        0.511584997177124,
        -0.0744868591427803,
        0.15754464268684387,
        -0.2014240026473999,
        -0.4486577808856964,
        0.1428764909505844,
        0.3245357275009155,
        -0.44928058981895447,
        0.30535444617271423,
        0.1580120325088501,
        0.29969465732574463,
        0.06079253554344177,
        0.19607819616794586,
        -0.015196098946034908,
        0.3951832354068756,
        0.3051259219646454,
        -0.3919329047203064,
        0.4172665476799011,
        -0.06104966625571251,
        0.03694116696715355,
        -0.3209711015224457,
        0.2826439440250397,
        0.22469207644462585,
        -0.11304359883069992,
        0.012722780928015709,
        -0.03386383876204491,
        0.08787749707698822,
        0.12016912549734116,
        -0.22465063631534576,
        0.11063991487026215,
        0.2428356558084488,
        -0.13006938993930817,
        -0.22752949595451355,
        -0.47245991230010986,
        -0.19275380671024323,
        -0.2741057276725769,
        0.1766425222158432,
        0.05876270309090614,
        -0.1812947690486908,
        -0.29770520329475403,
        0.0313083715736866,
        0.0026712988037616014,
        -0.17133131623268127,
        -0.3747292757034302,
        0.014686237089335918,
        0.18024511635303497,
        -0.30753985047340393,
        -0.26375481486320496,
        -0.24321937561035156,
        0.16844391822814941,
        0.13166585564613342,
        -0.0529506541788578,
        -0.3668687343597412,
        0.09868718683719635,
        0.45972469449043274,
        0.44949766993522644,
        -0.08956856280565262,
        0.17732805013656616,
        0.21545802056789398,
        -0.5842682123184204,
        -0.03476795181632042,
        0.08731769770383835,
        0.10685131698846817,
        -0.37070608139038086,
        0.5092212557792664,
        -0.019024929031729698,
        0.14226607978343964,
        0.25287654995918274,
        -0.122357577085495,
        0.544854998588562,
        -0.157656729221344,
        0.21333737671375275,
        -0.125059574842453,
        -0.24924471974372864,
        0.5667338967323303,
        0.051307737827301025,
        -0.2436041384935379,
        -0.2584559917449951,
        -0.03874069079756737,
        -0.21856354176998138,
        0.10845758020877838,
        0.03249240294098854,
        -0.49552851915359497,
        -0.22344714403152466,
        0.1721721887588501,
        0.05195675045251846,
        0.1395668089389801,
        -0.3661991059780121,
        -0.17492294311523438,
        -0.0937313660979271,
        -0.18231743574142456,
        -0.4433843195438385,
        -0.26895952224731445,
        -0.2584882974624634,
        -0.3397137224674225,
        -0.07297465205192566,
        -0.3878107964992523,
        -0.12361082434654236,
        0.37890908122062683,
        -0.16236023604869843,
        -0.17170609533786774,
        0.19111262261867523,
        -0.07214578241109848,
        -0.007351291831582785,
        0.4129759967327118,
        -0.06223965063691139,
        0.1698736548423767,
        0.09759826958179474,
        -0.30141758918762207,
        0.385285347700119,
        0.07106265425682068,
        -0.8586059808731079,
        -0.49308204650878906,
        -0.35207509994506836,
        0.1496995985507965,
        -0.2429291158914566,
        0.5143163204193115,
        -0.4868544042110443,
        0.5002732872962952,
        -0.4351744055747986,
        -0.39584580063819885,
        0.28932851552963257,
        0.3411324620246887,
        0.556008517742157,
        -0.2575511336326599,
        -0.26519346237182617,
        0.1259915828704834,
        -0.304417222738266,
        -0.12175361067056656,
        0.06717803329229355,
        -0.24694499373435974,
        0.269595205783844,
        0.01151368860155344,
        0.01699339784681797,
        0.13684575259685516,
        0.20633746683597565,
        0.2467302680015564,
        -0.20809994637966156,
        -0.156580850481987,
        0.055601704865694046,
        0.15230126678943634,
        0.5760694146156311,
        -0.36925208568573,
        0.16258779168128967,
        -0.22665171325206757,
        0.17507269978523254,
        0.09231052547693253,
        -0.05613311752676964,
        -0.028791839256882668,
        -0.23800496757030487,
        0.15427112579345703,
        -0.41340580582618713,
        0.13207748532295227,
        -0.2902664542198181,
        -0.21661286056041718,
        -0.05398305132985115,
        -0.350302517414093,
        -0.2060019075870514,
        -0.05396106094121933,
        -0.009150887839496136,
        -0.0868837833404541,
        0.027543656527996063,
        -0.018835674971342087,
        0.10881797224283218,
        0.08546342700719833,
        0.16481050848960876,
        -0.1587105542421341,
        -0.45026934146881104,
        0.3290519416332245,
        -0.12937067449092865,
        0.14672207832336426,
        0.15618863701820374,
        0.3048872947692871,
        0.19888080656528473,
        0.15765956044197083,
        0.05912282317876816,
        -0.23105284571647644,
        0.4025684595108032,
        -0.07971113920211792,
        -0.20835347473621368,
        0.055183615535497665,
        0.4947541654109955,
        0.3769674301147461,
        0.2421596795320511,
        -0.1234869584441185,
        0.11695341765880585,
        0.10057844966650009,
        0.10850106179714203,
        0.01646791398525238,
        -0.03914792835712433,
        -0.5225609540939331,
        -0.15917858481407166,
        0.5393965244293213,
        0.1969083994626999,
        -0.05943407118320465,
        0.634123682975769,
        0.27448728680610657,
        0.04994417354464531,
        0.28377464413642883,
        0.265510618686676,
        0.6090108156204224,
        0.21907153725624084,
        -0.504665732383728,
        -0.4367005527019501,
        0.18013447523117065,
        0.2794472575187683,
        -0.8199636340141296,
        -0.7334682941436768,
        -0.06766238808631897,
        0.28015223145484924,
        0.38960200548171997,
        0.17217469215393066,
        -0.496654212474823,
        -0.024211984127759933,
        -0.03905918449163437,
        0.17298124730587006,
        0.2779168486595154,
        0.5930819511413574,
        -0.1105189397931099,
        0.5104694962501526,
        0.1847701519727707,
        -0.5034518241882324,
        0.09324468672275543,
        0.18295709788799286,
        -0.21810999512672424,
        -0.0045707942917943,
        -0.7289684414863586,
        0.27825579047203064,
        0.41930094361305237,
        0.6029460430145264,
        -0.1891929805278778,
        -0.932487428188324,
        0.2547837495803833,
        0.3321870267391205,
        -0.13542374968528748,
        -1.209622859954834,
        -0.5362845063209534,
        -0.17294727265834808,
        -0.3165307939052582,
        -0.18260179460048676,
        -0.02464473620057106,
        -0.04450472071766853,
        0.11605192720890045,
        -0.3405987024307251,
        -0.232179656624794,
        0.08998387306928635,
        -0.4926854968070984,
        -0.36410921812057495,
        -0.17733028531074524,
        -0.2620832622051239,
        0.07839836925268173,
        -0.28805238008499146,
        -0.011548767797648907,
        -0.07375059276819229,
        -0.4762248992919922,
        -0.567011296749115,
        -0.27622225880622864,
        -0.17082080245018005,
        -0.16904251277446747,
        -0.14826138317584991,
        0.30578768253326416,
        -0.2475677728652954,
        -0.22662349045276642,
        -0.11498108506202698,
        0.02834291011095047,
        -0.4976016581058502,
        -0.08450396358966827,
        0.09023930132389069,
        0.16626350581645966,
        0.11029349267482758,
        -0.15022367238998413,
        -0.4577256739139557,
        -0.1388193517923355,
        0.3077279031276703,
        0.04209204390645027,
        -0.36074140667915344,
        -0.19530507922172546,
        -0.15304319560527802,
        -0.0738254263997078,
        -0.07691076397895813,
        -0.1369093954563141,
        -0.15173813700675964,
        -0.26192301511764526,
        -0.2872796356678009,
        -0.1217295303940773,
        -0.2278507947921753,
        0.04970134049654007,
        -0.11565529555082321,
        -0.09159042686223984,
        0.48636171221733093,
        0.007135305088013411,
        -0.1811375916004181,
        0.10973689705133438,
        0.47063812613487244,
        0.12901219725608826,
        0.11617854982614517,
        -0.06556792557239532,
        0.40886566042900085,
        0.9382661581039429,
        -0.5709378719329834,
        0.908280074596405,
        0.06012260168790817,
        0.0711093470454216,
        0.7701420187950134,
        -0.16832642257213593,
        -0.22586268186569214,
        0.5113846659660339,
        -0.26421162486076355,
        0.5898345112800598,
        0.954740583896637,
        0.6764048337936401,
        -0.40339893102645874,
        -0.21374069154262543,
        -0.009815269149839878,
        0.5058736801147461,
        -0.04073958098888397,
        -0.8747982382774353,
        -0.8979874849319458,
        -0.3075779974460602,
        -0.4897969961166382,
        -0.04558691382408142,
        0.005976433865725994,
        -0.019114239141345024,
        -0.08033723384141922,
        0.2937735915184021,
        0.6162252426147461,
        -0.6734836101531982,
        -0.33921608328819275,
        0.3465495705604553,
        -0.16895052790641785,
        0.34709054231643677,
        -0.13414940237998962,
        0.6965901255607605,
        0.40715524554252625,
        0.2168549746274948,
        0.231438547372818,
        0.21869899332523346,
        0.4009011685848236,
        -0.6395430564880371,
        0.21718639135360718,
        0.39251965284347534,
        -1.4982905387878418,
        -0.846412718296051,
        0.42462360858917236,
        0.9531670212745667,
        0.3915034830570221,
        -0.17125040292739868,
        -0.733818531036377,
        0.011111009865999222,
        -0.13327515125274658,
        0.1826532930135727,
        0.1377866566181183,
        0.11567861586809158,
        0.0510341078042984,
        0.281782865524292,
        -0.5970352292060852,
        0.29443278908729553,
        -0.016384484246373177,
        0.048275213688611984,
        -0.14819790422916412,
        -0.14254409074783325,
        0.09619525820016861,
        0.024781031534075737,
        0.13147589564323425,
        0.12560391426086426,
        0.23520058393478394,
        0.03616093471646309,
        -0.16734901070594788,
        0.4722937047481537,
        0.5246348977088928,
        -0.060639455914497375,
        -0.44134920835494995,
        -0.23500147461891174,
        0.05066823959350586,
        -0.09714838862419128,
        -0.07403331995010376,
        0.11721649020910263,
        0.1645570546388626,
        0.27488675713539124,
        -0.19801674783229828,
        -0.13060708343982697,
        -1.073648452758789,
        0.9109811782836914,
        0.8467795848846436,
        0.7213764190673828,
        0.14250925183296204,
        0.32480087876319885,
        -0.3696679472923279,
        0.33933013677597046,
        0.2906481921672821,
        0.2230920046567917,
        -0.12096789479255676,
        -0.23787972331047058,
        0.0835254117846489,
        -0.10320784151554108,
        -1.0662068128585815,
        -0.3834078311920166,
        -0.5972681045532227,
        -1.0995343923568726,
        -0.6392045021057129,
        -0.2814670205116272,
        0.0989445224404335,
        0.011406096629798412,
        -0.0437985323369503,
        -0.19026075303554535,
        -0.05052512139081955,
        0.3350270092487335,
        -0.4694439768791199,
        0.3137493431568146,
        0.44744715094566345,
        0.2287231981754303,
        -0.4956558048725128,
        0.2418699413537979,
        0.35272035002708435,
        0.23058892786502838,
        -0.22836129367351532,
        0.3157707154750824,
        0.017474571242928505,
        0.41759970784187317,
        -0.38580501079559326,
        0.017643427476286888,
        0.2836546301841736,
        -0.187686949968338,
        0.13881167769432068,
        0.030282652005553246,
        -0.09700413048267365,
        -0.3555980920791626,
        -0.03164226934313774,
        0.2772972285747528,
        -0.005566610489040613,
        0.10511679202318192,
        -0.07111675292253494,
        0.15792980790138245,
        0.42807909846305847,
        0.2543667256832123,
        0.2525843679904938,
        -0.42541831731796265,
        0.16996796429157257,
        -0.052848268300294876,
        0.2700255811214447,
        -0.25613242387771606,
        0.018737001344561577,
        0.2963404953479767,
        0.2568458020687103,
        0.35088106989860535,
        0.1278802752494812,
        0.37151622772216797,
        0.0716797262430191,
        -0.15655933320522308,
        0.3632829487323761,
        0.0695391595363617,
        0.07921984791755676,
        -0.117584727704525,
        -0.35102689266204834,
        -0.12238118797540665,
        0.10677514970302582,
        0.011037684977054596,
        0.08891448378562927,
        -0.16133464872837067,
        0.0913495346903801,
        0.026488445699214935,
        0.13070398569107056,
        -0.6679707765579224,
        0.026563500985503197,
        0.3527757227420807,
        -1.0821142196655273,
        0.828129768371582,
        -0.23492105305194855,
        -0.17837154865264893,
        -0.15189556777477264,
        -0.18029187619686127,
        0.12189726531505585,
        0.2439698576927185,
        0.07544834166765213,
        0.13663910329341888,
        0.20853716135025024,
        0.5238934755325317,
        0.498513400554657,
        0.2965627610683441,
        -0.5768922567367554,
        0.2599758207798004,
        -0.47093144059181213,
        -0.2314230352640152,
        -0.009731017053127289,
        -0.04175803065299988,
        -0.008740805089473724,
        -0.13900335133075714,
        -0.3108392059803009,
        0.015048430301249027,
        0.4904751479625702,
        0.19857251644134521,
        0.40788501501083374,
        0.20057901740074158,
        0.24759462475776672,
        0.006596160586923361,
        0.19753408432006836,
        -0.049168411642313004,
        0.15642987191677094,
        -0.04314684867858887,
        -0.25686901807785034,
        -0.0753842294216156,
        -0.09228643774986267,
        0.12819166481494904,
        -0.5797874927520752,
        0.1280113160610199,
        -0.2711067199707031,
        0.1639389842748642,
        0.48273923993110657,
        -0.3350520431995392,
        -0.41354289650917053,
        -0.04984819144010544,
        -0.19255858659744263,
        -0.07487911731004715,
        -0.04565761238336563,
        -0.05640682205557823,
        0.01820266619324684,
        0.09962870180606842,
        0.20550644397735596,
        0.7713128924369812,
        -0.07697023451328278,
        -0.48417019844055176,
        0.2824985086917877,
        0.3158555328845978,
        0.5519558191299438,
        0.5625725984573364,
        0.4821183979511261,
        -0.1505054384469986,
        0.23904448747634888,
        0.5661264657974243,
        -0.13145382702350616,
        1.0823360681533813,
        0.5378648638725281,
        0.0499163419008255,
        -0.3787170648574829,
        -0.19987493753433228,
        -0.2743734121322632,
        0.16622643172740936,
        0.013443331234157085,
        -0.05688060075044632,
        0.09330110251903534,
        -0.46015459299087524,
        -0.17881271243095398,
        0.30277442932128906,
        0.4340294897556305,
        -0.4082428514957428,
        0.21069476008415222,
        0.636690616607666,
        -0.06611386686563492,
        0.3598206639289856,
        0.35655689239501953,
        0.24530534446239471,
        0.33658841252326965,
        0.15697838366031647,
        -0.3233984708786011,
        0.2716120481491089,
        0.22695700824260712,
        0.10551369935274124,
        0.0017141865100711584,
        -0.604356586933136,
        0.2360498011112213,
        0.01334981806576252,
        -0.6686304807662964,
        0.23533695936203003,
        -0.4535396993160248,
        -0.013600194826722145,
        0.0010663662105798721,
        -0.19082355499267578,
        -0.04538239166140556,
        -0.04487161338329315,
        -0.07629923522472382,
        0.45042523741722107,
        0.33380693197250366,
        0.04184233769774437,
        -0.18852004408836365,
        -0.2871719300746918,
        0.15612028539180756,
        0.3774760663509369,
        -0.07639289647340775,
        -0.010536151006817818,
        0.2719669044017792,
        0.12811513245105743,
        -0.1268932968378067,
        0.16517771780490875,
        0.025043414905667305,
        -0.13130368292331696,
        0.1581525057554245,
        0.12306475639343262,
        -0.24527467787265778,
        0.17814387381076813,
        -0.7759683728218079,
        0.6231274008750916,
        0.07728350907564163,
        0.22931483387947083,
        0.0326000452041626,
        0.038692787289619446,
        -0.22418895363807678,
        -0.10068974643945694,
        -0.3692423105239868,
        -0.01568056456744671,
        -0.03622295707464218,
        0.7829639911651611,
        0.28167587518692017,
        -0.8510188460350037,
        0.4781613349914551,
        0.635358989238739,
        0.4909754693508148,
        0.1718151569366455,
        0.09182924777269363,
        -0.11559825390577316,
        0.6918372511863708,
        0.20977048575878143,
        0.6555737853050232,
        -0.21113772690296173,
        -0.15753698348999023,
        -0.04705279693007469,
        0.05231710150837898,
        -0.010060163214802742,
        0.16290028393268585,
        0.0011531501077115536,
        -0.1095065325498581,
        0.10849364101886749,
        0.24016250669956207,
        -0.18248558044433594,
        -0.19654619693756104,
        -0.16059914231300354,
        0.1484318971633911,
        0.0020458330400288105,
        -0.17304621636867523,
        -0.04914465546607971,
        0.551986575126648,
        0.127506822347641,
        0.4654088020324707,
        0.031357839703559875,
        -0.2762761414051056,
        -0.02808215841650963,
        -0.3289145827293396,
        0.5410401225090027,
        0.2495225965976715,
        0.3010771870613098,
        -0.296356201171875,
        -0.37200695276260376,
        0.1174047589302063,
        0.6847639083862305,
        -0.1381359100341797,
        -0.06684509664773941,
        -0.040587786585092545,
        -0.15984010696411133,
        0.17897315323352814,
        0.16085347533226013,
        -0.3963354825973511,
        0.14733929932117462,
        0.18053951859474182,
        -0.21654361486434937,
        1.089598536491394,
        -0.7027152180671692,
        -0.4082588255405426,
        -0.21238651871681213,
        -0.0812356173992157,
        -0.4358789622783661,
        -0.2550812363624573,
        -0.28461968898773193,
        -0.3422895073890686,
        0.0937761440873146,
        -0.6554920673370361,
        -0.4525146782398224,
        0.6662127375602722,
        -0.6547759175300598,
        0.5454387664794922,
        0.5575516223907471,
        0.2111707329750061,
        0.11963784694671631,
        0.12850603461265564,
        0.011488450691103935,
        -0.0159560889005661,
        -0.05508950352668762,
        0.2254166603088379,
        -0.18139766156673431,
        -0.17183180153369904,
        -0.3054119944572449,
        0.23658989369869232,
        -1.049939513206482,
        -0.3959586024284363,
        -0.31505444645881653,
        0.5208436250686646,
        0.5946114659309387,
        -0.22099772095680237,
        -0.1616591066122055,
        -0.40103447437286377,
        -0.41322603821754456,
        0.07882612943649292,
        -0.16489209234714508,
        0.4148826599121094,
        0.4592592120170593,
        0.17978882789611816,
        0.2956858277320862,
        -0.15467457473278046,
        -0.3690241873264313,
        0.3897150754928589,
        -0.24132202565670013,
        0.013004187494516373,
        -0.04874877631664276,
        -0.17047829926013947,
        0.19841894507408142,
        0.13171225786209106,
        -0.30114343762397766,
        -1.177392601966858,
        0.4086868166923523,
        0.7430871725082397,
        -0.18636871874332428,
        0.5378832221031189,
        -0.30764979124069214,
        -0.15346550941467285,
        -0.28778311610221863,
        -0.11644155532121658,
        -0.16157686710357666,
        0.11042261868715286,
        -0.30762121081352234,
        -0.41430333256721497,
        0.10123074799776077,
        -0.6770501136779785,
        -0.5362428426742554,
        -0.24078963696956635,
        -0.28642675280570984,
        -0.30126214027404785,
        -0.06783134490251541,
        -0.5235840678215027,
        -0.0017419274663552642,
        0.06005937606096268,
        -0.09606661647558212,
        -0.18235497176647186,
        0.01895833946764469,
        -0.17685946822166443,
        0.3213779926300049,
        -0.01735537312924862,
        0.47677868604660034,
        0.2601081430912018,
        0.5154474973678589,
        0.02521165832877159,
        -0.28393200039863586,
        0.37264716625213623,
        0.27395856380462646,
        0.23847010731697083,
        -0.041111335158348083,
        -0.12981866300106049,
        0.21549126505851746,
        0.4382333755493164,
        0.3775923550128937,
        0.2702964246273041,
        -0.026663387194275856,
        -0.3346427381038666,
        -0.09300907701253891,
        0.27871182560920715,
        0.2972031235694885,
        -0.04327172413468361,
        0.09043946862220764,
        -0.10958041250705719,
        0.1257745772600174,
        0.44149506092071533,
        0.08709991723299026,
        -0.6178505420684814,
        0.09223125874996185,
        0.2810302674770355,
        -0.23570215702056885,
        -0.02650352753698826,
        -0.09734182804822922,
        0.043933723121881485,
        0.10349809378385544,
        0.23501507937908173,
        0.44157588481903076,
        0.5156448483467102,
        0.10478586703538895,
        0.31466686725616455,
        0.19655445218086243,
        1.845487356185913,
        -0.7679779529571533,
        -0.3533990979194641,
        -0.13426144421100616,
        -0.01569567620754242,
        0.11155296862125397,
        0.2870367467403412,
        -0.02807149477303028,
        0.25255846977233887,
        -0.03318659961223602,
        0.7321277260780334,
        0.621573269367218,
        0.4807443618774414,
        -0.19729676842689514,
        0.12417995929718018,
        -0.23558323085308075,
        -0.8350784778594971,
        0.34407877922058105,
        0.13809090852737427,
        0.10698441416025162,
        -0.5045868754386902,
        -0.15362364053726196,
        0.187796488404274,
        0.553731381893158,
        0.32277679443359375,
        -0.6253132224082947,
        0.27983567118644714,
        0.031096749007701874,
        0.9225043654441833,
        0.22976374626159668,
        0.5987972617149353,
        0.47743314504623413,
        -0.20338833332061768,
        -0.38182777166366577,
        0.007506125140935183,
        -0.18284164369106293,
        -0.13482050597667694,
        -0.4649742543697357,
        -0.46342283487319946,
        -0.2963392436504364,
        -0.027225052937865257,
        0.09379644691944122,
        0.3162321448326111,
        -0.041658543050289154,
        0.5092968344688416,
        -0.22992682456970215,
        0.3462180197238922,
        -0.1830526739358902,
        0.19965854287147522,
        -0.16622166335582733,
        -0.23382188379764557,
        -0.27611368894577026,
        -0.08692781627178192,
        0.6596970558166504,
        0.012452804483473301,
        0.12502290308475494,
        0.18278159201145172,
        0.20112717151641846,
        0.455564945936203,
        0.08662416785955429,
        0.300062894821167,
        0.008764476515352726,
        0.1628253012895584,
        0.04432176053524017,
        0.1844581961631775,
        0.06483051925897598,
        0.02765107899904251,
        -0.42677396535873413,
        -0.03071153163909912,
        -0.11833974719047546,
        0.10616134107112885,
        -0.16216112673282623,
        0.22962309420108795,
        0.2001708298921585,
        -0.10148044675588608,
        -0.14331622421741486,
        -0.1999593824148178,
        -0.24308492243289948,
        0.012150466442108154,
        -0.041048310697078705,
        -0.12656182050704956,
        -0.4110185503959656,
        -0.08191985636949539,
        0.4705640375614166,
        0.3542260527610779,
        0.3017931580543518,
        0.1786930412054062,
        -0.03678199276328087,
        0.036298494786024094,
        -0.06743130087852478,
        -0.15095506608486176,
        -0.2843310534954071,
        -0.04153129830956459,
        0.19657205045223236,
        0.17961011826992035,
        0.09030774235725403,
        0.22488845884799957,
        0.21589766442775726,
        0.019188759848475456,
        -0.4097333252429962,
        -0.16847871243953705,
        -0.366249680519104,
        0.15704914927482605,
        0.2306762933731079,
        0.17337699234485626,
        0.13283465802669525,
        -0.26651862263679504,
        -0.09436356276273727,
        -0.37590569257736206,
        0.18469229340553284,
        0.12576542794704437,
        -0.04803614690899849,
        -0.18128296732902527,
        0.10694707930088043,
        -0.10562068969011307,
        -0.05590545013546944,
        0.010158834047615528,
        -0.02277788519859314,
        -0.15251587331295013,
        0.2079486846923828,
        0.11521712690591812,
        -0.07092791050672531,
        -0.14096170663833618,
        -0.0903487503528595,
        -0.4655984342098236,
        0.05765659734606743,
        0.035150475800037384,
        0.1940855085849762,
        0.10649066418409348,
        -0.04295196756720543,
        0.04668840020895004,
        0.27352428436279297,
        0.022570764645934105,
        0.20891161262989044,
        0.10315258800983429,
        -0.09302524477243423,
        0.00806387234479189,
        0.18998855352401733,
        0.14551116526126862,
        -0.24749700725078583,
        -0.21510399878025055,
        0.33501023054122925,
        -0.10654102265834808,
        0.17318861186504364,
        -0.17313310503959656,
        0.0025067352689802647,
        -0.010140695609152317,
        0.19537824392318726,
        -0.13357792794704437,
        -0.07476326078176498,
        -0.1860048472881317,
        0.38888224959373474,
        -0.03172656148672104,
        0.2247582972049713,
        -0.17677558958530426,
        0.12488684803247452,
        0.19024212658405304,
        -0.17347267270088196,
        -0.0543590784072876,
        0.03536544367671013,
        0.44666698575019836,
        -0.04149719327688217,
        -0.8255358934402466,
        -0.0367165245115757,
        0.3588427007198334,
        0.35976991057395935,
        0.21493618190288544,
        0.0506579764187336,
        0.060137197375297546,
        -0.10319758206605911,
        -0.004140656907111406,
        0.08838669955730438,
        0.20906415581703186,
        -0.08955584466457367,
        -0.7599244713783264,
        0.2571539878845215,
        -0.1817508041858673,
        0.12516644597053528,
        -0.41782909631729126,
        0.1732124388217926,
        0.534159779548645,
        -0.34511393308639526,
        -0.12470992654561996,
        -0.01044172327965498,
        -0.25086867809295654,
        0.04103104770183563,
        -0.7563545107841492,
        -0.23168405890464783,
        0.3002977669239044,
        0.04025088995695114,
        0.16258840262889862,
        -0.5389847755432129,
        -0.21445176005363464,
        -0.1864125281572342,
        0.05520317703485489,
        -0.28065255284309387,
        0.012688164599239826,
        -0.11119339615106583,
        0.11553667485713959,
        0.09300333261489868,
        -0.04512186720967293,
        -0.31345492601394653,
        -0.6475018858909607,
        -0.5663290619850159,
        0.01832973025739193,
        0.24203971028327942,
        -0.6429520845413208,
        -0.14810197055339813,
        -0.7306883931159973,
        0.16666492819786072,
        -0.8663721680641174,
        -0.686803936958313,
        -0.2462751567363739,
        -0.16588063538074493,
        -0.09234180301427841,
        -0.7428481578826904,
        -0.04784705117344856,
        0.21371173858642578,
        0.4702354371547699,
        0.2907385230064392,
        -0.21954460442066193,
        -0.0889115035533905,
        0.6635940074920654,
        -0.016354264691472054,
        0.055061377584934235,
        0.14790572226047516,
        0.1333940476179123,
        0.17013496160507202,
        -0.23741497099399567,
        0.13345620036125183,
        -0.27959194779396057,
        -0.2776884138584137,
        -0.6942771673202515,
        -0.2943018674850464,
        0.5515313148498535,
        0.07601404935121536,
        -0.18836210668087006,
        -0.5042330622673035,
        -0.17640088498592377,
        0.1539631187915802,
        -0.08946626633405685,
        -0.13293687999248505,
        -0.1939745545387268,
        0.5289246439933777,
        0.19833046197891235,
        0.08511672914028168,
        0.519633412361145,
        0.5228893756866455,
        0.1251191943883896,
        0.10150788724422455,
        0.007937553338706493,
        0.1363096833229065,
        0.12159468233585358,
        0.3175337016582489,
        -0.08426280319690704,
        -0.04476778209209442,
        -0.02957206219434738,
        -0.35349538922309875,
        0.0058930120430886745,
        -0.1856190264225006,
        -0.13289932906627655,
        -0.1284661889076233,
        -0.14222560822963715,
        0.268603652715683,
        -0.5387579202651978,
        -0.4170782268047333,
        -0.12766151130199432,
        0.002502421149984002,
        0.2824935019016266,
        -0.43259328603744507,
        0.3419220745563507,
        -0.28486117720603943,
        -0.31001192331314087,
        0.2978169322013855,
        -0.07333268225193024,
        -0.15642331540584564,
        0.32774701714515686,
        0.015593052841722965,
        0.08099012076854706,
        -0.06583443284034729,
        -0.2798008918762207,
        0.25779101252555847,
        -0.28048330545425415,
        0.47923743724823,
        0.3012320101261139,
        0.06305991858243942,
        0.23713068664073944,
        0.1587180495262146,
        0.0706062838435173,
        0.698860228061676,
        -0.09145869314670563,
        0.44722089171409607,
        0.3983393907546997,
        0.31739136576652527,
        -0.3875638544559479,
        0.08224357664585114,
        0.3385767638683319,
        -0.2028997242450714,
        0.37644311785697937,
        0.13278499245643616,
        0.2556089758872986,
        0.3175354301929474,
        -0.040248431265354156,
        -0.11179176717996597,
        -0.034825608134269714,
        0.04220866411924362,
        -0.17470960319042206,
        -0.13269969820976257,
        -0.10968607664108276,
        0.30140024423599243,
        0.07117708027362823,
        0.196675106883049,
        0.05442960560321808,
        -0.5235382914543152,
        -0.42312392592430115,
        0.021659275516867638,
        0.28241270780563354,
        -0.18137581646442413,
        -0.2364085167646408,
        -0.2913997173309326,
        -0.26346391439437866,
        0.017152657732367516,
        -0.03818909823894501,
        -0.217323899269104,
        -0.7599141001701355,
        -0.138835608959198,
        0.633480429649353,
        0.526993989944458,
        0.3607652187347412,
        -0.001626571174710989,
        -0.3340378701686859,
        -0.09815803170204163,
        0.03156014904379845,
        -0.1783534735441208,
        -0.11882471293210983,
        0.3938022255897522,
        0.015288754366338253,
        -0.16019074618816376,
        -0.6608754396438599,
        -0.7563503980636597,
        0.6473140716552734,
        0.03179646655917168,
        -0.20597147941589355,
        -0.38920897245407104,
        0.17431588470935822,
        -0.25449293851852417,
        -0.15023930370807648,
        0.17381921410560608,
        -0.06293471902608871,
        0.09610578417778015,
        0.06902991980314255,
        -0.3969261646270752,
        0.04895412549376488,
        -0.16177065670490265,
        0.5690637826919556,
        0.36773785948753357,
        0.20926989614963531,
        0.48333677649497986,
        0.027856601402163506,
        -0.1375007927417755,
        -0.11493097245693207,
        -0.03866450488567352,
        -0.5121546983718872,
        0.5859156847000122,
        0.026888351887464523,
        0.3981585204601288,
        0.38578000664711,
        0.22508594393730164,
        0.34888756275177,
        -0.6883811950683594,
        -0.4964757263660431,
        0.22607897222042084,
        0.19873587787151337,
        0.0804751068353653,
        -0.4091598391532898,
        0.36752450466156006,
        0.2022390514612198,
        -0.28893280029296875,
        -1.403344750404358,
        0.7586585283279419,
        -0.5840853452682495,
        -0.686423122882843,
        -0.6335151791572571,
        0.07919584959745407,
        0.3971821069717407,
        -0.004322046414017677,
        -0.1516062170267105,
        0.03568311035633087,
        0.317747563123703,
        0.06654725223779678,
        -0.08183199167251587,
        -0.8897859454154968,
        -0.015118501149117947,
        -0.378707617521286,
        0.17839199304580688,
        0.12605628371238708,
        0.03750224411487579,
        0.13629630208015442,
        -0.15994372963905334,
        -0.5072002410888672,
        -0.503684937953949,
        0.14136599004268646,
        -0.15088751912117004,
        -0.1740122139453888,
        0.058697450906038284,
        -0.04089122638106346,
        -0.28377795219421387,
        0.3820808529853821,
        0.20178142189979553,
        0.2059004008769989,
        0.7175717949867249,
        0.2787947952747345,
        0.04158244654536247,
        0.0982017070055008,
        0.08002682030200958,
        0.3866250216960907,
        -0.6417801380157471,
        -0.008176256902515888,
        -0.19717618823051453,
        0.268383264541626,
        0.038574136793613434,
        0.503632664680481,
        -0.11209647357463837,
        -0.143999844789505,
        0.6790060997009277,
        -0.1452244371175766,
        0.4713127911090851,
        -0.02086843177676201,
        -0.5058275461196899,
        -0.09340447187423706,
        -0.10663339495658875,
        0.14938294887542725,
        0.8399779796600342,
        -0.2349228411912918,
        0.4628283679485321,
        -0.2948797941207886,
        0.05764647200703621,
        0.3929557502269745,
        -0.25818198919296265,
        -0.05700745806097984,
        0.14105406403541565,
        -0.12039957195520401,
        0.27332815527915955,
        -0.2812458574771881,
        -0.19332745671272278,
        0.09659000486135483,
        0.05617095157504082,
        0.3552769124507904,
        -0.3685815930366516,
        0.14443795382976532,
        -0.24122680723667145,
        0.18637003004550934,
        -0.3038221597671509,
        -0.0253419429063797,
        0.12124349921941757,
        -0.2935110628604889,
        -0.2803119122982025,
        -0.10853690654039383,
        0.15444569289684296,
        0.15432453155517578,
        0.5060597062110901,
        0.12285702675580978,
        -0.15746234357357025,
        -0.090159110724926,
        0.04301664978265762,
        -0.10129609704017639,
        0.07418163865804672,
        0.026100600138306618,
        0.06143176555633545,
        -0.011539258994162083,
        -0.012848446145653725,
        0.1245630532503128,
        -0.16193129122257233,
        -0.13671913743019104,
        -0.3233652114868164,
        0.5840342044830322,
        -0.2129247784614563,
        -0.3861549496650696,
        1.1896166801452637,
        -0.4174779951572418,
        0.43194931745529175,
        0.07051236927509308,
        -0.015071473084390163,
        -0.1352185606956482,
        -0.10742802172899246,
        0.2241031527519226,
        0.6270678639411926,
        0.467084676027298,
        -0.09346496313810349,
        -0.488343745470047,
        0.1981883943080902,
        0.23036572337150574,
        -0.23578640818595886,
        0.004516413901001215,
        0.020431766286492348,
        -0.026315532624721527,
        -0.643216073513031,
        0.07171109318733215,
        0.0883551612496376,
        0.55620276927948,
        -0.27675923705101013,
        -0.24748603999614716,
        0.047752514481544495,
        0.6169467568397522,
        -0.051846470683813095,
        0.022177688777446747,
        0.17998716235160828,
        0.11163977533578873,
        0.013834376819431782,
        0.19246968626976013,
        0.2216869443655014,
        0.3284860849380493,
        0.6649988293647766,
        -0.5454322099685669,
        -0.19951385259628296,
        0.2993480861186981,
        0.3730085492134094,
        0.8376240730285645,
        -0.02174275368452072,
        -0.1845402717590332,
        0.03519627824425697,
        0.05604994297027588,
        0.05788624286651611,
        0.07604265958070755,
        0.04941164702177048,
        0.01424270961433649,
        -0.18568629026412964,
        -0.2822927236557007,
        -0.33637917041778564,
        -0.15302157402038574,
        -0.16538654267787933,
        0.12252111732959747,
        -0.00012671368313021958,
        0.03358966112136841,
        -0.16517691314220428,
        -0.35600748658180237,
        -0.2647973299026489,
        -0.17334087193012238,
        -0.1362180858850479,
        0.05230190232396126,
        -0.48859721422195435,
        -0.1015404537320137,
        0.13328097760677338,
        0.25876110792160034,
        0.024328140541911125,
        -0.22362208366394043,
        0.00520404102280736,
        -0.0828234925866127,
        0.01593680866062641,
        0.027330495417118073,
        0.2970653474330902,
        -0.13222943246364594,
        0.20433799922466278,
        0.006259831599891186,
        -0.18188439309597015,
        -0.27293792366981506,
        -0.19253312051296234,
        -0.9959536790847778,
        0.4493544101715088,
        -0.10661390423774719,
        -0.2682853639125824,
        -0.2688021659851074,
        -0.05812676623463631,
        -0.07849226146936417,
        0.2791411876678467,
        -0.30070289969444275,
        -0.36748260259628296,
        0.42657431960105896,
        -0.5370047688484192,
        -0.3248169422149658,
        0.26746001839637756,
        0.2292121946811676,
        0.5099430084228516,
        -0.3762492835521698,
        -0.0526389554142952,
        -0.11943934857845306,
        -0.040788814425468445,
        -0.1301562637090683,
        -0.025547368451952934,
        -0.18443308770656586,
        -0.07701946794986725,
        0.7761726975440979,
        0.40186014771461487,
        -0.4931905269622803,
        -0.11982600390911102,
        -0.8315732479095459,
        0.33159223198890686,
        -0.34771254658699036,
        0.026894699782133102,
        0.2770862281322479,
        0.1157229095697403,
        0.014341226778924465,
        -0.39133819937705994,
        -0.09468735009431839,
        0.16573378443717957,
        -0.6611331701278687,
        -0.1909191757440567,
        0.47538822889328003,
        0.23220781981945038,
        0.4519222676753998,
        -0.05793100222945213,
        -0.0038364469073712826,
        -0.16057874262332916,
        -0.02199108898639679,
        0.20075994729995728,
        -0.3924712538719177,
        0.20543810725212097,
        -0.023779507726430893,
        0.32386982440948486,
        -0.13339389860630035,
        0.1831768900156021,
        0.1733727902173996,
        0.08853714913129807,
        0.4878963530063629,
        -0.29549476504325867,
        0.48174864053726196,
        0.061288174241781235,
        -0.3209935128688812,
        0.14733310043811798,
        -0.09025146067142487,
        0.47350215911865234,
        0.28689923882484436,
        -0.10095899552106857,
        -0.12695451080799103,
        -0.14498025178909302,
        0.10539067536592484,
        0.09417243301868439,
        -0.06648091226816177,
        -0.06576567143201828,
        -0.1492041051387787,
        0.11938022077083588,
        -0.2580867409706116,
        -0.01853942684829235,
        -0.1993078589439392,
        0.36782553791999817,
        0.345708966255188,
        -0.13710999488830566,
        -0.2632034718990326,
        0.3352614939212799,
        -0.03429888188838959,
        0.11953134089708328,
        -0.0875469446182251,
        0.31715333461761475,
        0.01765952631831169,
        -0.11589942872524261,
        -0.24991890788078308,
        0.043461017310619354,
        0.34067416191101074,
        -0.4505149722099304,
        0.029880184680223465,
        -0.01454349234700203,
        0.2757430672645569,
        0.312650203704834,
        0.012657543644309044,
        -0.10262119770050049,
        0.027619045227766037,
        0.17353181540966034,
        0.048007264733314514,
        0.16444014012813568,
        0.3365960121154785,
        0.05395779386162758,
        0.637999415397644,
        -0.2537996768951416,
        0.11237234622240067,
        0.2908835709095001,
        0.5708678960800171,
        -0.025528736412525177,
        0.16171559691429138,
        0.18344825506210327,
        0.19604884088039398,
        0.4681089520454407,
        0.31385087966918945,
        0.12307839840650558,
        -0.0038043016102164984,
        0.22782108187675476,
        0.49736422300338745,
        0.10541064292192459,
        -0.5369200706481934,
        -0.08523963391780853,
        -0.4024776518344879,
        -0.07019549608230591,
        -0.11891922354698181,
        0.06899512559175491,
        -0.06615424156188965,
        0.11679418385028839,
        0.12407750636339188,
        0.19600249826908112,
        0.39565131068229675,
        0.31433674693107605,
        -0.5404642820358276,
        0.14440026879310608,
        -0.04719831794500351,
        0.30093732476234436,
        -0.6398020386695862,
        0.17799071967601776,
        -0.015556181780993938,
        0.27591854333877563,
        0.26253724098205566,
        0.2333597093820572,
        0.3427063822746277,
        -0.04142990708351135,
        0.1040223091840744,
        -0.46131476759910583,
        0.10048586130142212,
        0.21624472737312317,
        -0.3302476406097412,
        -0.3481234312057495,
        0.03530409559607506,
        -0.3106418550014496,
        0.0008379897335544229,
        0.15941889584064484,
        0.11710898578166962,
        0.21391215920448303,
        0.06760525703430176,
        -0.21970078349113464,
        -0.20486772060394287,
        0.4664657711982727,
        0.34591007232666016,
        0.1641703099012375,
        -0.20025256276130676,
        0.11298001557588577,
        0.3208468556404114,
        -0.7990149259567261,
        0.23647145926952362,
        0.17454001307487488,
        -0.05843386426568031,
        -0.009133853018283844,
        -0.681609570980072,
        -0.14251086115837097,
        -0.47914600372314453,
        -0.37272632122039795,
        -0.30128780007362366,
        -0.44780176877975464,
        -0.28683072328567505,
        -0.09026854485273361,
        -0.6923921704292297,
        0.02690812572836876,
        -0.3055192232131958,
        0.028323881328105927,
        -0.22142168879508972,
        0.0063965702429413795,
        0.2256106585264206,
        0.18062631785869598,
        -0.1525040566921234,
        -0.2979332506656647,
        -0.10236188024282455,
        -0.2321622371673584,
        -0.0984632819890976,
        0.09493089467287064,
        -0.10140769183635712,
        -0.0673973560333252,
        -0.14636853337287903,
        -0.03780088573694229,
        0.0804583951830864,
        -0.27999147772789,
        0.009227628819644451,
        -0.4659211039543152,
        0.09984803944826126,
        0.010993469506502151,
        0.16346924006938934,
        -0.7257241010665894,
        0.22039274871349335,
        0.3320997655391693,
        0.009985582903027534,
        0.04733484238386154,
        -0.01078399270772934,
        -0.17809239029884338,
        0.11045335233211517,
        0.09726607799530029,
        0.9808596968650818,
        -0.05121682956814766,
        0.009763960726559162,
        -0.3925456404685974,
        -0.025369826704263687,
        0.07473288476467133,
        -0.24033024907112122,
        -0.2342059314250946,
        -0.06937670707702637,
        0.4101713299751282,
        0.27297860383987427,
        -0.021856704726815224,
        -0.465312123298645,
        0.09434100985527039,
        0.626101016998291,
        0.036871716380119324,
        -0.7033219337463379,
        -0.06581750512123108,
        -0.1646014302968979,
        -0.09353367239236832,
        -0.15995290875434875,
        0.05558281019330025,
        -0.15163998305797577,
        -0.18487577140331268,
        -0.30186644196510315,
        0.03561209514737129,
        -0.1610187590122223,
        0.11355748772621155,
        -0.051756978034973145,
        0.10590813308954239,
        -0.48829585313796997,
        -0.04679901525378227,
        -0.45921340584754944,
        -0.11439052224159241,
        -0.19395074248313904,
        -0.08509190380573273,
        -0.13535267114639282,
        0.21997827291488647,
        -0.05824796110391617,
        -0.2407669723033905,
        -0.35857027769088745,
        0.19850647449493408,
        0.35483869910240173,
        -0.15522243082523346,
        -0.00010227109305560589,
        -0.043043337762355804,
        0.10433634370565414,
        0.2320852279663086,
        -0.0519213005900383,
        -0.2792377769947052,
        -0.1476389467716217,
        0.1608337163925171,
        0.06158848851919174,
        -0.2458503693342209,
        -0.14035069942474365,
        -0.0779855027794838,
        -0.07547196000814438,
        0.3443511128425598,
        -0.17601116001605988,
        0.3926287889480591,
        0.19508522748947144,
        -0.20235325396060944,
        0.40565377473831177,
        0.36243200302124023,
        0.20590542256832123,
        -0.2371031939983368,
        -0.24470029771327972,
        0.26166918873786926,
        0.6474525928497314,
        -0.4494800865650177,
        -0.5483406186103821,
        -0.3441564440727234,
        -0.35780325531959534,
        -0.08083537966012955,
        -0.4724496304988861,
        -0.038073569536209106,
        -0.2650097608566284,
        0.02027258276939392,
        -0.4551708698272705,
        -0.03014214336872101,
        -0.016970425844192505,
        -0.24311086535453796,
        0.11852341890335083,
        0.15676958858966827,
        -0.028595175594091415,
        0.3348431885242462,
        -0.003389861434698105,
        -0.11044306308031082,
        -0.08426621556282043,
        -0.05301417410373688,
        -0.08161203563213348,
        0.11269224435091019,
        -0.03668022155761719,
        0.035908859223127365,
        0.10211814194917679,
        0.6492027640342712,
        0.404994398355484,
        -0.25251340866088867,
        -0.3878955543041229,
        -0.14641030132770538,
        0.14143747091293335,
        -0.2754572033882141,
        -0.00893136765807867,
        -0.047760240733623505,
        -0.045198485255241394,
        -0.37907347083091736,
        0.273034006357193,
        0.29707491397857666,
        -0.7074341177940369,
        -0.24509099125862122,
        -0.07913826406002045,
        -0.517358124256134,
        -0.24809741973876953,
        0.2823166251182556,
        0.04771770164370537,
        -0.04116314277052879,
        -0.54156494140625,
        -0.2135348618030548,
        0.2565931975841522,
        0.14241330325603485,
        0.05515233799815178,
        -0.23678694665431976,
        -0.06443585455417633,
        -0.14965218305587769,
        -0.0014470121823251247,
        0.8186669945716858,
        0.30219709873199463,
        0.07774640619754791,
        -0.33186250925064087,
        0.038769375532865524,
        -0.1087304949760437,
        0.024718180298805237,
        0.0358443558216095,
        -0.009431476704776287,
        -0.3596518039703369,
        -0.17731121182441711,
        0.04937726631760597,
        0.3485797345638275,
        0.7074419260025024,
        0.009358469396829605,
        0.1703922003507614,
        -0.37383049726486206,
        0.2665984332561493,
        0.26408275961875916,
        0.022013938054442406,
        -0.1737828254699707,
        -0.2567135989665985,
        0.04797458276152611,
        -0.14911310374736786,
        -0.40851664543151855,
        -0.0887051373720169,
        -0.016351541504263878,
        -0.2955995202064514,
        -0.20621639490127563,
        -0.13438932597637177,
        -0.01852034032344818,
        -0.0471155047416687,
        0.03339824452996254,
        0.12603364884853363,
        0.3716084659099579,
        -0.18612031638622284,
        -0.2736283540725708,
        -0.16732460260391235,
        -0.5782564282417297,
        -0.5090204477310181,
        -0.6131640076637268,
        -0.5226076245307922,
        -0.4776775538921356,
        -0.18931588530540466,
        0.4031543433666229,
        -0.8205852508544922,
        -0.7143219709396362,
        -0.1693515032529831,
        -0.5023760199546814,
        0.13148224353790283,
        -0.5468512177467346,
        0.8870773911476135,
        -0.23262937366962433,
        -0.11893108487129211,
        -0.2908022403717041,
        -0.5889093279838562,
        0.13468384742736816,
        0.27707797288894653,
        -0.015803033486008644,
        0.11871662735939026,
        0.16297633945941925,
        -0.16228674352169037,
        -0.6945676803588867,
        0.34517401456832886,
        -0.5653614401817322,
        -0.07163132727146149,
        -0.644894003868103,
        0.707697331905365,
        -0.5019183158874512,
        -0.3617558479309082,
        0.2577663064002991,
        0.23940394818782806,
        -0.12905459105968475,
        -0.23314489424228668,
        -0.571382999420166,
        0.24803079664707184,
        0.20283198356628418,
        -0.3467608094215393,
        0.5211580395698547,
        -0.30810555815696716,
        0.35303497314453125,
        0.5872469544410706,
        -0.08376510441303253,
        -0.16248418390750885,
        0.25025808811187744,
        -0.0026472127065062523,
        0.06808530539274216,
        -0.10698316246271133,
        -0.3024232089519501,
        0.5555140376091003,
        -0.2177148163318634,
        -0.719845175743103,
        -0.18981187045574188,
        -0.21922270953655243,
        -0.1380922645330429,
        0.6040951013565063,
        -0.12647750973701477,
        0.025435015559196472,
        -0.07325492054224014,
        -0.010409420356154442,
        0.002925341483205557,
        0.5537827014923096,
        -0.39920148253440857,
        -0.1633453220129013,
        0.4897459149360657,
        -0.08065544813871384,
        0.4973262548446655,
        0.013751884922385216,
        0.38218802213668823,
        -0.6964261531829834,
        0.5398853421211243,
        0.005821073893457651,
        0.0192231647670269,
        -0.08043134212493896,
        0.18095405399799347,
        -0.17852026224136353,
        0.3834601640701294,
        -0.8511243462562561,
        0.5634213089942932,
        -0.6772887110710144,
        -0.05531436577439308,
        -0.20326684415340424,
        -0.29278066754341125,
        -0.39943066239356995,
        0.20266348123550415,
        0.5713352560997009,
        -0.32841649651527405,
        -0.33682313561439514,
        0.20680662989616394,
        -0.7289509177207947,
        0.5874479413032532,
        -0.2658543884754181,
        -0.27146443724632263,
        -0.22328881919384003,
        0.05665871128439903,
        0.21239139139652252,
        0.4127311408519745,
        0.06959907710552216,
        -0.1626211702823639,
        0.01937198080122471,
        -0.0822870060801506,
        -0.07424791902303696,
        -0.08905929327011108,
        0.031641267240047455,
        0.27247902750968933,
        0.2971958518028259,
        0.14808379113674164,
        0.0363774374127388,
        0.2828884720802307,
        0.0049215881153941154,
        -0.24445988237857819,
        -0.03812357783317566,
        -0.25019600987434387,
        0.03649917617440224,
        0.01734294556081295,
        0.04719328507781029,
        0.1831061840057373,
        -0.11964983493089676,
        -0.10450530797243118,
        0.26340219378471375,
        0.018752720206975937,
        -0.07090011239051819,
        -0.13008081912994385,
        -0.024670932441949844,
        0.04387497156858444,
        -0.10904616862535477,
        0.11812109500169754,
        -0.06617758423089981,
        0.13937954604625702,
        -0.21007679402828217,
        -0.08457604795694351,
        0.24073925614356995,
        -0.30218690633773804,
        0.8039189577102661,
        0.18431603908538818,
        -0.2534036636352539,
        0.2686600089073181,
        0.2707410156726837,
        -0.08567273616790771,
        0.7060530185699463,
        0.27550235390663147,
        0.07188799232244492,
        0.18057402968406677,
        0.09146720170974731,
        0.8631640672683716,
        0.20038336515426636,
        -1.6570979356765747,
        -0.037720609456300735,
        0.44982481002807617,
        0.27415651082992554,
        -0.8227502703666687,
        0.21398992836475372,
        -0.06307875365018845,
        -0.01775522716343403,
        0.01638128235936165,
        -0.031913310289382935,
        -0.2789885103702545,
        0.07737154513597488,
        0.09315243363380432,
        -0.345894992351532,
        0.29525309801101685,
        -0.3356228768825531,
        -0.1538180708885193,
        -0.503344714641571,
        0.14662371575832367,
        -0.001704989350400865,
        0.08507285267114639,
        -0.35616353154182434,
        -0.3607296943664551,
        0.10203665494918823,
        0.0811917781829834,
        0.03308774158358574,
        -0.36688753962516785,
        -0.5251097083091736,
        -0.30297544598579407,
        0.5607075095176697,
        -0.05335777997970581,
        0.20460546016693115,
        -0.039774972945451736,
        0.18541070818901062,
        -0.0003347411402501166,
        0.12092207372188568,
        0.10022743046283722,
        -0.2944336235523224,
        -0.2183402180671692,
        -0.5700089335441589,
        -1.142897129058838,
        -0.25291213393211365,
        0.1547756940126419,
        0.20965184271335602,
        0.5959521532058716,
        0.13813015818595886,
        -0.3774329125881195,
        0.6133386492729187,
        -0.1766173094511032,
        -0.4684664309024811,
        -0.045137494802474976,
        -0.48797762393951416,
        0.5435196161270142,
        0.3572055697441101,
        -0.4641755223274231,
        0.05068863555788994,
        0.138630673289299,
        -0.02967126853764057,
        0.03182607516646385,
        0.12313678115606308,
        -0.10344953089952469,
        0.01513784658163786,
        -0.10316020250320435,
        -0.09125431627035141,
        0.053295429795980453,
        0.02829729951918125,
        -0.13640236854553223,
        -0.19026517868041992,
        -0.11757376044988632,
        -0.14868442714214325,
        -0.09376610070466995,
        -0.08140899986028671,
        0.31554216146469116,
        -0.0031692739576101303,
        0.3372892141342163,
        -0.3643565773963928,
        -0.35353925824165344,
        -0.08502467721700668,
        0.09234865754842758,
        0.31104809045791626,
        0.058294519782066345,
        0.13061609864234924,
        -0.10614117980003357,
        -0.13734044134616852,
        0.011755109764635563,
        0.025520971044898033,
        -0.24533995985984802,
        0.380166620016098,
        -0.0811673179268837,
        0.10581042617559433,
        0.1129053384065628,
        -0.39176449179649353,
        0.12789149582386017,
        -0.08750934898853302,
        0.3419397175312042,
        0.1566934883594513,
        -0.20228174328804016,
        -0.5574410557746887,
        0.31215283274650574,
        -0.07875850051641464,
        0.13796617090702057,
        0.04554692283272743,
        -0.19856829941272736,
        -0.10121047496795654,
        0.16156728565692902,
        0.013419684953987598,
        -0.2247956246137619,
        0.20570075511932373,
        -0.5281226634979248,
        -0.13667772710323334,
        0.18145491182804108,
        0.3430880606174469,
        -0.06312823295593262,
        0.15352915227413177,
        -0.039033543318510056,
        -0.05982648581266403,
        -0.11574196070432663,
        -0.18630771338939667,
        0.1199866235256195,
        -0.5700856447219849,
        -0.33997371792793274,
        -0.07414784282445908,
        -0.0480363592505455,
        -0.23808319866657257,
        -0.6902324557304382,
        -0.39093950390815735,
        -0.20007315278053284,
        -0.19461669027805328,
        -0.14594316482543945,
        -0.46946072578430176,
        -0.5571984052658081,
        -0.5310542583465576,
        -0.3610343039035797,
        0.16541564464569092,
        -0.4862852394580841,
        0.12095899134874344,
        -0.21953505277633667,
        0.06752274185419083,
        0.059807926416397095,
        -0.5518295764923096,
        0.23218302428722382,
        -0.22898650169372559,
        0.053049951791763306,
        -0.16926324367523193,
        -0.026360489428043365,
        0.1402982920408249,
        0.2970256209373474,
        0.09606146812438965,
        -0.7513213157653809,
        0.08571945875883102,
        -0.26019781827926636,
        0.47015440464019775,
        0.41883039474487305,
        0.31612682342529297,
        0.03634663671255112,
        0.43244826793670654,
        0.4422399699687958,
        0.1713685691356659,
        0.5126697421073914,
        -0.18076114356517792,
        0.43947917222976685,
        0.1347786784172058,
        1.7365961074829102,
        -0.217424213886261,
        -0.20777669548988342,
        -0.7004559636116028,
        -0.6496179699897766,
        0.058575041592121124,
        -0.1093113124370575,
        -0.023054704070091248,
        -0.0858810618519783,
        -0.12145375460386276,
        0.0011033025803044438,
        -0.18129633367061615,
        0.07076620310544968,
        0.5149970054626465,
        0.2626764178276062,
        0.3481622636318207,
        0.3367685079574585,
        0.32640478014945984,
        0.029387636110186577,
        0.19932299852371216,
        0.06131488457322121,
        0.6011135578155518,
        0.4511302411556244,
        -0.0860181450843811,
        0.03220595419406891,
        -0.060617197304964066,
        0.23721981048583984,
        -0.9294242858886719,
        0.11804090440273285,
        -0.2639705538749695,
        0.09327705949544907,
        0.06998856365680695,
        -0.09315872192382812,
        0.14089950919151306,
        0.030106287449598312,
        -0.13598692417144775,
        0.1919431835412979,
        0.22940705716609955,
        0.16532070934772491,
        0.4046252369880676,
        0.5710710883140564,
        0.06817638874053955,
        0.08720468729734421,
        0.51646488904953,
        -0.045989785343408585,
        0.24003536999225616,
        -0.27757781744003296,
        0.3859986960887909,
        0.4330684244632721,
        0.6606550812721252,
        0.2041344791650772,
        0.49544307589530945,
        0.4182354807853699,
        -0.0032623964361846447,
        -0.6062370538711548,
        -0.16125579178333282,
        0.033106159418821335,
        0.2459813356399536,
        -0.10797528177499771,
        0.1095312312245369,
        -0.20628571510314941,
        0.062086913734674454,
        -0.24462845921516418,
        0.15769712626934052,
        0.013659642077982426,
        -0.36071205139160156,
        -0.26090896129608154,
        0.29684436321258545,
        -0.11332063376903534,
        -0.3667695224285126,
        0.022138699889183044,
        0.30101943016052246,
        -0.10840768367052078,
        -0.2720499038696289,
        -0.4675152599811554,
        0.002324169036000967,
        -0.14174585044384003,
        -0.1593625843524933,
        -0.22707517445087433,
        -0.6318253874778748,
        0.12104211002588272,
        -0.577319860458374,
        0.23361541330814362,
        0.17950168251991272,
        0.28749746084213257,
        0.4528006613254547,
        -0.18702328205108643,
        0.32003042101860046,
        -0.05799836665391922,
        0.01633051596581936,
        -0.11766867339611053,
        -0.1357012391090393,
        -0.1466425061225891,
        -0.34320658445358276,
        0.08194059133529663,
        0.12658607959747314,
        0.31036219000816345,
        0.4292405843734741,
        0.38463473320007324,
        0.050057265907526016,
        0.010842992924153805,
        0.5171850919723511,
        0.37986326217651367,
        -0.07299023121595383,
        -0.11560076475143433,
        -0.3575577139854431,
        0.3443405032157898,
        0.0698460265994072,
        0.28353819251060486,
        0.08402995765209198,
        -0.14074602723121643,
        -0.5505402684211731,
        -0.24585773050785065,
        0.10510072857141495,
        -0.025775589048862457,
        -0.0333733931183815,
        0.15894758701324463,
        -0.1002906933426857,
        -0.02087714523077011,
        0.31655076146125793,
        0.2609977722167969,
        -0.4669206738471985,
        0.511040985584259,
        0.5900688171386719,
        -0.21275007724761963,
        0.016667190939188004,
        -0.0007363066542893648,
        0.3702738583087921,
        0.7896867990493774,
        0.26080018281936646,
        0.39126431941986084,
        0.06667749583721161,
        0.021167298778891563,
        0.7363404631614685,
        -0.00842137262225151,
        -0.5004608631134033,
        0.1448580026626587,
        -0.028957976028323174,
        -0.3155757486820221,
        0.198204904794693,
        0.29945433139801025,
        0.14884094893932343,
        0.04654417186975479,
        0.20582285523414612,
        0.05487869679927826,
        -0.16395215690135956,
        0.028748929500579834,
        -0.048704180866479874,
        0.2935662269592285,
        0.4528810381889343,
        -0.6344256401062012,
        -0.2845846712589264,
        -0.3771313428878784,
        -0.10222457349300385,
        0.34875842928886414,
        -0.1440439224243164,
        -0.18820853531360626,
        -0.3418051600456238,
        -0.2746984660625458,
        -0.13345053791999817,
        -0.2625509798526764,
        -0.31657567620277405,
        -0.4425339102745056,
        0.1696927696466446,
        0.30079329013824463,
        0.5522304177284241,
        0.3384524881839752,
        -0.26820141077041626,
        0.12469682842493057,
        -0.05000438541173935,
        0.12215904146432877
      ],
      "bias": [
        0.028848912566900253,
        0.16541127860546112,
        -0.05678704008460045,
        -0.02944459207355976,
        0.020976142957806587,
        0.0813818946480751,
        0.04593474045395851,
        -0.03697994351387024,
        0.003111940575763583,
        -0.1567133516073227,
        -0.032831497490406036,
        0.052525848150253296,
        -0.09552276879549026,
        -0.08700381219387054,
        -0.029661262407898903,
        0.03382179141044617,
        -0.23299555480480194,
        0.028071068227291107,
        0.043358247727155685,
        -0.022015798836946487,
        0.00019481968774925917,
        -0.08986223489046097,
        0.028874026611447334,
        0.06489838659763336,
        0.02661822736263275,
        0.11123226583003998,
        0.11255838721990585,
        0.10528423637151718,
        -0.03653370216488838,
        0.08592455834150314,
        0.021535731852054596,
        -0.07293067872524261,
        0.0164937861263752,
        0.018941370770335197,
        0.023499902337789536,
        -0.01851898431777954,
        0.08985283970832825,
        0.12178303301334381,
        0.1473758965730667,
        -0.022073624655604362,
        -0.04039815813302994,
        -0.018307259306311607,
        -0.05989031121134758,
        -0.1734820157289505,
        0.18470513820648193,
        -0.10936303436756134,
        0.13050882518291473,
        0.009008420631289482,
        0.08603770285844803,
        0.09598017483949661,
        0.07538235187530518,
        -0.042844127863645554,
        0.038396939635276794,
        -0.05206063762307167,
        -0.047680169343948364,
        -0.008567111566662788,
        0.10036977380514145,
        0.16064320504665375,
        0.1032872200012207,
        -0.12634868919849396,
        -0.017076468095183372,
        -0.019021322950720787,
        -0.03495253622531891,
        -0.09111338108778,
        0.025712227448821068,
        0.11708103865385056,
        0.14112462103366852,
        -0.08941899985074997,
        -0.018828101456165314,
        -0.12192481756210327,
        0.21883569657802582,
        -0.16334287822246552,
        0.16711944341659546,
        0.34338581562042236,
        0.05755620077252388,
        0.022033851593732834,
        0.07072754204273224,
        0.07124785333871841,
        0.055619027465581894,
        0.009037306532263756,
        -0.0168682299554348,
        0.07769712060689926,
        0.09481272846460342,
        -0.03304973617196083,
        0.02224297821521759,
        0.017545076087117195,
        -0.13630938529968262,
        -0.0024831879418343306,
        -0.060870878398418427,
        0.013228677213191986,
        -0.02160162478685379,
        0.20006775856018066,
        0.11544470489025116,
        -0.06387287378311157,
        -0.1457064300775528,
        -0.03623240813612938
      ],
      "activation": "tanh"
    },
    {
      "inputSize": 96,
      "outputSize": 48,
      "weights": [
        -0.10763315856456757,
        -0.16665297746658325,
        -0.10495861619710922,
        0.21596591174602509,
        0.062498804181814194,
        0.0243537537753582,
        -0.1503470093011856,
        -0.3145771920681,
        -0.012773202732205391,
        0.27022260427474976,
        -0.17933043837547302,
        0.027033880352973938,
        -0.10980576276779175,
        0.29209449887275696,
        -0.1873273402452469,
        0.0025355294346809387,
        0.22402992844581604,
        -0.12321514636278152,
        0.4038730263710022,
        0.2610808312892914,
        -0.22292499244213104,
        -0.07677865773439407,
        -0.1628059297800064,
        -0.6088917255401611,
        0.0666508749127388,
        0.1622946858406067,
        -0.5662047266960144,
        -0.014336652122437954,
        -0.13177122175693512,
        -0.05624164268374443,
        -0.0511242039501667,
        -0.32468146085739136,
        0.18075798451900482,
        0.09430430829524994,
        -0.0054910751059651375,
        -0.3255542814731598,
        -0.18992161750793457,
        -0.09974221140146255,
        0.019480500370264053,
        0.5740798115730286,
        0.10925149917602539,
        0.2124149352312088,
        -0.45032399892807007,
        -0.2788504660129547,
        0.11503982543945312,
        0.006689905188977718,
        0.3972398638725281,
        -0.031221900135278702,
        -0.11786743253469467,
        0.1999398171901703,
        0.1885329931974411,
        0.13460199534893036,
        0.1398095339536667,
        0.1066373810172081,
        -0.2398185431957245,
        0.507064700126648,
        -0.13084058463573456,
        0.3067922592163086,
        0.16052359342575073,
        0.015652520582079887,
        0.2373477965593338,
        -0.33360862731933594,
        -0.19907169044017792,
        0.3171415627002716,
        0.13883179426193237,
        0.1041155681014061,
        -0.002605762332677841,
        0.12220034003257751,
        -0.5222378969192505,
        -0.18440961837768555,
        0.044601526111364365,
        -0.07722221314907074,
        -0.39648836851119995,
        -0.06203098222613335,
        -0.2411058396100998,
        -0.10713142156600952,
        0.15359802544116974,
        -0.18298941850662231,
        0.41104656457901,
        0.14474837481975555,
        -0.04347055032849312,
        -0.06580135971307755,
        -0.17182372510433197,
        0.12844513356685638,
        0.24186637997627258,
        -0.005239483434706926,
        0.02823731303215027,
        0.06105188652873039,
        0.4721852242946625,
        -0.41093331575393677,
        -0.09763453900814056,
        -0.10449981689453125,
        0.15011179447174072,
        -0.31374040246009827,
        0.11003223806619644,
        0.20607107877731323,
        0.17534498870372772,
        0.053508080542087555,
        0.17288173735141754,
        -0.15448829531669617,
        -0.12049730122089386,
        -0.32655268907546997,
        -0.11610699445009232,
        0.0011149987112730742,
        0.019342396408319473,
        0.157307431101799,
        -0.12958216667175293,
        -0.081277035176754,
        -0.34539541602134705,
        -0.25392067432403564,
        0.03421517089009285,
        -0.4017292559146881,
        0.12251216918230057,
        0.2615867853164673,
        -0.027339590713381767,
        -0.1472775787115097,
        -0.39051300287246704,
        -0.05227538198232651,
        0.05915052443742752,
        0.6931582093238831,
        -0.1289002150297165,
        -0.036156948655843735,
        0.49170053005218506,
        -0.2691532373428345,
        0.0012451359070837498,
        -0.028599893674254417,
        0.393018513917923,
        0.1250942349433899,
        0.381816029548645,
        0.15527325868606567,
        -0.20533034205436707,
        -0.3377526104450226,
        0.1624983698129654,
        0.057542748749256134,
        -0.1371339112520218,
        -0.25688403844833374,
        -0.21576066315174103,
        0.08472252637147903,
        0.1943788230419159,
        -0.2668873965740204,
        0.4589783251285553,
        0.15591761469841003,
        -0.2221755087375641,
        0.12582707405090332,
        0.026338309049606323,
        -0.08351954817771912,
        0.08957702666521072,
        -0.5555933713912964,
        -0.06784211099147797,
        -0.24279449880123138,
        0.30198413133621216,
        -0.10819187760353088,
        -0.2851920425891876,
        0.44081512093544006,
        0.034600261598825455,
        -0.17308878898620605,
        0.27267077565193176,
        -0.0728350281715393,
        0.07699763774871826,
        -0.11067182570695877,
        -0.4255402982234955,
        0.035590920597314835,
        0.2466755509376526,
        0.4161420464515686,
        0.33953991532325745,
        0.1937355101108551,
        -0.08232079446315765,
        -0.04505608230829239,
        0.1396952122449875,
        0.04496581107378006,
        -0.25241684913635254,
        -0.049973759800195694,
        -0.4199638366699219,
        -0.2553987205028534,
        -0.09483778476715088,
        -0.4686516225337982,
        -0.07421950995922089,
        -0.07301276922225952,
        0.04303118586540222,
        0.13113875687122345,
        -0.3693847060203552,
        0.028456738218665123,
        -0.20162466168403625,
        0.20121312141418457,
        -0.24698857963085175,
        -0.15805406868457794,
        0.4255058467388153,
        0.19240115582942963,
        0.2924877405166626,
        0.03268670290708542,
        0.17405328154563904,
        0.0786505788564682,
        -0.10623090714216232,
        -0.5095164179801941,
        -0.17465992271900177,
        -0.2967842221260071,
        0.35355380177497864,
        -0.10926847159862518,
        0.5151376724243164,
        -0.07448892295360565,
        0.04005596041679382,
        -0.03333238884806633,
        -0.21476386487483978,
        0.2741641402244568,
        0.06530651450157166,
        0.28714942932128906,
        -0.18942101299762726,
        0.503159761428833,
        -0.18156062066555023,
        0.0334574319422245,
        -0.4860931634902954,
        0.2163419872522354,
        0.16428154706954956,
        0.20838095247745514,
        -0.5810948610305786,
        0.1020265743136406,
        -0.13385356962680817,
        -0.2726389467716217,
        0.0792868435382843,
        0.09476403146982193,
        0.11927332729101181,
        -0.0031474637798964977,
        -0.21404245495796204,
        0.1697033941745758,
        0.02295389026403427,
        -0.19860504567623138,
        0.630584716796875,
        -0.054670464247465134,
        0.2747102379798889,
        -0.48209670186042786,
        0.07070937752723694,
        -0.2386459857225418,
        0.12827308475971222,
        -0.38807210326194763,
        -0.12458626180887222,
        0.13908931612968445,
        0.44392138719558716,
        -0.5152238011360168,
        0.36675235629081726,
        -0.11345800757408142,
        0.22423230111598969,
        0.24997669458389282,
        -0.38901594281196594,
        0.15426208078861237,
        0.21963420510292053,
        -0.13470575213432312,
        -0.038805268704891205,
        0.19575953483581543,
        0.044539157301187515,
        0.010015882551670074,
        -0.007774737663567066,
        -0.1838853806257248,
        -0.27410584688186646,
        -0.04803203418850899,
        -0.2189863920211792,
        0.02486588805913925,
        0.09963267296552658,
        -0.03511446341872215,
        -0.16433069109916687,
        -0.4529382586479187,
        0.15788644552230835,
        0.08531949669122696,
        0.08550357818603516,
        0.02420474961400032,
        -0.09739223122596741,
        -0.06065189465880394,
        0.19470860064029694,
        -0.23780734837055206,
        0.39328619837760925,
        0.024830566719174385,
        -0.2334243655204773,
        -0.025518953800201416,
        -0.2597697675228119,
        -0.3817581534385681,
        -0.09963639080524445,
        0.12339212000370026,
        0.3121761977672577,
        0.04648388549685478,
        0.1662280261516571,
        -0.34035906195640564,
        -0.3717021942138672,
        0.22695332765579224,
        0.008032349869608879,
        0.20568054914474487,
        -0.399899423122406,
        -0.3569856882095337,
        0.22723767161369324,
        -0.06897706538438797,
        0.038368962705135345,
        -0.16756144165992737,
        0.049351345747709274,
        -0.10453107208013535,
        -0.0717487782239914,
        0.23171047866344452,
        -0.0513116829097271,
        0.07950656116008759,
        -0.19873046875,
        -0.058391254395246506,
        -0.06521464884281158,
        -0.09058743715286255,
        0.22895550727844238,
        -0.03276769816875458,
        0.1701897829771042,
        -0.032515089958906174,
        0.014659224078059196,
        -0.0600125789642334,
        0.006228462792932987,
        -0.29285451769828796,
        -0.11436211317777634,
        0.013189555145800114,
        -0.19894717633724213,
        -0.034032613039016724,
        0.19800718128681183,
        -0.05502786487340927,
        -0.06690680235624313,
        -0.058552708476781845,
        0.3219006359577179,
        -0.3303040862083435,
        0.11734690517187119,
        0.1630684733390808,
        0.06782618910074234,
        0.05621486157178879,
        0.3139466941356659,
        -0.2311941236257553,
        0.14002400636672974,
        -0.34684839844703674,
        -0.04290042445063591,
        -0.17617951333522797,
        0.24804505705833435,
        -0.24919773638248444,
        0.1767861694097519,
        -0.09717505425214767,
        0.019051948562264442,
        0.0476703867316246,
        -0.15774962306022644,
        0.025949209928512573,
        0.02337910607457161,
        -0.13742034137248993,
        -0.1237294003367424,
        0.04042939841747284,
        0.19606679677963257,
        0.03932971879839897,
        0.017786456272006035,
        0.11145208030939102,
        -0.17887729406356812,
        -0.046178970485925674,
        -0.1724272519350052,
        -0.1378190964460373,
        0.2663418650627136,
        -0.16487835347652435,
        -0.06966530531644821,
        -0.02495701052248478,
        -0.22354106605052948,
        0.12513354420661926,
        -0.2408614158630371,
        -0.03960353508591652,
        0.043704789131879807,
        0.1649094671010971,
        -0.1818346381187439,
        0.03448640927672386,
        0.02757822908461094,
        0.3158162832260132,
        -0.26217347383499146,
        0.11260288953781128,
        -0.11357377469539642,
        -0.05389656499028206,
        -0.0512169748544693,
        -0.0451851449906826,
        0.07429726421833038,
        0.4126538932323456,
        -0.1006181612610817,
        -0.12257926166057587,
        -0.04834752157330513,
        0.04193592444062233,
        -0.004846820142120123,
        0.010642187669873238,
        -0.06455454230308533,
        -0.33583757281303406,
        0.043052490800619125,
        -0.2548801898956299,
        -0.03183658793568611,
        0.06225954368710518,
        0.12883949279785156,
        0.1808808445930481,
        0.04696830362081528,
        -0.10845303535461426,
        -0.09577580541372299,
        -0.090030238032341,
        0.19165442883968353,
        0.09392929077148438,
        0.03438917174935341,
        0.029282385483384132,
        -0.21676819026470184,
        -0.03129439428448677,
        -0.05345971882343292,
        0.1173657700419426,
        0.2111344188451767,
        -0.037661973387002945,
        -0.018910879269242287,
        0.07273117452859879,
        -0.14563670754432678,
        0.1476593017578125,
        0.14796337485313416,
        -0.08378560841083527,
        0.03336301073431969,
        -0.17525461316108704,
        -0.16240333020687103,
        0.05985486879944801,
        0.1745261400938034,
        -0.07978897541761398,
        0.041795819997787476,
        -0.12953044474124908,
        0.056210096925497055,
        0.003143128240481019,
        -0.16813044250011444,
        0.25900086760520935,
        0.22306233644485474,
        -0.157171830534935,
        0.12176939100027084,
        0.007221654057502747,
        0.010491743683815002,
        -0.4144671857357025,
        -0.1425819844007492,
        0.016910182312130928,
        -0.025050951167941093,
        0.07304488867521286,
        0.03357299417257309,
        0.09442214667797089,
        0.056474149227142334,
        -0.12940742075443268,
        -0.15264393389225006,
        0.11239701509475708,
        0.1524738073348999,
        -0.0693058967590332,
        -0.23872554302215576,
        0.1150326058268547,
        -0.18106234073638916,
        0.18979692459106445,
        -0.29183727502822876,
        0.0903141051530838,
        -0.1664697527885437,
        0.1240551769733429,
        -0.3163016140460968,
        -0.2037552148103714,
        0.16817529499530792,
        -0.7306068539619446,
        -0.18803714215755463,
        -0.06541364639997482,
        -0.032330285757780075,
        0.2955069839954376,
        -0.22712919116020203,
        -0.10693297535181046,
        0.008302737027406693,
        0.3022112548351288,
        0.061464015394449234,
        0.07297220081090927,
        0.13197378814220428,
        0.2753095328807831,
        -0.16247659921646118,
        0.018605828285217285,
        -0.01800195686519146,
        0.14018899202346802,
        -0.12144522368907928,
        0.1924554407596588,
        -0.23091007769107819,
        0.20323967933654785,
        0.05318696051836014,
        0.18516792356967926,
        -0.05163797736167908,
        -0.01592046022415161,
        -0.09197808802127838,
        -0.017629753798246384,
        0.10751520842313766,
        -0.15123251080513,
        -0.14081212878227234,
        -0.14535042643547058,
        -0.08270978927612305,
        -0.048505574464797974,
        0.11929822713136673,
        0.025463225319981575,
        -0.04002122953534126,
        0.4515981376171112,
        -0.2687458395957947,
        0.34876060485839844,
        -0.3123522996902466,
        -0.16779731214046478,
        -0.615054190158844,
        0.023896891623735428,
        -0.18636280298233032,
        -0.12090730667114258,
        0.31628936529159546,
        -0.13056612014770508,
        0.13463158905506134,
        -0.001970740035176277,
        -0.20542478561401367,
        -0.31246498227119446,
        0.15606807172298431,
        -0.04634188488125801,
        -0.016960693523287773,
        -0.26048052310943604,
        -0.15987911820411682,
        0.24458201229572296,
        0.7569755911827087,
        0.06898674368858337,
        -0.10316960513591766,
        0.19565024971961975,
        0.022326841950416565,
        0.142745703458786,
        -0.24351094663143158,
        -0.4492552876472473,
        0.27326318621635437,
        -0.4866105914115906,
        -0.1941307783126831,
        0.4373542368412018,
        -0.14322960376739502,
        0.4456237256526947,
        0.1337580531835556,
        0.26413393020629883,
        0.14938703179359436,
        0.12131324410438538,
        0.09588246792554855,
        -0.2441093623638153,
        0.04520145058631897,
        -0.136330708861351,
        -0.27478930354118347,
        0.5605418682098389,
        -0.08176484704017639,
        0.01060617994517088,
        -0.08506598323583603,
        -0.05467402562499046,
        -0.006758969277143478,
        -0.28321051597595215,
        0.125135138630867,
        -0.2749534547328949,
        0.4868137240409851,
        0.058505311608314514,
        0.12081573903560638,
        -0.3889480531215668,
        -0.032981988042593,
        0.30546659231185913,
        -0.23393701016902924,
        0.5330537557601929,
        0.503052294254303,
        -0.09302155673503876,
        0.04396833851933479,
        -0.04294310137629509,
        0.4234199523925781,
        0.4372510612010956,
        -0.032220881432294846,
        -0.5011894106864929,
        -0.16811509430408478,
        -0.0791417583823204,
        0.12987646460533142,
        -0.13518965244293213,
        0.07509614527225494,
        0.08845934271812439,
        -0.12450960278511047,
        -0.2260027527809143,
        -0.1217794194817543,
        -0.027913276106119156,
        -0.06495515257120132,
        0.01784065179526806,
        0.050530172884464264,
        -0.3350387513637543,
        0.03703312203288078,
        -0.02210751548409462,
        0.06524573266506195,
        0.3054526448249817,
        -0.07800557464361191,
        -0.2104325294494629,
        0.189222052693367,
        0.11291682720184326,
        0.056315161287784576,
        0.20039042830467224,
        -0.22480209171772003,
        0.4204145073890686,
        0.0324648842215538,
        -0.12248824536800385,
        -0.13877782225608826,
        0.047637004405260086,
        -0.11313176900148392,
        0.19181330502033234,
        0.010443517938256264,
        -0.0672140121459961,
        -0.06842567771673203,
        -0.2093443125486374,
        -0.016578763723373413,
        -0.16122981905937195,
        0.1655818670988083,
        -0.02693222463130951,
        -0.058293286710977554,
        0.043711598962545395,
        -0.11979366838932037,
        0.06782615184783936,
        -0.007797913625836372,
        -0.09705202281475067,
        0.07096174359321594,
        -0.1187153235077858,
        -0.11951866000890732,
        -0.06846212595701218,
        0.12576349079608917,
        0.03200078010559082,
        -0.03418157622218132,
        -0.0861860141158104,
        -0.06366930902004242,
        0.09619792550802231,
        -0.17865528166294098,
        -0.07161755859851837,
        0.05170999467372894,
        -0.08216819912195206,
        0.15137135982513428,
        0.024670690298080444,
        0.08696623891592026,
        -0.34691736102104187,
        -0.08415265381336212,
        -0.19596219062805176,
        0.3212732672691345,
        -0.12460970878601074,
        0.08106378465890884,
        -0.10954715311527252,
        -0.018964072689414024,
        0.0736885741353035,
        0.021898603066802025,
        0.059813085943460464,
        -0.06355531513690948,
        -0.032991476356983185,
        -0.1963854730129242,
        0.012437510304152966,
        0.01871141791343689,
        -0.1402088701725006,
        -0.00850696675479412,
        -0.005931572522968054,
        -0.2315649390220642,
        0.017115913331508636,
        -0.16717807948589325,
        0.03505731374025345,
        0.037917546927928925,
        -0.2368791699409485,
        -0.16076558828353882,
        0.0227827038615942,
        0.08530107885599136,
        0.21782267093658447,
        0.02069663815200329,
        -0.057308636605739594,
        -0.031179482117295265,
        0.001525774714536965,
        0.09189396351575851,
        0.02737429179251194,
        0.13674034178256989,
        0.1995633989572525,
        -0.023554233834147453,
        0.05510079115629196,
        0.10260511934757233,
        -0.09956740587949753,
        -0.06434044986963272,
        0.20528963208198547,
        0.06404246389865875,
        0.21122127771377563,
        0.05181502178311348,
        0.21771785616874695,
        -0.07779917120933533,
        -0.008740715682506561,
        -0.010039517655968666,
        0.08288317918777466,
        -0.07175036519765854,
        0.024678952991962433,
        -0.009296948090195656,
        -0.030713781714439392,
        -0.10296755284070969,
        0.10141795873641968,
        0.24779608845710754,
        0.0640464648604393,
        0.1760527342557907,
        0.05875618755817413,
        -0.0682300329208374,
        -0.2313673347234726,
        0.05138888210058212,
        -0.32902804017066956,
        0.12399188429117203,
        0.0925036147236824,
        0.2686607837677002,
        -0.08696547150611877,
        0.0765288770198822,
        0.040180057287216187,
        -0.2587282359600067,
        -0.046604905277490616,
        0.05071390047669411,
        -0.14086563885211945,
        -0.00704940827563405,
        0.0082149188965559,
        -0.14863508939743042,
        0.40974774956703186,
        -0.044567596167325974,
        0.054995857179164886,
        -0.1731107234954834,
        0.04132140800356865,
        -0.09350859373807907,
        -0.035383738577365875,
        0.05762345343828201,
        -0.001513168215751648,
        -0.07499824464321136,
