{
  "version": 2,
  "kind": "mlp",
  "featureNames": [
    "rank_balance_0",
    "rank_balance_1",
    "rank_balance_2",
    "rank_balance_3",
    "rank_balance_4",
    "rank_balance_5",
    "rank_balance_6",
    "rank_balance_7",
    "rank_balance_8",
    "rank_balance_9",
    "rank_balance_10",
    "rank_balance_11",
    "material_value_diff",
    "movable_piece_diff",
    "scout_diff",
    "miner_diff",
    "bomb_diff",
    "high_rank_diff",
    "revealed_ratio_diff",
    "hidden_high_rank_diff",
    "advancement_diff",
    "frontline_diff",
    "center_control_diff",
    "flag_guard_diff",
    "flag_pressure_diff",
    "turn_advantage",
    "game_phase"
  ],
  "layers": [
    {
      "inputSize": 27,
      "outputSize": 96,
      "weights": [
        0.15975378453731537,
        -0.054261714220047,
        0.30721771717071533,
        0.22191683948040009,
        -0.1837586760520935,
        0.08835199475288391,
        -0.07558924704790115,
        0.49137362837791443,
        -0.30284562706947327,
        0.044944003224372864,
        0.20031940937042236,
        -0.36815181374549866,
        0.14295196533203125,
        0.39565449953079224,
        0.5689501762390137,
        -0.01950521022081375,
        -0.5114034414291382,
        0.20475275814533234,
        0.5436232089996338,
        -0.23854821920394897,
        0.21713031828403473,
        -1.443196415901184,
        0.011280765756964684,
        -0.056677743792533875,
        0.13853196799755096,
        0.015879949554800987,
        -0.3914215564727783,
        -0.16311633586883545,
        -0.09547232836484909,
        -0.2655831277370453,
        -0.28497061133384705,
        0.7461393475532532,
        0.2408655732870102,
        0.05832348018884659,
        -0.20715728402137756,
        -0.3659045398235321,
        -0.08519526571035385,
        0.017634637653827667,
        -0.3927401900291443,
        -0.01782093569636345,
        -0.04306658357381821,
        -0.09679824113845825,
        -0.2341061234474182,
        -0.2368554174900055,
        -0.35051172971725464,
        -0.11734820902347565,
        -0.44661083817481995,
        -0.6853247284889221,
        -0.33171892166137695,
        0.30749621987342834,
        0.36307159066200256,
        0.26895833015441895,
        0.00471730949357152,
        -0.002851697150617838,
        0.13302455842494965,
        -0.4298308789730072,
        -0.22818921506404877,
        -0.29742756485939026,
        -0.0238171499222517,
        0.5670688152313232,
        0.294863760471344,
        0.5494296550750732,
        1.1131548881530762,
        -0.32227954268455505,
        -0.49027037620544434,
        -1.3124834299087524,
        0.645419180393219,
        0.4225051999092102,
        0.0007131895981729031,
        0.037281978875398636,
        -1.4317617416381836,
        0.6219393014907837,
        0.022786345332860947,
        0.19486232101917267,
        0.39151862263679504,
        1.3568974733352661,
        0.4245065748691559,
        -0.03642436861991882,
        0.2896922528743744,
        0.009914849884808064,
        0.03221758455038071,
        0.17477013170719147,
        0.1117045134305954,
        -1.1393535137176514,
        -0.3280033469200134,
        0.7439098358154297,
        0.49154379963874817,
        0.6800605058670044,
        0.497410386800766,
        0.3317745625972748,
        -0.08545635640621185,
        -0.7979295253753662,
        0.08307870477437973,
        0.622299075126648,
        0.10473375022411346,
        -1.2737808227539062,
        -0.22443334758281708,
        -0.05137461796402931,
        -0.0009700166992843151,
        -0.7621790170669556,
        -0.2350408434867859,
        0.48944297432899475,
        1.3240388631820679,
        0.015683606266975403,
        -0.24700461328029633,
        -0.06349457800388336,
        0.009956300258636475,
        0.24522753059864044,
        -0.03377818316221237,
        0.7527597546577454,
        0.1769745945930481,
        -0.11455148458480835,
        -0.6177928447723389,
        0.30487051606178284,
        0.12279655784368515,
        0.35177725553512573,
        -0.6996505260467529,
        0.47307348251342773,
        0.12227067351341248,
        -1.0220364332199097,
        0.03415350988507271,
        -0.08296836167573929,
        0.08545496314764023,
        0.081317238509655,
        -0.9933658838272095,
        -0.23771922290325165,
        -1.4198590517044067,
        -0.2512982487678528,
        0.24822646379470825,
        -0.6863681077957153,
        -0.6581984162330627,
        -0.3702840805053711,
        0.9534389972686768,
        -0.0028411743696779013,
        -0.023514457046985626,
        -0.030342264100909233,
        0.2885642349720001,
        0.056420326232910156,
        -0.24721983075141907,
        0.05633038654923439,
        -0.12354468554258347,
        -0.05305229127407074,
        -0.20870238542556763,
        -0.00905664823949337,
        0.041166529059410095,
        -0.5805920362472534,
        -0.31584420800209045,
        -0.11879997700452805,
        -0.07131292670965195,
        -0.10543722659349442,
        -0.38717254996299744,
        -0.6006630659103394,
        0.0621916688978672,
        0.7146134972572327,
        0.45902517437934875,
        0.8820824027061462,
        1.44742751121521,
        -0.2236248403787613,
        -0.18131554126739502,
        -0.811794102191925,
        -0.04036925733089447,
        0.05672464892268181,
        -0.09440799057483673,
        -0.04065297171473503,
        -0.3799363970756531,
        0.08324804157018661,
        -0.6194901466369629,
        -0.6039127111434937,
        -0.20876111090183258,
        -0.6447299122810364,
        0.6143098473548889,
        0.0553634911775589,
        -0.3349568545818329,
        -0.5012480020523071,
        -0.6860887408256531,
        -0.5592815279960632,
        -0.45232146978378296,
        0.2258443683385849,
        -0.601151168346405,
        0.44800958037376404,
        -0.5804212093353271,
        0.9837522506713867,
        -0.9269397854804993,
        0.5673707723617554,
        -0.3825807273387909,
        0.2804964482784271,
        0.5328419208526611,
        -0.003672332037240267,
        0.050385382026433945,
        -0.04426846653223038,
        -0.4170379936695099,
        0.10601599514484406,
        -0.3094256818294525,
        -0.06709354370832443,
        -0.14414279162883759,
        0.7515442967414856,
        6.411835784092546e-05,
        -0.31242892146110535,
        -0.09331758320331573,
        0.050787463784217834,
        -0.4598918855190277,
        -0.11743969470262527,
        -0.21711322665214539,
        -0.0030579755548387766,
        -0.21321572363376617,
        -0.34710973501205444,
        -0.2800666093826294,
        -0.22013501822948456,
        0.3186408579349518,
        -0.512444257736206,
        -0.33932921290397644,
        -0.32824811339378357,
        0.035002220422029495,
        -0.14743681252002716,
        -0.04039553925395012,
        0.09755837917327881,
        -0.10554572194814682,
        -0.022320764139294624,
        0.1845526546239853,
        0.4729575216770172,
        -0.10397444665431976,
        -0.1436755210161209,
        0.03353268653154373,
        0.034090813249349594,
        -0.2615581750869751,
        -0.49730315804481506,
        0.2915010452270508,
        -0.09033320844173431,
        0.14011579751968384,
        0.13567401468753815,
        0.21517133712768555,
        0.7162354588508606,
        0.07517760992050171,
        -0.37926557660102844,
        0.1539434939622879,
        0.40423768758773804,
        1.1566336154937744,
        0.4044974744319916,
        0.45507559180259705,
        -0.43294763565063477,
        0.04496733844280243,
        -0.0013506256509572268,
        0.019427942112088203,
        0.14236773550510406,
        0.24537798762321472,
        -0.5051482915878296,
        -0.15396732091903687,
        -0.3802385926246643,
        -0.2659154534339905,
        -0.4033626616001129,
        -0.08804342895746231,
        0.3954855501651764,
        0.2754150927066803,
        -0.35923290252685547,
        -0.09404166787862778,
        -0.014353717677295208,
        -0.434234619140625,
        -0.407233864068985,
        0.09242479503154755,
        -0.02878650091588497,
        0.19827178120613098,
        0.7428845763206482,
        -0.07735465466976166,
        -0.19575941562652588,
        -0.5667436718940735,
        0.1448526829481125,
        -0.1383230984210968,
        0.3568153381347656,
        -0.012972614727914333,
        -0.205631822347641,
        0.046609364449977875,
        -0.28962257504463196,
        -0.3289918005466461,
        0.23181703686714172,
        1.9715123176574707,
        0.5276699662208557,
        -0.01823689229786396,
        0.10667701065540314,
        -0.26241084933280945,
        -0.4818601608276367,
        0.5263162851333618,
        -0.450669527053833,
        0.4743305742740631,
        0.3450349271297455,
        -0.42576512694358826,
        0.1709030270576477,
        -0.3361961841583252,
        -0.21321608126163483,
        -0.5899575352668762,
        -1.5365945100784302,
        -1.2909321784973145,
        -0.6958402395248413,
        0.1171133816242218,
        -0.03972707688808441,
        0.4752804934978485,
        -8.801938383840024e-05,
        -0.059740230441093445,
        0.034812964498996735,
        0.13736170530319214,
        0.2028340995311737,
        -0.24719054996967316,
        0.10214868187904358,
        -0.4112207889556885,
        0.5155293345451355,
        0.3199635148048401,
        0.1296229064464569,
        0.44032591581344604,
        -0.4570508301258087,
        0.5207585096359253,
        0.2622923254966736,
        0.04896565526723862,
        0.004211372695863247,
        -0.15085355937480927,
        0.726712703704834,
        0.195912167429924,
        0.15204644203186035,
        -0.4684060513973236,
        -0.6431094408035278,
        -0.11471358686685562,
        -0.17720116674900055,
        0.01784992590546608,
        -0.18053553998470306,
        0.02085893414914608,
        0.04158303514122963,
        0.008673170581459999,
        -0.6204049587249756,
        0.27529093623161316,
        -0.8602497577667236,
        -0.601652979850769,
        0.4550955295562744,
        0.39586424827575684,
        -0.3753780424594879,
        -0.2620580494403839,
        -0.03291047737002373,
        0.23090055584907532,
        0.07058412581682205,
        -0.2124941200017929,
        -0.18219424784183502,
        0.5200542211532593,
        -0.807568371295929,
        -0.19215136766433716,
        -0.18477144837379456,
        -1.0006738901138306,
        -0.6807722449302673,
        0.1681518703699112,
        0.9125623106956482,
        0.9683082103729248,
        -0.12875543534755707,
        -0.6814037561416626,
        -0.0004946963163092732,
        -0.06418076157569885,
        0.09066733717918396,
        0.46195363998413086,
        -0.10808933526277542,
        -0.3196950852870941,
        0.24420484900474548,
        1.3601912260055542,
        -0.6677820682525635,
        -0.053305622190237045,
        -0.4952838718891144,
        0.030731201171875,
        0.2879970371723175,
        0.054393574595451355,
        0.12668217718601227,
        0.32226666808128357,
        0.1527635008096695,
        -0.520472526550293,
        -0.22565852105617523,
        -0.0548049695789814,
        -0.2828914225101471,
        -0.1350935697555542,
        0.5871262550354004,
        0.13842304050922394,
        -0.08725839108228683,
        0.1587137132883072,
        0.40057289600372314,
        0.0005320278578437865,
        -0.004012847784906626,
        0.17739249765872955,
        0.34533944725990295,
        0.18859952688217163,
        0.9797505736351013,
        1.9261305332183838,
        0.19524161517620087,
        0.08462516963481903,
        -0.6789748072624207,
        -0.10694773495197296,
        0.08151797205209732,
        0.6900112628936768,
        -0.5529116988182068,
        1.2837140560150146,
        1.4367260932922363,
        0.4149203896522522,
        1.135841965675354,
        -0.7640718221664429,
        0.3781910538673401,
        1.3586896657943726,
        -0.691105306148529,
        -0.9943978786468506,
        1.271524429321289,
        0.9041370153427124,
        0.2705736458301544,
        -0.0964275449514389,
        0.0032488044817000628,
        -0.1024995893239975,
        -0.11331821233034134,
        -0.3266817629337311,
        0.1536117047071457,
        0.08264421671628952,
        0.8165966868400574,
        1.1785945892333984,
        -0.08497349172830582,
        -0.3219531774520874,
        0.014918504282832146,
        0.13075219094753265,
        -0.2629654109477997,
        -0.12066806107759476,
        0.318090558052063,
        0.5001776218414307,
        0.003568036947399378,
        0.03366823121905327,
        -0.16986718773841858,
        -0.1876429170370102,
        -0.7522155046463013,
        1.0673195123672485,
        -0.14134356379508972,
        0.3552086055278778,
        -0.4169735908508301,
        -0.10443202406167984,
        -0.06925667822360992,
        -0.014008419588208199,
        0.006190582178533077,
        -0.17650601267814636,
        0.31079456210136414,
        -0.31633105874061584,
        0.16994094848632812,
        -0.2805432081222534,
        0.3864394426345825,
        -0.44354701042175293,
        -0.2836490571498871,
        -0.19107407331466675,
        -0.08939167857170105,
        0.6175166368484497,
        -0.8438620567321777,
        0.026011763140559196,
        0.07092800736427307,
        -0.3365970551967621,
        0.36558353900909424,
        -0.7897818684577942,
        0.07881764322519302,
        -0.4181208610534668,
        0.317317932844162,
        0.27573105692863464,
        0.3064331114292145,
        0.3045995831489563,
        0.12683460116386414,
        0.13313868641853333,
        -0.033519648015499115,
        0.0020427138078957796,
        -0.130895733833313,
        0.13045720756053925,
        -0.19205254316329956,
        0.45036807656288147,
        -0.1467505246400833,
        0.1457642763853073,
        0.2700241506099701,
        0.4783104360103607,
        0.09483204036951065,
        0.26043909788131714,
        0.5310160517692566,
        -0.11335550993680954,
        0.41466549038887024,
        0.38363736867904663,
        -0.1277947574853897,
        0.5542585253715515,
        -0.08896414935588837,
        0.11010736972093582,
        -0.18583936989307404,
        -0.4500788450241089,
        0.8660549521446228,
        0.17287108302116394,
        0.32614728808403015,
        0.35312482714653015,
        -0.1290738433599472,
        -0.019808346405625343,
        -0.14140236377716064,
        -0.1194266825914383,
        -0.033019620925188065,
        0.028315287083387375,
        0.15731748938560486,
        -0.5880752205848694,
        -0.6196507215499878,
        -1.0843673944473267,
        -0.006412089336663485,
        -0.0832228809595108,
        0.3892185389995575,
        0.1892980933189392,
        -0.3535515367984772,
        -0.23727276921272278,
        -0.353032648563385,
        0.033778343349695206,
        0.4527578055858612,
        -0.4651716649532318,
        0.1318640261888504,
        0.8618823885917664,
        -0.4300137758255005,
        -0.5117475390434265,
        0.44965288043022156,
        0.9187292456626892,
        -0.15823782980442047,
        -0.7099519968032837,
        -0.008407083339989185,
        0.15079936385154724,
        -0.14673936367034912,
        0.0015215488383546472,
        -0.021177086979150772,
        -0.3175792396068573,
        -0.05349365994334221,
        -0.19623315334320068,
        0.5078754425048828,
        0.3462004065513611,
        0.060453981161117554,
        0.17757904529571533,
        -0.5430784225463867,
        0.4737198054790497,
        0.13824932277202606,
        -0.04109680652618408,
        -0.04737348109483719,
        -0.19690223038196564,
        0.6939380168914795,
        0.18261021375656128,
        0.09729254245758057,
        -0.37658175826072693,
        -0.18824650347232819,
        0.5944057106971741,
        0.024667834863066673,
        -0.04601782187819481,
        0.05219389125704765,
        -0.07757730036973953,
        -0.0909716859459877,
        0.18509824573993683,
        0.5104594230651855,
        -0.13594143092632294,
        -0.4887006878852844,
        -0.7286399602890015,
        0.4341529607772827,
        -0.9272042512893677,
        1.5192314386367798,
        0.0558854304254055,
        -0.6597111821174622,
        0.025509774684906006,
        -0.5933566689491272,
        -0.09985491633415222,
        0.00932903029024601,
        0.02657412923872471,
        -0.38159987330436707,
        -0.5451648235321045,
        -0.4934508502483368,
        -1.0283393859863281,
        0.5818070769309998,
        -1.0916357040405273,
        0.3885686695575714,
        0.2092680186033249,
        0.3141762316226959,
        0.22596235573291779,
        0.002865451155230403,
        -0.24922755360603333,
        0.06268975138664246,
        0.2599601745605469,
        -0.7046374082565308,
        0.09817347675561905,
        0.5606817007064819,
        0.9173723459243774,
        0.35970449447631836,
        -0.4820302724838257,
        0.2784024178981781,
        0.6736770868301392,
        0.17116029560565948,
        -0.3603898882865906,
        0.7022792100906372,
        0.47312507033348083,
        -0.8264027833938599,
        0.22861583530902863,
        -0.4398398697376251,
        0.6682420372962952,
        -0.7549558281898499,
        -0.1321200132369995,
        1.3023103475570679,
        0.9310255646705627,
        0.4818861186504364,
        -0.00744083384051919,
        -0.7152519226074219,
        0.0073292991146445274,
        0.1858612298965454,
        0.09795358777046204,
        -0.4573822319507599,
        0.1567465364933014,
        -0.00828133337199688,
        -0.5651031136512756,
        -0.3772297501564026,
        -0.1238226592540741,
        0.1349044144153595,
        0.15752381086349487,
        -0.21615064144134521,
        0.0649244636297226,
        -0.1797131896018982,
        -0.1274453103542328,
        -0.4373236894607544,
        -0.05185236781835556,
        -0.15105924010276794,
        -0.19378772377967834,
        0.1173335388302803,
        1.346529245376587,
        0.11700981855392456,
        0.7101151347160339,
        -0.18494582176208496,
        0.02219628542661667,
        0.1997976303100586,
        0.3835386633872986,
        0.000868044386152178,
        0.13377200067043304,
        0.11646134406328201,
        -0.14600782096385956,
        -0.10552169382572174,
        -0.2162352353334427,
        -0.016166511923074722,
        -0.32824602723121643,
        0.38099485635757446,
        0.19839692115783691,
        -0.5363630056381226,
        -0.0658712163567543,
        -0.12469542771577835,
        0.03965885564684868,
        -0.007170830387622118,
        -0.2736634612083435,
        0.16254642605781555,
        0.10625253617763519,
        0.028326548635959625,
        -0.6041408777236938,
        0.20388127863407135,
        0.1823008507490158,
        -0.532541811466217,
        0.1332077980041504,
        0.013244515284895897,
        0.11211003363132477,
        -0.43780797719955444,
        0.02336152270436287,
        0.0824284628033638,
        -0.16007450222969055,
        -0.36288878321647644,
        -0.28806576132774353,
        0.1161632165312767,
        -0.025126580148935318,
        -0.154205784201622,
        -0.1661660522222519,
        0.3862673044204712,
        0.1287250965833664,
        -0.0987580195069313,
        -0.21873970329761505,
        0.6903229355812073,
        0.16977928578853607,
        0.03891054540872574,
        -0.15820948779582977,
        0.04792778193950653,
        0.7741912007331848,
        -0.1572001725435257,
        0.39249107241630554,
        0.19582079350948334,
        -0.7469820380210876,
        -0.05928092822432518,
        0.2100406289100647,
        0.162338986992836,
        0.46825751662254333,
        -0.04663523659110069,
        0.02249792404472828,
        0.17597894370555878,
        -0.31145432591438293,
        -0.3195919990539551,
        0.6827448010444641,
        -0.47738492488861084,
        0.26398766040802,
        -0.4997245967388153,
        0.0319782979786396,
        -0.08213582634925842,
        -0.4509938061237335,
        -0.30693721771240234,
        -0.1178525909781456,
        -0.30778568983078003,
        -0.3942338824272156,
        -0.44484665989875793,
        0.7813875675201416,
        -0.1527675837278366,
        -0.16313385963439941,
        -0.1303694248199463,
        -0.6291905045509338,
        0.08634883910417557,
        0.29502564668655396,
        -0.1526724249124527,
        0.01756569743156433,
        0.1292462944984436,
        0.006010331679135561,
        -0.041020285338163376,
        -0.07619886845350266,
        0.041502345353364944,
        1.1338651180267334,
        -1.156786561012268,
        -1.5177809000015259,
        0.9693415760993958,
        0.24505268037319183,
        0.04575081169605255,
        0.9830681085586548,
        -0.5489497780799866,
        -0.2249554544687271,
        -0.21637222170829773,
        -0.10316780209541321,
        0.2356375753879547,
        0.8846028447151184,
        -1.1620322465896606,
        -0.3459630310535431,
        0.012864066287875175,
        -0.6716824173927307,
        -0.6531203985214233,
        0.10107369720935822,
        1.971687912940979,
        0.6740229725837708,
        0.0319184809923172,
        0.007015705574303865,
        0.003167075337842107,
        0.12419501692056656,
        0.16638807952404022,
        0.11194652318954468,
        -0.10097366571426392,
        0.4433160424232483,
        0.15979531407356262,
        0.9329747557640076,
        0.4373641908168793,
        -0.034386977553367615,
        0.46088457107543945,
        0.39522889256477356,
        -0.12614107131958008,
        0.16608601808547974,
        0.8075432181358337,
        0.761288046836853,
        -0.11561314016580582,
        0.31140005588531494,
        -0.02628014050424099,
        0.33622926473617554,
        -0.3908005654811859,
        -0.7754760384559631,
        0.18769575655460358,
        -0.05058129504323006,
        0.30946555733680725,
        -0.062173992395401,
        -0.5120406746864319,
        0.007477525155991316,
        -0.01866198517382145,
        0.09536918997764587,
        -0.1934766322374344,
        0.03685751557350159,
        -0.2559012174606323,
        0.19377675652503967,
        -0.02403745800256729,
        -0.32656341791152954,
        -0.5178850889205933,
        -0.24626654386520386,
        -0.04208368435502052,
        -0.3422185480594635,
        -0.3737890422344208,
        -0.4048064947128296,
        -0.08483034372329712,
        0.22911550104618073,
        -0.22840441763401031,
        -0.47706255316734314,
        -0.36054539680480957,
        0.3753371834754944,
        0.19317108392715454,
        -0.43543538451194763,
        0.6942848563194275,
        -0.03671654313802719,
        0.27605459094047546,
        0.32704442739486694,
        0.010829536244273186,
        0.03119736909866333,
        0.17178519070148468,
        -0.23111626505851746,
        -0.07470154762268066,
        0.22910237312316895,
        0.06438598781824112,
        0.40454521775245667,
        0.9342279434204102,
        -0.4298526346683502,
        -0.8306053280830383,
        0.37674272060394287,
        -0.6815547943115234,
        -0.09687162935733795,
        -0.15224310755729675,
        0.018881872296333313,
        0.13069988787174225,
        0.08007389307022095,
        0.011746401898562908,
        -0.9157032370567322,
        0.8398184776306152,
        0.6855278611183167,
        -0.5231005549430847,
        0.7348663210868835,
        0.9227448105812073,
        0.14673760533332825,
        -0.28009843826293945,
        -0.0046203299425542355,
        -0.49940988421440125,
        0.035143814980983734,
        0.03416220843791962,
        0.12073780596256256,
        -0.02673385664820671,
        0.08384615182876587,
        -0.43986043334007263,
        -0.12215137481689453,
        -0.37781208753585815,
        -0.014126480557024479,
        0.06024891510605812,
        -0.31432560086250305,
        1.370437502861023,
        -0.17135187983512878,
        -0.02075665071606636,
        0.1715134084224701,
        0.04423641413450241,
        1.2641974687576294,
        -0.17151577770709991,
        -0.2933117747306824,
        0.0437089204788208,
        -0.4052848815917969,
        1.7908430099487305,
        0.9121831059455872,
        -0.010800089687108994,
        -0.28971067070961,
        0.01521806325763464,
        0.004600245039910078,
        -0.033201076090335846,
        0.16693323850631714,
        0.13379845023155212,
        -0.2139681875705719,
        -0.7148324251174927,
        0.6704747080802917,
        -0.20109784603118896,
        -0.08681270480155945,
        0.4529414772987366,
        -0.48294126987457275,
        -0.5798137784004211,
        0.6867790818214417,
        -0.19155575335025787,
        -0.0923239067196846,
        0.34512031078338623,
        -0.2550625801086426,
        0.4332543611526489,
        -0.32661715149879456,
        -0.3228135108947754,
        -0.28077003359794617,
        -0.6750302314758301,
        -0.2327309548854828,
        -0.19314119219779968,
        -0.20932376384735107,
        -0.41434445977211,
        0.0008581823785789311,
        0.019357439130544662,
        -0.06254807114601135,
        -0.36899644136428833,
        0.03220522776246071,
        -0.15512286126613617,
        -0.5958030819892883,
        -0.09028369188308716,
        0.013908721506595612,
        -0.06333211809396744,
        -0.2760128676891327,
        0.38599056005477905,
        0.08428728580474854,
        0.49160435795783997,
        -0.26806750893592834,
        -0.31447261571884155,
        -0.08178890496492386,
        0.14495201408863068,
        0.40104830265045166,
        -0.20868699252605438,
        -0.30190518498420715,
        -0.055821120738983154,
        -0.15232723951339722,
        0.09656311571598053,
        0.5090298652648926,
        0.18764032423496246,
        -0.05606619268655777,
        0.0005784215172752738,
        -0.021045763045549393,
        0.0755348801612854,
        0.18297626078128815,
        -0.11191844940185547,
        -0.49689698219299316,
        0.30696237087249756,
        0.34162163734436035,
        -0.5838921666145325,
        -0.07124476879835129,
        0.04784867912530899,
        0.2902643084526062,
        0.14765788614749908,
        0.0202394537627697,
        -0.10894055664539337,
        -0.03681200370192528,
        -0.35212650895118713,
        -0.44578033685684204,
        -0.04533170536160469,
        0.04025549814105034,
        -0.17659036815166473,
        -0.09580519050359726,
        -0.05420873314142227,
        -0.03587859496474266,
        -0.11349345743656158,
        -0.48098331689834595,
        0.13433146476745605,
        -0.01690244860947132,
        -0.10388919711112976,
        0.018133405596017838,
        -0.6784894466400146,
        0.07910063862800598,
        -0.03249698504805565,
        -0.22138959169387817,
        -0.5630088448524475,
        0.1488935351371765,
        -0.4241492748260498,
        -0.5215003490447998,
        0.6008889079093933,
        -0.6887823343276978,
        -0.8256489038467407,
        -0.6936440467834473,
        -0.2682437598705292,
        0.10438016802072525,
        -0.2370513528585434,
        -0.7425146102905273,
        -0.33860254287719727,
        0.6984204649925232,
        -0.396478533744812,
        0.17398196458816528,
        0.7481012940406799,
        0.27993735671043396,
        -0.3785773813724518,
        -0.6989380121231079,
        -0.0013150629820302129,
        -0.13519734144210815,
        0.10707313567399979,
        0.09416168183088303,
        0.3613389730453491,
        -1.0429024696350098,
        0.6229052543640137,
        -1.4875688552856445,
        0.3839806020259857,
        0.12806254625320435,
        0.20192235708236694,
        -0.17153359949588776,
        0.2696288526058197,
        0.5750565528869629,
        0.07111737132072449,
        -0.2394164651632309,
        0.2822592258453369,
        -0.9511434435844421,
        0.23774538934230804,
        0.42699816823005676,
        -0.17274653911590576,
        -0.2610538601875305,
        -0.7970527410507202,
        -0.02084186300635338,
        0.5781578421592712,
        0.17171220481395721,
        -0.08629913628101349,
        -0.004791456274688244,
        0.04615027830004692,
        -0.02829994075000286,
        -0.17083396017551422,
        -0.21094343066215515,
        0.27612900733947754,
        -0.11843840032815933,
        -0.06653691828250885,
        -0.25540691614151,
        -0.05718676745891571,
        -0.06698207557201385,
        -0.46601250767707825,
        0.09277815371751785,
        0.33000504970550537,
        -0.012681928463280201,
        -0.27336451411247253,
        -0.017043421044945717,
        -0.032130297273397446,
        0.28021904826164246,
        0.05390884354710579,
        0.4873090982437134,
        -0.03243573009967804,
        -0.21491515636444092,
        -0.2266036868095398,
        -0.14823348820209503,
        -0.18424855172634125,
        0.12332727015018463,
        -0.009719078429043293,
        0.03651612997055054,
        -0.1673468053340912,
        0.029297012835741043,
        -0.5722817778587341,
        -0.06072100251913071,
        -0.42268452048301697,
        -0.3275958299636841,
        -0.1665268838405609,
        0.44328975677490234,
        0.2928403317928314,
        0.32751893997192383,
        -0.253551185131073,
        -0.165070578455925,
        0.0249093696475029,
        -0.15569621324539185,
        -0.6362534165382385,
        0.0730689987540245,
        0.1876169592142105,
        0.12646663188934326,
        0.31620991230010986,
        0.11162007600069046,
        0.09253883361816406,
        -0.060374218970537186,
        -0.58733731508255,
        -0.02189861796796322,
        -0.5491169691085815,
        0.04845298454165459,
        -0.01349072065204382,
        0.11584583669900894,
        -0.26783400774002075,
        0.7729299664497375,
        -0.42308104038238525,
        -0.24784402549266815,
        -0.40067431330680847,
        -0.5821545124053955,
        -0.19064855575561523,
        1.3748801946640015,
        0.07497270405292511,
        0.4686392843723297,
        -1.3791460990905762,
        0.2933626174926758,
        0.16401667892932892,
        0.7898520827293396,
        -0.4918871521949768,
        -1.4651871919631958,
        1.490798830986023,
        -0.24782992899417877,
        0.510080873966217,
        -0.005190510768443346,
        1.2348029613494873,
        0.4792889356613159,
        0.21238300204277039,
        0.48055654764175415,
        0.007821551524102688,
        0.17285016179084778,
        -0.032878704369068146,
        -0.33411720395088196,
        0.12782292068004608,
        -0.36896008253097534,
        0.08924290537834167,
        0.5290554165840149,
        -0.4468412399291992,
        -0.07042527198791504,
        0.24242433905601501,
        -0.15473245084285736,
        -0.29487472772598267,
        -0.20478640496730804,
        -0.056780748069286346,
        -0.1752329170703888,
        -0.1564808040857315,
        -0.46677133440971375,
        0.05840160697698593,
        -0.003049478866159916,
        -1.0538235902786255,
        0.5035594701766968,
        0.893864631652832,
        1.336495041847229,
        0.010933788493275642,
        0.015777722001075745,
        0.441074401140213,
        0.017647234722971916,
        -0.04029276967048645,
        0.1755148321390152,
        0.2448631078004837,
        -0.18697375059127808,
        0.22135892510414124,
        1.267326831817627,
        0.28788742423057556,
        0.821506917476654,
        -2.9964241981506348,
        -0.31923937797546387,
        -0.09375885874032974,
        1.6913610696792603,
        -0.37125495076179504,
        -0.002798143308609724,
        0.05189209803938866,
        -0.26425397396087646,
        0.26167920231819153,
        -0.25083890557289124,
        0.49862197041511536,
        -0.6692579388618469,
        1.3602283000946045,
        0.18810327351093292,
        -0.9227284789085388,
        0.47788965702056885,
        -0.0025610525626689196,
        0.6067495346069336,
        0.0024935523979365826,
        0.062362611293792725,
        -0.0035277155693620443,
        0.37619900703430176,
        0.6976000070571899,
        0.2404695600271225,
        -0.10319256037473679,
        0.3641335666179657,
        0.5452591180801392,
        -0.5981699228286743,
        -0.5080779790878296,
        -0.3616679906845093,
        -0.5617382526397705,
        0.7626802921295166,
        -0.1437263786792755,
        0.26590675115585327,
        0.5705336928367615,
        0.05430203303694725,
        0.7679749727249146,
        -0.47865763306617737,
        -0.8623761534690857,
        -0.880061686038971,
        0.7986453175544739,
        -0.02752879075706005,
        1.434865951538086,
        0.0933067724108696,
        0.27820104360580444,
        -0.010136048309504986,
        0.09245682507753372,
        0.16135390102863312,
        -0.01189948059618473,
        0.1229175254702568,
        0.3962671458721161,
        -0.18349766731262207,
        -0.07013087719678879,
        -0.18051248788833618,
        -0.4292544722557068,
        0.38428011536598206,
        0.22778314352035522,
        -0.35062217712402344,
        0.1461852490901947,
        -0.2688685655593872,
        0.10767727345228195,
        0.13238076865673065,
        0.3044488728046417,
        -0.06769111752510071,
        0.3508776128292084,
        -0.04701538011431694,
        0.28882092237472534,
        0.2216164916753769,
        0.21087445318698883,
        -0.23690907657146454,
        -0.5373792052268982,
        -0.18810023367404938,
        0.010999009944498539,
        0.031033776700496674,
        -0.10100335627794266,
        0.21812908351421356,
        0.01967226341366768,
        0.012504590675234795,
        0.407004177570343,
        -0.17840082943439484,
        -0.7845022082328796,
        -0.06973439455032349,
        -0.17891861498355865,
        -0.21194247901439667,
        -0.19775979220867157,
        0.00233148573897779,
        -0.4546044170856476,
        -0.1747918277978897,
        -0.07294584065675735,
        0.24020597338676453,
        0.151100292801857,
        -0.1674010306596756,
        0.5273361206054688,
        -0.5695840120315552,
        0.989494264125824,
        0.8231397271156311,
        -0.25539588928222656,
        -0.17047177255153656,
        -0.028750089928507805,
        0.011671630665659904,
        -0.020110739395022392,
        0.11568761616945267,
        -0.03427690640091896,
        -0.8791840076446533,
        -0.5814661383628845,
        0.16198746860027313,
        0.23619672656059265,
        0.8396213054656982,
        -0.7170132398605347,
        0.35680943727493286,
        -0.07950626313686371,
        0.8060030341148376,
        -0.43114858865737915,
        0.3145708739757538,
        -0.34617722034454346,
        -0.737650454044342,
        -0.61427241563797,
        -0.5707053542137146,
        0.19343847036361694,
        1.8770413398742676,
        -0.16222088038921356,
        -0.0562971830368042,
        1.0670583248138428,
        0.36937978863716125,
        -0.07937956601381302,
        -0.15691182017326355,
        0.011150366626679897,
        -0.16497938334941864,
        0.13463173806667328,
        0.7140892148017883,
        -0.6453505158424377,
        -0.43585675954818726,
        -0.6721672415733337,
        -1.143009066581726,
        -0.5476977825164795,
        -0.6268059015274048,
        -0.6030250787734985,
        0.18127316236495972,
        -0.10266929119825363,
        -1.3703793287277222,
        -1.4322487115859985,
        -1.3605493307113647,
        -0.4619444012641907,
        -0.2809913158416748,
        -1.4170864820480347,
        -0.28346699476242065,
        0.3915669322013855,
        -0.8731108903884888,
        0.9432567358016968,
        0.36384254693984985,
        1.2051849365234375,
        -0.06481125950813293,
        -0.8702427744865417,
        0.008239541202783585,
        -0.006327376700937748,
        0.019768137484788895,
        0.033066943287849426,
        0.21733872592449188,
        -0.45290282368659973,
        -1.6264039278030396,
        -0.18528136610984802,
        0.2833267152309418,
        -0.8751848936080933,
        0.2863348722457886,
        -0.26079708337783813,
        0.002360415644943714,
        0.26344436407089233,
        -0.461325079202652,
        -0.7219081521034241,
        0.3096352815628052,
        -0.19035524129867554,
        0.08430542796850204,
        0.3235383629798889,
        -0.8719988465309143,
        -0.006860233377665281,
        0.11842859536409378,
        0.3004007041454315,
        -0.2215011715888977,
        -0.09760237485170364,
        0.07955452054738998,
        -0.008417108096182346,
        0.010829757899045944,
        -0.16858763992786407,
        -0.20429810881614685,
        0.21621136367321014,
        0.033701371401548386,
        0.5220386385917664,
        0.37927618622779846,
        0.03188358619809151,
        0.10008690506219864,
        -0.2625894844532013,
        -0.13647055625915527,
        -0.028245190158486366,
        2.428741693496704,
        0.14371030032634735,
        0.281693696975708,
        0.037099745124578476,
        0.1622188240289688,
        2.5788934230804443,
        -0.4364777207374573,
        -0.2852013409137726,
        -0.7249029278755188,
        1.287399411201477,
        0.28181880712509155,
        -0.5122408866882324,
        0.23483125865459442,
        0.2739960551261902,
        0.00036204286152496934,
        -0.09220780432224274,
        0.06810018420219421,
        0.08626804500818253,
        -0.3166669011116028,
        0.24515372514724731,
        0.027168799191713333,
        0.5122385025024414,
        -0.3783119022846222,
        0.5041504502296448,
        -0.14966662228107452,
        0.3354807198047638,
        0.24095730483531952,
        -0.7387723922729492,
        0.32492274045944214,
        0.003277938114479184,
        -0.48930785059928894,
        0.028125138953328133,
        -0.5484884977340698,
        0.34397536516189575,
        0.08921443670988083,
        0.5637813806533813,
        -0.12459185719490051,
        -0.12640772759914398,
        -0.08408936113119125,
        -0.01771441474556923,
        -0.04514497146010399,
        -0.00815318152308464,
        -0.1829075962305069,
        -0.08967036753892899,
        -0.5034587979316711,
        -0.12385968863964081,
        0.09781136363744736,
        -0.5635988116264343,
        -0.0011648280778899789,
        -0.27524399757385254,
        0.09594756364822388,
        -0.08714659512042999,
        -0.03753085806965828,
        0.21133430302143097,
        -0.6053861379623413,
        -0.23047561943531036,
        -0.207162544131279,
        -0.11720140278339386,
        0.19260933995246887,
        -0.5229007005691528,
        0.07921123504638672,
        0.9712920188903809,
        0.27929240465164185,
        -0.3871149718761444,
        0.3437960147857666,
        1.357529640197754,
        -0.4816378355026245,
        -0.4733337461948395,
        -0.019340183585882187,
        0.05249278247356415,
        -0.0711245983839035,
        0.3739071190357208,
        0.03605952858924866,
        0.04007164388895035,
        0.3180140554904938,
        -0.24655161798000336,
        0.010830710642039776,
        -0.0023284144699573517,
        0.17430159449577332,
        -0.4632641673088074,
        0.022520702332258224,
        -0.05166470631957054,
        -0.16327834129333496,
        -0.09166020900011063,
        -0.23453785479068756,
        -0.19661647081375122,
        -0.06862634420394897,
        -0.03880782052874565,
        0.04546688124537468,
        -0.3014293909072876,
        -0.0791657418012619,
        -0.23316627740859985,
        -0.5250834822654724,
        -0.11964988708496094,
        0.05608384683728218,
        0.002017582766711712,
        -0.19313053786754608,
        0.04483731836080551,
        0.20163214206695557,
        0.7813230752944946,
        0.3579619526863098,
        -0.8340921401977539,
        0.8098675608634949,
        -0.2569452226161957,
        -0.06319975107908249,
        -0.27186456322669983,
        -0.1473018229007721,
        -0.12661238014698029,
        -0.2807455360889435,
        0.02818172425031662,
        0.4340650141239166,
        0.6533340215682983,
        0.5011582374572754,
        -0.26065418124198914,
        -0.15742456912994385,
        0.06624890863895416,
        0.23003770411014557,
        -0.4273201823234558,
        0.12875521183013916,
        0.9164381623268127,
        -0.22656700015068054,
        0.13338349759578705,
        0.0028091324493288994,
        -0.10123828053474426,
        -0.12152927368879318,
        0.7852244973182678,
        0.23871998488903046,
        -0.45399385690689087,
        1.4046481847763062,
        -0.9641119241714478,
        1.0870485305786133,
        0.047242023050785065,
        -0.7215211391448975,
        0.33959051966667175,
        -0.08463186025619507,
        -0.5435945987701416,
        0.16480836272239685,
        0.29616865515708923,
        0.35865092277526855,
        -0.41229069232940674,
        -0.2283354550600052,
        -0.0822405070066452,
        -1.391782283782959,
        -0.4775637090206146,
        -0.18470777571201324,
        -0.280366450548172,
        -0.35054337978363037,
        -0.09267596155405045,
        0.403486967086792,
        -0.014961455017328262,
        0.20545753836631775,
        -0.08827591687440872,
        0.5337865948677063,
        0.1688210368156433,
        0.33925265073776245,
        0.2509574592113495,
        -1.4592431783676147,
        0.3665364682674408,
        2.780724048614502,
        0.15763936936855316,
        1.1834298372268677,
        0.3156817853450775,
        -1.8147029876708984,
        1.2235820293426514,
        0.8541393876075745,
        0.12059006094932556,
        0.1415964812040329,
        -1.878119945526123,
        0.7811505794525146,
        0.9623855948448181,
        -1.3156845569610596,
        -0.11376550793647766,
        -1.0819129943847656,
        -0.4716983437538147,
        -0.07490383088588715,
        -0.3152371048927307,
        4.8939487896859646e-05,
        0.012986677698791027,
        -0.05902167782187462,
        -0.07025308907032013,
        -0.1870306134223938,
        0.16207361221313477,
        0.17719504237174988,
        0.637488603591919,
        0.419993132352829,
        -0.012108579277992249,
        0.4168320596218109,
        0.31940895318984985,
        -0.1053733229637146,
        0.07914897054433823,
        0.3680644631385803,
        0.27795103192329407,
        -0.1223207637667656,
        0.3030455410480499,
        0.3040446639060974,
        0.5365310311317444,
        -2.184316873550415,
        -0.36300262808799744,
        -0.1538853943347931,
        -1.6528806686401367,
        -0.37890490889549255,
        -0.175106942653656,
        0.20911307632923126,
        0.008123870007693768,
        0.03288746997714043,
        -0.015166251920163631,
        -0.33599916100502014,
        0.2068893164396286,
        0.23804832994937897,
        -0.3837677836418152,
        -0.23437006771564484,
        0.3317697048187256,
        0.30781322717666626,
        -0.09412264078855515,
        0.055861975997686386,
        0.36977243423461914,
        0.04152955859899521,
        0.13653632998466492,
        0.18101900815963745,
        0.2093363106250763,
        0.14834941923618317,
        -0.028776682913303375,
        0.1909060776233673,
        0.4402783215045929,
        0.23680104315280914,
        -1.0067845582962036,
        -0.4548839032649994,
        0.12699975073337555,
        0.12800675630569458,
        -0.3353548049926758,
        0.02068542130291462,
        -0.1720103770494461,
        0.11477542668581009,
        -0.01772235333919525,
        0.4337162375450134,
        0.22617898881435394,
        0.3833782374858856,
        -0.13454237580299377,
        0.43049758672714233,
        -1.2398971319198608,
        0.27991193532943726,
        -0.10728489607572556,
        -0.5756344795227051,
        -1.435272216796875,
        -0.2520260214805603,
        0.27498576045036316,
        0.698640763759613,
        0.08965859562158585,
        -1.206856608390808,
        -0.17634160816669464,
        0.8934789896011353,
        0.2844395637512207,
        -0.9793917536735535,
        -0.5327543616294861,
        0.15798203647136688,
        0.15983301401138306,
        -0.13308754563331604,
        -0.003735901089385152,
        0.09881147742271423,
        0.18803544342517853,
        0.0157075934112072,
        -0.2409423142671585,
        0.09075014293193817,
        0.7117518186569214,
        -0.17158262431621552,
        0.629263162612915,
        -0.4004865884780884,
        0.1326798051595688,
        -0.5623418688774109,
        -0.13576054573059082,
        0.3425638973712921,
        0.09564787894487381,
        0.0004249113262630999,
        -0.14593064785003662,
        0.1860026866197586,
        0.11757311224937439,
        -0.39862722158432007,
        -0.9290356040000916,
        -0.26133373379707336,
        0.6208563446998596,
        0.11527469754219055,
        0.2797495424747467,
        -0.1410592496395111,
        0.1294747292995453,
        0.009651154279708862,
        -0.07897119224071503,
        -0.09521159529685974,
        -0.04977067559957504,
        -0.23737284541130066,
        -0.0655607283115387,
        -0.48210999369621277,
        -0.08009640872478485,
        -0.1685425341129303,
        -0.44369837641716003,
        -0.9538414478302002,
        0.4495806396007538,
        0.1967175453901291,
        0.3710085451602936,
        -0.6914346218109131,
        -0.36697787046432495,
        -0.16962385177612305,
        -0.09418302774429321,
        0.22042320668697357,
        -0.2483261674642563,
        -0.2603512406349182,
        -1.5834001302719116,
        0.06079311668872833,
        -0.7307512164115906,
        -0.196762353181839,
        -0.047644276171922684,
        0.19695377349853516,
        -0.002350153401494026,
        -0.020836828276515007,
        -0.11513953655958176,
        0.07456888258457184,
        0.2821348011493683,
        0.1479600965976715,
        0.26843002438545227,
        -0.21179242432117462,
        0.27584320306777954,
        0.023766672238707542,
        -0.4270922541618347,
        0.2909467816352844,
        0.5205153822898865,
        0.6371129751205444,
        0.3521275818347931,
        0.33885037899017334,
        -0.001951088896021247,
        0.03039521537721157,
        0.3192027807235718,
        0.15741030871868134,
        -0.5994260311126709,
        -0.5046816468238831,
        0.4263179302215576,
        -0.16797322034835815,
        -0.13613919913768768,
        -0.055864568799734116,
        0.3150674104690552,
        0.004400124307721853,
        -0.009765892289578915,
        -0.060041170567274094,
        -0.19801083207130432,
        0.2741321325302124,
        0.4365491271018982,
        -0.4603501558303833,
        0.15813106298446655,
        0.05659497156739235,
        0.5259243845939636,
        0.11066170781850815,
        0.18196585774421692,
        0.5224975347518921,
        0.1839408129453659,
        0.5252587795257568,
        0.1708325892686844,
        0.2681366801261902,
        0.3824123740196228,
        -0.06810404360294342,
        0.42969101667404175,
        0.2987600564956665,
        0.22551186382770538,
        -0.01634279638528824,
        -0.015062597580254078,
        0.0880972221493721,
        -0.3500813841819763,
        0.010622323490679264,
        -0.021970737725496292,
        0.015793876722455025,
        0.12888546288013458,
        -0.4272659718990326,
        0.4070966839790344,
        -0.29557478427886963,
        -0.031024249270558357,
        0.9390237927436829,
        0.3296755254268646,
        0.26264965534210205,
        0.38599738478660583,
        -0.11867120862007141,
        0.5186100602149963,
        -0.5612784624099731,
        0.6337225437164307,
        0.627393364906311,
        0.39626944065093994,
        -0.11324480175971985,
        -0.5682699084281921,
        0.5501183867454529,
        -0.6020243763923645,
        0.29778942465782166,
        -0.9136098623275757,
        0.6522117257118225,
        -0.7632492184638977,
        0.28156328201293945,
        0.45942333340644836,
        0.029426556080579758,
        -0.046132516115903854,
        0.17320199310779572,
        0.09034714847803116,
        0.4067647159099579,
        0.36394307017326355,
        0.40595847368240356,
        0.3588959574699402,
        0.5049776434898376,
        -0.7483600378036499,
        -0.0912412628531456,
        -0.34269392490386963,
        -0.3110158443450928,
        -0.06765754520893097,
        -0.007682594005018473,
        0.44091325998306274,
        0.5641820430755615,
        0.30313125252723694,
        0.21367178857326508,
        -0.11651089787483215,
        -1.1963942050933838,
        -0.42575982213020325,
        -0.21116957068443298,
        -0.46391791105270386,
        0.443567156791687,
        -0.2734522521495819,
        -0.07657699286937714,
        -0.0010719092097133398,
        -0.2786012589931488,
        0.15393100678920746,
        -0.17733082175254822,
        0.07648535072803497,
        0.38040080666542053,
        -0.3386600911617279,
        -0.425027459859848,
        0.7598876357078552,
        0.38276207447052,
        0.044226523488759995,
        -0.3256635367870331,
        -0.17218457162380219,
        -0.25657039880752563,
        0.057047899812459946,
        0.3780890107154846,
        0.23172003030776978,
        0.2646634876728058,
        -0.14427794516086578,
        -0.1185271218419075,
        0.7609891891479492,
        -0.1547955572605133,
        -0.6040905714035034,
        -0.6226248145103455,
        0.09428220242261887,
        -0.17830318212509155,
        -0.23107606172561646,
        -0.004096854943782091,
        -0.25483837723731995,
        0.03419557958841324,
        0.37900328636169434,
        -0.3818937838077545,
        -0.27311256527900696,
        -0.7238073348999023,
        -0.25841817259788513,
        0.7193037867546082,
        -0.21500147879123688,
        0.30450963973999023,
        -0.21049807965755463,
        0.10857730358839035,
        0.6389763355255127,
        0.1062794029712677,
        -0.4013311266899109,
        -0.16955354809761047,
        -0.2345365285873413,
        0.8106138706207275,
        0.213920459151268,
        -0.2726297080516815,
        0.24763503670692444,
        -0.46861910820007324,
        -0.7138388156890869,
        0.202560156583786,
        0.4107821583747864,
        -0.17476914823055267,
        1.1273485142737627e-05,
        0.009615435265004635,
        0.11690903455018997,
        -0.284306138753891,
        0.0370221808552742,
        0.31477686762809753,
        1.0005587339401245,
        -0.20384810864925385,
        -0.02857799082994461,
        0.3936428427696228,
        0.08458181470632553,
        -0.00030583346961066127,
        -0.3144664168357849,
        0.3408166468143463,
        0.40170761942863464,
        0.4059189558029175,
        0.17988505959510803,
        0.1167626902461052,
        0.40214410424232483,
        -0.17279008030891418,
        0.948429524898529,
        0.5881208777427673,
        -0.9694105386734009,
        0.08775772154331207,
        0.37266507744789124,
        -0.019003072753548622,
        -1.3190826177597046,
        -0.004973566625267267,
        -0.0975152924656868,
        -0.14076712727546692,
        -0.0010199365206062794,
        -0.23339912295341492,
        -0.23475469648838043,
        0.3596331477165222,
        -0.16797366738319397,
        -0.7788674831390381,
        0.704963207244873,
        0.3624287545681,
        0.49409157037734985,
        0.8321089148521423,
        0.552121102809906,
        0.28864821791648865,
        -0.3183148503303528,
        -0.3729197382926941,
        -0.18195098638534546,
        0.5313292145729065,
        0.7876079678535461,
        -0.6502699851989746,
        -0.8293441534042358,
        0.10231897234916687,
        -1.0733768939971924,
        0.051994793117046356,
        0.17244853079319,
        -0.4290210008621216,
        -0.017408030107617378,
        -0.06938237696886063,
        0.13218896090984344,
        -0.3360697627067566,
        -0.12241335958242416,
        0.17477332055568695,
        -0.8776036500930786,
        -0.23427435755729675,
        -0.5909964442253113,
        -0.8724421858787537,
        -0.3447607159614563,
        0.06015937030315399,
        0.42661982774734497,
        -0.17115357518196106,
        -0.9407983422279358,
        -0.9968243837356567,
        -0.33986639976501465,
        0.05532718822360039,
        0.10108140856027603,
        -0.08497003465890884,
        0.13111965358257294,
        -0.0828266590833664,
        -0.6701565384864807,
        -0.14528706669807434,
        -0.6683562397956848,
        0.00795967597514391,
        0.04048041254281998,
        -0.03339973837137222,
        -0.09065698832273483,
        0.03501426428556442,
        -0.0904611200094223,
        0.13115383684635162,
        -0.6672894358634949,
        -0.6760348677635193,
        -0.06742089986801147,
        -0.05132922902703285,
        -0.2860124111175537,
        -0.4479517936706543,
        0.4176880121231079,
        0.224590003490448,
        -1.5940611362457275,
        -0.5897488594055176,
        -0.2839162051677704,
        0.32840684056282043,
        -1.0073671340942383,
        -1.7048972845077515,
        -0.21815775334835052,
        0.45140311121940613,
        -0.14245709776878357,
        -1.128923773765564,
        -0.9260260462760925,
        -0.5636075139045715,
        0.1374138593673706,
        0.60821932554245,
        -0.011351813562214375,
        -0.0005548415356315672,
        0.1262490302324295,
        0.03868940472602844,
        -0.053518977016210556,
        0.2131079137325287,
        -0.4930989742279053,
        -0.23954622447490692,
        0.45432254672050476,
        -0.16425465047359467,
        -0.2660445272922516,
        -0.03260310739278793,
        -0.09768753498792648,
        0.16018721461296082,
        -0.2130485475063324,
        -0.02096705138683319,
        -0.23374348878860474,
        0.09746900200843811,
        0.29868224263191223,
        -0.12030552327632904,
        0.923081636428833,
        0.5967923402786255,
        0.6608030200004578,
        -0.12468872964382172,
        0.3486470580101013,
        0.06486082077026367,
        0.3090205788612366,
        0.03305434435606003,
        -0.04568251222372055,
        0.06733566522598267,
        0.362097829580307,
        0.12457098066806793,
        0.042931534349918365,
        -0.3065839111804962,
        0.019176166504621506,
        0.12487773597240448,
        -0.48255616426467896,
        -0.15548451244831085,
        0.08748827874660492,
        0.3832336962223053,
        -0.15784196555614471,
        0.01773744635283947,
        0.19067133963108063,
        0.22843699157238007,
        0.21139779686927795,
        -0.2752842903137207,
        -0.1506025344133377,
        0.186738520860672,
        -0.149376779794693,
        0.13515014946460724,
        -0.05438455566763878,
        0.07351024448871613,
        0.16948263347148895,
        -0.24925968050956726,
        -0.056719060987234116,
        -0.01760679855942726,
        -0.09200398623943329,
        0.27902376651763916,
        -0.034531764686107635,
        0.15913589298725128,
        -0.20353518426418304,
        0.278651624917984,
        0.2472216784954071,
        -0.3020004630088806,
        0.0012812735512852669,
        -0.09347587078809738,
        -0.22999434173107147,
        0.5114805698394775,
        0.04517197608947754,
        0.06840073317289352,
        0.14659185707569122,
        0.12741416692733765,
        0.37760287523269653,
        -0.24796073138713837,
        0.4057615101337433,
        -0.4090425670146942,
        0.9606440663337708,
        -1.18401300907135,
        -0.016518492251634598,
        0.18915683031082153,
        0.6335819959640503,
        0.011429205536842346,
        0.09126625210046768,
        -0.11207044869661331,
        0.2395777404308319,
        -0.44348153471946716,
        -0.3019297420978546,
        -0.24311794340610504,
        -0.2239491492509842,
        0.21808478236198425,
        0.41595718264579773,
        0.12493331730365753,
        -0.06740359961986542,
        -0.27111077308654785,
        0.3282727599143982,
        -0.2538738548755646,
        -0.29428383708000183,
        -0.6003234386444092,
        -0.07242188602685928,
        0.5050740242004395,
        -0.07028961181640625,
        -0.5388967394828796,
        -0.3344229757785797,
        -0.05972684174776077,
        0.22684238851070404,
        -0.06345901638269424,
        0.10425018519163132,
        0.6674399971961975,
        0.02979854680597782,
        -0.016730336472392082,
        -0.038897447288036346,
        0.2533155083656311,
        0.2516074776649475,
        -0.2870142459869385,
        -0.2666695713996887,
        0.021066639572381973,
        0.07801894098520279,
        0.5428796410560608,
        -0.20782756805419922,
        -0.2513958513736725,
        -0.008869639597833157,
        0.3208162784576416,
        0.17928962409496307,
        0.038526181131601334,
        0.32828643918037415,
        -0.10114458948373795,
        0.4831978678703308,
        -0.2459665685892105,
        0.45003747940063477,
        -0.4118472635746002,
        0.4304998517036438,
        0.4448850154876709,
        -0.3702288269996643,
        0.2606714367866516,
        -0.3004505932331085,
        0.00711944792419672,
        0.10649643838405609,
        0.01595601812005043,
        0.3856724500656128,
        -0.005818079225718975,
        -0.15879717469215393,
        0.4601529836654663,
        -0.3345051407814026,
        -0.2659333050251007,
        0.2108401209115982,
        0.06596295535564423,
        -0.5716681480407715,
        -0.5212316513061523,
        0.5846424102783203,
        -0.39300933480262756,
        -0.05719170346856117,
        -0.1564519703388214,
        0.04417038336396217,
        0.6120582818984985,
        -0.6287898421287537,
        -0.1303148865699768,
        0.2948736846446991,
        0.7571818232536316,
        0.4349457919597626,
        -0.6165183782577515,
        0.07707002758979797,
        0.20248210430145264,
        -0.00623361999168992,
        -0.005914110690355301,
        -0.03793833404779434,
        0.09329725801944733,
        -0.038394827395677567,
        0.47093427181243896,
        0.3161366581916809,
        -0.5335348844528198,
        -0.012226120568811893,
        0.5084952116012573,
        -0.9191958904266357,
        0.475667268037796,
        0.5128490924835205,
        0.11796001344919205,
        0.20420955121517181,
        0.21106623113155365,
        0.020386315882205963,
        0.37339475750923157,
        0.13202230632305145,
        -0.2423742711544037,
        0.6095568537712097,
        0.13026727735996246,
        1.1928969621658325,
        -0.46949172019958496,
        0.9278604388237,
        -0.07556755095720291,
        0.28501349687576294,
        0.03538016229867935,
        0.047915343195199966,
        -0.014772235415875912,
        -0.2701808214187622,
        0.6094655990600586,
        -0.07710091024637222,
        0.23547664284706116,
        0.5804616212844849,
        -0.31320878863334656,
        -0.09366060793399811,
        -0.06016088277101517,
        0.43018782138824463,
        -0.2367912232875824,
        -0.45190000534057617,
        0.35781437158584595,
        0.44705426692962646,
        0.6569010019302368,
        0.036090187728405,
        -0.7429189085960388,
        0.22722692787647247,
        0.32152751088142395,
        0.5324677228927612,
        -0.5730121731758118,
        0.43586575984954834,
        -0.032683197408914566,
        0.003618963062763214,
        -0.03937871381640434,
        0.039513878524303436,
        -0.013047698885202408,
        -0.11917652189731598,
        -0.6984032988548279,
        -0.21158768236637115,
        -0.49870964884757996,
        -0.2503930926322937,
        0.07532651722431183,
        1.3191980123519897,
        -0.009495378471910954,
        0.05458365008234978,
        -0.3492198586463928,
        0.16820339858531952,
        -0.3089349567890167,
        0.30761775374412537,
        -0.12346577644348145,
        -0.3157740831375122,
        -0.5249336957931519,
        -0.325739324092865,
        -0.004747523460537195,
        -0.08067011088132858,
        0.10714305937290192,
        -0.4591653048992157,
        0.1339728832244873,
        -0.5209293961524963,
        0.10547764599323273,
        -0.19525308907032013,
        0.0006269855657592416,
        0.027472149580717087,
        0.05555303022265434,
        -0.7282924652099609,
        0.4138760268688202,
        -0.1359320729970932,
        -0.3989926874637604,
        -0.3443979024887085,
        -0.01720920205116272,
        0.012660148553550243,
        0.10586895793676376,
        -0.06078101694583893,
        -0.4105703830718994,
        -1.456299066543579,
        -0.21930521726608276,
        -0.012934611178934574,
        0.4870544970035553,
        0.1548515409231186,
        -1.5910859107971191,
        -0.257933109998703,
        -0.046473197638988495,
        -0.17419791221618652,
        -0.8298149704933167,
        0.5968395471572876,
        0.5948547124862671,
        0.07954426854848862,
        -0.19332028925418854,
        0.006332800257951021,
        -0.1462325155735016,
        -0.023860890418291092,
        0.4594733417034149,
        -0.37114620208740234,
        0.0009655581088736653,
        -0.29948437213897705,
        -0.38412120938301086,
        -0.15935853123664856,
        0.20752447843551636,
        -0.10985682159662247,
        -0.21802112460136414,
        -0.04631056264042854,
        0.10408072918653488,
        -0.45127466320991516,
        -0.2882649600505829,
        -0.2341054230928421,
        0.07085859030485153,
        0.22738170623779297,
        -0.5244540572166443,
        -0.12120910733938217,
        -0.49719926714897156,
        0.2531188130378723,
        0.012590033002197742,
        0.20498059689998627,
        -0.24102433025836945,
        0.3430297374725342,
        0.038423147052526474,
        -0.061325788497924805,
        -0.1810271441936493,
        0.23952874541282654,
        -0.07818859070539474,
        0.12940388917922974,
        0.022687627002596855,
        0.04893943667411804,
        -0.649102509021759,
        -0.9559388756752014,
        -0.356752872467041,
        0.17894864082336426,
        0.31308087706565857,
        -0.5524289011955261,
        -0.536275327205658,
        -0.3420165479183197,
        -0.2029072344303131,
        0.09757322072982788,
        -0.2991754412651062,
        -0.07040738314390182,
        0.9846950173377991,
        -0.37446704506874084,
        -0.6544658541679382,
        0.02775060199201107,
        0.32131409645080566,
        0.14994272589683533,
        -0.40732213854789734,
        0.006829474586993456,
        -0.0986727625131607,
        -0.051190368831157684,
        -0.3948417603969574,
        -0.4407898783683777,
        -0.009602812118828297,
        0.4420079290866852,
        0.369556725025177,
        0.8115602135658264,
        0.447255939245224,
        0.5389200448989868,
        -0.1300119310617447,
        -0.5887044668197632,
        0.970735490322113,
        0.5941397547721863,
        -0.030453262850642204,
        -0.7468346357345581,
        -0.28998681902885437,
        0.9410978555679321,
        0.22637081146240234,
        0.22059641778469086,
        0.2740733027458191,
        -1.0874335765838623,
        -1.1996761560440063,
        -0.1277044713497162,
        -0.07599769532680511,
        -0.43039625883102417,
        -0.006702370010316372,
        -0.19783693552017212,
        -0.09646741300821304,
        0.06854655593633652,
        0.146095871925354,
        -0.25044023990631104,
        0.029683219268918037,
        -0.4147113263607025,
        -0.42003270983695984,
        -0.4637739658355713,
        0.2893325388431549,
        -0.12121672183275223,
        -0.1533791720867157,
        0.34408900141716003,
        -0.3676140606403351,
        -0.42638251185417175,
        -0.12291551381349564,
        -0.3982528746128082,
        0.49366456270217896,
        0.26141247153282166,
        0.4576459228992462,
        0.23368887603282928,
        -0.30953943729400635,
        -0.4129685163497925,
        -0.06379275768995285,
        -0.11035483330488205,
        -0.023699868470430374,
        0.011239461600780487,
        -0.08213678002357483,
        -0.0349520668387413,
        -0.3720729351043701,
        0.01950664259493351,
        0.8557809591293335,
        1.389783263206482,
        -0.35288897156715393,
        0.3040316104888916,
        -0.005245652981102467,
        -0.22404175996780396,
        -0.4225892722606659,
        -0.30717915296554565,
        0.5747940540313721,
        0.07104892283678055,
        0.4579514265060425,
        -0.010857615619897842,
        0.5934391021728516,
        0.6717641353607178,
        -0.4237416684627533,
        0.0033809549640864134,
        0.03474954888224602,
        0.14269094169139862,
        -0.2829124331474304,
        -0.6990504860877991,
        -0.16891631484031677,
        0.32052502036094666,
        0.010842339135706425,
        -0.0452103428542614,
        -0.025379274040460587,
        -0.2523875832557678,
        -0.7042743563652039,
        -0.38446444272994995,
        -0.20761394500732422,
        0.8802194595336914,
        0.3419787287712097,
        0.009799949824810028,
        0.1671939641237259,
        0.07768707722425461,
        0.4877135753631592,
        -0.34084945917129517,
        0.3813001811504364,
        -0.07230567932128906,
        -0.8009775280952454,
        -0.27563390135765076,
        -0.4075891971588135,
        0.4930138885974884,
        -0.31544890999794006,
        0.11306154727935791,
        0.6098834276199341,
        -0.9840512871742249,
        0.12967407703399658,
        0.26296791434288025,
        0.28404417634010315,
        -0.019108571112155914,
        -0.03710992634296417,
        -0.051426999270915985,
        -0.48528560996055603,
        -0.5853720903396606,
        -0.14536172151565552,
        0.14828786253929138,
        -0.9817021489143372,
        -0.15415948629379272,
        -0.4492160677909851,
        -0.40451011061668396,
        -0.12485898286104202,
        0.08979351073503494,
        0.05265633016824722,
        -0.549298882484436,
        -0.8470836281776428,
        -0.3303423821926117,
        -0.2893555462360382,
        -0.2219649702310562,
        -0.1901014894247055,
        -1.3632079362869263,
        -0.2955569922924042,
        -1.6933311223983765,
        0.8147481083869934,
        0.682919442653656,
        0.00027784000849351287,
        -0.011572740040719509,
        -0.009500350803136826,
        -0.11560352891683578,
        -0.11352764815092087,
        -0.046519629657268524,
        0.3601000905036926,
        0.06121104955673218,
        -0.19678068161010742,
        0.251333624124527,
        -0.0505092591047287,
        -0.3513742983341217,
        -0.019483307376503944,
        -0.38811054825782776,
        0.2655770480632782,
        0.39361336827278137,
        -0.14367516338825226,
        -0.06847310066223145,
        0.3169752359390259,
        -0.17534346878528595,
        0.40225479006767273,
        -0.19485852122306824,
        -0.012178540229797363,
        -0.6831568479537964,
        -0.28332534432411194,
        0.7752173542976379,
        0.4139033854007721,
        -0.16499930620193481,
        0.6798802018165588,
        0.01445083599537611,
        0.010236149653792381,
        0.0317729189991951,
        -0.22613494098186493,
        0.0833248570561409,
        -0.5147669315338135,
        -0.6959535479545593,
        0.48157235980033875,
        -0.4158865213394165,
        -0.23627464473247528,
        -0.11058084666728973,
        -0.09454991668462753,
        0.7984699010848999,
        -0.1529286950826645,
        -0.4021039605140686,
        -0.2899300158023834,
        0.1424528956413269,
        -0.5197973251342773,
        0.02233223430812359,
        -0.01777571067214012,
        1.5227134227752686,
        -0.07140854746103287,
        0.4765903353691101,
        -0.09585412591695786,
        -0.7228485345840454,
        0.03220950439572334,
        0.36199721693992615,
        -0.0010045465314760804,
        -0.08248323202133179,
        -0.1043892428278923,
        1.1227874755859375,
        0.43479689955711365,
        -0.10010883212089539,
        0.16142094135284424,
        -0.30680179595947266,
        0.8019201159477234,
        1.1756165027618408,
        0.7350001931190491,
        0.09911765903234482,
        -0.2876545190811157,
        -0.17654608190059662,
        0.8804206252098083,
        0.8738047480583191,
        0.11214756965637207,
        -0.27188289165496826,
        -0.5250032544136047,
        0.26132187247276306,
        -0.5533013343811035,
        -0.6904529333114624,
        -1.4114712476730347,
        0.8213750123977661,
        1.391624093055725,
        -0.04962630197405815,
        -0.5679882764816284,
        -0.023079371079802513,
        -0.1111835390329361,
        0.11873707920312881,
        0.048716165125370026,
        0.25481608510017395,
        -0.1262843757867813,
        -0.7073589563369751,
        0.09393633157014847,
        0.22578556835651398,
        0.005635496694594622,
        -0.3955443501472473,
        0.4932047724723816,
        0.03887461870908737,
        0.26656103134155273,
        -0.1740901917219162,
        -0.08832709491252899,
        0.40135228633880615,
        0.0803224965929985,
        0.48015719652175903,
        -0.14770756661891937,
        0.6284334063529968,
        0.3228064775466919,
        -0.3266766667366028,
        -0.2584858536720276,
        -0.4605479836463928,
        0.0999150425195694,
        -0.7585780620574951,
        0.023060180246829987,
        -0.0021586238872259855,
        -0.049909479916095734,
        -0.3421785533428192,
        0.6719093322753906,
        -0.2913093566894531,
        0.039355989545583725,
        0.6663848757743835,
        -1.0337276458740234,
        -0.8776914477348328,
        0.7257782220840454,
        0.5431748032569885,
        -0.7532503008842468,
        0.9116556644439697,
        -0.5309889912605286,
        -0.22176185250282288,
        0.6555747985839844,
        -0.24579809606075287,
        0.9622736573219299,
        0.3387552797794342,
        -0.49291637539863586,
        0.918664276599884,
        -0.6937515735626221,
        0.2124338448047638,
        -0.33874446153640747,
        0.2345050722360611,
        -0.400903582572937,
        0.009674493223428726,
        0.047079313546419144,
        0.040475450456142426,
        -0.1445203274488449,
        -0.36431270837783813,
        0.3701578974723816,
        1.4271725416183472,
        0.14846335351467133,
        0.8338210582733154,
        -0.2210707664489746,
        0.7361745238304138,
        -0.07410305738449097,
        -0.2670190930366516,
        -0.09716677665710449,
        0.8062689900398254,
        0.7972530126571655,
        -0.2887355387210846,
        0.43483102321624756,
        0.11296691000461578,
        0.4597165286540985,
        -1.3686623573303223,
        -0.9203762412071228,
        -1.898974895477295,
        0.3337438702583313,
        1.032997488975525,
        -0.03901337459683418,
        0.08888151496648788,
        -0.01189825776964426,
        0.1601240485906601,
        0.030854923650622368,
        -0.08451250195503235,
        -0.1555863916873932,
        0.5666900277137756,
        -0.09465230256319046,
        0.8111963272094727,
        -0.3681736886501312,
        0.5235503911972046,
        -0.22588054835796356,
        0.37585264444351196,
        0.5805872678756714,
        -0.2510688900947571,
        0.3408580422401428,
        0.30295291543006897,
        -0.35954511165618896,
        0.41859596967697144,
        -0.3138652443885803,
        0.23334607481956482,
        -0.4443923234939575,
        0.9296547770500183,
        1.263139009475708,
        -1.2927364110946655,
        -0.5997889637947083,
        -0.05332592874765396,
        0.532155454158783,
        0.019681517034769058,
        -0.14503031969070435,
        -0.10058698803186417,
        0.4856056571006775,
        -0.0452084057033062,
        0.46190157532691956,
        -0.7985023260116577,
        0.3062969446182251,
        1.131483554840088,
        0.6117208003997803,
        0.955907940864563,
        0.2635990381240845,
        -0.26894712448120117,
        -0.0972261056303978,
        1.0509206056594849,
        0.658772349357605,
        -0.2647392451763153,
        0.575329065322876,
        0.021605556830763817,
        0.7411232590675354,
        -1.992405652999878,
        0.687165379524231,
        0.5919120907783508,
        1.2176384925842285,
        0.9150587916374207,
        0.05671852454543114,
        0.1430443674325943,
        0.00356899737380445,
        0.12441376596689224,
        0.09154421091079712,
        0.18608979880809784,
        -0.6133378148078918,
        0.07822956144809723,
        -0.325263112783432,
        -0.23473453521728516,
        0.01673320308327675,
        -0.3855949342250824,
        0.24139998853206635,
        -0.11746996641159058,
        0.20144540071487427,
        0.7942883968353271,
        -0.272050142288208,
        -0.14707186818122864,
        -0.44916486740112305,
        0.17425256967544556,
        0.8674787878990173,
        0.044732268899679184,
        -0.9214368462562561,
        0.45137646794319153,
        0.038514912128448486,
        0.16184186935424805,
        0.30895718932151794,
        0.02119913510978222,
        0.16055454313755035,
        0.047187525779008865,
        0.1878058910369873,
        -0.1243613064289093,
        0.316203236579895,
        0.602180004119873,
        -0.01590203493833542,
        0.2403750866651535,
        -1.4892082214355469,
        -1.8882752656936646,
        0.3387627899646759,
        0.9262262582778931,
        -0.321272075176239,
        0.31318286061286926,
        -0.7166267037391663,
        -0.4055677652359009,
        -0.3097165524959564,
        0.7634237408638,
        0.04549926519393921,
        -0.6560930609703064,
        0.8021703958511353,
        -0.03245578706264496,
        -0.6462011933326721,
        -0.18240049481391907,
        -0.08269848674535751,
        0.49002987146377563,
        0.2910248637199402,
        0.3389648199081421,
        0.0018663344671949744,
        0.29523545503616333
      ],
      "bias": [
        0.31368961930274963,
        -0.11212431639432907,
        -0.029754638671875,
        -0.2776339650154114,
        -0.02568528987467289,
        -0.009492263197898865,
        -0.038358934223651886,
        0.11137000471353531,
        -0.03951245918869972,
        0.22364351153373718,
        0.07981852442026138,
        -0.03597526624798775,
        0.07799818366765976,
        0.03965339809656143,
        0.11499615758657455,
        -0.00809504371136427,
        -0.019807320088148117,
        0.03334927558898926,
        -0.11553536355495453,
        0.10506723076105118,
        0.25409677624702454,
        -0.1305149644613266,
        -0.10015460848808289,
        0.12458498030900955,
        -0.023093873634934425,
        0.02456037700176239,
        -0.12149324268102646,
        0.03687718138098717,
        -0.08094403892755508,
        0.34508270025253296,
        -0.020136099308729172,
        -0.04367489367723465,
        0.04025847837328911,
        -0.1715424805879593,
        0.11491531878709793,
        -0.050060342997312546,
        -0.06576193124055862,
        -0.025158395990729332,
        -0.1973966509103775,
        0.06818470358848572,
        -0.06879091262817383,
        -0.03143680468201637,
        0.14600123465061188,
        0.030693570151925087,
        0.17720206081867218,
        -0.0021929291542619467,
        0.00921223871409893,
        0.058514829725027084,
        0.13868504762649536,
        0.04694756492972374,
        0.14598532021045685,
        0.08906550705432892,
        -0.19823306798934937,
        -0.025591213256120682,
        -0.010873276740312576,
        0.04400855675339699,
        -0.08445291966199875,
        0.05506165698170662,
        0.04257305711507797,
        0.09728647023439407,
        0.055127423256635666,
        0.10632187128067017,
        0.2758183181285858,
        0.06518501788377762,
        -0.050207752734422684,
        0.17836394906044006,
        0.08413004130125046,
        0.027756648138165474,
        0.07209725677967072,
        0.0031590249855071306,
        -0.04789998382329941,
        -0.02994474209845066,
        0.058826033025979996,
        0.04485606029629707,
        0.014626176096498966,
        -0.08678843080997467,
        0.04089478775858879,
        -0.03181086480617523,
        0.036765940487384796,
        0.13389937579631805,
        0.03545340523123741,
        0.12633955478668213,
        0.13076096773147583,
        0.03263288736343384,
        -0.0073098549619317055,
        0.11042911559343338,
        0.051874835044145584,
        0.06020108610391617,
        0.0984218418598175,
        0.0009532190160825849,
        -0.01634291745722294,
        -0.1325317919254303,
        0.16599200665950775,
        -0.1111588254570961,
        -0.10591086745262146,
        -0.2762179970741272
      ],
      "activation": "tanh"
    },
    {
      "inputSize": 96,
      "outputSize": 48,
      "weights": [
        0.11188104748725891,
        -0.09283970296382904,
        -0.2522633373737335,
        -0.4623720347881317,
        0.1550205796957016,
        -0.08095450699329376,
        -0.1456625610589981,
        0.08931446820497513,
        0.37721019983291626,
        0.04472846910357475,
        -0.1422346830368042,
        -0.17584384977817535,
        0.06740251183509827,
        -0.19131505489349365,
        -0.3057224750518799,
        0.08828406780958176,
        0.05819009616971016,
        -0.06849200278520584,
        0.3534166216850281,
        -0.1059950590133667,
        0.14429768919944763,
        -0.1709338277578354,
        -0.11648578196763992,
        0.12416822463274002,
        -0.003452968318015337,
        -0.2773708999156952,
        -0.1942196935415268,
        -0.3734061121940613,
        0.07264036685228348,
        0.31089168787002563,
        0.258573055267334,
        0.20632478594779968,
        0.4361715614795685,
        -0.1569918990135193,
        -0.014398863539099693,
        -0.012062128633260727,
        -0.017972467467188835,
        0.03515855595469475,
        -0.21142160892486572,
        -0.005604094360023737,
        -0.11012451350688934,
        0.023743050172924995,
        -0.02162383683025837,
        -0.11443418264389038,
        -0.1745724380016327,
        -0.11677958816289902,
        0.1879216581583023,
        -0.06901587545871735,
        -0.12318294495344162,
        0.2177874743938446,
        -0.29251089692115784,
        -0.1856764554977417,
        0.24679774045944214,
        0.23226459324359894,
        -0.23585082590579987,
        0.13265593349933624,
        0.1111561730504036,
        -0.41142067313194275,
        0.4631235897541046,
        0.18955962359905243,
        0.18617449700832367,
        0.00014271499821916223,
        -0.28420791029930115,
        0.2610105276107788,
        0.0574481301009655,
        -0.38051560521125793,
        -0.0087865199893713,
        0.04256705567240715,
        -0.03940693289041519,
        0.312857449054718,
        0.12591537833213806,
        -0.09881219267845154,
        -0.15072427690029144,
        0.10009092092514038,
        -0.2210637331008911,
        0.3450387418270111,
        0.10360824316740036,
        0.06819484382867813,
        0.03274848684668541,
        0.022175060585141182,
        0.15602166950702667,
        -0.12661026418209076,
        0.22341005504131317,
        -0.30284929275512695,
        -0.05609988793730736,
        0.1401616334915161,
        -0.0048350682482123375,
        -0.05933908000588417,
        0.22833554446697235,
        0.13981321454048157,
        -0.024876762181520462,
        -0.32411181926727295,
        -0.17864204943180084,
        0.14881569147109985,
        0.03225613385438919,
        0.13796907663345337,
        0.06737703084945679,
        -0.02240440435707569,
        0.11628922075033188,
        0.13493500649929047,
        -0.18559028208255768,
        -0.06584952026605606,
        -0.1384403556585312,
        0.23751913011074066,
        0.26754340529441833,
        -0.43728455901145935,
        0.14085941016674042,
        0.04400715231895447,
        0.22490832209587097,
        0.045701369643211365,
        -0.15501780807971954,
        -0.11988657712936401,
        -0.12358777970075607,
        0.18130533397197723,
        -0.2559191584587097,
        -0.06877424567937851,
        -0.06490656733512878,
        -0.1177835762500763,
        0.4426034092903137,
        0.1705721616744995,
        -0.0032034981995821,
        -0.07245314121246338,
        0.13257300853729248,
        0.05103089287877083,
        -0.09060367196798325,
        0.05991309508681297,
        -0.32648995518684387,
        -0.25980865955352783,
        -0.0842697024345398,
        0.020790118724107742,
        0.08287700265645981,
        0.2158123254776001,
        0.12949968874454498,
        -0.08367009460926056,
        0.020649557933211327,
        -0.15022319555282593,
        -0.0859815776348114,
        -0.18304702639579773,
        -0.23423926532268524,
        -0.28164350986480713,
        0.3793327808380127,
        0.13309165835380554,
        -0.2565136253833771,
        -0.03918646275997162,
        -0.09305154532194138,
        0.21872638165950775,
        -0.21286918222904205,
        -0.05173364281654358,
        -0.12429970502853394,
        -0.252787709236145,
        -0.017724309116601944,
        0.3584284484386444,
        0.04510750249028206,
        0.14319951832294464,
        -0.25065577030181885,
        -0.01772736944258213,
        0.4332939386367798,
        0.3106726408004761,
        -0.06830710917711258,
        0.13656891882419586,
        0.037220388650894165,
        0.3331524729728699,
        0.005638853646814823,
        -0.0604889877140522,
        0.09485555440187454,
        0.05292944982647896,
        -0.0690121129155159,
        -0.23964814841747284,
        -0.13530048727989197,
        0.09334909170866013,
        -0.1971823126077652,
        0.12052056193351746,
        -0.09092477709054947,
        0.2576833963394165,
        0.06545298546552658,
        -0.2684285044670105,
        -0.2007894515991211,
        0.1852904111146927,
        -0.41656970977783203,
        0.07928955554962158,
        0.3777582347393036,
        -0.08782687783241272,
        -0.015123050659894943,
        0.3683764338493347,
        -0.30825018882751465,
        0.10683832317590714,
        -0.2137603908777237,
        -0.11354487389326096,
        0.1009037047624588,
        0.08892607688903809,
        -0.2720564901828766,
        -0.17120660841464996,
        0.13486014306545258,
        -0.2675752639770508,
        -0.13789071142673492,
        0.24840573966503143,
        0.3799872100353241,
        -0.0008157446281984448,
        0.06845051795244217,
        -0.14471228420734406,
        -0.24475455284118652,
        -0.20221775770187378,
        -0.11151310801506042,
        0.32707998156547546,
        -0.13964609801769257,
        0.23255698382854462,
        -0.41250211000442505,
        -0.2731870114803314,
        -0.1212715208530426,
        0.11828520894050598,
        -0.16563114523887634,
        0.2623243033885956,
        -0.023340681567788124,
        0.235430046916008,
        0.2545914947986603,
        -0.08022662997245789,
        -0.054641250520944595,
        0.17808328568935394,
        -0.16726890206336975,
        0.318431556224823,
        -0.14164529740810394,
        -0.0613965205848217,
        -0.2939671576023102,
        -0.1536676585674286,
        0.18169304728507996,
        0.0958254337310791,
        0.026329414919018745,
        -0.2963210642337799,
        -0.12290580570697784,
        0.00955449789762497,
        -0.0710265040397644,
        -0.29908740520477295,
        0.06762624531984329,
        -0.08796737343072891,
        0.18821555376052856,
        0.04137890785932541,
        -0.35722219944000244,
        -0.03108702041208744,
        -0.17218290269374847,
        -0.1098773404955864,
        0.3680488169193268,
        0.04922851175069809,
        -0.17305147647857666,
        -0.006067614536732435,
        -0.27364635467529297,
        0.3402286469936371,
        0.39546191692352295,
        0.13262999057769775,
        -0.316704660654068,
        -0.13980531692504883,
        0.26036322116851807,
        0.23587745428085327,
        0.3183842897415161,
        0.06394214928150177,
        -0.1641657054424286,
        0.10387421399354935,
        0.0015694861067458987,
        -0.04640764370560646,
        0.06876770406961441,
        0.1758902221918106,
        0.04437338188290596,
        -0.16373048722743988,
        -0.09625685960054398,
        0.05126407742500305,
        0.18394923210144043,
        -0.06232616677880287,
        -0.21434035897254944,
        0.3415115773677826,
        -0.1585409790277481,
        -0.1886349767446518,
        -0.06087057292461395,
        0.0975818932056427,
        -0.2583700716495514,
        -0.06085393577814102,
        -0.1771693378686905,
        -0.48936980962753296,
        0.17200247943401337,
        -0.35029876232147217,
        -0.2729541063308716,
        0.6660580039024353,
        -0.12666930258274078,
        0.20450465381145477,
        -0.32450994849205017,
        -0.1924424171447754,
        0.22995184361934662,
        0.5483655333518982,
        -0.06095315143465996,
        -0.1738249659538269,
        0.10074418783187866,
        0.054522521793842316,
        0.234357088804245,
        -0.07354727387428284,
        0.12463817000389099,
        0.35677194595336914,
        -0.08615560084581375,
        0.1969747692346573,
        0.19750700891017914,
        0.13273850083351135,
        -0.028134699910879135,
        -0.03382105007767677,
        -0.3466842770576477,
        -0.0508427731692791,
        -0.029443688690662384,
        0.22329579293727875,
        0.01051389705389738,
        -0.30731040239334106,
        -0.0017043448751792312,
        -0.06353267282247543,
        -0.3827913999557495,
        0.08316342532634735,
        -0.055520884692668915,
        0.13149747252464294,
        -0.06312805414199829,
        -0.34299784898757935,
        0.03074457123875618,
        -0.2481825053691864,
        0.026926208287477493,
        0.21173474192619324,
        -0.09577923268079758,
        0.2885906994342804,
        -0.007231963332742453,
        -0.12916439771652222,
        -0.08604774624109268,
        0.0006860303110443056,
        -0.021057788282632828,
        0.03706717863678932,
        -0.11233516037464142,
        -0.10989126563072205,
        0.21205651760101318,
        -0.0046396455727517605,
        0.04662206768989563,
        -0.28220340609550476,
        -0.014483711682260036,
        -0.051753267645835876,
        -0.00956801325082779,
        -0.16488994657993317,
        0.06825383752584457,
        -0.009694721549749374,
        0.038990482687950134,
        -0.2590322494506836,
        0.27733278274536133,
        0.16460920870304108,
        -0.13680538535118103,
        -0.03096340037882328,
        0.1737629473209381,
        -0.07907994836568832,
        0.3138352632522583,
        -0.19610266387462616,
        -0.0804489254951477,
        -0.18227921426296234,
        -0.0905311182141304,
        0.24095986783504486,
        -0.2549263536930084,
        0.03790620341897011,
        -0.5897991061210632,
        -0.06757493317127228,
        0.12582148611545563,
        0.29653412103652954,
        -0.006936014164239168,
        0.07431401312351227,
        -0.15681782364845276,
        0.21585190296173096,
        0.15131032466888428,
        0.028951916843652725,
        0.27795472741127014,
        0.3916519284248352,
        -0.11054717004299164,
        -0.10636205226182938,
        -0.02453397959470749,
        -0.004647048655897379,
        0.13408732414245605,
        0.2069452852010727,
        -0.14386844635009766,
        -0.20977595448493958,
        -0.30163416266441345,
        -0.3618679344654083,
        -0.1505814492702484,
        0.21970044076442719,
        -0.10936850309371948,
        0.02404944971203804,
        -0.1314014047384262,
        -0.010703505016863346,
        -0.23886436223983765,
        -0.13884761929512024,
        0.012343381531536579,
        -0.061928581446409225,
        0.08562520146369934,
        -0.06331617385149002,
        0.08696569502353668,
        -0.034791283309459686,
        0.0895937830209732,
        0.01552064623683691,
        -0.06158001348376274,
        -0.11354557424783707,
        -0.004505858290940523,
        0.028162933886051178,
        0.008983012288808823,
        0.05471831187605858,
        -0.00609448179602623,
        -0.08071465790271759,
        -0.11687275767326355,
        0.0741245448589325,
        -0.01331214141100645,
        0.12490131705999374,
        0.09115872532129288,
        -0.005862712860107422,
        -0.00806489959359169,
        0.0040655117481946945,
        0.007868366315960884,
        0.07633654028177261,
        -0.08690125495195389,
        0.015010622330009937,
        0.056886833161115646,
        -0.059454649686813354,
        -0.0270005464553833,
        0.03233470395207405,
        0.001907516736537218,
        0.11232179403305054,
        0.0519266352057457,
        -0.006925605703145266,
        0.05741461366415024,
        0.0009133623098023236,
        -0.034795355051755905,
        -0.0310968067497015,
        -0.000663496321067214,
        -0.08488751202821732,
        0.008127061650156975,
        0.0026828658301383257,
        0.06617661565542221,
        0.0926889032125473,
        -0.09559745341539383,
        0.06932556629180908,
        -0.11701463162899017,
        -0.054511379450559616,
        -0.0013199115637689829,
        0.019110260531306267,
        0.09165362268686295,
        -0.1062745451927185,
        0.04459690675139427,
        0.04113880172371864,
        0.11557187139987946,
        0.0011669474188238382,
        -0.10749969631433487,
        0.04659003019332886,
        0.09683513641357422,
        -0.012820150703191757,
        -0.11229626089334488,
        0.021440528333187103,
        0.103907011449337,
        0.0766926258802414,
        0.01939598098397255,
        -0.0088682034984231,
        0.02098684571683407,
        -0.03633970022201538,
        -0.004302282817661762,
        -0.006493330001831055,
        -0.0356232225894928,
        0.0009070168598555028,
        -0.05997046083211899,
        -0.026754213497042656,
        0.08788812905550003,
        -0.09023983031511307,
        0.025218520313501358,
        -0.021526604890823364,
        -0.01890866830945015,
        -0.0013674894580617547,
        -0.03938831016421318,
        -0.02151835337281227,
        0.02925533428788185,
        -0.006999026983976364,
        0.17872034013271332,
        -0.0980958417057991,
        -0.0656648576259613,
        -0.10229034721851349,
        -0.026984378695487976,
        -0.053640834987163544,
        0.0012334551429376006,
        0.006566633936017752,
        0.05006978660821915,
        -0.06771961599588394,
        -0.014140448532998562,
        -0.12774772942066193,
        0.2510153651237488,
        -0.060294076800346375,
        -0.3105137050151825,
        0.10812872648239136,
        0.02487223409116268,
        -0.16107426583766937,
        0.04918685182929039,
        0.338045209646225,
        -0.18677940964698792,
        -0.10586808621883392,
        -0.4122387170791626,
        -0.08812051266431808,
        -0.19587989151477814,
        0.14834463596343994,
        -0.15776701271533966,
        -0.1577794998884201,
        -0.09595663100481033,
        -0.11487337201833725,
        -0.09853741526603699,
        -0.17706792056560516,
        0.06723222881555557,
        -0.1472901850938797,
        0.24389268457889557,
        -0.22773103415966034,
        0.22282029688358307,
        -0.2819100022315979,
        -0.1834774613380432,
        -0.22003959119319916,
        -0.15541930496692657,
        0.4373595118522644,
        -0.006063817534595728,
        -0.15894724428653717,
        -0.22292810678482056,
        -0.19456879794597626,
        0.24808979034423828,
        0.3623002767562866,
        0.061226844787597656,
        -0.10245034843683243,
        0.33643919229507446,
        -0.3053957521915436,
        0.05722673609852791,
        0.06280343234539032,
        -0.13596493005752563,
        -0.2120840847492218,
        0.08305714279413223,
        0.15955191850662231,
        0.35265403985977173,
        -0.2913051247596741,
        0.17847684025764465,
        -0.4221007823944092,
        -0.4070958197116852,
        0.06367404013872147,
        -0.11518894881010056,
        -0.05139518156647682,
        -0.11189954727888107,
        -0.19272680580615997,
        0.25842007994651794,
        -0.17152807116508484,
        0.01885211281478405,
        -0.05889596790075302,
        -0.286014199256897,
        0.18364956974983215,
        -0.02167145535349846,
        0.15504688024520874,
        -0.14874792098999023,
        0.05432961508631706,
        0.0216093510389328,
        -0.054942552000284195,
        -0.06884721666574478,
        0.041271816939115524,
        -0.1617422252893448,
        0.2505456805229187,
        0.1707678884267807,
        -0.24780866503715515,
        -0.1591748595237732,
        0.025334428995847702,
        -0.2956283390522003,
        -0.10310138016939163,
        -0.16095852851867676,
        0.29507362842559814,
        0.25603002309799194,
        0.21864119172096252,
        -0.16264264285564423,
        -0.25282609462738037,
        -0.3105846345424652,
        -0.04546162113547325,
        -0.04013335704803467,
        0.07875251770019531,
        0.05971987172961235,
        -0.23904238641262054,
        0.2725881040096283,
        0.04115123674273491,
        0.13220898807048798,
        0.10714763402938843,
        0.16122432053089142,
        0.07743728160858154,
        0.11311668902635574,
        0.1723659187555313,
        -0.019789783284068108,
        -0.2473166137933731,
        -0.020446622744202614,
        0.43350085616111755,
        0.000390309578506276,
        0.24977661669254303,
        -0.4260641038417816,
        -0.13841333985328674,
        0.46647462248802185,
        -0.1845938116312027,
        -0.07494795322418213,
        0.42134660482406616,
        -0.04970480874180794,
        -0.2080068141222,
        0.1487792283296585,
        0.04884897917509079,
        -0.05031275749206543,
        -0.038615882396698,
        0.188584566116333,
        0.115169957280159,
        0.017941933125257492,
        -0.3184247612953186,
        0.46967825293540955,
        0.16221725940704346,
        -0.1103171780705452,
        -0.14917433261871338,
        -0.11784866452217102,
        0.48697081208229065,
        0.4755477011203766,
        -0.09908097237348557,
        0.028999606147408485,
        0.34860143065452576,
        0.03810853883624077,
        0.09258560091257095,
        0.06298089772462845,
        0.19016456604003906,
        -0.05523562431335449,
        -0.16915017366409302,
        -0.14952440559864044,
        -0.29034823179244995,
        0.13145112991333008,
        -0.4784478545188904,
        0.19288425147533417,
        0.0013450935948640108,
        0.14997105300426483,
        -0.026432888582348824,
        -0.24877701699733734,
        -0.00376948737539351,
        -0.09990274906158447,
        0.06577669829130173,
        0.3621303141117096,
        0.22078846395015717,
        0.026426641270518303,
        -0.24784405529499054,
        0.13357000052928925,
        -0.09681220352649689,
        -0.11063285171985626,
        0.4480908215045929,
        -0.19401773810386658,
        0.1788375973701477,
        -0.06822574138641357,
        0.06053466349840164,
        0.1670352965593338,
        0.16585789620876312,
        0.19386625289916992,
        -0.18376198410987854,
        -0.16945961117744446,
        -0.20381221175193787,
        -0.07159733772277832,
        -0.058141082525253296,
        -0.5015749335289001,
        -0.13161329925060272,
        0.15313556790351868,
        0.27107471227645874,
        0.4635757505893707,
        -0.4080543518066406,
        -0.08795856684446335,
        0.3729737401008606,
        0.23179291188716888,
        -0.2246718406677246,
        0.11394201219081879,
        0.21369023621082306,
        0.0070180450566112995,
        0.13765592873096466,
        -0.1272968351840973,
        0.4363888204097748,
        0.05284159258008003,
        0.32316750288009644,
        0.04130474105477333,
        0.3260704278945923,
        -0.40291836857795715,
        0.1505775898694992,
        0.015499547123908997,
        -0.17569251358509064,
        -0.18049447238445282,
        -0.4142076373100281,
        -0.021624820306897163,
        -0.05502557009458542,
        0.1539798080921173,
        -0.1410265415906906,
        0.010968734510242939,
        0.017387093976140022,
        -0.31494367122650146,
        0.09334008395671844,
        -0.21035370230674744,
        0.11412424594163895,
        -0.29744213819503784,
        -0.885380744934082,
        0.04488864541053772,
        -0.029020752757787704,
        0.179395854473114,
        -0.04851583391427994,
        0.30478277802467346,
        -0.28897586464881897,
        0.37931764125823975,
        0.09257235378026962,
        0.024223696440458298,
        0.17462772130966187,
        -0.16376075148582458,
        -0.3796148896217346,
        -0.11332723498344421,
        -0.42486563324928284,
        -0.04464772716164589,
        -0.39405912160873413,
        0.019831497222185135,
        0.029579486697912216,
