{
  "version": 2,
  "kind": "mlp",
  "featureNames": [
    "rank_balance_0",
    "rank_balance_1",
    "rank_balance_2",
    "rank_balance_3",
    "rank_balance_4",
    "rank_balance_5",
    "rank_balance_6",
    "rank_balance_7",
    "rank_balance_8",
    "rank_balance_9",
    "rank_balance_10",
    "rank_balance_11",
    "material_value_diff",
    "movable_piece_diff",
    "scout_diff",
    "miner_diff",
    "bomb_diff",
    "high_rank_diff",
    "revealed_ratio_diff",
    "hidden_high_rank_diff",
    "advancement_diff",
    "frontline_diff",
    "center_control_diff",
    "flag_guard_diff",
    "flag_pressure_diff",
    "turn_advantage",
    "game_phase"
  ],
  "layers": [
    {
      "inputSize": 27,
      "outputSize": 96,
      "weights": [
        -0.1914166659116745,
        -0.3294929563999176,
        0.5329114198684692,
        0.3425528109073639,
        0.08169028908014297,
        -0.3847104609012604,
        0.5727906227111816,
        -0.3131515085697174,
        0.9489265084266663,
        -0.16818399727344513,
        -0.264110803604126,
        -0.11854489147663116,
        0.38002219796180725,
        0.37842515110969543,
        0.461076557636261,
        0.43083974719047546,
        -0.2022177129983902,
        0.2470376193523407,
        -0.9738430380821228,
        0.2367558628320694,
        0.22689121961593628,
        0.5322931408882141,
        0.6182767748832703,
        -0.052577972412109375,
        -0.6466871500015259,
        -0.010722502134740353,
        0.04615980386734009,
        -0.07695075124502182,
        -0.09926536679267883,
        -0.4054388105869293,
        0.029500694945454597,
        0.446013867855072,
        -0.2666395604610443,
        -0.49795088171958923,
        -0.13580678403377533,
        0.204916849732399,
        0.0074042389169335365,
        0.1663985550403595,
        0.6636335849761963,
        -0.26763519644737244,
        -0.2705402970314026,
        -0.47234466671943665,
        -0.025753699243068695,
        0.6164554357528687,
        0.10961258411407471,
        -0.37346717715263367,
        -0.3330113887786865,
        -0.2518688440322876,
        -0.4336799681186676,
        -0.31656789779663086,
        -0.099375419318676,
        -0.11630245298147202,
        -0.013046751730144024,
        -0.20083992183208466,
        -0.15425747632980347,
        0.5248767137527466,
        0.015693482011556625,
        0.08948317915201187,
        -0.29083648324012756,
        -0.431385338306427,
        -0.4116169512271881,
        0.5212956666946411,
        0.4930209517478943,
        -0.4103928506374359,
        -0.935733437538147,
        0.11793877929449081,
        -0.3201635479927063,
        0.168015718460083,
        0.06584765762090683,
        -0.015968646854162216,
        0.3199891149997711,
        0.03268871083855629,
        1.544701337814331,
        0.44175243377685547,
        -0.5492237210273743,
        -1.5794897079467773,
        0.19401013851165771,
        0.6510877013206482,
        0.07551757991313934,
        -0.03509153053164482,
        0.2793646454811096,
        -0.07191639393568039,
        -0.32204437255859375,
        -0.5290042757987976,
        -0.0623195581138134,
        0.36902347207069397,
        0.05778420716524124,
        -0.02895389311015606,
        -0.5092958211898804,
        0.006516444496810436,
        -0.2163485586643219,
        0.09662684053182602,
        0.38751983642578125,
        -0.2662101984024048,
        -0.2460111379623413,
        -0.49740463495254517,
        -0.16366873681545258,
        0.31139904260635376,
        0.08791707456111908,
        -0.480188250541687,
        -0.7721865773200989,
        -0.013325465843081474,
        0.32938912510871887,
        0.29412510991096497,
        0.35398173332214355,
        -0.10335095971822739,
        0.0409763902425766,
        -0.13917332887649536,
        -0.07344278693199158,
        0.6703067421913147,
        0.3017878532409668,
        0.46187645196914673,
        -0.43297266960144043,
        0.6459126472473145,
        0.35670730471611023,
        0.3056791424751282,
        -0.43157073855400085,
        -0.525119960308075,
        0.1585393100976944,
        0.08387042582035065,
        0.20530965924263,
        0.4457496702671051,
        0.47356370091438293,
        0.5165407657623291,
        0.035571835935115814,
        -0.4917941987514496,
        -0.4448448717594147,
        -0.22827622294425964,
        -0.07284869253635406,
        -0.10505601763725281,
        0.02122390829026699,
        -0.2723046541213989,
        -0.18367166817188263,
        0.02570660412311554,
        -0.002417190233245492,
        0.137067511677742,
        -0.13309793174266815,
        -0.443956583738327,
        0.0034404201433062553,
        -0.44878119230270386,
        -0.4228629469871521,
        -0.6647579669952393,
        -0.2457359880208969,
        -0.19345557689666748,
        -0.09913238883018494,
        0.22085431218147278,
        -0.2880650460720062,
        -0.6958991289138794,
        -0.8076993823051453,
        -0.43546369671821594,
        -0.01827973872423172,
        -0.22859419882297516,
        -0.11409799754619598,
        0.21690784394741058,
        -0.06652101874351501,
        -0.03635033592581749,
        0.07037188112735748,
        0.5939203500747681,
        0.11724139004945755,
        0.08260590583086014,
        -0.004931783303618431,
        -0.07791487872600555,
        0.13980506360530853,
        0.3879737854003906,
        0.7194229960441589,
        0.06333989650011063,
        -0.6039401888847351,
        -0.3777309060096741,
        0.3750495910644531,
        0.8529751300811768,
        -0.6196469068527222,
        0.005696570500731468,
        -0.41284358501434326,
        -0.6790810823440552,
        -0.03822607547044754,
        0.21478770673274994,
        0.6100658774375916,
        -0.17387515306472778,
        -0.3442686200141907,
        -0.4103371500968933,
        0.537041425704956,
        -0.0003278976946603507,
        0.791075587272644,
        0.30290865898132324,
        -0.6636529564857483,
        0.02943318895995617,
        0.5210853219032288,
        -0.0023899339139461517,
        -0.07966966181993484,
        0.18547005951404572,
        0.16245345771312714,
        0.4266608655452728,
        -0.18419675529003143,
        0.319119393825531,
        -0.20715762674808502,
        -0.2588067948818207,
        0.535241961479187,
        -0.8628625869750977,
        -0.508059561252594,
        -0.18805107474327087,
        0.5766592621803284,
        -0.204206645488739,
        -0.17414693534374237,
        0.1412886083126068,
        -0.27111634612083435,
        0.42298364639282227,
        -1.0516256093978882,
        -0.1071435734629631,
        -0.06533735990524292,
        0.2596425414085388,
        -0.27835479378700256,
        -0.7437191009521484,
        -0.11322136223316193,
        0.5325955152511597,
        0.002297378610819578,
        -0.007872719317674637,
        0.0026430198922753334,
        0.42387694120407104,
        0.47107821702957153,
        -0.052508044987916946,
        -0.44886478781700134,
        -0.2914678752422333,
        -0.26035186648368835,
        0.22336818277835846,
        0.15867091715335846,
        0.10818181931972504,
        0.3601667284965515,
        -0.5292153358459473,
        -0.18367870151996613,
        -0.04018096998333931,
        0.25684645771980286,
        0.013143769465386868,
        -0.5642172694206238,
        0.1560085415840149,
        0.06280118227005005,
        -0.03870921581983566,
        -0.11215231567621231,
        0.02059578336775303,
        -0.6235066652297974,
        0.05724860727787018,
        -0.20206782221794128,
        -0.010131653398275375,
        0.05540191009640694,
        -0.017771370708942413,
        0.5639985799789429,
        -0.20350582897663116,
        -0.025503642857074738,
        -0.2569913864135742,
        -0.17048998177051544,
        -0.15830573439598083,
        -0.09223391860723495,
        0.13778898119926453,
        -0.20363695919513702,
        0.009962120093405247,
        0.29927554726600647,
        -0.11650292575359344,
        -0.275962233543396,
        -0.5233886241912842,
        0.14986935257911682,
        -0.014370525255799294,
        0.20296140015125275,
        -1.6766458749771118,
        -0.45746344327926636,
        -0.4186514616012573,
        0.655721127986908,
        0.7257915735244751,
        -0.04165826365351677,
        0.4070880711078644,
        0.012577162124216557,
        0.2730206549167633,
        -0.06639762222766876,
        -0.6790719032287598,
        -0.025977810844779015,
        -0.33190956711769104,
        0.1754881590604782,
        -0.07255188375711441,
        -0.5279050469398499,
        -0.25169551372528076,
        0.4560086727142334,
        0.4413168728351593,
        0.3319348692893982,
        0.554042637348175,
        0.18396584689617157,
        -0.2418401688337326,
        -0.2840503454208374,
        -0.4143652021884918,
        0.30332279205322266,
        0.4582398235797882,
        -0.2202250361442566,
        -0.2025308758020401,
        -0.32512328028678894,
        -0.7958759069442749,
        -1.2492738962173462,
        -0.03317886218428612,
        -0.34002453088760376,
        0.01297992467880249,
        0.03463861346244812,
        -0.055930666625499725,
        -0.06897732615470886,
        -0.26764920353889465,
        0.06516083329916,
        0.9198508858680725,
        -0.8546423316001892,
        0.5739829540252686,
        1.09049391746521,
        0.251562237739563,
        0.11912446469068527,
        -0.19940778613090515,
        1.6637978553771973,
        0.7613303661346436,
        0.3866879940032959,
        -0.09806662052869797,
        0.32315707206726074,
        1.5196318626403809,
        0.18136416375637054,
        -1.7537894248962402,
        -0.15272203087806702,
        0.4984855353832245,
        0.7690293192863464,
        0.10739339888095856,
        0.1167784109711647,
        -0.2668451964855194,
        0.01847652532160282,
        -0.15663786232471466,
        -0.0743742510676384,
        0.17907564342021942,
        0.0890369787812233,
        -0.5329588651657104,
        0.48961156606674194,
        0.572267472743988,
        -0.12740246951580048,
        -0.13858942687511444,
        -0.4716370701789856,
        -0.12782873213291168,
        0.22423283755779266,
        1.164450764656067,
        -0.007489004638046026,
        0.10666563361883163,
        0.09789184480905533,
        -0.47491395473480225,
        1.2815821170806885,
        -0.2985675036907196,
        0.18413996696472168,
        -0.9637402296066284,
        -0.22367224097251892,
        -0.6484126448631287,
        -0.1480860561132431,
        -0.02453775517642498,
        0.1873496174812317,
        -0.017933864146471024,
        0.08303883671760559,
        -0.12711897492408752,
        -0.17033281922340393,
        0.13645754754543304,
        0.39280593395233154,
        -0.3859575688838959,
        0.20658092200756073,
        -0.8304443955421448,
        -0.27635836601257324,
        -0.3803580403327942,
        -0.12615111470222473,
        0.38943910598754883,
        -0.8018583059310913,
        -0.2111925482749939,
        -0.04522673040628433,
        -0.1256161779165268,
        0.1480609029531479,
        -0.5589510798454285,
        -0.12527959048748016,
        -0.14642333984375,
        -0.17543554306030273,
        0.15067529678344727,
        -0.4888160526752472,
        0.4492661952972412,
        -0.10515664517879486,
        -0.20900778472423553,
        0.030812663957476616,
        -0.006556391716003418,
        -0.10947223007678986,
        -0.007865432649850845,
        0.7145764827728271,
        -0.8362267017364502,
        0.33466267585754395,
        -1.0916211605072021,
        -0.1694263070821762,
        0.12410194426774979,
        0.31889447569847107,
        -0.8339630365371704,
        0.06749412417411804,
        -0.9197437167167664,
        -0.6998403668403625,
        -0.22031497955322266,
        0.6438931822776794,
        -0.5020306706428528,
        -0.9281983971595764,
        -0.2680206894874573,
        -0.7011014223098755,
        -0.1966642439365387,
        -0.1756705939769745,
        -0.39203882217407227,
        -0.8596706986427307,
        0.3456966280937195,
        0.1524360179901123,
        -0.020275341346859932,
        0.012885771691799164,
        -0.061659060418605804,
        0.5936458110809326,
        -0.06464280933141708,
        0.3047163486480713,
        -0.18833044171333313,
        -0.5580294728279114,
        0.37299272418022156,
        0.3312755525112152,
        -0.5601033568382263,
        0.27131250500679016,
        0.16508646309375763,
        0.30656492710113525,
        0.10943956673145294,
        0.26530128717422485,
        -0.005372897256165743,
        0.5422571897506714,
        0.311996191740036,
        -0.5041475892066956,
        0.5439234375953674,
        -0.1472235918045044,
        -0.06340520828962326,
        -0.530886709690094,
        0.26747652888298035,
        0.145839661359787,
        -0.27402421832084656,
        0.006463286001235247,
        -0.033956363797187805,
        0.08784933388233185,
        0.06081371009349823,
        -0.15015627443790436,
        0.06172751262784004,
        0.2460501343011856,
        -0.0664275661110878,
        -0.2935302257537842,
        -0.4348726272583008,
        -0.18512408435344696,
        -0.3075248897075653,
        0.3517155647277832,
        0.08907442539930344,
        -0.1285695731639862,
        -0.26502716541290283,
        0.10571792721748352,
        -0.04620321840047836,
        -0.14093603193759918,
        -0.3232317864894867,
        0.11353468149900436,
        0.198440819978714,
        -0.5509636402130127,
        -0.3389739692211151,
        -0.1228206679224968,
        0.22400766611099243,
        0.27450498938560486,
        -0.026146218180656433,
        -0.333622008562088,
        0.09865902364253998,
        0.42794832587242126,
        0.3004414439201355,
        0.0984622910618782,
        0.310652494430542,
        0.47992178797721863,
        -0.8483830690383911,
        -0.04686003550887108,
        0.1724175214767456,
        0.2103707194328308,
        -0.6718165874481201,
        0.8894831538200378,
        0.05010543763637543,
        0.17864803969860077,
        0.10387814790010452,
        0.06568452715873718,
        0.92510586977005,
        -0.11539258807897568,
        0.20027288794517517,
        -0.33972713351249695,
        0.06796927750110626,
        0.4690467119216919,
        0.0009119758615270257,
        -0.05716850608587265,
        -0.4630894362926483,
        0.014694588258862495,
        -0.17110249400138855,
        0.10841533541679382,
        0.08833128958940506,
        -0.5104376673698425,
        -0.3841520845890045,
        0.2612636983394623,
        0.3621886670589447,
        0.20139171183109283,
        -0.4957789182662964,
        -0.06690730899572372,
        -0.3307921588420868,
        -0.1431141495704651,
        -0.45497629046440125,
        -0.1827835887670517,
        -0.19598866999149323,
        -0.3547138571739197,
        -0.23373332619667053,
        -0.3994178771972656,
        -0.1569095253944397,
        0.4765668213367462,
        -0.5653071999549866,
        0.1642979383468628,
        0.4028875231742859,
        0.1402118057012558,
        0.13395489752292633,
        0.42002367973327637,
        -0.05530834570527077,
        0.13211770355701447,
        0.09757010638713837,
        -0.3783615231513977,
        0.2039698213338852,
        0.06916399300098419,
        -0.8222945928573608,
        -0.44010084867477417,
        -0.13850179314613342,
        0.1542302966117859,
        -0.3547669053077698,
        0.6474166512489319,
        -0.4487916827201843,
        0.46610206365585327,
        -0.3468553423881531,
        -0.42146074771881104,
        0.10804926604032516,
        0.3391396403312683,
        0.5217844247817993,
        -0.27433881163597107,
        -0.21677933633327484,
        0.011025338433682919,
        -0.36288899183273315,
        -0.2345711588859558,
        -0.08840756863355637,
        -0.11016739159822464,
        0.18103623390197754,
        -0.004429756198078394,
        -0.011547739617526531,
        0.13678942620754242,
        0.3886026442050934,
        0.34296467900276184,
        -0.3391381502151489,
        -0.145786851644516,
        0.3064877986907959,
        -0.0562259703874588,
        0.6013042330741882,
        -0.26549842953681946,
        0.17832699418067932,
        -0.3821149468421936,
        0.10157399624586105,
        0.09611085057258606,
        0.011893296614289284,
        0.06753220409154892,
        -0.3690422475337982,
        0.0807756707072258,
        -0.3999128043651581,
        0.33491820096969604,
        -0.5324315428733826,
        0.12867791950702667,
        0.05506087467074394,
        -0.2830362021923065,
        -0.02581879496574402,
        0.14948239922523499,
        0.0014443891122937202,
        -0.08992283791303635,
        0.027533095329999924,
        -0.021026723086833954,
        0.15681487321853638,
        0.18709084391593933,
        0.3868441879749298,
        -0.4890923798084259,
        -0.6378834843635559,
        0.6436989307403564,
        -0.40155598521232605,
        0.38448211550712585,
        0.35679325461387634,
        0.5480738282203674,
        0.25971734523773193,
        0.18864548206329346,
        0.10714463889598846,
        -0.12931221723556519,
        0.6457220911979675,
        -0.08881491422653198,
        -0.36367326974868774,
        0.27712786197662354,
        0.0835532546043396,
        0.1370641142129898,
        -0.16947351396083832,
        -0.09114482253789902,
        -0.3664993643760681,
        0.04698791727423668,
        0.12354432046413422,
        0.016460873186588287,
        0.08424742519855499,
        -0.9249679446220398,
        -0.17497190833091736,
        0.8444985151290894,
        0.013638698495924473,
        0.14344452321529388,
        0.6083513498306274,
        0.3034285008907318,
        -0.32555314898490906,
        0.2883743345737457,
        0.308082640171051,
        0.5164251923561096,
        0.09093555063009262,
        -0.9070771336555481,
        -0.45237261056900024,
        0.2227392941713333,
        0.07675101608037949,
        -1.0357385873794556,
        -1.5355585813522339,
        -0.29678264260292053,
        0.5730311870574951,
        0.3251197338104248,
        0.1257002055644989,
        -0.631980299949646,
        0.006398448720574379,
        -0.04381176084280014,
        0.1729249209165573,
        0.24372220039367676,
        0.615288496017456,
        -0.11661156266927719,
        0.5550133585929871,
        0.5525892376899719,
        -0.679459810256958,
        0.30594250559806824,
        0.27163761854171753,
        -0.3539526164531708,
        0.0015569943934679031,
        -1.061051845550537,
        0.42431512475013733,
        0.5585347414016724,
        0.625152587890625,
        -0.1952664852142334,
        -1.2644920349121094,
        0.267103910446167,
        0.600947380065918,
        -0.2056298851966858,
        -1.0531229972839355,
        -0.33771491050720215,
        -0.19289353489875793,
        -0.09221440553665161,
        -0.14472675323486328,
        -0.0011421331437304616,
        -0.03950409218668938,
        0.1160096824169159,
        -0.2775408625602722,
        -0.21730293333530426,
        0.05918852612376213,
        -0.4642203748226166,
        -0.30886831879615784,
        -0.014691268093883991,
        -0.2518004775047302,
        0.21060718595981598,
        -0.41457268595695496,
        -0.059617817401885986,
        0.013556976802647114,
        -0.3540802001953125,
        -0.4845257103443146,
        -0.26131653785705566,
        -0.2015305608510971,
        -0.08170068264007568,
        -0.12079039216041565,
        0.1891622245311737,
        -0.1647888422012329,
        -0.39553284645080566,
        -0.25143173336982727,
        0.05972639098763466,
        -0.37474364042282104,
        -0.03315502405166626,
        0.07002760469913483,
        0.13421741127967834,
        0.11025124788284302,
        -0.19172163307666779,
        -0.48764121532440186,
        -0.26774951815605164,
        0.291159451007843,
        0.07366903871297836,
        -0.5416325926780701,
        -0.2942052483558655,
        -0.12456496804952621,
        -0.2034689038991928,
        0.02692977897822857,
        -0.042358752340078354,
        -0.29053163528442383,
        -0.3821468949317932,
        -0.3172515034675598,
        -0.2506742775440216,
        -0.13327060639858246,
        0.0373523086309433,
        -0.029135895892977715,
        -0.19345052540302277,
        0.7868381142616272,
        0.16633307933807373,
        -0.323705792427063,
        0.1100335344672203,
        0.5183010697364807,
        0.08820068091154099,
        0.09620191901922226,
        -0.06553976237773895,
        0.2493937611579895,
        0.9426565170288086,
        -0.8882514238357544,
        0.5810995101928711,
        0.16278688609600067,
        0.6550649404525757,
        0.9088577032089233,
        -0.3005344569683075,
        -0.3764007091522217,
        0.6231955885887146,
        -0.564887523651123,
        0.6525002121925354,
        0.909894585609436,
        0.6809078454971313,
        -0.7207553386688232,
        -0.514443576335907,
        -0.13666248321533203,
        0.7260613441467285,
        0.0991300418972969,
        -0.5095182061195374,
        -0.4415818452835083,
        -0.12232665717601776,
        -0.18908052146434784,
        0.46168389916419983,
        -0.029437856748700142,
        -0.02483838051557541,
        -0.08030907064676285,
        0.3556349575519562,
        0.7837682962417603,
        -0.7914476990699768,
        -0.3106152415275574,
        0.12422212213277817,
        -0.09990938007831573,
        0.17497476935386658,
        -0.21419622004032135,
        1.3334192037582397,
        0.2946665287017822,
        -0.21606048941612244,
        0.17652475833892822,
        0.2415003776550293,
        0.568513035774231,
        -0.7575071454048157,
        -0.21572916209697723,
        0.5956292152404785,
        -0.9843631386756897,
        -0.7851492762565613,
        0.23983517289161682,
        1.3405286073684692,
        0.2717136740684509,
        -0.18301549553871155,
        -0.4096716642379761,
        0.00019881551270373166,
        -0.1158997043967247,
        0.18259696662425995,
        0.1087958961725235,
        -0.0226360484957695,
        0.07789154350757599,
        0.3326144516468048,
        -0.9897137880325317,
        0.5525801181793213,
        -0.156826913356781,
        -0.09197121858596802,
        -0.03707878291606903,
        0.13955426216125488,
        0.23143628239631653,
        -0.015886690467596054,
        0.013181350193917751,
        -0.012714317068457603,
        0.26198336482048035,
        0.17142392694950104,
        -0.12530477344989777,
        0.4940096437931061,
        0.6371995806694031,
        0.15911433100700378,
        -1.2001222372055054,
        -0.43859508633613586,
        -0.16742777824401855,
        -0.14584419131278992,
        -0.028346296399831772,
        0.05313166603446007,
        0.16450072824954987,
        0.4170282781124115,
        -0.28826943039894104,
        -0.22476008534431458,
        -1.9499385356903076,
        1.095534086227417,
        0.762447714805603,
        0.8078587055206299,
        0.39609822630882263,
        0.07519466429948807,
        -0.9213771224021912,
        0.0006007435731589794,
        -0.07220563292503357,
        -0.054849378764629364,
        -0.21125942468643188,
        -0.33199986815452576,
        -0.2551146447658539,
        -0.27295807003974915,
        -1.4447109699249268,
        -0.16267791390419006,
        -0.4706835448741913,
        -0.4639546871185303,
        -0.42890533804893494,
        -0.1746000498533249,
        0.6402538418769836,
        -0.01557507086545229,
        -0.041188403964042664,
        -0.1902044266462326,
        -0.0330687090754509,
        0.2818952798843384,
        -0.4383983612060547,
        0.28167542815208435,
        0.4076758623123169,
        0.3087778687477112,
        -0.4394210875034332,
        0.3396552503108978,
        0.27567803859710693,
        0.13431690633296967,
        -0.31566494703292847,
        0.3226448595523834,
        0.01300538145005703,
        0.36446690559387207,
        -0.3548157215118408,
        -0.06975360214710236,
        0.2825014591217041,
        -0.28995752334594727,
        0.10084378719329834,
        0.11676621437072754,
        0.13114483654499054,
        -0.31174975633621216,
        -0.005556145682930946,
        0.45128297805786133,
        -0.0019469948019832373,
        0.14338335394859314,
        -0.07108858972787857,
        0.08813188225030899,
        0.5194985866546631,
        0.27645477652549744,
        0.3066336512565613,
        -0.6378284096717834,
        0.2902534008026123,
        -0.06705714762210846,
        0.17895855009555817,
        -0.3859538733959198,
        0.3819480836391449,
        0.7087745070457458,
        0.32072535157203674,
        0.3687947392463684,
        0.21941113471984863,
        0.39358630776405334,
        0.4841965138912201,
        -0.14476557075977325,
        0.35712215304374695,
        0.05849587544798851,
        0.27102646231651306,
        -0.6627650260925293,
        -0.5328556895256042,
        -0.026813985779881477,
        0.2229163646697998,
        -0.003830338129773736,
        0.02898070402443409,
        -0.16127832233905792,
        0.11009596288204193,
        -0.09858635067939758,
        0.3215081989765167,
        -0.60714191198349,
        -0.22562837600708008,
        0.5035552382469177,
        -1.0736660957336426,
        1.0737868547439575,
        -0.1735500693321228,
        -0.3832968771457672,
        -0.2567175626754761,
        -0.1439467817544937,
        0.12418631464242935,
        0.11881779879331589,
        0.26627328991889954,
        0.031707849353551865,
        0.31860610842704773,
        0.395721971988678,
        0.5471910834312439,
        0.6725886464118958,
        -0.3035206198692322,
        0.21242621541023254,
        -0.40597131848335266,
        -0.13463030755519867,
        -0.014170821756124496,
        -0.05755514279007912,
        -0.008737284690141678,
        -0.32418689131736755,
        -0.42270103096961975,
        -0.02023642137646675,
        0.41410115361213684,
        0.4160975515842438,
        0.3307369351387024,
        0.1734752506017685,
        0.2083609402179718,
        -0.002910078037530184,
        0.26923924684524536,
        -0.005923208314925432,
        0.12098588794469833,
        -0.14222778379917145,
        -0.3687330186367035,
        -0.11063964664936066,
        -0.04902610555291176,
        0.110411137342453,
        -1.1980222463607788,
        0.2247711569070816,
        -0.661204993724823,
        0.9057502746582031,
        0.3839668333530426,
        -0.23175516724586487,
        -0.7580917477607727,
        -0.03230149671435356,
        -0.09645625948905945,
        -0.07485095411539078,
        -0.051473889499902725,
        -0.26982828974723816,
        -0.1300269514322281,
        0.12788915634155273,
        0.3095298409461975,
        1.018904209136963,
        0.06096988916397095,
        -0.5864675045013428,
        0.20442886650562286,
        0.29660558700561523,
        0.5871976613998413,
        0.616081714630127,
        0.436006635427475,
        -0.363898903131485,
        0.09073205292224884,
        0.6013559103012085,
        -0.264312207698822,
        1.2593973875045776,
        0.43880167603492737,
        0.025184765458106995,
        -0.3764025568962097,
        -0.3621988296508789,
        -0.18031546473503113,
        0.24354103207588196,
        0.005369281396269798,
        -0.08009209483861923,
        0.09327293932437897,
        -0.47016140818595886,
        -0.47767046093940735,
        0.4118444621562958,
        0.4949911832809448,
        -0.4074512720108032,
        0.6225025653839111,
        0.9491934180259705,
        -0.1428413987159729,
        0.48580262064933777,
        0.5128864049911499,
        0.254894882440567,
        0.6509010195732117,
        0.2260666936635971,
        -0.6221970319747925,
        0.38068991899490356,
        0.23655164241790771,
        0.19348211586475372,
        0.1531859189271927,
        -1.014234185218811,
        0.20772448182106018,
        0.18030352890491486,
        -0.7429362535476685,
        0.21052151918411255,
        -0.37320491671562195,
        -0.0004725090984720737,
        0.02007143385708332,
        -0.19076722860336304,
        0.22940970957279205,
        0.004537947941571474,
        -0.509877622127533,
        0.8924011588096619,
        0.5087190270423889,
        0.02477714978158474,
        -0.3773705065250397,
        -0.5896428227424622,
        0.13221603631973267,
        0.8233364224433899,
        0.28556641936302185,
        0.06933088600635529,
        0.31379738450050354,
        0.17746174335479736,
        -0.5604370832443237,
        0.5270422101020813,
        -0.03823308274149895,
        -0.7170782685279846,
        0.46479517221450806,
        0.025019517168402672,
        0.4233722984790802,
        0.20530511438846588,
        -0.28168243169784546,
        1.2982101440429688,
        0.01580149307847023,
        0.1346975862979889,
        0.03258596360683441,
        -0.13669432699680328,
        -0.3035266101360321,
        -0.0825662761926651,
        -0.3912905156612396,
        -0.10470123589038849,
        -0.04352991655468941,
        1.009304165840149,
        0.1776476800441742,
        -0.7836170196533203,
        0.22208385169506073,
        0.7817291617393494,
        0.41725221276283264,
        0.0870133563876152,
        0.012370660901069641,
        -0.09747390449047089,
        0.8381730914115906,
        0.021788204088807106,
        0.682799756526947,
        -0.3001682460308075,
        -0.13504531979560852,
        -0.07684716582298279,
        0.06824259459972382,
        -0.0020977079402655363,
        0.2848381996154785,
        0.0009807810420170426,
        -0.10247456282377243,
        0.10845139622688293,
        0.4241081476211548,
        -0.3481181561946869,
        -0.23902632296085358,
        -0.305539608001709,
        0.23537473380565643,
        0.20736776292324066,
        -0.4826274514198303,
        0.0753246545791626,
        0.5697740316390991,
        0.07190731167793274,
        0.5513889789581299,
        -0.022400744259357452,
        -0.36248788237571716,
        -0.19377298653125763,
        -0.37135758996009827,
        0.627017617225647,
        0.3104742467403412,
        0.1632489562034607,
        -0.11270252615213394,
        -0.36508792638778687,
        -0.12269210070371628,
        0.635777473449707,
        -0.1689155101776123,
        0.05457577854394913,
        -0.034824855625629425,
        -0.2799167335033417,
        0.1789168268442154,
        0.1996178925037384,
        -0.4093616008758545,
        0.03546005114912987,
        0.19773918390274048,
        -0.0520254410803318,
        0.9045881628990173,
        -0.5278660655021667,
        -0.34375154972076416,
        -0.20767216384410858,
        -0.07244282215833664,
        -0.3148142695426941,
        -0.15948697924613953,
        -0.2567565143108368,
        -0.3553444445133209,
        -0.018083764240145683,
        -0.5343148708343506,
        -0.3772130310535431,
        0.6215198040008545,
        -0.6692770719528198,
        0.5600327849388123,
        0.57646244764328,
        0.24346210062503815,
        0.2041093111038208,
        0.18243426084518433,
        0.00680340314283967,
        0.01747829094529152,
        -0.05506838113069534,
        0.29703235626220703,
        -0.16800493001937866,
        0.08292780071496964,
        -0.1375667303800583,
        0.2196589857339859,
        -1.0894815921783447,
        -0.3431158661842346,
        -0.35011765360832214,
        0.5109250545501709,
        0.5308341383934021,
        -0.1371581256389618,
        -0.06456676870584488,
        -0.26940473914146423,
        -0.3997765779495239,
        0.3334941864013672,
        -0.08107200264930725,
        0.36431562900543213,
        0.41774964332580566,
        0.1277616322040558,
        0.5923742055892944,
        0.07745525985956192,
        -0.33271896839141846,
        0.32738134264945984,
        -0.1294785439968109,
        0.010886220261454582,
        -0.032047465443611145,
        -0.17042197287082672,
        0.02444707229733467,
        -0.07168871909379959,
        -0.34951576590538025,
        -1.7591661214828491,
        0.4390394985675812,
        0.6793556809425354,
        -0.3216744065284729,
        1.0808897018432617,
        -0.599067747592926,
        -0.5616773366928101,
        -0.3892948031425476,
        -0.421703577041626,
        -0.4682406485080719,
        -0.09297240525484085,
        -0.3559926748275757,
        -0.5157632231712341,
        0.22786380350589752,
        -0.1958760768175125,
        -0.32545411586761475,
        -0.31318768858909607,
        0.06244102120399475,
        0.09437167644500732,
        -0.018950127065181732,
        -0.12753911316394806,
        -0.002513346029445529,
        0.01779932714998722,
        -0.09603845328092575,
        -0.26327601075172424,
        -0.03480783849954605,
        -0.12083917111158371,
        0.46553948521614075,
        -0.04512462019920349,
        0.6054200530052185,
        0.2775643765926361,
        0.4017411768436432,
        0.13520075380802155,
        -0.3700074851512909,
        0.336463987827301,
        0.3383224904537201,
        0.2767159640789032,
        -0.09485713392496109,
        -0.07381545007228851,
        0.17936357855796814,
        0.37244001030921936,
        0.404901921749115,
        0.1161762997508049,
        0.07251164317131042,
        -0.188947394490242,
        0.029510339722037315,
        0.21369454264640808,
        0.3353840112686157,
        -0.03936023637652397,
        0.09716501832008362,
        -0.10953816771507263,
        0.2870118021965027,
        0.4755971431732178,
        0.23417580127716064,
        -0.6644498109817505,
        0.4256463944911957,
        0.46076077222824097,
        -0.3064526319503784,
        -0.05967527627944946,
        0.03693709895014763,
        -0.009572621434926987,
        0.2969299256801605,
        0.49951082468032837,
        0.6651799082756042,
        0.5496900677680969,
        0.2518559396266937,
        0.5080373287200928,
        0.2081296145915985,
        1.7363868951797485,
        -0.7589095830917358,
        -0.5883719325065613,
        -0.1652849018573761,
        -0.01802867092192173,
        0.1805097609758377,
        0.4213537573814392,
        0.00547940144315362,
        0.29968154430389404,
        -0.03317251801490784,
        0.7476581335067749,
        0.37056389451026917,
        0.78499436378479,
        -0.14768271148204803,
        0.3490694761276245,
        -0.4657938778400421,
        -0.5245051383972168,
        0.4405367076396942,
        0.34506019949913025,
        0.1406368613243103,
        -0.7415386438369751,
        0.1439829021692276,
        0.3225075900554657,
        0.30275657773017883,
        0.627040445804596,
        -0.8622058033943176,
        0.5381571054458618,
        -0.30846843123435974,
        1.4040189981460571,
        0.13659071922302246,
        0.25797101855278015,
        0.41668298840522766,
        0.05593246594071388,
        -0.4791022539138794,
        0.013166041113436222,
        -0.15240482985973358,
        -0.1347641795873642,
        -0.48883455991744995,
        -0.6243144869804382,
        -0.22790957987308502,
        -0.06643743067979813,
        0.049883656203746796,
        0.11197537928819656,
        -0.1710013598203659,
        0.45201587677001953,
        -0.1645367443561554,
        0.39453569054603577,
        -0.13788537681102753,
        0.025892460718750954,
        -0.3432041108608246,
        -0.39482206106185913,
        -0.20769216120243073,
        -0.041798099875450134,
        0.6603630185127258,
        -0.15099577605724335,
        0.13603882491588593,
        -0.15926116704940796,
        0.2593507170677185,
        0.7080212831497192,
        0.05749404802918434,
        0.13559670746326447,
        0.006213406100869179,
        0.13755680620670319,
        0.04430767893791199,
        0.27936264872550964,
        0.11955981701612473,
        0.049228768795728683,
        -0.412601500749588,
        -0.11312666535377502,
        -0.10298944264650345,
        0.1401951014995575,
        -0.27034375071525574,
        0.3414648771286011,
        0.14882540702819824,
        -0.4102456867694855,
        -0.1898547112941742,
        -0.1736505776643753,
        -0.18825510144233704,
        0.03373302146792412,
        -0.3498283922672272,
        -0.189187154173851,
        -0.20206722617149353,
        0.17923015356063843,
        0.26656678318977356,
        0.3087834417819977,
        0.23547829687595367,
        0.11563734710216522,
        -0.08445603400468826,
        0.039187733083963394,
        -0.08570712804794312,
        -0.150898739695549,
        -0.3983510732650757,
        0.17661431431770325,
        0.17603342235088348,
        0.08960474282503128,
        0.2767001688480377,
        0.15154606103897095,
        0.3331034481525421,
        0.0416509248316288,
        -0.6346645355224609,
        -0.2870807349681854,
        -0.5299917459487915,
        0.16899199783802032,
        0.3327919840812683,
        0.3914579153060913,
        0.11232086271047592,
        -0.4303206503391266,
        -0.20797185599803925,
        -0.6156770586967468,
        -0.08709043264389038,
        0.29027923941612244,
        0.708879292011261,
        -0.009865234605967999,
        -0.021320534870028496,
        -0.01194844488054514,
        -0.03683997318148613,
        0.05440831556916237,
        -0.022770844399929047,
        -0.18248948454856873,
        0.2435811311006546,
        0.18093331158161163,
        -0.005463304463773966,
        -0.2695765197277069,
        -0.015462045557796955,
        -0.48521164059638977,
        0.002755170688033104,
        -0.13025100529193878,
        0.5507360100746155,
        0.15722258388996124,
        -0.0056796567514538765,
        0.076563760638237,
        0.30912190675735474,
        0.08832181990146637,
        0.2596057653427124,
        0.07593590021133423,
        -0.20279712975025177,
        0.11356372386217117,
        0.2528524696826935,
        0.17152827978134155,
        -0.4625353217124939,
        -0.16884446144104004,
        0.4145524799823761,
        -0.07508751004934311,
        0.11453451961278915,
        -0.1730767786502838,
        0.08843153715133667,
        0.08108196407556534,
        0.2301355004310608,
        0.0584527924656868,
        -0.3600112199783325,
        -0.39803797006607056,
        0.6888526082038879,
        -0.0652204304933548,
        0.35479024052619934,
        -0.3904609680175781,
        -0.025936000049114227,
        0.09191354364156723,
        -0.16568605601787567,
        0.036880094558000565,
        0.07017910480499268,
        0.2957238554954529,
        -0.0996580645442009,
        -0.7316952347755432,
        -0.19218231737613678,
        0.26025933027267456,
        0.5746307373046875,
        -0.054833948612213135,
        -0.021385882049798965,
        -0.4347991943359375,
        -0.04436413198709488,
        0.08646823465824127,
        0.08835853636264801,
        0.22354485094547272,
        0.018157580867409706,
        -0.646938681602478,
        0.29131025075912476,
        -0.2735652029514313,
        0.35070252418518066,
        -0.298208624124527,
        0.22760911285877228,
        0.4565235674381256,
        -0.42351412773132324,
        -0.006117160897701979,
        0.16497096419334412,
        -0.1037287563085556,
        0.1486944705247879,
        -0.6433687210083008,
        -0.11305098980665207,
        0.281941682100296,
        -0.13814014196395874,
        0.1021115630865097,
        -0.32587867975234985,
        -0.14693288505077362,
        0.05667497590184212,
        0.10690619051456451,
        -0.19134318828582764,
        0.0059670740738511086,
        -0.10257545113563538,
        0.11549443006515503,
        0.20587803423404694,
        -0.029150739312171936,
        -0.5936108231544495,
        -0.8207423686981201,
        -0.8010317087173462,
        -0.13983432948589325,
        0.1341131031513214,
        -0.574894905090332,
        -0.059746161103248596,
        -0.7110629677772522,
        -0.2354000359773636,
        -1.2414811849594116,
        -0.9407445192337036,
        -0.23022137582302094,
        -0.4461113214492798,
        -0.49431586265563965,
        -0.6399859189987183,
        -0.25013402104377747,
        0.3892541825771332,
        0.2857207655906677,
        0.07367852330207825,
        -0.15120066702365875,
        -0.11887985467910767,
        0.7301690578460693,
        0.001961576286703348,
        -0.0033968319185078144,
        0.14784939587116241,
        0.25421255826950073,
        0.23302677273750305,
        -0.6597083210945129,
        0.07360906153917313,
        0.07650771737098694,
        -0.4563942551612854,
        -0.8745648264884949,
        -0.31020602583885193,
        0.8289614319801331,
        -0.10658567398786545,
        -0.6864075064659119,
        -0.6699203252792358,
        -0.23769311606884003,
        0.2168641984462738,
        -0.5118182301521301,
        -0.6310048699378967,
        -0.1659298539161682,
        0.43410447239875793,
        0.6341643929481506,
        0.08850470930337906,
        0.39428073167800903,
        0.006520345341414213,
        -0.19367021322250366,
        0.09578415006399155,
        0.008113694377243519,
        0.08095891028642654,
        0.12155243754386902,
        0.41847914457321167,
        -0.181196391582489,
        -0.07153963297605515,
        0.0400717630982399,
        -0.3600493371486664,
        -0.2203035056591034,
        -0.28405705094337463,
        0.0690879374742508,
        -0.11996234953403473,
        -0.2071465104818344,
        0.858013927936554,
        -0.5569296479225159,
        -0.49494627118110657,
        -0.22458846867084503,
        -0.024287287145853043,
        0.8718966841697693,
        -0.26563531160354614,
        0.7128829956054688,
        -0.5962164998054504,
        0.001662178081460297,
        -0.1581498384475708,
        0.15988464653491974,
        -0.193586066365242,
        0.558588445186615,
        -0.00016375703853555024,
        -0.0002421861863695085,
        -0.06580626964569092,
        -0.3172394633293152,
        0.43726834654808044,
        -0.27539411187171936,
        0.36698129773139954,
        0.2975519299507141,
        0.03688366711139679,
        0.20718181133270264,
        0.10226986557245255,
        0.052325621247291565,
        0.8526797294616699,
        -0.056228600442409515,
        0.4400312900543213,
        0.4323576092720032,
        0.4968453645706177,
        -0.3824668228626251,
        0.11741369217634201,
        0.32807207107543945,
        -0.3529362678527832,
        0.4450473487377167,
        0.2162884771823883,
        0.4975140392780304,
        0.5771723985671997,
        0.05058964341878891,
        0.02579754777252674,
        -0.008685966953635216,
        0.0335293672978878,
        -0.17465327680110931,
        -0.2244028002023697,
        -0.24131985008716583,
        0.35453686118125916,
        0.20586973428726196,
        0.4080358147621155,
        -0.2894875705242157,
        -0.6430419087409973,
        -0.345952570438385,
        -0.42396578192710876,
        0.8301432728767395,
        -0.1327204406261444,
        -0.34755739569664,
        -0.3940504193305969,
        -0.39503753185272217,
        0.07039281725883484,
        0.010415065102279186,
        -0.24289600551128387,
        -0.9690266847610474,
        0.004092395305633545,
        0.4271664619445801,
        0.8039254546165466,
        0.3278099596500397,
        0.07755983620882034,
        -0.2349669635295868,
        -0.023340526968240738,
        -0.02340656705200672,
        -0.17829714715480804,
        -0.06427960097789764,
        0.4605391323566437,
        0.12221886962652206,
        -0.07064899057149887,
        -0.7487399578094482,
        -0.6992865204811096,
        0.8612911701202393,
        0.14506782591342926,
        -0.16124939918518066,
        -0.30301234126091003,
        0.04271627590060234,
        -0.059281110763549805,
        -6.318389205262065e-05,
        0.2406345158815384,
        0.04402945935726166,
        -0.03546704724431038,
        0.23434506356716156,
        -0.484110027551651,
        0.08505524694919586,
        -0.1628585159778595,
        0.6055755615234375,
        0.35922423005104065,
        0.15038715302944183,
        0.6164461970329285,
        0.016580304130911827,
        -0.10204023122787476,
        -0.11488872766494751,
        0.05614309012889862,
        -0.5012643337249756,
        0.6702965497970581,
        0.01410724874585867,
        0.3997983932495117,
        0.4304409325122833,
        0.3430629074573517,
        0.5665497779846191,
        -0.8810632228851318,
        -0.5013576745986938,
        -0.14171206951141357,
        0.2847498655319214,
        0.17218837141990662,
        -0.3983522653579712,
        0.4520014822483063,
        -0.16554370522499084,
        -0.21317511796951294,
        -1.57603919506073,
        0.7872281074523926,
        -0.5233193039894104,
        -0.5403845906257629,
        -0.5470256805419922,
        0.35244202613830566,
        0.37787073850631714,
        -0.012082885950803757,
        -0.14833371341228485,
        0.035669028759002686,
        0.3664810061454773,
        6.799522088840604e-05,
        0.009442347101867199,
        -0.922823429107666,
        -0.1766708791255951,
        -0.3866693377494812,
        0.11415311694145203,
        0.16979525983333588,
        0.20594632625579834,
        0.12077902257442474,
        -0.22073152661323547,
        -0.5297476649284363,
        -0.5483599305152893,
        0.07485796511173248,
        -0.05958755314350128,
        -0.2347927838563919,
        0.19302470982074738,
        -0.0030772853642702103,
        -0.0947331041097641,
        0.25825679302215576,
        0.14899082481861115,
        0.20517492294311523,
        0.6327835321426392,
        0.2596936523914337,
        0.03897588327527046,
        0.029984960332512856,
        0.07999865710735321,
        0.7615755796432495,
        -0.8181824684143066,
        0.1008671224117279,
        -0.5554360747337341,
        0.3059534728527069,
        -0.295280396938324,
        0.6573377847671509,
        -0.20797304809093475,
        -0.31004250049591064,
        0.8351775407791138,
        0.18145698308944702,
        0.2916445732116699,
        -0.20861250162124634,
        -0.682244062423706,
        0.015666170045733452,
        0.2200356274843216,
        -0.007565384265035391,
        0.9812024831771851,
        0.3898758292198181,
        -0.04280668869614601,
        -0.7563319802284241,
        -0.14358210563659668,
        -0.012496227398514748,
        -0.5607648491859436,
        -0.02914661355316639,
        0.06329949200153351,
        -0.12035732716321945,
        0.24689599871635437,
        -0.38282549381256104,
        -0.18334630131721497,
        0.04267304763197899,
        0.05386214330792427,
        0.398004949092865,
        -0.44715607166290283,
        0.08897902071475983,
        -0.3408796489238739,
        0.015304820612072945,
        -0.2869352400302887,
        -0.18011581897735596,
        0.01686779409646988,
        -0.3950906991958618,
        -0.2702729403972626,
        -0.09172333776950836,
        -0.013318522833287716,
        0.27805620431900024,
        0.5460056066513062,
        0.26579636335372925,
        -0.04558677226305008,
        -0.0036477423273026943,
        0.009883173741400242,
        0.030610250309109688,
        0.061860136687755585,
        -0.007551355753093958,
        0.06141064316034317,
        -0.056377291679382324,
        0.1503150314092636,
        0.05099746212363243,
        -0.23727856576442719,
        -0.22913452982902527,
        -0.15186013281345367,
        0.5102785229682922,
        -0.4092320203781128,
        -0.3283967971801758,
        1.0545496940612793,
        -0.45837628841400146,
        0.35332101583480835,
        0.07586780190467834,
        0.14809273183345795,
        -0.20870038866996765,
        -0.1484311819076538,
        0.06780204176902771,
        0.4197392761707306,
        0.48613524436950684,
        -0.2537061274051666,
        -0.5774180889129639,
        -0.017307063564658165,
        0.23308365046977997,
        -0.12908783555030823,
        0.0025704624131321907,
        0.01601702719926834,
        -0.026304971426725388,
        -0.5117331147193909,
        0.14607872068881989,
        0.07681293040513992,
        0.5895617604255676,
        -0.4510972201824188,
        -0.22303506731987,
        0.06454259902238846,
        0.7126219272613525,
        0.02859729342162609,
        0.03268515318632126,
        0.2728080153465271,
        0.16069824993610382,
        0.050800926983356476,
        0.2667887508869171,
        0.2100871503353119,
        0.4212626814842224,
        0.7974019050598145,
        -0.7861534953117371,
        -0.12237179279327393,
        0.32803961634635925,
        0.6793982982635498,
        0.8917509317398071,
        -0.11492312699556351,
        -0.2681213915348053,
        0.007550108712166548,
        0.03882913291454315,
        0.057865120470523834,
        0.022078944370150566,
        -0.07774320244789124,
        -0.15125031769275665,
        -0.12124434858560562,
        -0.5568756461143494,
        -0.4649878442287445,
        -0.12758302688598633,
        -0.10298091918230057,
        0.17873241007328033,
        0.317707359790802,
        -0.2753937244415283,
        -0.27651524543762207,
        -0.5468571782112122,
        -0.3918462097644806,
        -0.3387674391269684,
        -0.4451485872268677,
        0.2462063580751419,
        -0.07538805902004242,
        -0.0021515204571187496,
        -0.013125336728990078,
        -0.09507593512535095,
        -0.2022935450077057,
        -0.30308544635772705,
        -0.005478505045175552,
        -0.046446558088064194,
        -0.024093694984912872,
        0.027319934219121933,
        0.05919167399406433,
        -0.07979238778352737,
        0.44234147667884827,
        0.2422102987766266,
        -0.0012657087063416839,
        -0.6828914880752563,
        0.09979113936424255,
        -1.3801325559616089,
        0.8655039072036743,
        -0.5643928050994873,
        -0.6633983850479126,
        -0.2751239538192749,
        0.08695504814386368,
        -0.026075109839439392,
        0.5171168446540833,
        -0.6958062648773193,
        -0.6380296349525452,
        0.49389907717704773,
        -0.34522244334220886,
        -0.9130787253379822,
        -0.27890369296073914,
        0.14123764634132385,
        0.2525772154331207,
        -1.051100492477417,
        -0.039012257009744644,
        0.05840412899851799,
        -0.04077473282814026,
        -0.08083523064851761,
        -0.017183400690555573,
        -0.3563302159309387,
        -0.023223763331770897,
        0.6925047039985657,
        0.2966384291648865,
        -0.5584098696708679,
        -0.15106356143951416,
        -0.7784519195556641,
        0.34298428893089294,
        -0.21264569461345673,
        -0.09053736925125122,
        0.19006799161434174,
        0.12403687089681625,
        -0.15762704610824585,
        -0.2562479078769684,
        -0.1004663035273552,
        0.16832076013088226,
        -0.7714528441429138,
        -0.024526799097657204,
        0.6239045858383179,
        0.15884873270988464,
        0.2848966419696808,
        0.0427326075732708,
        0.0008725953521206975,
        -0.11446290463209152,
        -0.021984048187732697,
        0.2818356454372406,
        -0.48735928535461426,
        0.2599776089191437,
        -0.06398894637823105,
        0.45410406589508057,
        -0.16961653530597687,
        0.19166044890880585,
        0.10875581949949265,
        0.008099643513560295,
        0.41957274079322815,
        -0.39381569623947144,
        0.4299888610839844,
        0.03999949246644974,
        -0.4159313440322876,
        0.20190805196762085,
        -0.18864819407463074,
        0.3506636917591095,
        0.30026865005493164,
        -0.03137028217315674,
        -0.34412428736686707,
        -0.2713513672351837,
        0.049953214824199677,
        0.054211538285017014,
        -0.33345410227775574,
        -0.05767679214477539,
        -0.15960457921028137,
        0.11933797597885132,
        -0.2884967029094696,
        -0.02884753607213497,
        -0.2579314410686493,
        0.43062153458595276,
        0.39890700578689575,
        -0.1662278026342392,
        -0.28930577635765076,
        0.3569624722003937,
        -0.04608443006873131,
        0.1111711859703064,
        0.21582673490047455,
        0.3562251627445221,
        0.013537483289837837,
        -0.12616772949695587,
        -0.30851441621780396,
        0.3467859625816345,
        0.34638819098472595,
        -0.7787095308303833,
        0.0977402925491333,
        -0.05561237782239914,
        0.49273690581321716,
        0.5634064078330994,
        0.052332811057567596,
        -0.17240549623966217,
        0.027786601334810257,
        0.1651633381843567,
        0.04799318313598633,
        0.12527725100517273,
        0.37208181619644165,
        0.17038899660110474,
        0.6118861436843872,
        -0.34582680463790894,
        0.18902075290679932,
        0.33410587906837463,
        0.6049558520317078,
        -0.0315769761800766,
        0.4957829713821411,
        0.3193098306655884,
        0.3589525520801544,
        0.5412023663520813,
        0.3493366837501526,
        0.23949068784713745,
        0.1321360319852829,
        0.40692225098609924,
        0.7659308910369873,
        0.12966452538967133,
        -0.2621825635433197,
        -0.032716456800699234,
        -0.4412896931171417,
        -0.13020341098308563,
        0.01272743009030819,
        0.04308466240763664,
        -0.0364825539290905,
        0.11675193905830383,
        0.12564527988433838,
        0.13186576962471008,
        0.4279395341873169,
        0.5060132741928101,
        -0.7020159363746643,
        0.14608445763587952,
        0.02048497274518013,
        0.11143581569194794,
        -0.9861209988594055,
        0.3619022071361542,
        0.20146897435188293,
        0.2185537964105606,
        0.2272334098815918,
        0.16922172904014587,
        0.3750268518924713,
        0.17560091614723206,
        -0.11924916505813599,
        -0.5393179655075073,
        0.0019211411708965898,
        0.14275826513767242,
        -0.3027835488319397,
        -0.3685302138328552,
        0.1477443277835846,
        -0.2675268352031708,
        0.0008266915683634579,
        0.12976393103599548,
        0.11706674098968506,
        0.15214431285858154,
        0.2739311158657074,
        -0.4873846173286438,
        -0.290632963180542,
        0.7519052028656006,
        0.11437126249074936,
        0.37704020738601685,
        -0.3453958034515381,
        -0.1877530813217163,
        0.5189723372459412,
        -1.4610471725463867,
        0.17183886468410492,
        0.18286606669425964,
        0.14793936908245087,
        -0.2768857777118683,
        -1.3436874151229858,
        -0.36590123176574707,
        -0.01376999169588089,
        -0.09039970487356186,
        -0.3224896490573883,
        -0.11227360367774963,
        -0.18198955059051514,
        -0.08373277634382248,
        -0.3332248628139496,
        -0.001855991082265973,
        -0.23929736018180847,
        0.028313320130109787,
        -0.12818408012390137,
        0.11341633647680283,
        0.2101384848356247,
        0.2593015432357788,
        -0.5249630212783813,
        -0.24515077471733093,
        0.2726176679134369,
        -0.536077082157135,
        -0.03003878891468048,
        0.3474731743335724,
        -0.5553444027900696,
        -0.027111748233437538,
        -0.10196790844202042,
        0.06923689693212509,
        0.06503146141767502,
        -0.7339046001434326,
        0.01420093234628439,
        -0.2842444181442261,
        -0.03184464946389198,
        -0.15102027356624603,
        0.010474640876054764,
        -0.7302579283714294,
        -0.04306735470890999,
        0.5998088717460632,
        -8.828070713207126e-05,
        0.03959507495164871,
        -0.010780472308397293,
        -0.3483990430831909,
        0.2782348692417145,
        -0.056812554597854614,
        1.008739709854126,
        0.039420973509550095,
        0.21364934742450714,
        -0.6417754292488098,
        -0.003772822441533208,
        0.04223404824733734,
        -0.028577066957950592,
        -0.3216705024242401,
        -0.013638582080602646,
        0.46421775221824646,
        0.4407081604003906,
        -0.17589393258094788,
        -0.5526777505874634,
        0.18686534464359283,
        0.7935218811035156,
        -0.3217776417732239,
        -0.29802078008651733,
        -0.1345299482345581,
        -0.015727471560239792,
        0.014222938567399979,
        -0.12261998653411865,
        0.026652202010154724,
        -0.21535836160182953,
        -0.18481944501399994,
        -0.44377684593200684,
        -0.0198321882635355,
        -0.1644631028175354,
        0.12333784997463226,
        -0.08130056411027908,
        0.04156792163848877,
        -0.35871759057044983,
        -0.02198423445224762,
        -0.4248577058315277,
        -0.04634154960513115,
        -0.19005315005779266,
        -0.04757075384259224,
        -0.16418959200382233,
        0.16447259485721588,
        -0.061733126640319824,
        -0.23685769736766815,
        -0.28837642073631287,
        0.18544045090675354,
        0.394233375787735,
        -0.15480802953243256,
        -0.1078188419342041,
        -0.02828993648290634,
        0.06749807298183441,
        0.09319578856229782,
        -0.015810756012797356,
        -0.27315863966941833,
        -0.14758262038230896,
        0.34605124592781067,
        0.2158813327550888,
        -0.5690466165542603,
        -0.15722842514514923,
        0.054781146347522736,
        -0.2854960262775421,
        0.239961639046669,
        0.020668689161539078,
        0.5122780799865723,
        0.09790980815887451,
        -0.3880499005317688,
        0.33993256092071533,
        0.35922524333000183,
        0.3601436913013458,
        -0.5603029727935791,
        -0.43038466572761536,
        0.43585336208343506,
        1.2059425115585327,
        -0.37510520219802856,
        -0.381618857383728,
        -0.04820192977786064,
        -0.6289324760437012,
        0.06017056852579117,
        -0.2284083068370819,
        -0.027103247120976448,
        -0.17376290261745453,
        0.020265541970729828,
        -0.5971099138259888,
        0.01610264927148819,
        -0.07989875972270966,
        -0.3280576467514038,
        0.14979925751686096,
        0.39888691902160645,
        -0.1413108855485916,
        0.10232198983430862,
        0.006189731881022453,
        -0.24888107180595398,
        0.05236200988292694,
        -0.10550820827484131,
        -0.1276359111070633,
        0.15888583660125732,
        -0.0995977595448494,
        0.17249223589897156,
        -0.12361213564872742,
        0.2145925611257553,
        0.4281884431838989,
        0.10696440935134888,
        0.022462718188762665,
        0.17036567628383636,
        0.12936833500862122,
        -0.1285964548587799,
        -0.006555088795721531,
        -0.09632044285535812,
        -0.04518440365791321,
        -0.7266275882720947,
        0.23222535848617554,
        0.6679403781890869,
        -0.74807208776474,
        -0.11881869286298752,
        0.2423960268497467,
        -0.4548000991344452,
        -0.32428330183029175,
        0.8868041038513184,
        -0.1250908076763153,
        -0.8160588145256042,
        -0.2842680811882019,
        -0.012172618880867958,
        0.21578755974769592,
        0.5133401155471802,
        -0.7197687029838562,
        -0.05864940583705902,
        -0.03110927902162075,
        -0.28633350133895874,
        -0.012840828858315945,
        0.29016178846359253,
        0.7501381635665894,
        -0.01971900463104248,
        -0.21251027286052704,
        -0.002660370897501707,
        0.01359806302934885,
        0.024711139500141144,
        0.05103147402405739,
        -0.06687932461500168,
        -0.42815738916397095,
        -0.2153714895248413,
        0.016659842804074287,
        0.2455682009458542,
        0.8039649128913879,
        0.047235000878572464,
        0.2904275059700012,
        -0.6879968047142029,
        0.006160323973745108,
        0.1650829166173935,
        -0.05215463414788246,
        -0.23117655515670776,
        -0.32526957988739014,
        -0.2123885154724121,
        -0.15055418014526367,
        -0.42155393958091736,
        -0.1951320320367813,
        0.10919946432113647,
        -0.07077350467443466,
        -0.005100148264318705,
        -0.011587705463171005,
        0.06811989098787308,
        -0.031194940209388733,
        0.00030786858405917883,
        0.1259773224592209,
        0.26903462409973145,
        -0.15873627364635468,
        -0.2738472819328308,
        -0.17125239968299866,
        -0.46588334441185,
        -0.5915889739990234,
        -0.7574999928474426,
        -0.4793160557746887,
        -0.5144332051277161,
        -0.24170756340026855,
        0.48449280858039856,
        -0.8783348202705383,
        -0.7360334992408752,
        -0.14196746051311493,
        -0.5025002360343933,
        0.21291294693946838,
        -0.543978750705719,
        0.9538671970367432,
        -0.3454350531101227,
        0.14760248363018036,
        -0.2266676276922226,
        -0.4663209319114685,
        0.19276435673236847,
        0.26148056983947754,
        -0.028996022418141365,
        0.05709322169423103,
        0.1629200130701065,
        -0.14576731622219086,
        -0.6391479969024658,
        0.3889519274234772,
        -0.5171856880187988,
        -0.060838378965854645,
        -0.7676089406013489,
        0.6041455268859863,
        -0.6073195338249207,
        -0.29159441590309143,
        0.5775925517082214,
        0.3387049734592438,
        -0.11767540127038956,
        -0.21777655184268951,
        -0.5159633159637451,
        0.29180893301963806,
        0.30214977264404297,
        -0.29613596200942993,
        0.6840742826461792,
        -0.13184969127178192,
        0.16601932048797607,
        0.3511934280395508,
        0.16381603479385376,
        -0.05362565442919731,
        0.23073002696037292,
        -0.008537771180272102,
        0.04724682867527008,
        -0.10694091767072678,
        -0.4808405041694641,
        0.8451153635978699,
        -0.36315831542015076,
        -1.0834791660308838,
        -0.34016406536102295,
        0.04555867612361908,
        -0.06977425515651703,
        0.5952500700950623,
        -0.11243806779384613,
        0.05233338847756386,
        0.11520232260227203,
        0.0004436294548213482,
        0.015505274757742882,
        0.8433856964111328,
        -0.5445705056190491,
        0.025141669437289238,
        0.5139656066894531,
        0.2924126088619232,
        1.0403625965118408,
        0.03510449454188347,
        0.4753149449825287,
        -0.8796632885932922,
        0.1647900491952896,
        0.055539168417453766,
        -0.017111698165535927,
        -0.0652109682559967,
        0.18089772760868073,
        -0.03343729302287102,
        0.5123869180679321,
        -0.7653619647026062,
        0.6149013638496399,
        -0.6639270186424255,
        -0.1224534660577774,
        -0.36770281195640564,
        -0.3559666574001312,
        -0.5851956605911255,
        0.2814891040325165,
        0.9028506875038147,
        -0.371356338262558,
        -0.2812437117099762,
        0.33582353591918945,
        -0.6431930065155029,
        0.9189568161964417,
        -0.4092296063899994,
        -0.2220064252614975,
        -0.25203123688697815,
        0.15781596302986145,
        0.38407325744628906,
        0.3585110008716583,
        0.059430014342069626,
        -0.11088015139102936,
        0.0056657069362699986,
        -0.0975402295589447,
        -0.07421975582838058,
        -0.18536248803138733,
        0.10484635084867477,
        0.3275001347064972,
        0.27906253933906555,
        0.27180737257003784,
        -0.06360764801502228,
        0.31465691328048706,
        -0.15824095904827118,
        -0.36993536353111267,
        -0.1417076587677002,
        -0.3064717948436737,
        -0.09544989466667175,
        0.011223654262721539,
        0.12039296329021454,
        0.23816801607608795,
        -0.1759813129901886,
        -0.3539881408214569,
        0.14339075982570648,
        -0.03787052631378174,
        -0.1922750025987625,
        -0.14933234453201294,
        -0.10923558473587036,
        0.0031753424555063248,
        -0.3852525055408478,
        0.060785744339227676,
        -0.03032546490430832,
        0.13932321965694427,
        -0.41399911046028137,
        -0.07647135853767395,
        0.49841204285621643,
        -0.39918792247772217,
        1.023576021194458,
        0.13817943632602692,
        -0.038421303033828735,
        0.012217247858643532,
        0.08050710707902908,
        -0.08940581232309341,
        0.7600888609886169,
        0.2847540080547333,
        0.10989964753389359,
        0.18858729302883148,
        0.34919053316116333,
        0.9171473383903503,
        -0.12617716193199158,
        -1.8683992624282837,
        -0.22265304625034332,
        0.3758198022842407,
        0.6566501259803772,
        -1.0884692668914795,
        0.10292219370603561,
        -0.15738627314567566,
        -0.000673724920488894,
        -0.019217541441321373,
        -0.03189922869205475,
        -0.32504773139953613,
        0.26085036993026733,
        0.017885562032461166,
        -0.39012807607650757,
        0.31599855422973633,
        -0.5045557022094727,
        -0.06929036229848862,
        -0.4709773361682892,
        0.12139126658439636,
        0.12565413117408752,
        0.10832486301660538,
        -0.33617112040519714,
        -0.3194938600063324,
        0.28550565242767334,
        0.005929471924901009,
        0.0563582219183445,
        -0.3142595589160919,
        -0.6802449226379395,
        -0.266771525144577,
        0.5063260197639465,
        -0.14092665910720825,
        0.2062261551618576,
        0.041061464697122574,
        0.13339446485042572,
        -0.0007486799731850624,
        0.12466433644294739,
        0.10019926726818085,
        -0.3801933825016022,
        -0.02680140547454357,
        -0.5968270301818848,
        -1.1471009254455566,
        -0.5722672939300537,
        0.2946738302707672,
        0.27897581458091736,
        0.5212162137031555,
        0.11216259747743607,
        -0.4060555696487427,
        0.25717219710350037,
        -0.29345130920410156,
        -0.45890575647354126,
        0.1463382989168167,
        -0.5148159861564636,
        0.18738794326782227,
        0.27425894141197205,
        -0.5277354121208191,
        -0.07777027040719986,
        -0.11474158614873886,
        0.1293123960494995,
        -0.015372201800346375,
        0.13753001391887665,
        -0.10272356122732162,
        0.019667942076921463,
        -0.06759339570999146,
        -0.09122615307569504,
        0.05919978767633438,
        -0.10203922539949417,
        -0.10671325773000717,
        -0.1249753087759018,
        -0.19261574745178223,
        -0.16213999688625336,
        -0.035706937313079834,
        -0.07035696506500244,
        0.4260500371456146,
        0.030057746917009354,
        0.5108502507209778,
        -0.314310222864151,
        -0.3862830698490143,
        -0.2153213769197464,
        0.12195388972759247,
        0.48461756110191345,
        0.13478384912014008,
        0.2751726508140564,
        -0.13536131381988525,
        -0.3628816604614258,
        -0.34261223673820496,
        -0.17382557690143585,
        -0.21823035180568695,
        0.30363139510154724,
        -0.044236037880182266,
        0.07889509946107864,
        0.11286309361457825,
        -0.456866979598999,
        0.14995332062244415,
        -0.15421797335147858,
        0.30368903279304504,
        0.0658641830086708,
        -0.32350480556488037,
        -0.6429484486579895,
        0.3051496744155884,
        -0.12578828632831573,
        0.3418298065662384,
        0.12364118546247482,
        -0.3016980290412903,
        -0.2015821486711502,
        0.18362151086330414,
        -0.05332713946700096,
        -0.14660973846912384,
        0.2535099685192108,
        -0.652161180973053,
        -0.14678621292114258,
        0.35575544834136963,
        0.5046959519386292,
        -0.11922293156385422,
        0.09235238283872604,
        -0.01133117824792862,
        -0.037602342665195465,
        -0.15444187819957733,
        -0.18625138700008392,
        0.03818308934569359,
        -0.6046320199966431,
        -0.40961334109306335,
        -0.1577020138502121,
        0.27593210339546204,
        -0.6345653533935547,
        -0.77394038438797,
        -0.37730294466018677,
        -0.37960126996040344,
        -0.12139146029949188,
        0.16733868420124054,
        -0.6323340535163879,
        -0.6873124241828918,
        -0.5656006336212158,
        -0.4306567311286926,
        0.47858694195747375,
        -0.5590032339096069,
        0.43040093779563904,
        -0.32413432002067566,
        0.39141714572906494,
        0.3854438066482544,
        -0.5911337733268738,
        0.2522067725658417,
        -0.35651257634162903,
        0.02251080982387066,
        -0.134207621216774,
        -0.026349928230047226,
        -0.07701348513364792,
        0.15213726460933685,
        0.08985943347215652,
        -0.9768224954605103,
        -0.01744106598198414,
        -0.6768627762794495,
        0.8159875273704529,
        0.3206087350845337,
        0.7157490849494934,
        -0.19059720635414124,
        0.41603073477745056,
        0.27956917881965637,
        -0.0615411214530468,
        0.3677231967449188,
        -0.1868588924407959,
        0.4230486750602722,
        0.18957269191741943,
        1.8577245473861694,
        -0.19601371884346008,
        -0.15891407430171967,
        -0.8548381924629211,
        -1.1335452795028687,
        0.1773364543914795,
        -0.26356789469718933,
        -0.008741763420403004,
        -0.03099926933646202,
        -0.1214115098118782,
        0.03380056470632553,
        -0.1882358193397522,
        -0.07083452492952347,
        0.48594167828559875,
        0.1763419210910797,
        0.625671923160553,
        0.6211364269256592,
        0.14869005978107452,
        0.054950010031461716,
        0.4512782394886017,
        -0.13484224677085876,
        0.7459864020347595,
        0.4915883243083954,
        -0.09298598766326904,
        -0.10938253998756409,
        -0.2567291855812073,
        0.180397167801857,
        -1.4110796451568604,
        0.11915159225463867,
        -0.5164463520050049,
        0.9580416679382324,
        0.41549769043922424,
        -0.06193237751722336,
        0.39087000489234924,
        0.011723757721483707,
        -0.08138936012983322,
        0.19188685715198517,
        0.2489670217037201,
        0.2518523037433624,
        0.3462896943092346,
        0.5295617580413818,
        -0.05417880788445473,
        -0.08621694892644882,
        0.34424078464508057,
        0.02295093424618244,
        0.2238779217004776,
        -0.15538406372070312,
        0.2498806118965149,
        0.2584950029850006,
        0.5714136958122253,
        0.29064035415649414,
        0.4370512068271637,
        0.2821149230003357,
        0.09802933037281036,
        -0.4824860095977783,
        -0.3168744742870331,
        0.3064238727092743,
        0.354705274105072,
        -0.39199331402778625,
        0.06360939145088196,
        -0.3110966086387634,
        0.04806467145681381,
        -0.22445397078990936,
        0.15764079988002777,
        0.014140901155769825,
        -0.6735116839408875,
        -0.1435127854347229,
        0.12341995537281036,
        -0.329422265291214,
        -0.5287168025970459,
        0.2091718316078186,
        0.6169602870941162,
        0.1573544442653656,
        -0.40858662128448486,
        -1.12154221534729,
        -0.07231178134679794,
        -0.312784880399704,
        -0.4722381830215454,
        -0.1096932664513588,
        -1.2857944965362549,
        0.520560085773468,
        -0.7911555171012878,
        -0.14022189378738403,
        0.49450773000717163,
        0.34058526158332825,
        0.8548750281333923,
        -0.24284233152866364,
        0.07477181404829025,
        -0.0033483661245554686,
        0.03664032369852066,
        -0.11762642860412598,
        -0.2516663372516632,
        -0.25178664922714233,
        -0.4746492803096771,
        0.1659492403268814,
        0.02468462847173214,
        0.3791130781173706,
        0.2441207766532898,
        0.32457610964775085,
        0.05946813151240349,
        -0.06409481912851334,
        0.443406879901886,
        0.2128894180059433,
        -0.2213207483291626,
        -0.22075466811656952,
        -0.488995224237442,
        0.27061381936073303,
        -0.01498191524296999,
        -0.02594255469739437,
        -0.07303081452846527,
        -0.23910579085350037,
        -0.0373966358602047,
        -0.3139022886753082,
        0.1653822660446167,
        -0.07327184081077576,
        -0.01387073565274477,
        0.12143152207136154,
        -0.10026253014802933,
        0.08635661751031876,
        0.3640991747379303,
        0.22171536087989807,
        -0.2694426476955414,
        0.521809458732605,
        0.5609616637229919,
        -0.13365252315998077,
        0.06752017885446548,
        -0.0523466058075428,
        0.15443482995033264,
        0.9438413381576538,
        0.32588130235671997,
        0.4827284812927246,
        0.11430569738149643,
        -0.018024805933237076,
        0.8905084729194641,
        -0.08068085461854935,
        -0.8276422023773193,
        0.3911256194114685,
        -0.24498195946216583,
        0.1740003079175949,
        0.43453407287597656,
        0.3044731318950653,
        -0.07164494693279266,
        0.032852333039045334,
        0.2812432050704956,
        0.05485757440328598,
        -0.24319885671138763,
        0.07460740208625793,
        0.09370499849319458,
        0.7900676131248474,
        0.8042747974395752,
        -1.0566900968551636,
        -0.18119385838508606,
        -0.5479773283004761,
        -0.07708834856748581,
        0.6585395336151123,
        -0.49538692831993103,
        -0.03491642326116562,
        -0.13979732990264893,
        -0.22872595489025116,
        0.008986967615783215,
        -0.6138373017311096,
        -0.3068753480911255,
        -0.40320733189582825,
        0.22392283380031586,
        0.0059042321518063545,
        0.4411306083202362,
        0.4196855425834656,
        -0.3316803574562073,
        0.12301236391067505,
        -0.02258574217557907,
        0.057734571397304535
      ],
      "bias": [
        -0.030251888558268547,
        0.217484250664711,
        -0.025026360526680946,
        0.002920771250501275,
        0.016423465684056282,
        0.0697895959019661,
        0.06049465015530586,
        -0.007991015911102295,
        -0.053570907562971115,
        -0.18004626035690308,
        -0.03523602709174156,
        0.07934029400348663,
        -0.05627480149269104,
        -0.014325078576803207,
        -0.030899517238140106,
        0.017949426546692848,
        -0.1796894371509552,
        0.025524018332362175,
        0.028920980170369148,
        -0.01913016103208065,
        -0.03498312085866928,
        -0.030408689752221107,
        0.007777725346386433,
        0.03192312270402908,
        0.029518647119402885,
        0.1168588250875473,
        0.052237726747989655,
        0.05592992156744003,
        0.03280693292617798,
        0.0337187722325325,
        0.04236191511154175,
        -0.02605590969324112,
        0.06509558111429214,
        0.0453924760222435,
        0.004890178330242634,
        -0.004942087922245264,
        0.0077353245578706264,
        0.09880081564188004,
        0.1171325221657753,
        -0.008898730389773846,
        -0.025496942922472954,
        -0.037568286061286926,
        -0.10412555932998657,
        -0.16254499554634094,
        0.10200440883636475,
        -0.13887770473957062,
        0.1211400106549263,
        -0.056336019188165665,
        0.057022158056497574,
        0.039832357317209244,
        0.03726303204894066,
        -0.047519564628601074,
        -0.05720941349864006,
        0.0016430055256932974,
        -0.04685394465923309,
        0.0076904636807739735,
        0.0820208415389061,
        0.16113202273845673,
        0.09807099401950836,
        -0.014491857960820198,
        0.007433156482875347,
        -0.02167424187064171,
        -0.011264575645327568,
        -0.03416772559285164,
        -0.017908664420247078,
        0.10148406028747559,
        0.14865194261074066,
        -0.058250099420547485,
        0.012832148931920528,
        -0.10020234435796738,
        0.16557709872722626,
        -0.08188538998365402,
        0.19299696385860443,
        0.3868306875228882,
        0.12318849563598633,
        0.024569619446992874,
        0.04252861812710762,
        0.03800111636519432,
        0.021258819848299026,
        0.025337979197502136,
        0.06833472102880478,
        0.11332430690526962,
        0.06550641357898712,
        -0.01303210947662592,
        0.0029258369468152523,
        0.0356501042842865,
        -0.08519679307937622,
        -0.010909546166658401,
        0.02959451451897621,
        -0.03309017792344093,
        -0.029346376657485962,
        0.18245461583137512,
        0.0328434482216835,
        -0.07121221721172333,
        -0.22861412167549133,
        -0.027682697400450706
      ],
      "activation": "tanh"
    },
    {
      "inputSize": 96,
      "outputSize": 48,
      "weights": [
        -0.07016009837388992,
        -0.26613983511924744,
        0.007248954381793737,
        0.008180676959455013,
        0.0711287260055542,
        0.03680320456624031,
        -0.09826402366161346,
        -0.2845804989337921,
        -0.10525590926408768,
        0.18202917277812958,
        -0.12193614989519119,
        -0.10631899535655975,
        -0.29707932472229004,
        0.19268780946731567,
        -0.34955283999443054,
        -0.016649464145302773,
        0.11347465962171555,
        -0.014197980985045433,
        0.2977377474308014,
        0.1718137413263321,
        -0.18673178553581238,
        -0.035821106284856796,
        -0.43501579761505127,
        -0.41687342524528503,
        -0.07255427539348602,
        0.12435249984264374,
        -0.4944269359111786,
        0.08209322392940521,
        -0.16923122107982635,
        -0.13876134157180786,
        -0.16201554238796234,
        -0.44050246477127075,
        0.07638173550367355,
        0.12889760732650757,
        -0.10548664629459381,
        -0.6157966256141663,
        -0.17561748623847961,
        -0.3315359652042389,
        -0.08209782093763351,
        0.289581298828125,
        0.3121391832828522,
        -0.014131282456219196,
        -0.3028959035873413,
        -0.3690294623374939,
        0.25460878014564514,
        -0.07791063189506531,
        0.3855665326118469,
        0.08935385197401047,
        -0.3002542555332184,
        0.3080114722251892,
        0.14475780725479126,
        0.09494128078222275,
        0.3708157241344452,
        -0.10661535710096359,
        -0.1584438532590866,
        0.4638552963733673,
        -0.03169925510883331,
        0.30419299006462097,
        -0.025532422587275505,
        -0.10400883108377457,
        0.15871919691562653,
        -0.5271165370941162,
        -0.13134269416332245,
        0.29450157284736633,
        0.27861958742141724,
        0.03980325907468796,
        -0.06871960312128067,
        0.13461391627788544,
        -0.4745812714099884,
        -0.3449082672595978,
        0.016635090112686157,
        -0.1616772711277008,
        -0.36565908789634705,
        -0.1140405535697937,
        -0.23549719154834747,
        -0.05523212254047394,
        0.15602928400039673,
        -0.15638746321201324,
        0.28132709860801697,
        0.22974172234535217,
        -0.07435189932584763,
        -0.15509672462940216,
        -0.06868727505207062,
        -0.047527119517326355,
        0.1983739584684372,
        -0.11077578365802765,
        -0.022638831287622452,
        -0.005307869985699654,
        0.4544580578804016,
        -0.47220808267593384,
        -0.08130752295255661,
        -0.034533411264419556,
        0.34047454595565796,
        -0.36100950837135315,
        0.030339909717440605,
        0.35776805877685547,
        0.3584815263748169,
        0.02736145444214344,
        0.1778016835451126,
        -0.14565201103687286,
        -0.20863476395606995,
        -0.5406595468521118,
        -0.1450374722480774,
        -0.060029011219739914,
        0.030204972252249718,
        0.23018673062324524,
        -0.06146177649497986,
        0.11757989972829819,
        -0.33829015493392944,
        -0.42099252343177795,
        0.10212837159633636,
        -0.4537099003791809,
        -0.006530642043799162,
        0.36383262276649475,
        -0.0724954828619957,
        -0.2892508804798126,
        -0.40729817748069763,
        -0.05589168146252632,
        0.2959566116333008,
        0.7084134221076965,
        -0.22531865537166595,
        -0.12148411571979523,
        0.4846588373184204,
        -0.2500995993614197,
        0.04355586692690849,
        -0.18512305617332458,
        0.34582698345184326,
        0.2344273328781128,
        0.27410560846328735,
        0.17703381180763245,
        -0.3095242977142334,
        -0.23109693825244904,
        0.15828925371170044,
        -0.07800201326608658,
        -0.17161531746387482,
        -0.2080155611038208,
        -0.43726062774658203,
        -0.08752415329217911,
        0.33445414900779724,
        -0.233815535902977,
        0.33628731966018677,
        0.09863215684890747,
        -0.3312675654888153,
        0.22350187599658966,
        -0.03967440128326416,
        -0.010893912985920906,
        0.04839030280709267,
        -0.7823019623756409,
        -0.17415101826190948,
        -0.20181411504745483,
        0.31374967098236084,
        -0.250709593296051,
        -0.25617846846580505,
        0.4323606491088867,
        -0.07918615639209747,
        -0.31654056906700134,
        0.18225347995758057,
        -0.2834415137767792,
        0.17460592091083527,
        -0.2451738715171814,
        -0.4091590642929077,
        0.08844880014657974,
        0.18887348473072052,
        0.44733116030693054,
        0.5767979025840759,
        0.28075864911079407,
        -0.15819205343723297,
        -0.13104359805583954,
        0.238040030002594,
        -0.02013561688363552,
        -0.23371852934360504,
        -0.12354198098182678,
        -0.4532826840877533,
        -0.09686920046806335,
        -0.2592386305332184,
        -0.6081019639968872,
        -0.23896723985671997,
        0.0594291090965271,
        0.1253456473350525,
        0.07905910164117813,
        -0.4560398757457733,
        0.004076787736266851,
        -0.26273080706596375,
        0.2844089865684509,
        -0.4172228276729584,
        -0.2708626687526703,
        0.585002601146698,
        0.2897544801235199,
        0.3210184872150421,
        0.08070386201143265,
        0.19176355004310608,
        0.06827372312545776,
        -0.21241457760334015,
        -0.5163400769233704,
        -0.021429983898997307,
        -0.3052794933319092,
        0.37725934386253357,
        -0.1869831383228302,
        0.6666077971458435,
        0.029735786840319633,
        0.18113160133361816,
        -0.027419475838541985,
        -0.42324066162109375,
        0.3038737177848816,
        -0.001460603903979063,
        0.12136495858430862,
        -0.1701209545135498,
        0.6455180048942566,
        -0.20676879584789276,
        0.2733144164085388,
        -0.29508912563323975,
        0.16362714767456055,
        0.3274010717868805,
        0.3112429082393646,
        -0.668923020362854,
        0.3223721981048584,
        -0.3605140447616577,
        -0.21152770519256592,
        0.1973131150007248,
        0.08202328532934189,
        0.026728831231594086,
        -0.22043593227863312,
        -0.14063426852226257,
        -0.008702496998012066,
        -0.15447558462619781,
        -0.28703853487968445,
        0.5146809220314026,
        0.0388571061193943,
        0.18360456824302673,
        -0.6845133304595947,
        0.08135953545570374,
        0.04304482415318489,
        0.18531809747219086,
        -0.6729732751846313,
        -0.038913849741220474,
        0.22101812064647675,
        0.5921886563301086,
        -0.6420435905456543,
        0.4082600176334381,
        -0.1843804121017456,
        0.03270050510764122,
        0.4486442804336548,
        -0.18072786927223206,
        0.209587961435318,
        0.43498000502586365,
        0.03083513304591179,
        -0.10282862931489944,
        -0.019878197461366653,
        0.14159631729125977,
        -0.030084947124123573,
        0.06445947289466858,
        -0.29496288299560547,
        -0.43139463663101196,
        -0.26161283254623413,
        -0.23529240489006042,
        0.12835285067558289,
        0.29653406143188477,
        -0.1939004361629486,
        -0.19490306079387665,
        -0.47627848386764526,
        0.16004405915737152,
        -0.09863617271184921,
        0.005064026918262243,
        0.15807433426380157,
        0.0004662707797251642,
        -0.20694951713085175,
        0.2934803366661072,
        -0.3650842607021332,
        0.34536129236221313,
        0.13377708196640015,
        -0.05779039487242699,
        -0.09211986511945724,
        -0.1918957233428955,
        -0.4566899240016937,
        -0.15070770680904388,
        0.06914769113063812,
        0.17497938871383667,
        -0.08509379625320435,
        0.2507482171058655,
        -0.46523961424827576,
        -0.3319011628627777,
        0.2744271159172058,
        0.08457088470458984,
        0.3015853464603424,
        -0.2043616622686386,
        -0.39566555619239807,
        -0.002450305502861738,
        -0.13758565485477448,
        0.036865364760160446,
        -0.05239463225007057,
        0.1087791696190834,
        0.09904816001653671,
        -0.2018948793411255,
        0.1908165067434311,
        -0.04936908930540085,
        0.07006343454122543,
        -0.34035933017730713,
        -0.07530295848846436,
        -0.07612914592027664,
        -0.026106765493750572,
        0.4397910237312317,
        -0.08158953487873077,
        0.1827893853187561,
        -0.1175946593284607,
        0.2034357339143753,
        -0.054513055831193924,
        0.11203552037477493,
        -0.16775040328502655,
        -0.1816752701997757,
        -0.20795457065105438,
        -0.32495367527008057,
        -0.1896192580461502,
        0.25919920206069946,
        0.0189303457736969,
        -0.1077374815940857,
        -0.20109796524047852,
        0.3772653639316559,
        -0.32948458194732666,
        0.34093236923217773,
        0.14127187430858612,
        0.32367807626724243,
        -0.0043642218224704266,
        0.4878680408000946,
        -0.27056747674942017,
        0.11889655888080597,
        -0.32157769799232483,
        0.12632286548614502,
        0.02950473502278328,
        0.14622312784194946,
        0.0076753851026296616,
        0.14266279339790344,
        -0.1192377507686615,
        -0.20850972831249237,
        0.0555742084980011,
        -0.19052986800670624,
        -0.09244068711996078,
        0.20173922181129456,
        -0.3689746558666229,
        0.1392654925584793,
        0.3883403539657593,
        0.193134143948555,
        0.21082714200019836,
        -0.04909723624587059,
        0.23284600675106049,
        -0.28071439266204834,
        0.026252806186676025,
        -0.09552355855703354,
        -0.21635885536670685,
        0.4296087622642517,
        -0.20771710574626923,
        -0.23028942942619324,
        -0.07793113589286804,
        -0.5041753649711609,
        0.1995210349559784,
        -0.37371647357940674,
        -0.06025280803442001,
        -0.15168508887290955,
        0.1460392028093338,
        -0.26598164439201355,
        -0.06375842541456223,
        0.042042326182127,
        0.5148729085922241,
        -0.3483019471168518,
        0.25609418749809265,
        -0.16363923251628876,
        -0.10052068531513214,
        0.19685277342796326,
        -0.12269379943609238,
        0.34803321957588196,
        0.7310051321983337,
        -0.25521397590637207,
        0.1248759925365448,
        0.0034805363975465298,
        0.2053273767232895,
        0.009814945049583912,
        0.126824289560318,
        0.16457229852676392,
        -0.44090524315834045,
        -0.07033450156450272,
        -0.2917378842830658,
        -0.17533281445503235,
        0.11351548880338669,
        0.15374626219272614,
        0.14239349961280823,
        0.06988194584846497,
        -0.05365955829620361,
        -0.07909698784351349,
        0.1968650072813034,
        0.20790117979049683,
        -0.05176985636353493,
        -0.02229011245071888,
        0.1368846297264099,
        -0.5036303997039795,
        -0.053027842193841934,
        -0.12124820798635483,
        0.536834180355072,
        0.3510518968105316,
        -0.19644388556480408,
        -0.09451897442340851,
        0.19616174697875977,
        -0.08721354603767395,
        0.08708000928163528,
        0.322411447763443,
        -0.27324917912483215,
        0.014665097929537296,
        -0.10695140063762665,
        0.14218342304229736,
        -0.05486931651830673,
        0.009950712323188782,
        -0.042041294276714325,
        0.0752609372138977,
        -0.20987609028816223,
        0.11135286837816238,
        -0.022479021921753883,
        -0.20483556389808655,
        0.3865150511264801,
        0.020820284262299538,
        -0.03458120673894882,
        0.2667176425457001,
        0.35973986983299255,
        0.01397893950343132,
        -0.12186287343502045,
        -0.22125358879566193,
        0.3375207483768463,
        -0.33425283432006836,
        -0.144211083650589,
        0.26177728176116943,
        0.0951312854886055,
        -0.1009991392493248,
        -0.060199592262506485,
        -0.32255685329437256,
        0.2596338391304016,
        0.038445521146059036,
        -0.09021483361721039,
        -0.22913390398025513,
        0.09031596779823303,
        -0.45786258578300476,
        0.27510571479797363,
        -0.27002307772636414,
        0.18192467093467712,
        -0.20538780093193054,
        0.015113836154341698,
        -0.537815272808075,
        -0.07024462521076202,
        0.18741272389888763,
        -0.6460114121437073,
        -0.08667535334825516,
        -0.2232755571603775,
        0.03497558832168579,
        0.37137123942375183,
        -0.2295721173286438,
        -0.027858441695570946,
        0.09604468941688538,
        0.4637349247932434,
        0.0181327685713768,
        0.03940810635685921,
        0.24949972331523895,
        0.22254113852977753,
        -0.28567686676979065,
        -0.041007962077856064,
        -0.2594604194164276,
        0.1730293482542038,
        -0.17679773271083832,
        0.07857989519834518,
        -0.4035170078277588,
        0.2753489017486572,
        0.16953787207603455,
        0.20968911051750183,
        -0.14962469041347504,
        -0.17866267263889313,
        -0.1851782351732254,
        -0.013032839633524418,
        0.12834732234477997,
        -0.3827676475048065,
        0.15605798363685608,
        -0.041192442178726196,
        -0.07105883955955505,
        0.025684431195259094,
        0.026889363303780556,
        -0.08286739885807037,
        -0.005026358645409346,
        0.46051210165023804,
        -0.2689093351364136,
        0.450145959854126,
        -0.22755157947540283,
        -0.28391405940055847,
        -0.7802833914756775,
        0.09807273000478745,
        -0.4114204943180084,
        -0.03176654130220413,
        0.410786896944046,
        -0.15033957362174988,
        0.24150405824184418,
        -0.13096486032009125,
        -0.44838428497314453,
        -0.3892407715320587,
        0.03738641366362572,
        0.09405224770307541,
        0.07353583723306656,
        -0.2540798783302307,
        -0.1253260374069214,
        0.10163421183824539,
        0.819068968296051,
        -0.004734191112220287,
        -0.14020183682441711,
        0.2478461116552353,
        -0.20719663798809052,
        0.05038062855601311,
        -0.2506200671195984,
        -0.352537602186203,
        0.1683918833732605,
        -0.4364956319332123,
        -0.063480906188488,
        0.45202431082725525,
        -0.0840359628200531,
        0.41335517168045044,
        0.06171813979744911,
        0.026450125500559807,
        0.17903098464012146,
        0.04353905841708183,
        0.1531732678413391,
        -0.2390151470899582,
        0.23303619027137756,
        -0.052808914333581924,
        -0.3783828616142273,
        0.5465514659881592,
        -0.2456207573413849,
        0.04076609015464783,
        -0.1840999275445938,
        -0.0157486442476511,
        -0.14368677139282227,
        -0.5388657450675964,
        0.010607107542455196,
        -0.1570984125137329,
        0.254492849111557,
        -0.00893515907227993,
        -0.02195962704718113,
        -0.13631364703178406,
        -0.27914008498191833,
        0.29480084776878357,
        -0.2603704035282135,
        0.1770693063735962,
        0.46849825978279114,
        -0.26999399065971375,
        0.3791602551937103,
        -0.004032482393085957,
        0.4061262011528015,
        0.5312050580978394,
        0.08070018142461777,
        -0.6047275066375732,
        -0.3243508040904999,
        -0.18875257670879364,
        0.11025992035865784,
        -0.23688778281211853,
        -0.03571798652410507,
        0.08085507899522781,
        0.00365432514809072,
        -0.19061174988746643,
        -0.1354551613330841,
        -0.03335044905543327,
        -0.20374563336372375,
        -0.16809390485286713,
        0.1220339834690094,
        0.04667510837316513,
        0.07163769751787186,
        -0.0681927502155304,
        0.11375034600496292,
        0.23694226145744324,
        -0.004533892031759024,
        -0.2339242845773697,
        0.0033848825842142105,
        0.18201793730258942,
        -0.03508451581001282,
        0.2849999964237213,
        -0.059684962034225464,
        0.3407095670700073,
        0.012621085159480572,
        -0.18643075227737427,
        -0.41950905323028564,
        0.260465532541275,
        -0.23382659256458282,
        0.14839930832386017,
        -0.14552472531795502,
        0.10892795771360397,
        -0.17878010869026184,
        -0.16446274518966675,
        0.0628599226474762,
        -0.25774094462394714,
        0.3895171880722046,
        -0.031728241592645645,
        -0.15775533020496368,
        -0.06443916261196136,
        0.05459613725543022,
        0.20878146588802338,
        0.24974428117275238,
        -0.08115190267562866,
        0.1263955682516098,
        -0.12791292369365692,
        -0.15996384620666504,
        -0.10747414082288742,
        0.07711619883775711,
        0.11553613841533661,
        0.05976846441626549,
        0.1023540273308754,
        -0.17403310537338257,
        0.025554217398166656,
        0.13370874524116516,
        -0.2762671709060669,
        0.05090341344475746,
        -0.06933239847421646,
        0.29264721274375916,
        0.1470198780298233,
        0.35568979382514954,
        -0.524022102355957,
        0.07991594076156616,
        0.1662907898426056,
        0.2520243227481842,
        -0.03599458932876587,
        -0.02561485767364502,
        -0.052409831434488297,
        -0.04563044384121895,
        0.11159220337867737,
        -0.016076790168881416,
        -0.08404237031936646,
        0.028004024177789688,
        -0.13294896483421326,
        0.08771625906229019,
        0.15350498259067535,
        0.2642946243286133,
        -0.025774743407964706,
        0.05359846353530884,
        0.25429511070251465,
        -0.5046711564064026,
        -0.18039172887802124,
        -0.20891211926937103,
        0.014011211693286896,
        0.14431756734848022,
        -0.41739004850387573,
        -0.2516182065010071,
        0.10741518437862396,
        0.09847090393304825,
        0.3513656258583069,
        -0.060249071568250656,
        0.05059899389743805,
        -0.21435675024986267,
        -0.1755264848470688,
        0.08245687186717987,
        0.032546352595090866,
        0.22851639986038208,
        0.2527483403682709,
        -0.016177110373973846,
        0.08864525705575943,
        0.22705262899398804,
        -0.1605176329612732,
        0.1054537370800972,
        -0.06138535216450691,
        0.19264772534370422,
        0.3856721818447113,
        -0.11657798290252686,
        0.40654319524765015,
        -0.020467309281229973,
        -0.02073153667151928,
        0.07489810138940811,
        0.27434661984443665,
        0.08711990714073181,
        -0.25661414861679077,
        -0.08035536855459213,
        -0.13545267283916473,
        -0.18614967167377472,
        0.0685676634311676,
        0.23053230345249176,
        0.26728352904319763,
        0.04118138551712036,
        -0.11433938890695572,
        -0.12732823193073273,
        -0.4494463801383972,
        0.299439013004303,
        -0.3241720199584961,
        0.4658409059047699,
        0.1792401522397995,
        0.4264402687549591,
        -0.1849251389503479,
        0.021567733958363533,
        -0.13606761395931244,
        -0.2713176906108856,
        -0.12100054323673248,
        0.04633042961359024,
        0.007901819422841072,
        -0.00022661063121631742,
        -0.17747366428375244,
        -0.2609458267688751,
        0.27884912490844727,
        0.03521436080336571,
        -0.009611666202545166,
        -0.36376628279685974,
        -0.04638775438070297,
        -0.09403447061777115,
        -0.12674035131931305,
        0.2692614793777466,
        -0.0369814857840538,
        0.17068864405155182,
        0.29954349994659424,
        0.19356098771095276,
        0.2015315145254135,
        -0.0858098641037941,
        -0.14733721315860748,
        0.20654769241809845,
        0.06895087659358978,
